0.000000
-0.751546
0.977130
-0.939621
0.573166
-0.282197
-0.292136
-0.420941
-0.057427
0.733485
0.211305
0.765947
-0.935341
-0.949233
-0.421471
0.283892
-0.515006
-0.458009
-0.462611
-0.525186
0.053702
-0.781886
0.225358
-0.106187
-0.223725
-0.430662
0.364260
0.074184
0.667588
-0.183769
0.391856
0.457206
0.064685
0.368986
0.517585
-0.362149
-0.913211
-0.774551
0.216910
0.029363
0.958934
-0.571786
-0.204690
-0.976407
-0.521018
0.373838
0.307485
-0.036025
0.915829
0.844875
0.438789
-0.030469
-0.937011
-0.335852
0.863344
-0.160737
0.233486
0.227604
0.913447
-0.098927
-0.956165
0.305303
-0.641721
0.108520
-0.325712
0.875865
0.746371
-0.238923
-0.898686
-0.036719
0.790440
-0.939752
0.391495
-0.414250
-0.916159
0.870477
0.959588
0.391326
-0.165548
0.875417
0.236201
-0.726759
-0.155052
0.299189
-0.062611
-0.291708
-0.861547
-0.829126
0.935896
-0.948101
0.071948
0.979731
0.357202
0.430227
0.088251
-0.968510
0.306092
-0.165378
-0.207432
0.407405
0.797903
-0.416992
0.467653
0.189398
0.168758
0.551494
0.059875
0.128346
-0.057180
0.894327
0.003763
-0.820979
-0.832432
0.848711
0.478210
0.104956
-0.442997
0.616663
0.275831
-0.507101
0.668562
-0.652221
-0.527370
0.025764
0.778006
0.560881
0.057255
0.084097
-0.604496
0.849823
-0.508497
-0.806593
-0.567169
0.959156
0.382805
0.601589
0.510650
-0.557321
-0.270066
-0.546529
-0.662994
0.733697
-0.367508
-0.495426
0.582409
-0.889298
0.609530
-0.860588
0.727365
-0.114639
-0.367689
0.395928
0.233140
0.104941
-0.578308
0.011145
-0.334178
0.478947
-0.904757
0.061325
0.328770
-0.413255
