-0.332770
0.905374
-0.670784
0.106845
0.909883
-0.857918
0.356879
0.617146
-0.166974
0.685201
-0.451764
-0.803208
0.123924
-0.938626
0.243371
0.610693
-0.554496
-0.153921
-0.002047
-0.044547
0.993056
0.179205
0.677032
-0.204417
0.240205
0.680770
-0.804137
0.807089
-0.406038
0.024801
0.632261
0.361192
-0.169825
0.993122
-0.431963
-0.138475
-0.888003
0.824140
-0.621329
-0.167590
0.610117
-0.173093
0.129201
-0.365959
-0.041062
-0.527428
-0.855266
0.504441
0.218651
0.242687
-0.640106
0.152283
-0.678108
-0.858499
-0.925737
0.662097
0.717696
-0.856271
0.369186
-0.588342
0.268530
-0.098553
0.672850
-0.801295
-0.137076
-0.859112
0.160230
0.062307
-0.914530
0.638901
0.794716
0.575921
-0.434192
0.023918
-0.890038
0.424745
0.396490
-0.645305
0.029186
-0.484860
0.497382
0.289081
0.767424
0.910247
0.326007
0.715289
0.481371
0.143703
0.927419
-0.049443
0.455361
0.327548
0.952003
0.028212
0.626253
-0.085073
0.269100
-0.313517
0.877234
0.234904
-0.574616
0.571949
-0.289176
-0.108809
-0.504133
-0.079215
-0.584064
0.792357
0.175481
0.345122
-0.592503
-0.227137
-0.465797
-0.725079
-0.407863
-0.987437
0.880176
-0.826492
0.203912
0.930809
0.024064
-0.440727
0.176777
0.076068
0.487485
-0.096970
0.890995
-0.343415
0.689513
0.668227
0.951770
0.965646
