-0.476325
0.828549
-0.650651
0.286723
0.937487
-0.861520
0.479696
0.636913
-0.309616
0.611390
-0.618895
-0.709315
0.084091
-0.964629
0.250047
0.651781
-0.429133
-0.115363
0.149186
-0.108925
0.870783
0.252575
0.704803
-0.203798
0.290042
0.574707
-0.668117
0.721439
-0.397806
0.151198
0.497223
0.225869
-0.120254
0.919724
-0.587409
-0.049121
-0.978692
0.981342
-0.512208
-0.229133
0.503677
-0.031103
0.161551
-0.512232
-0.133643
-0.688402
-0.760451
0.537223
0.296235
0.288735
-0.671702
0.074652
-0.558690
-0.861551
-0.964790
0.631352
0.607808
-0.797263
0.452791
-0.689998
0.253935
0.050014
0.635870
-0.766319
-0.103413
-0.851538
0.084560
-0.022931
-0.934167
0.672352
0.847936
0.644426
-0.458751
-0.090512
-0.967805
0.507605
0.321086
-0.628258
-0.055172
-0.482680
0.560477
0.373127
0.691973
0.894315
0.406228
0.762826
0.433139
0.114036
0.990889
-0.014071
0.324037
0.419498
0.935943
0.059907
0.553179
-0.267470
0.108369
-0.262262
0.809599
0.249119
-0.689910
0.557535
-0.206455
-0.048662
-0.432978
-0.074262
-0.641056
0.988109
0.197482
0.203773
-0.594570
-0.342041
-0.323100
-0.802597
-0.340254
-0.971098
0.857744
-0.807115
0.197163
0.995422
0.078814
-0.578800
0.345289
-0.085243
0.581107
-0.201532
0.747287
-0.210523
0.636206
0.656885
0.914948
0.986640
