-0.379385
0.821161
-0.577276
0.203683
0.961226
-0.919698
0.404731
0.552030
-0.219892
0.599648
-0.535593
-0.716229
0.035223
-0.949566
0.294083
0.622701
-0.480540
-0.180699
0.068810
-0.060577
0.942447
0.155421
0.644348
-0.170835
0.219055
0.590780
-0.765214
0.794254
-0.316877
0.107051
0.549521
0.303738
-0.071788
0.972245
-0.492579
-0.110562
-0.947454
0.912152
-0.558532
-0.167345
0.511800
-0.094125
0.116425
-0.452977
-0.043691
-0.589492
-0.830276
0.475769
0.229809
0.238534
-0.584808
0.172256
-0.606045
-0.940460
-0.998579
0.613010
0.650320
-0.763793
0.407264
-0.666557
0.343258
-0.043215
0.637181
-0.728530
-0.070970
-0.855397
0.160908
-0.018424
-0.943245
0.602376
0.814231
0.568555
-0.491749
-0.069344
-0.884422
0.464559
0.341164
-0.714699
-0.059672
-0.429027
0.523835
0.355521
0.743230
0.917790
0.415061
0.744650
0.530800
0.065381
0.980857
-0.061936
0.398824
0.324115
0.894849
0.036005
0.595585
-0.176121
0.180608
-0.243507
0.805455
0.237363
-0.641131
0.619685
-0.194082
-0.132881
-0.449659
-0.078505
-0.668321
0.891506
0.206797
0.272007
-0.537521
-0.269368
-0.372472
-0.794291
-0.351578
-0.957411
0.950359
-0.820778
0.107969
0.931216
0.117286
-0.493207
0.255331
0.012135
0.542798
-0.149084
0.836014
-0.276594
0.607409
0.641468
0.960769
0.966278
