-0.326640
0.806846
-0.646785
0.114143
0.947026
-0.967458
0.364149
0.606118
-0.311776
0.607110
-0.492901
-0.809613
0.134507
-0.859618
0.227895
0.709716
-0.385867
-0.141343
0.043537
-0.042842
0.906330
0.184255
0.731261
-0.240538
0.174907
0.656463
-0.731468
0.705518
-0.352310
0.014402
0.555382
0.221051
-0.078752
0.959344
-0.564806
-0.193872
-0.868467
0.894045
-0.487755
-0.086780
0.606453
-0.080655
0.203606
-0.359041
-0.043586
-0.668498
-0.749324
0.470548
0.290158
0.194213
-0.672295
0.113699
-0.521531
-0.840917
-0.963620
0.553376
0.715430
-0.858307
0.358894
-0.736880
0.256094
0.014277
0.584171
-0.722658
-0.077126
-0.880634
0.183470
-0.052130
-0.873065
0.595715
0.761091
0.625161
-0.584940
-0.135303
-0.833879
0.471473
0.296198
-0.683204
-0.157979
-0.513644
0.611009
0.269727
0.700056
0.974206
0.328694
0.773216
0.442854
0.144124
0.960714
-0.098252
0.307244
0.371003
0.816025
-0.008585
0.548345
-0.161100
0.210781
-0.168185
0.886770
0.229490
-0.672470
0.547859
-0.245349
-0.157411
-0.487444
0.020771
-0.585936
0.908755
0.237568
0.356085
-0.504888
-0.251423
-0.274188
-0.704832
-0.361945
-0.991504
0.938666
-0.819092
0.198629
0.875165
0.182657
-0.394127
0.354296
0.098682
0.497288
-0.197358
0.837581
-0.191931
0.534457
0.624350
0.914226
0.930270
