-0.000000
0.760044
0.162366
-0.129254
-0.327133
0.490917
0.814209
-0.992825
-0.672465
0.930496
0.179513
0.595598
-0.030340
-0.225539
-0.095579
-0.317545
0.127417
-0.287730
0.991919
0.544379
0.317248
0.388461
-0.349263
0.747611
0.887056
-0.063623
-0.582116
-0.165023
-0.860133
0.289006
0.190180
-0.120482
0.049050
-0.647454
0.750264
0.721916
0.843463
0.564474
0.729091
-0.829002
0.494969
-0.091396
0.766596
-0.535371
0.683065
-0.328984
0.147085
-0.189518
0.383287
0.139004
-0.645139
-0.299465
-0.472535
0.005599
-0.551854
-0.585479
0.941976
-0.133971
0.249499
-0.918158
-0.844965
-0.560321
-0.038639
0.204085
-0.207775
-0.288375
-0.073999
-0.364312
-0.723902
-0.344908
-0.193314
0.771068
0.563696
-0.426718
-0.764303
0.246761
0.244298
0.382782
-0.942757
-0.372415
-0.478214
-0.587896
0.328120
0.049251
0.417703
0.776265
0.463772
0.359679
-0.357705
-0.286729
0.441521
-0.202670
0.152950
-0.597118
-0.998586
0.945174
0.114506
-0.072585
-0.419138
0.390605
0.582507
0.387548
0.161672
0.146204
0.960830
0.397369
-0.607035
0.205128
-0.219849
-0.549792
0.832714
0.301936
-0.137688
0.160833
-0.648813
-0.719985
-0.062901
0.814959
0.639694
0.579393
-0.471770
0.081215
-0.623277
0.681180
0.484097
-0.621863
0.626354
-0.401397
0.305552
-0.792784
0.989208
-0.111940
0.594764
0.150880
-0.965737
0.555594
-0.451751
-0.572772
-0.239277
0.328400
-0.122564
-0.406564
-0.369664
0.739748
0.754270
-0.018477
-0.980237
-0.308632
-0.203517
0.659458
-0.729239
0.324713
-0.259327
-0.352516
0.005892
-0.775230
0.025621
-0.367754
-0.176626
-0.668826
-0.160538
-0.187418
