-0.242808
0.757149
-0.549291
0.204753
0.849155
-0.987448
0.418692
0.553589
-0.240721
0.616634
-0.512251
-0.756454
0.070790
-0.948248
0.229674
0.625022
-0.338871
-0.066873
-0.016608
0.039070
0.836754
0.149509
0.716773
-0.279055
0.210579
0.687807
-0.733246
0.780821
-0.431420
0.066984
0.510167
0.125773
-0.175866
0.896111
-0.469473
-0.288202
-0.897248
0.943921
-0.534614
-0.144506
0.565852
-0.046865
0.299039
-0.363359
0.001574
-0.671287
-0.738336
0.462704
0.261839
0.245055
-0.698227
0.116799
-0.605435
-0.781337
-0.887771
0.605145
0.706354
-0.895502
0.385966
-0.725066
0.171481
0.096133
0.600707
-0.804386
-0.142991
-0.868765
0.107412
-0.046775
-0.911320
0.572798
0.808720
0.646305
-0.674067
-0.092241
-0.917053
0.527506
0.236471
-0.655391
-0.209790
-0.501690
0.589664
0.291983
0.615111
0.933802
0.310530
0.852853
0.389375
0.216884
0.890272
-0.024660
0.291818
0.328832
0.871474
-0.107474
0.524446
-0.071516
0.223761
-0.168141
0.881709
0.304214
-0.595344
0.490427
-0.249481
-0.069412
-0.401815
0.033465
-0.541904
0.833523
0.178075
0.448306
-0.467031
-0.232261
-0.259711
-0.651921
-0.448031
-0.893504
0.945589
-0.858658
0.267702
0.950156
0.116684
-0.440480
0.287116
0.188157
0.452046
-0.188437
0.916640
-0.124193
0.443422
0.598348
0.946555
0.988196
