-0.956186
0.858302
0.717522
-0.932816
0.634056
0.781179
-0.467066
-0.128319
-0.489075
0.759647
0.176903
0.401280
-0.678736
0.878249
0.688502
-0.424160
-0.121045
0.244637
-0.416211
0.216666
-0.011554
0.073524
-0.937401
0.349629
0.628596
-0.667481
0.428928
-0.353800
-0.471742
0.926998
-0.630224
-0.427928
0.785300
-0.912702
-0.360744
0.419357
0.868477
0.172190
-0.708962
-0.620598
-0.068163
0.467941
0.780682
0.253101
0.346190
0.469185
0.828941
-0.774856
-0.286179
-0.587270
0.441810
0.702267
0.486254
0.504409
0.051896
0.114851
0.836928
-0.519175
0.761051
-0.634814
-0.592177
-0.869173
-0.062742
-0.806877
-0.781875
0.576514
0.612480
-0.913397
-0.251296
0.903518
-0.533995
0.680541
0.371459
-0.753313
-0.066358
-0.282351
0.715872
-0.237417
-0.057207
-0.570307
0.175313
-0.615397
-0.868040
-0.338433
0.889013
0.183856
0.776418
0.725941
0.664681
0.537469
-0.908873
-0.927497
0.668296
0.028385
-0.734374
0.886421
-0.395101
0.878106
0.973024
0.353602
0.781624
-0.560971
0.034143
0.153083
-0.314284
0.967785
0.870731
-0.598412
-0.269632
-0.186476
-0.168718
0.905681
0.198128
-0.036758
-0.432751
0.087140
-0.852902
-0.656333
-0.186919
0.811779
0.881136
-0.095792
0.884282
0.549432
0.932593
-0.850092
0.435853
-0.462508
-0.971985
0.408877
0.891094
0.809639
0.847906
-0.074763
-0.037279
-0.466378
-0.106977
-0.166547
-0.064789
0.623391
0.646977
0.766492
0.529072
-0.154895
-0.270266
-0.903680
0.932245
-0.123168
-0.560013
-0.254674
-0.311390
-0.678877
0.649534
-0.427108
0.870554
0.582128
-0.277199
0.306407
-0.880381
-0.249185
-0.284716
-0.989287
