<<<<<<< HEAD
-0.914391
-0.545404
-0.152674
-0.289947
0.903541
-0.553994
-0.357657
-0.824961
-0.898181
-0.652871
0.041069
-0.359083
0.224482
-0.117869
0.642910
-0.468512
-0.251947
0.442389
-0.871355
-0.268462
0.368254
0.705000
-0.858538
0.790499
-0.217395
-0.176882
-0.488067
-0.422270
-0.584390
0.979354
-0.078781
-0.498781
-0.566050
0.768545
0.211272
-0.662509
-0.785449
0.853616
-0.487469
-0.683630
-0.799255
0.553599
-0.042713
0.425227
-0.564270
-0.399804
0.956714
0.183783
-0.957415
-0.914641
0.915321
0.410839
0.790359
-0.943217
0.201338
-0.427037
-0.120100
0.713271
0.150693
0.295510
0.692625
-0.928088
0.796730
-0.873424
0.840457
0.008002
-0.535933
-0.944992
-0.138382
-0.023403
-0.628622
0.062363
-0.469803
0.328664
-0.512411
-0.034073
0.928861
-0.555696
-0.850290
0.971446
-0.470337
-0.934968
0.382285
-0.679979
-0.878186
-0.416377
-0.107015
0.001714
-0.703106
-0.956322
-0.702775
0.989520
-0.884410
-0.906046
-0.883905
0.956046
0.101957
-0.419838
-0.988946
0.963575
0.556759
-0.617568
0.025937
-0.913044
0.711096
0.513527
0.052883
0.639957
0.957830
0.202593
0.611403
-0.512507
0.267625
-0.006312
-0.192486
0.389439
0.577311
0.700499
-0.608846
0.874205
0.744177
-0.311622
0.863725
0.859766
-0.217667
0.979821
0.815813
0.884290
-0.440017
0.826867
0.847864
-0.883258
-0.790702
-0.126198
-0.796302
0.920394
-0.612672
0.256581
0.560351
-0.654841
-0.540826
0.171753
-0.167348
0.726799
-0.834559
0.640166
0.116238
0.742752
0.340664
0.507392
0.616957
0.084841
-0.804230
0.480682
-0.055393
-0.021897
0.460503
-0.239580
-0.137607
-0.979515
-0.412713
-0.289743
=======
-0.931275
0.381228
0.707921
0.984261
-0.907527
-0.760602
0.057122
0.050949
0.952418
-0.968398
-0.468278
-0.001499
0.692530
0.921972
-0.984389
-0.167111
-0.430908
-0.905856
-0.637961
-0.861705
-0.462629
0.760357
-0.346456
-0.199317
0.838839
-0.353479
-0.958033
-0.913449
-0.482094
0.218116
0.861237
-0.413369
-0.400655
0.569159
-0.429108
-0.308183
0.808557
0.628014
0.742766
0.760975
0.659616
-0.725511
-0.240524
0.352146
-0.803539
-0.224913
-0.814965
-0.234448
-0.130769
-0.452926
-0.096152
0.406602
-0.692569
0.557392
-0.792715
-0.853730
-0.796087
-0.750748
-0.767178
-0.278181
0.467369
-0.905941
0.308449
-0.933287
0.663218
0.879341
-0.241470
0.471775
0.507356
-0.498703
0.232750
0.166972
-0.224215
0.992226
-0.480882
-0.027754
-0.232687
-0.295847
0.737798
0.636544
0.251228
-0.358354
0.043146
0.558659
-0.800962
0.250431
0.704930
-0.597049
0.499683
0.937751
0.124769
-0.032948
-0.968190
-0.566781
0.033765
0.695028
-0.687440
0.792295
0.166803
0.819916
-0.706408
-0.600448
-0.013112
0.069377
-0.608222
0.506006
-0.958377
0.159091
-0.789841
0.779421
-0.204365
0.461387
-0.578932
0.838781
0.020046
-0.379895
0.089212
-0.275024
0.023056
-0.411105
-0.337273
-0.852175
0.555947
-0.305462
-0.418956
-0.410288
-0.610434
-0.106396
-0.617993
0.556368
-0.286481
-0.324401
0.955920
0.700407
0.744976
-0.652302
0.206413
0.786599
0.506789
0.416572
0.566020
-0.697576
-0.122041
0.987088
-0.858795
0.898005
-0.392807
0.230417
-0.377018
0.630249
0.819313
0.285709
0.778074
0.375260
0.980247
-0.640882
0.964971
-0.630187
0.252722
-0.653021
0.926181
0.966241
>>>>>>> 2a8f2dbe8158a174eb3f1077d34ba448bc182afc
