-0.000000
0.745060
-0.067277
0.903251
0.170352
0.786961
0.884708
0.489658
0.759865
0.995511
0.750112
-0.659145
-0.610821
-0.689403
-0.761045
-0.536195
-0.277620
-0.284651
-0.464799
0.564151
0.766279
0.399435
0.678949
-0.970134
-0.950170
-0.783970
-0.699327
-0.560528
-0.572855
0.185523
0.616455
-0.332618
-0.069416
-0.450822
-0.429367
-0.899065
-0.663861
-0.544659
0.590593
-0.903996
-0.549148
0.340705
-0.563140
-0.159969
0.651302
-0.324186
0.303836
-0.626318
0.391164
0.839036
0.937833
0.157443
0.238472
0.616783
0.187309
0.288302
0.832813
0.487982
0.727774
-0.740042
-0.326495
0.344229
-0.072660
0.604089
0.893407
0.497972
0.705024
-0.770454
0.953314
0.295618
-0.674449
-0.595834
-0.363677
-0.237590
0.244197
-0.712375
0.438225
-0.451967
-0.338693
-0.170611
-0.612931
-0.400860
0.986832
0.625541
-0.784077
0.174141
-0.086157
-0.951264
-0.337877
-0.358383
-0.691306
0.335628
0.985846
0.236033
-0.060283
0.879253
-0.265994
-0.355259
-0.891201
-0.312681
0.940359
-0.565651
0.091485
-0.423318
0.196760
-0.664318
-0.135693
-0.365015
-0.116285
0.525614
0.464374
0.270785
-0.875245
0.451206
-0.103675
-0.659323
-0.374653
0.810168
-0.610587
0.287470
-0.548215
-0.301894
-0.376902
-0.562370
0.934140
0.562815
-0.683117
-0.331855
-0.792444
-0.574318
0.355464
-0.852085
-0.139969
-0.553050
-0.275403
-0.943209
-0.217368
0.588904
-0.308224
0.666347
0.114518
-0.843851
-0.062868
0.239272
0.607355
0.833457
0.579950
-0.767299
0.643625
0.969363
0.520171
-0.904590
-0.332531
-0.856731
-0.466959
-0.398391
0.706083
-0.150076
0.269754
0.913639
0.275606
-0.374782
