0.738309
0.871577
-0.366117
0.292631
-0.850807
0.022419
0.671265
-0.107904
-0.889980
-0.081413
-0.408654
-0.470336
-0.980777
0.925159
-0.623580
0.272136
0.427981
0.878662
-0.239315
-0.173413
-0.456317
-0.200102
-0.293761
-0.546875
-0.837609
0.761511
-0.796388
0.948313
0.064245
0.126895
-0.393728
0.158692
-0.137614
0.851805
-0.784526
0.620761
-0.989380
-0.453710
0.560273
-0.357995
-0.375825
0.540091
0.019492
-0.052455
0.826432
-0.161625
-0.787294
-0.873981
-0.348097
0.505239
-0.215662
0.913275
-0.690738
-0.285506
0.000386
-0.387806
-0.920868
-0.620007
0.306746
-0.049080
0.631580
0.738501
-0.813027
-0.506726
-0.361245
0.186186
0.069156
-0.773105
0.473332
0.860336
-0.208546
-0.002981
0.303318
-0.427370
-0.442010
0.233890
-0.501139
0.389674
-0.594869
-0.175719
-0.677288
-0.646077
0.779134
-0.233975
0.522719
-0.278195
-0.780708
-0.884919
0.321319
-0.802602
0.644479
-0.578277
0.878998
0.059974
0.414634
0.452737
0.321994
-0.913928
0.636503
-0.313285
0.630674
-0.724286
-0.294899
0.991825
-0.387645
0.558496
-0.882974
0.120813
-0.366374
-0.241064
-0.696349
-0.695319
0.460517
-0.755471
0.766318
-0.998717
0.764855
-0.767968
0.914146
0.061777
0.411239
-0.616648
-0.415059
-0.009983
0.827787
-0.884893
0.959791
0.701557
-0.134450
0.077478
-0.316683
-0.505879
-0.415196
0.174151
-0.970774
-0.956303
0.193290
-0.551044
-0.008944
0.452360
0.424786
0.910296
-0.899534
-0.465918
0.158767
-0.920882
0.948841
-0.753733
-0.537357
-0.706309
-0.049609
-0.575853
-0.090743
0.801572
-0.595791
0.436443
0.703022
0.881910
0.307401
0.075257
-0.735551
0.277115
-0.100469
-0.067727
0.970188
0.741621
-0.618787
0.698633
0.895895
-0.652156
-0.375387
0.542001
0.169605
-0.293478
-0.095531
0.050031
-0.635624
-0.572408
0.239453
0.190808
0.423614
-0.031010
0.453655
-0.685827
0.157502
0.322161
0.415811
0.623937
0.679143
0.178183
-0.415265
0.143807
0.759879
0.501032
0.213693
-0.322130
-0.356466
-0.510536
-0.272420
0.781023
0.439254
-0.672075
0.638147
0.680488
-0.252829
0.345910
0.449140
0.850487
0.046560
-0.044891
-0.161966
0.688268
0.159185
0.113770
-0.427213
0.239174
-0.739356
-0.260318
-0.399442
-0.942463
-0.720755
-0.198510
0.426367
-0.421632
-0.173193
0.325933
-0.531047
-0.822908
0.243468
-0.791498
-0.018217
-0.198118
-0.002997
0.156231
-0.979790
0.001833
-0.680674
-0.218237
-0.946256
0.893285
0.897614
-0.602954
0.243698
-0.347000
-0.712198
-0.759002
0.722481
0.576294
0.086044
0.086390
0.551402
-0.795629
-0.400974
0.355231
0.274211
-0.303435
-0.358024
-0.179265
-0.111543
-0.925067
-0.970736
0.830278
0.403734
0.825072
0.409524
-0.970149
0.280355
-0.196991
-0.831868
0.221777
-0.470224
0.017494
-0.436775
0.556789
-0.240426
0.921849
-0.906409
0.268831
-0.490779
-0.312137
-0.599740
-0.734283
-0.704805
-0.905721
0.681255
-0.385472
0.832584
0.387929
0.238760
0.987327
-0.663886
-0.138671
-0.816854
0.464996
0.144788
-0.194315
0.445891
0.255587
-0.383233
-0.360328
-0.223096
-0.146794
-0.594268
0.206051
0.183158
-0.461841
-0.571241
-0.698114
0.081732
0.127060
0.530015
-0.225689
0.035825
-0.928295
0.411012
0.237432
0.847302
0.594975
-0.063493
-0.894121
0.008036
-0.666878
0.580840
0.617718
0.772114
-0.978790
-0.613681
0.120443
-0.763508
-0.766869
0.369552
-0.180896
0.194064
0.682103
-0.602426
0.677370
0.494655
0.759936
-0.164116
-0.857500
-0.247053
-0.280084
-0.226898
0.504050
-0.871460
0.957409
-0.032535
-0.991146
-0.287098
0.380678
0.324838
0.929718
-0.285049
-0.491910
-0.998955
-0.211847
-0.706463
-0.714080
0.793412
0.740437
-0.438644
-0.328159
0.280670
-0.981718
-0.355060
0.461260
-0.954522
0.112198
-0.431863
-0.392081
-0.224862
0.732915
0.053864
0.225350
0.045636
-0.366131
0.993725
0.896783
-0.866561
-0.129306
-0.439700
-0.226532
0.335934
-0.777582
0.206357
-0.381193
0.862053
-0.322854
-0.187666
-0.432122
-0.418404
0.355903
0.995799
0.061913
-0.487035
0.641206
-0.778230
-0.362156
0.412677
0.689975
-0.489800
0.886176
0.889270
-0.739489
0.747575
-0.351313
-0.886075
0.656380
-0.618519
0.744996
-0.673831
0.138345
-0.625420
0.949737
-0.237755
0.290663
-0.255879
-0.885413
0.587933
0.912978
0.659601
-0.964995
-0.891365
-0.938964
-0.383647
0.436300
-0.097005
-0.914105
0.002505
0.157170
0.181915
-0.443971
0.746650
-0.635663
-0.629087
0.866816
-0.328088
-0.575685
0.081468
0.867200
0.956700
-0.042979
0.299019
0.797627
-0.165278
0.300358
0.416470
0.763500
-0.599236
0.984938
0.359109
0.803060
0.813304
-0.146860
-0.432661
-0.046406
-0.737436
-0.427440
-0.424807
-0.468007
-0.793002
-0.681703
0.502424
-0.127422
-0.780017
0.341702
-0.178441
-0.288067
0.529077
0.526595
-0.795631
0.373047
-0.308993
0.805270
0.340321
-0.541196
-0.614482
-0.037191
-0.878128
0.184906
-0.341225
0.980434
-0.962652
0.646010
0.248298
-0.147768
0.685868
-0.375871
0.606382
-0.811987
0.887924
0.313912
0.038787
-0.189640
-0.528791
-0.353173
0.954334
0.290155
0.201526
0.879026
-0.316174
-0.194043
0.416775
-0.118878
0.709507
-0.075393
0.598586
0.859832
0.973659
0.085364
-0.861693
-0.863906
-0.255487
-0.203390
0.509771
0.159827
-0.515501
-0.597200
-0.195489
-0.649700
-0.756070
0.518601
-0.126182
-0.735376
-0.696321
0.730762
-0.135233
0.415933
0.659598
-0.411282
-0.472566
-0.065375
-0.838424
-0.052748
-0.129046
0.094755
-0.587131
-0.155683
-0.008721
-0.582079
-0.977186
-0.724138
0.797593
-0.749580
0.345558
-0.809641
0.149187
-0.067539
0.648515
0.811870
-0.696649
0.808020
0.892010
-0.902392
0.474644
0.375272
-0.899062
-0.373676
-0.577033
0.020702
-0.845535
-0.852586
-0.278933
0.274958
0.386722
0.144603
-0.127615
0.911754
-0.650394
-0.258282
-0.050135
-0.032366
-0.734528
0.801432
-0.975084
-0.297961
-0.811695
-0.459314
-0.490859
0.117804
0.622253
-0.651566
-0.265239
-0.590256
-0.056101
0.188122
0.501260
-0.159232
-0.298958
-0.705843
-0.808887
0.974453
-0.995367
-0.536570
-0.293376
-0.750314
0.941117
-0.910643
-0.114475
-0.574354
0.511675
0.397121
0.729286
-0.071708
0.489798
-0.376693
0.522851
0.793316
0.855286
-0.273552
0.296556
-0.340351
0.508622
0.743707
0.246827
-0.204837
-0.026560
-0.735621
-0.725359
0.706081
0.617082
0.712068
0.329037
0.601072
-0.137832
-0.286861
0.233081
0.194357
0.680452
-0.110988
-0.695883
0.473463
-0.734722
0.179684
-0.586477
0.173521
-0.943305
-0.109495
0.054328
-0.190887
0.443727
-0.639857
-0.188440
-0.162757
0.866374
0.970900
0.671994
0.093815
-0.512856
-0.919440
0.569770
-0.860102
0.144988
-0.488942
0.193227
0.179563
-0.522607
0.852549
0.895780
0.439442
0.142818
0.883240
-0.644314
0.503708
-0.172985
0.118031
-0.943127
-0.785166
0.584877
0.510109
0.990248
-0.890318
-0.123753
0.985080
-0.817416
-0.950906
0.242306
0.292875
-0.180538
-0.989342
-0.996146
0.534081
0.196418
0.971470
-0.049710
0.371977
-0.735734
0.790104
0.600841
-0.323341
-0.681734
-0.359595
0.962917
0.142816
0.799641
-0.473934
0.332265
0.439059
0.208658
-0.515424
0.613527
-0.399664
-0.639518
0.155970
-0.259442
0.680492
-0.471850
0.440668
-0.973047
-0.885496
0.467173
-0.544696
-0.988364
-0.556078
0.364900
-0.911021
-0.181514
0.611093
0.656326
0.554857
-0.654975
-0.317565
0.972164
-0.076714
0.274608
0.275877
0.991719
-0.851491
-0.239951
0.962368
0.852322
0.457061
-0.643198
0.603329
-0.841667
0.909336
-0.724238
-0.121273
-0.728935
0.984667
-0.643148
-0.051509
-0.267492
0.984416
-0.098149
-0.364227
0.270391
-0.087810
0.311342
-0.672509
-0.473537
0.067566
-0.755704
-0.651261
-0.782753
-0.864484
0.630952
-0.595428
-0.571670
0.484150
-0.392789
0.311767
-0.027029
-0.006710
-0.079940
0.312766
0.954849
0.561886
0.092177
0.299197
0.769503
-0.132500
0.637857
-0.379002
0.675863
-0.769575
0.123988
0.971187
0.913846
0.986384
0.259980
0.268057
-0.799187
0.926560
0.601573
0.455098
-0.974251
-0.086438
0.712290
-0.089472
0.572384
0.888139
-0.148591
0.419762
0.851004
0.685393
-0.470620
-0.839101
0.940774
-0.674327
-0.495304
0.461089
0.940414
-0.521433
0.846468
-0.180751
0.297829
-0.700504
-0.315331
0.435690
-0.736664
-0.968140
-0.494740
-0.788164
0.069241
-0.068226
0.454023
0.547847
-0.347305
0.589344
0.646608
0.458696
-0.506668
-0.994945
-0.896772
0.813657
0.737360
0.641015
-0.025965
-0.323823
0.413269
-0.593642
-0.274461
-0.387135
-0.441989
0.268316
0.930118
-0.434707
0.439297
0.336866
0.472144
0.067966
0.710544
-0.514794
-0.425353
-0.510351
0.805206
0.787374
-0.771202
0.433924
0.490467
0.787144
0.713995
0.440342
-0.152751
-0.037958
0.263768
-0.706336
-0.829177
0.146755
-0.260515
0.818601
-0.884206
0.156450
0.375933
-0.663770
-0.425987
-0.381749
-0.666692
0.853114
-0.318919
-0.658664
0.325614
-0.548204
-0.997434
-0.408874
0.964760
0.858171
0.837481
0.121217
0.261422
-0.878164
0.759966
-0.645024
0.649822
-0.319036
0.029529
-0.364791
-0.494164
0.121770
-0.264468
0.905991
-0.594971
0.487479
-0.150449
0.208828
-0.022743
0.800824
-0.469705
0.616777
0.663479
0.774784
-0.100693
0.663453
-0.490083
-0.091092
-0.932780
0.118050
0.098705
-0.113545
-0.023228
-0.722354
0.095926
-0.835253
-0.224040
0.278684
0.033410
-0.235470
0.627562
-0.980800
-0.226831
-0.028832
0.356015
0.482364
-0.695197
-0.414770
-0.989259
-0.031282
0.930566
0.248539
-0.223693
0.946366
0.706225
-0.307019
0.905965
-0.363856
-0.889911
-0.967085
-0.392678
0.166305
-0.932184
0.264574
-0.713882
0.764748
-0.028299
0.969820
0.223085
0.256842
0.287248
0.341693
-0.775596
-0.288603
-0.415840
0.387042
0.136198
-0.997558
-0.336079
-0.120422
0.584099
0.353956
-0.633082
0.269367
0.268461
-0.752560
-0.047049
-0.879080
-0.346428
-0.444095
-0.833543
0.671239
0.012476
0.923140
-0.612240
0.667032
0.109463
-0.935973
0.209009
-0.459496
0.541023
-0.927647
-0.336312
0.871337
0.754370
0.095724
0.118589
-0.072245
0.257619
0.893412
0.023177
-0.086113
0.516041
0.177441
-0.434964
-0.828570
-0.006337
-0.062058
0.925178
0.867183
0.763483
0.689625
0.131952
0.655869
-0.420734
0.630068
0.796672
-0.293004
-0.998995
0.842774
0.702980
0.939392
0.091441
0.791521
-0.239479
-0.230515
-0.162128
0.280558
0.767471
-0.464603
-0.502697
0.322618
-0.674175
0.856291
-0.330130
0.897587
0.764351
-0.198529
0.096458
-0.308614
0.266807
-0.132601
-0.250540
-0.335633
0.184278
0.569655
0.224134
0.994367
0.750374
-0.087734
0.955944
0.193045
0.740237
0.211881
-0.273714
-0.964830
-0.807846
-0.271450
0.661082
0.456522
0.116065
0.069135
0.781695
0.801161
-0.277475
-0.032901
-0.602225
-0.300010
0.409640
0.306726
-0.049519
-0.608807
0.944737
-0.277918
0.179314
-0.102072
-0.303747
-0.867546
-0.961470
0.774177
0.824120
0.779240
0.586074
-0.070542
-0.602576
-0.688358
-0.783260
0.019842
0.896890
0.887104
-0.045206
-0.632226
-0.906998
-0.193842
-0.612733
0.045991
0.668385
0.873127
-0.685528
-0.422173
0.511114
-0.677252
-0.696126
0.542668
0.789162
0.294615
-0.258829
0.509995
-0.339680
-0.040432
-0.823722
-0.871595
-0.804435
-0.268471
-0.243170
0.339752
-0.149468
-0.729599
0.410443
0.486558
0.552564
-0.629591
0.162945
0.907054
-0.280345
0.052204
-0.486089
0.162240
0.882004
-0.616688
0.101107
0.737034
-0.420772
0.669661
0.152776
-0.830896
-0.843163
0.274435
0.969304
0.565333
0.268659
0.099521
-0.622139
-0.326108
-0.294840
0.489153
-0.523512
0.192892
0.520092
0.732742
0.399271
-0.931852
0.978097
0.681205
-0.510862
-0.855387
0.879123
-0.018944
-0.633898
-0.371172
-0.086820
0.531321
-0.225172
-0.642875
-0.910453
0.644411
-0.423389
0.873664
0.816742
0.948908
0.065389
0.338526
-0.877296
-0.448715
-0.602618
-0.460873
-0.864168
0.736713
0.430097
0.742354
-0.261999
-0.630796
0.193419
-0.358973
-0.941999
0.614373
0.352095
0.910492
0.738973
-0.337606
-0.995802
0.454174
0.478953
-0.614964
-0.493183
0.599050
0.011366
-0.462580
-0.882601
-0.823968
-0.467579
-0.028909
0.212003
-0.580491
0.932772
0.535526
0.778776
0.574948
0.350267
0.410674
-0.539005
-0.115622
-0.512583
-0.291237
-0.888654
0.734452
0.679356
0.060855
0.683369
0.484459
0.052199
-0.315113
0.630083
-0.425750
-0.971901
0.044334
0.610138
-0.138026
-0.026183
0.979876
0.474369
0.097488
0.359836
-0.081047
0.355099
0.209893
-0.217758
0.826341
-0.358368
-0.508084
-0.007107
-0.403678
-0.496075
0.787882
-0.351408
-0.164650
0.414899
0.502449
0.799878
-0.674947
0.949860
0.856444
0.220144
-0.400641
0.256200
0.242617
-0.393620
-0.711318
-0.438682
0.467237
0.157020
0.871094
0.953513
-0.154280
-0.746870
0.450600
0.336661
0.415923
0.833399
-0.545040
-0.840009
-0.979178
-0.875844
0.548999
0.180458
0.894488
-0.251413
-0.543108
0.464418
0.836275
0.863163
-0.964309
-0.664168
0.412785
0.781333
0.577339
0.906674
-0.611207
0.089837
-0.965712
-0.358003
-0.350990
-0.874754
0.294262
0.281149
-0.814589
-0.667455
0.064297
0.194574
0.757284
0.813717
-0.392222
0.184527
-0.432122
-0.820783
-0.172774
-0.578884
-0.871000
-0.762101
-0.366329
-0.342195
-0.358566
-0.997815
0.084274
0.548072
-0.490665
-0.437586
0.785862
0.915492
-0.195459
-0.624633
0.921559
-0.512937
-0.333168
0.436219
-0.186096
-0.028644
0.387307
-0.642379
0.653168
-0.237775
0.027733
-0.738080
0.491599
-0.065178
0.789451
0.879475
-0.886397
-0.777992
-0.664212
0.914884
-0.926013
0.905983
-0.568727
-0.552851
-0.217588
0.818561
-0.451217
0.868087
-0.781271
-0.640727
0.855649
0.924873
-0.972484
-0.541471
-0.074624
0.541282
-0.068001
-0.559086
-0.615952
-0.085982
-0.181829
0.760142
0.540887
-0.939169
-0.352482
0.063427
-0.110940
0.147526
-0.102761
-0.499125
0.344417
-0.027321
-0.744862
0.759585
0.168225
0.996073
-0.957096
0.701499
0.707701
-0.516394
0.029412
-0.613086
-0.373006
-0.122691
0.017619
-0.165976
0.111287
-0.377394
-0.915749
0.337508
0.254512
0.160501
0.705787
0.958258
-0.095953
0.961898
0.025986
0.073684
0.624246
-0.830580
0.754588
-0.559157
-0.559152
0.851721
0.593836
0.945788
-0.645523
-0.675937
0.915273
-0.221885
0.686714
0.521371
-0.850151
-0.583612
-0.681962
-0.432150
-0.783423
-0.101675
-0.369262
-0.185365
0.546574
0.955198
-0.410779
-0.520207
-0.677991
-0.560188
-0.817503
0.778495
0.993707
0.866631
-0.833502
-0.918396
-0.580947
-0.062449
0.861458
-0.024837
-0.779962
0.599725
-0.342406
-0.056434
0.099922
-0.420537
-0.842734
0.915652
0.253219
0.517385
-0.806477
-0.646402
-0.296963
-0.637038
-0.437275
-0.370408
-0.967991
0.250727
-0.084972
0.935027
0.185492
0.382836
0.356356
-0.819539
0.424660
-0.635074
0.870898
0.330296
0.682155
-0.137838
0.219569
0.370291
-0.298829
0.766411
-0.314189
0.750927
0.918096
-0.407545
0.929453
-0.511415
0.799222
-0.634703
-0.718485
-0.627800
0.690655
-0.490741
-0.543715
-0.205818
-0.852850
-0.742912
-0.717719
0.085855
-0.060992
-0.900767
0.233378
0.115119
-0.192704
0.226458
-0.525796
-0.529506
-0.443164
0.290239
0.739907
0.907603
-0.813463
0.457096
0.872831
-0.134990
0.443340
-0.538067
0.658268
0.342028
0.252948
0.188977
0.074383
-0.647560
-0.205967
0.992103
-0.853083
0.930378
0.339930
0.547027
-0.419748
-0.617343
0.817050
-0.270083
0.730757
-0.185959
-0.961767
-0.348387
0.958151
-0.620693
-0.248055
-0.829433
0.056095
0.333000
-0.850891
-0.927838
-0.751103
0.842483
0.530204
0.355594
-0.789301
0.287084
-0.596033
0.057662
0.947539
0.147060
0.789496
-0.714801
0.051352
0.426634
0.525310
-0.071990
-0.102899
-0.610893
-0.836278
0.961176
-0.729564
-0.509853
0.501261
-0.346079
-0.351377
-0.565599
0.384855
-0.421057
-0.921964
-0.577511
0.116704
-0.350610
0.781096
-0.228959
-0.013676
0.465329
-0.450613
0.111956
0.313413
0.739208
0.792996
0.941052
0.971444
0.740601
0.614078
-0.711808
0.390852
0.356508
0.444966
-0.545465
-0.783299
0.542664
-0.504096
-0.706219
0.835751
-0.846878
0.665181
0.267081
-0.127476
-0.745678
0.093753
-0.655798
0.533984
0.442892
0.163717
0.047864
-0.518236
-0.901686
-0.408277
-0.356327
-0.437735
-0.479892
-0.307353
0.310506
0.839747
-0.933876
-0.948408
-0.591239
0.212532
0.557824
-0.694110
0.001274
0.986977
-0.359989
0.270338
0.250444
-0.084221
-0.394829
-0.546907
0.459107
-0.431688
-0.483178
0.002916
-0.258595
0.740387
-0.723726
-0.823952
-0.268737
0.443479
0.276819
-0.556517
-0.513100
-0.923390
0.856787
-0.133147
-0.767992
0.676686
0.170829
-0.359150
-0.090659
0.164533
-0.582823
0.336817
-0.706182
0.908748
-0.299573
-0.338843
-0.458017
-0.999149
0.714473
0.910508
-0.432153
0.213577
-0.481160
0.208540
0.400942
0.306594
0.135849
0.236444
-0.237951
-0.296298
0.377932
-0.076187
0.072023
-0.837669
-0.221447
-0.909256
-0.681116
0.779260
-0.978825
0.105494
-0.220077
0.685291
0.817364
0.811213
-0.598809
0.671948
-0.402367
-0.706725
-0.085556
0.853562
0.249582
-0.554819
-0.766958
-0.090684
0.794431
0.610771
0.181534
-0.743489
0.332445
-0.406191
0.625732
-0.853277
-0.790830
-0.875699
0.248343
0.948973
0.071658
-0.335741
-0.405819
0.250459
-0.887497
-0.011270
-0.618941
-0.519596
0.444708
-0.809297
-0.759015
-0.705534
-0.985945
0.383569
0.533882
0.532168
0.389020
-0.322431
0.193744
0.458793
0.254102
-0.968231
-0.496353
0.971424
0.128738
0.659562
-0.357016
0.106091
0.976222
0.615260
-0.911761
0.555418
-0.329437
0.075296
-0.768448
0.705004
0.320346
0.854131
0.707012
0.947806
-0.078893
0.735459
0.356214
0.488625
-0.095246
0.156454
0.486837
-0.315180
-0.353120
-0.772578
-0.069837
-0.287268
-0.141435
-0.755299
-0.957842
-0.489850
0.757492
-0.073698
-0.430355
-0.441126
0.298444
-0.781247
-0.103573
0.976144
-0.838451
0.328025
-0.793665
-0.610956
-0.381610
-0.497808
0.846501
-0.940121
0.653751
0.439256
0.297761
0.069993
-0.181835
-0.461201
-0.995024
0.303884
-0.134508
-0.869764
0.710607
0.060671
0.824106
-0.638480
0.513074
-0.899955
-0.815432
0.754288
-0.377911
0.347672
0.580441
0.953793
0.341426
0.836720
-0.786790
-0.777721
0.781816
-0.567895
0.025894
-0.854653
-0.221427
0.560825
-0.559254
0.008233
0.931220
0.178124
0.911308
-0.582765
-0.104884
0.626490
-0.477379
-0.118198
-0.433225
0.775198
-0.385907
-0.140122
0.254010
-0.866084
-0.899157
0.055421
-0.612298
-0.002474
0.438735
0.081960
0.802752
-0.334686
-0.498432
0.870873
0.097672
-0.094144
-0.335392
-0.571909
-0.107259
0.279018
0.366108
-0.958421
-0.283929
0.188174
-0.257225
-0.157692
0.632935
0.017449
-0.995418
-0.125301
0.535571
0.520289
0.690634
-0.780258
0.875167
0.865766
0.088888
0.978603
0.262573
-0.718084
0.528857
-0.881697
-0.516883
0.924816
-0.398427
0.759552
-0.603196
-0.723784
-0.709262
0.769964
0.861777
-0.191413
-0.670785
-0.973006
0.582852
0.024156
0.247723
-0.971648
0.582382
-0.641036
0.987894
-0.421619
0.103137
0.304711
-0.159136
0.241697
-0.449766
0.987667
-0.468499
0.052416
-0.059721
0.151525
0.565155
-0.349820
0.016179
-0.215064
0.930119
-0.390627
-0.003190
0.487707
0.943459
-0.359986
0.274293
0.616936
-0.307550
-0.308389
-0.300534
-0.989865
0.688139
0.707536
0.771192
-0.657569
0.009110
0.897062
0.025142
-0.853483
0.384241
-0.983974
-0.210449
0.104549
-0.329991
-0.765841
0.486462
-0.100141
-0.612390
-0.121244
-0.331362
0.478795
-0.889923
-0.911443
0.413117
-0.575372
0.278562
-0.423617
0.517291
0.010610
0.196930
-0.852433
0.557989
0.941837
0.363627
-0.715042
0.175511
-0.119799
-0.124411
0.641631
-0.898774
-0.753432
0.633967
0.881945
-0.333289
0.004254
-0.694402
0.724955
-0.230178
-0.434412
-0.340738
-0.587159
-0.900859
0.374019
0.137032
0.765888
0.133288
0.773610
0.474341
-0.405940
0.083593
-0.177596
0.712851
0.161977
0.393853
0.762844
-0.207344
0.425201
0.355988
0.880693
0.799792
-0.406228
-0.987287
-0.633906
0.477302
-0.993194
0.295217
-0.698231
-0.651301
-0.997173
-0.265450
0.319384
0.944135
-0.922228
-0.344100
0.397704
-0.303545
0.168173
-0.604931
-0.107374
-0.441318
0.897236
0.163586
0.311655
-0.520936
0.432588
-0.394991
-0.653837
-0.983020
-0.789212
0.167067
0.904071
-0.161966
-0.309980
-0.878054
-0.918200
0.094109
0.929509
-0.510748
0.953082
0.821319
-0.087452
-0.831823
-0.680190
0.337419
-0.598801
-0.236376
0.464715
0.724428
0.079923
-0.001727
0.494056
0.901872
0.209512
0.463302
0.814458
0.264734
-0.468999
0.939782
-0.484287
0.488121
0.842042
0.394968
0.457208
0.233546
0.949185
0.213917
0.991720
0.701979
0.645491
0.959078
0.825235
-0.419178
0.954627
0.778074
-0.508652
0.838625
0.399235
-0.220858
-0.215128
-0.291279
0.832092
-0.264121
-0.034393
-0.680831
-0.360839
0.151183
0.267233
0.543148
0.875430
-0.507612
0.894946
-0.858002
0.717005
0.221390
0.548542
0.199988
-0.386567
0.451004
0.612300
0.214643
-0.004392
-0.395049
-0.323232
0.308839
-0.867121
-0.141370
-0.023647
0.106147
-0.157264
0.127092
0.296464
0.222853
0.140710
0.132311
-0.332533
0.580303
-0.343979
-0.684210
-0.142853
-0.303086
0.070914
-0.534976
-0.450297
0.272110
0.547892
0.963410
0.192697
-0.446891
0.362585
0.515173
0.791499
0.035277
-0.365999
-0.828212
0.245551
0.718031
-0.499593
-0.812803
-0.821728
-0.603584
0.012916
-0.114275
0.529376
-0.443415
0.171640
0.775240
-0.764075
0.852313
0.809410
-0.579758
0.186547
0.357818
0.997614
-0.712821
0.997479
0.686205
-0.842002
-0.651745
-0.872882
-0.082180
-0.766588
-0.082682
0.145335
-0.914714
-0.486709
-0.391517
0.656535
0.593694
-0.510872
0.736513
0.903488
-0.709065
0.106659
-0.988809
-0.778155
0.877384
0.713724
0.025750
-0.582605
0.667059
0.750558
0.482389
-0.362600
0.637986
-0.209616
0.977318
0.421794
-0.475294
-0.885477
0.134946
0.870861
0.172672
0.667190
0.107281
0.418431
0.211672
-0.980772
-0.568262
-0.917663
0.685812
-0.554777
-0.032004
-0.777797
-0.066126
-0.959557
-0.016397
-0.082544
0.042928
0.011377
0.534725
0.071307
0.835136
0.622667
-0.969643
0.021352
-0.993586
-0.466519
0.863631
0.724559
0.688587
-0.710187
0.544825
0.953327
0.172496
-0.233605
-0.751647
-0.131561
-0.654689
-0.522819
-0.233136
-0.570541
-0.832497
0.215150
0.092528
-0.830607
-0.777013
-0.769461
-0.887219
0.263511
0.308002
0.394482
-0.135497
0.270958
-0.950874
-0.430469
-0.798595
-0.096238
-0.484205
0.590367
-0.009229
0.841646
-0.786957
0.351602
0.189042
-0.570204
0.652387
-0.043312
-0.633759
0.141097
-0.253801
0.707268
0.618462
0.263764
-0.796160
-0.205297
-0.413997
-0.148085
-0.668992
0.120256
-0.183597
0.990867
-0.503539
0.279020
-0.833447
-0.182433
0.447256
-0.556372
0.862081
-0.874309
-0.408840
0.112354
0.912308
0.653819
0.370205
-0.390537
-0.384482
0.130865
0.113852
-0.760103
-0.402213
-0.642915
0.823186
-0.005770
-0.530695
-0.226325
-0.996434
0.522816
-0.445535
0.448103
0.231728
-0.672137
0.853183
-0.794451
-0.780783
-0.390202
-0.657379
0.930821
0.518535
0.588673
-0.732749
0.814326
0.954771
-0.479742
-0.248804
0.465576
0.817529
0.494068
0.473122
0.614994
0.246671
0.460258
-0.218286
0.611393
0.381803
-0.320447
0.118075
0.624691
0.309503
-0.204319
-0.136615
0.817819
0.194616
-0.697838
0.074380
0.424428
0.980047
-0.949097
-0.210992
-0.166234
0.999110
-0.314404
0.403374
0.480194
-0.286243
-0.066963
-0.033849
-0.095813
-0.375128
0.327011
-0.057005
0.360244
-0.551911
-0.000131
0.808226
-0.967547
-0.936443
-0.409730
-0.186168
-0.815266
0.508727
0.362270
0.616183
0.038820
-0.910428
0.868195
0.255707
-0.486744
0.550917
0.802306
0.382145
-0.959122
0.936226
0.311462
-0.896940
0.043693
0.705050
-0.500439
-0.311843
-0.934993
-0.538605
-0.088831
-0.510026
0.799525
-0.363951
-0.832007
0.181708
-0.909122
-0.633265
-0.453470
0.301508
0.591077
-0.279220
0.350597
-0.995586
-0.718234
-0.063745
0.763678
0.328842
0.990509
0.150870
0.356776
-0.851698
0.942971
0.960462
-0.140415
0.266875
0.176844
-0.604421
0.192852
-0.583595
0.275994
-0.124298
-0.575773
-0.261185
0.181177
-0.435453
-0.694059
0.459436
-0.258627
-0.004512
-0.529913
0.753732
0.855947
-0.474342
0.391028
0.496125
-0.317441
-0.275716
-0.582325
0.312250
0.323659
0.825938
-0.495863
-0.033985
-0.194265
-0.654895
-0.410736
0.248704
-0.446601
0.116846
-0.425378
-0.876698
-0.331295
-0.052011
-0.226404
-0.481129
0.796453
0.376027
-0.032920
0.924382
0.065264
-0.141277
-0.759800
0.152553
-0.300187
0.633933
0.688136
0.772416
0.889935
0.627060
0.977143
0.394606
-0.069710
0.019596
-0.230717
-0.817605
0.105949
-0.421056
-0.026521
0.768754
-0.421993
-0.594569
0.516895
0.174161
0.291881
-0.429393
0.011350
0.507333
-0.801199
0.826504
-0.678593
-0.914765
0.647385
0.238780
0.930000
0.261228
-0.162411
-0.930569
-0.676036
0.957239
0.850504
0.258087
0.489413
-0.752038
-0.566566
0.197057
-0.195140
0.208994
0.890785
-0.550266
-0.854231
0.063211
-0.837793
0.915213
0.156456
-0.219987
-0.054180
0.108030
0.797625
0.175257
-0.145902
-0.377589
-0.031570
-0.949344
-0.549615
0.830317
0.373065
-0.004749
0.614475
0.254954
0.282455
-0.491588
0.374070
0.323645
-0.491770
0.717492
-0.294281
-0.929476
0.383270
-0.294060
0.839521
0.210746
0.813340
0.514633
0.322967
0.628363
-0.824754
-0.567536
-0.905584
0.608414
0.333317
-0.320570
-0.926874
-0.393881
0.095572
0.224976
0.430028
0.025288
-0.843116
-0.287722
-0.596736
-0.250186
0.110489
-0.829738
0.856477
0.097186
0.699493
-0.799470
-0.922724
0.352804
0.622465
0.421331
-0.490856
-0.527023
-0.053020
-0.097579
0.697851
-0.395889
-0.511904
0.844312
0.932028
0.062482
-0.569098
-0.086346
-0.384299
0.630085
-0.169675
0.548624
-0.869988
-0.929453
-0.459518
0.624677
0.766503
-0.756632
-0.142389
0.212534
0.320965
0.781124
-0.942941
-0.971720
-0.919004
0.683903
-0.153586
0.163852
0.462008
0.409393
0.460923
-0.004800
-0.058760
-0.261653
0.444567
0.366978
-0.486490
-0.576012
0.005698
0.192170
-0.950381
-0.666654
0.452277
-0.806983
0.264037
0.747434
-0.078224
0.432384
-0.928733
-0.167042
-0.803378
0.597212
0.301046
0.983306
0.545600
-0.408547
-0.441609
-0.791036
-0.671567
0.063437
0.699525
-0.921441
0.466154
0.866965
-0.585676
-0.832934
0.604542
0.030862
-0.857768
-0.320358
-0.627886
-0.269484
0.248504
-0.887943
-0.838400
0.095712
0.272722
0.320275
-0.783623
0.080906
-0.331930
0.296362
0.980001
-0.078059
-0.922562
-0.114107
0.476546
-0.369205
0.287484
-0.353022
-0.002855
0.548859
-0.284106
0.195987
-0.996407
-0.772255
-0.929040
-0.866070
-0.285101
0.385443
0.259393
0.549303
0.947606
0.031142
0.714794
-0.960122
0.800864
-0.986719
0.902369
0.239521
-0.805118
-0.550393
0.003389
-0.090142
-0.874353
-0.593601
0.483410
0.136284
-0.076834
0.202652
0.905871
0.467653
0.690991
0.506693
0.318818
0.788859
-0.052079
0.608784
-0.815182
0.913706
0.882519
-0.238601
-0.383883
-0.279350
0.154546
0.292308
-0.562651
-0.082075
0.507067
-0.375586
0.247296
-0.730443
-0.313028
0.144902
-0.499456
0.980407
-0.408523
0.761753
0.416396
0.286112
0.346429
0.405469
-0.150690
0.843488
-0.390991
0.020334
-0.671769
-0.401481
-0.014289
-0.220969
-0.174319
-0.402740
0.995516
0.024722
0.024057
0.546371
0.158170
0.327653
0.745508
0.471446
-0.892539
0.630542
0.133934
-0.373082
0.577752
0.211993
-0.392419
0.267658
0.907489
0.169507
-0.663520
-0.413795
0.577640
0.317993
0.893970
-0.970053
0.438496
0.388869
-0.850365
0.476099
-0.143645
0.153920
0.369139
-0.636250
-0.648529
-0.491970
0.359898
-0.561810
0.801251
-0.358921
-0.127397
0.003035
-0.006203
-0.517377
0.013048
-0.698564
0.956702
-0.157979
-0.827565
0.655994
-0.504072
0.137336
0.982894
0.318385
0.771510
-0.854572
-0.830133
-0.847980
0.362743
-0.120803
-0.466971
-0.564167
-0.626032
-0.506510
-0.694195
0.269169
-0.519984
-0.409503
0.065798
-0.982947
0.139713
-0.780330
-0.000247
-0.869128
0.031353
-0.267386
0.825451
-0.085735
0.064560
0.954705
-0.709827
-0.319543
0.344465
0.818670
0.119308
0.623217
-0.641356
0.028236
-0.340464
-0.769226
-0.954812
-0.991635
0.303458
-0.425744
0.283487
0.785303
0.176566
0.668493
0.218200
0.741130
-0.153629
0.716917
-0.253750
0.428500
-0.924744
-0.127919
-0.888594
0.879418
-0.275883
-0.609364
-0.490583
-0.896675
-0.710527
0.668947
0.181823
-0.283807
0.927574
0.539812
0.967337
-0.584675
0.831460
-0.021629
-0.414865
-0.645370
0.416149
0.352137
0.442939
0.920984
0.203236
-0.133967
-0.371408
-0.795181
-0.089678
0.413843
-0.280238
-0.684724
-0.139758
0.567331
0.467812
0.004960
0.315802
-0.844905
-0.473862
0.953083
0.730068
0.899721
0.175365
-0.367220
0.468301
0.560383
0.476493
-0.368895
0.206313
-0.634681
0.842995
-0.773299
-0.434574
0.513420
0.626686
0.004182
0.796782
-0.103591
-0.042999
-0.302354
-0.352305
0.207259
0.926187
0.578028
0.613834
-0.401499
0.909849
-0.284196
0.514144
-0.978857
-0.227768
0.852667
-0.890187
0.229900
-0.728566
-0.957274
0.784169
-0.351500
-0.462450
-0.845561
-0.567035
-0.229779
0.891785
-0.512924
0.370851
-0.134009
0.088959
0.863508
-0.984272
-0.924308
0.941012
-0.184169
0.300141
0.563238
-0.492760
0.200567
-0.482539
0.757511
0.477807
-0.820059
0.364218
0.983203
0.323633
0.142202
0.397050
0.399779
0.076014
0.858107
0.031321
-0.535927
-0.462261
0.702720
-0.747566
0.035913
-0.106859
0.252472
0.947119
0.529952
-0.048953
-0.151495
0.671408
-0.410027
0.491691
0.667326
-0.258722
0.814707
0.877291
-0.956878
-0.780575
-0.015710
-0.996841
0.312794
-0.912465
-0.727459
0.519419
-0.066101
-0.679509
-0.689004
0.056248
0.937314
0.986483
-0.964800
0.221973
0.444597
0.613637
0.483270
-0.011416
0.471386
-0.061474
-0.519511
0.036857
-0.818936
0.860716
0.455033
0.362836
-0.813484
0.767041
-0.194197
-0.201179
-0.011431
-0.828290
0.385392
0.359181
-0.650459
0.240193
-0.199231
-0.674486
-0.015872
0.526833
0.304475
-0.275825
-0.203842
-0.077690
0.313804
-0.766130
-0.703360
0.467556
0.325127
0.322718
-0.507653
-0.277000
0.211829
-0.230969
-0.026707
-0.225878
0.987533
0.416427
0.345922
0.819350
-0.516927
0.448093
0.657699
-0.713089
-0.900036
0.275107
0.263429
-0.515584
0.939233
-0.717978
-0.410597
0.393992
0.616519
0.329941
0.365500
0.897203
-0.674956
0.166916
0.545295
-0.115081
0.307328
0.471890
0.122855
0.420134
0.117617
-0.597771
-0.841710
-0.248790
-0.112204
0.708153
-0.752987
0.275943
-0.644186
-0.711336
0.264434
0.689798
-0.095962
-0.401997
-0.499473
0.602158
-0.156962
0.900432
0.554488
-0.435209
-0.793452
-0.367072
0.833469
0.793541
-0.292624
0.765201
0.978018
-0.385041
0.008330
0.211277
-0.716480
-0.548491
-0.233827
-0.616314
-0.765082
-0.787079
-0.479924
-0.104095
0.699709
-0.060002
-0.562252
0.319009
0.252309
-0.405362
0.414784
0.625091
0.950469
-0.350685
0.109537
-0.878469
-0.834569
0.858337
0.584950
-0.087655
0.531088
0.408852
-0.552771
0.302704
-0.343701
-0.267194
0.469337
-0.769767
-0.939863
0.321750
-0.196528
0.294102
-0.584130
-0.084686
-0.746433
0.789726
-0.092820
0.396915
-0.904943
0.412568
0.472458
-0.359993
-0.776436
0.230935
0.522534
0.444147
0.782381
-0.258884
0.183883
-0.935465
-0.027853
-0.782651
0.703059
0.261207
-0.326314
-0.451002
-0.578091
-0.318949
-0.302909
-0.437711
0.983077
0.107052
-0.074543
0.108551
-0.192326
0.352814
0.468825
0.103963
-0.657120
-0.625902
0.288144
-0.895097
-0.337275
-0.228875
0.487320
0.992805
-0.439815
0.666630
-0.823803
-0.399603
0.157879
-0.045804
-0.333666
-0.572090
0.682617
-0.755343
0.103726
0.253845
-0.133098
0.509784
-0.380743
-0.852328
-0.934345
0.171726
-0.462543
-0.057442
-0.828210
-0.690156
-0.366174
-0.349242
-0.995498
-0.832928
0.612267
-0.076865
0.274330
0.763196
0.012594
0.090366
0.855028
-0.223763
0.307052
-0.301392
-0.997052
0.751710
0.083740
-0.684338
0.122693
0.517012
0.928240
-0.737039
0.107507
0.777000
0.816212
-0.917316
0.448153
0.856813
0.407247
-0.810028
0.963217
0.217021
0.909391
-0.800113
-0.207073
0.798432
0.543915
-0.087663
-0.318322
0.608959
-0.769361
-0.719405
0.026460
0.789560
-0.946322
0.651114
0.300047
-0.941938
-0.824605
-0.208476
0.549733
-0.503725
0.257238
-0.870617
-0.923867
-0.563519
-0.875803
-0.548065
-0.413327
-0.181172
-0.103615
-0.267076
-0.705067
0.282929
0.153793
-0.604256
-0.444534
0.511191
0.848091
-0.673870
-0.546007
0.671127
-0.302722
-0.346640
0.090631
-0.073881
-0.353360
-0.909508
-0.730290
0.273301
-0.828803
0.087348
-0.782006
-0.455970
-0.911862
0.945190
0.477718
0.418737
0.183524
0.899351
0.300801
-0.109949
0.282773
0.742403
-0.123754
-0.401092
-0.552909
0.700734
0.551575
0.274728
0.306988
-0.444255
0.842768
-0.031525
-0.646971
0.024274
-0.277135
-0.834526
0.132359
-0.671682
-0.040477
-0.475801
-0.755048
0.777385
-0.883873
-0.816713
-0.614271
-0.866668
-0.375893
0.875633
0.503625
0.061810
0.948687
-0.305832
0.207568
-0.183617
-0.813928
-0.932221
0.036228
0.848362
0.276652
0.703468
0.044956
0.738382
-0.378654
-0.043272
-0.375092
-0.851147
0.840185
0.587405
-0.462582
0.657444
-0.642754
-0.632277
-0.507157
0.530736
-0.910473
0.876764
0.270132
0.365567
0.843967
0.957436
-0.237702
0.954722
-0.978216
0.169053
-0.610905
0.412065
0.873590
-0.350769
0.951232
-0.564173
0.248315
0.743311
0.338208
-0.060502
-0.802708
0.602571
-0.388840
0.933355
-0.088316
-0.267710
-0.976098
-0.799966
-0.706650
0.581770
0.235629
0.933522
0.202381
-0.555123
-0.892915
-0.751215
0.187959
-0.343661
-0.482610
-0.866727
-0.229944
-0.199316
0.980027
-0.218661
-0.048799
0.006200
-0.679778
-0.746905
0.014608
-0.273521
0.256248
0.813571
-0.699781
-0.452259
-0.455563
0.990410
-0.054020
-0.682807
-0.824481
-0.673313
-0.118398
0.374545
-0.140670
-0.777839
-0.442731
0.429480
-0.700631
-0.697511
0.023730
0.141202
-0.598773
0.013314
0.733544
-0.204757
0.992369
0.233061
-0.226690
-0.167318
-0.909732
-0.310278
0.759307
0.359011
0.723981
-0.321080
0.929502
0.177672
-0.743862
0.863165
0.870302
0.923272
0.775199
-0.589856
0.496890
-0.768155
0.286392
0.897755
-0.109938
-0.926406
0.543051
-0.004141
-0.093895
-0.512348
-0.227235
-0.241612
-0.711459
-0.238898
-0.438288
0.672217
-0.651765
-0.558910
0.034388
0.669740
-0.149035
0.347731
0.364837
0.367044
0.333320
-0.170030
-0.106604
-0.633278
-0.793465
-0.084314
0.593392
-0.708584
0.904520
-0.078128
-0.093684
-0.191529
0.956894
0.978437
0.042911
-0.679358
-0.111059
0.717854
0.677883
0.057565
0.618150
-0.486375
-0.980798
0.644225
-0.567385
-0.987914
-0.088602
0.684454
0.734998
-0.586323
0.951689
-0.772360
-0.389212
-0.089956
0.108096
-0.257187
0.475411
0.125304
0.516766
0.912491
0.988943
-0.184573
-0.803792
-0.393381
-0.249969
-0.714047
-0.578947
0.309585
-0.088139
0.422634
-0.552853
0.220511
0.717680
0.889060
0.576759
-0.601036
-0.691150
-0.986003
0.375132
0.196805
0.920106
-0.995947
0.164560
-0.817342
0.203970
0.190572
-0.365367
-0.239473
-0.463744
-0.429388
-0.420152
0.425794
-0.361636
0.811164
-0.263973
-0.174910
0.371385
0.977214
0.637609
-0.322338
-0.424095
0.680231
0.668572
-0.047340
-0.339275
0.091733
-0.988441
-0.949350
0.376444
0.358298
-0.114808
-0.004257
0.797944
-0.963750
-0.913809
0.974024
-0.627088
0.723881
0.931485
-0.564682
0.049573
0.468525
-0.038663
-0.882549
0.588983
-0.504049
-0.601642
-0.964317
-0.356953
-0.824292
0.672193
0.843238
0.630703
0.869742
0.550060
0.428318
-0.798919
-0.978199
-0.576370
-0.425904
0.978928
-0.935410
-0.276281
-0.635788
0.342068
0.515277
-0.958984
-0.492384
-0.921018
-0.993389
-0.352575
0.328723
0.424327
0.242318
-0.609031
-0.979814
0.810767
0.706026
-0.966805
0.306227
0.762693
0.056631
-0.334360
-0.110067
0.373641
-0.161218
-0.809535
0.952013
0.088827
0.647450
0.071600
-0.478963
-0.090508
0.907130
0.983201
0.036408
0.108149
-0.611761
-0.614069
-0.657950
0.393845
-0.326026
0.014635
-0.338124
-0.549061
0.937454
0.811082
0.271746
0.059935
0.974660
-0.820621
-0.351434
0.935728
-0.291703
-0.138265
-0.652941
0.601944
-0.930123
-0.082403
-0.788105
-0.024324
0.928195
-0.565678
0.735325
-0.624093
-0.282547
0.952172
0.141581
0.575371
0.352689
-0.128054
0.927788
0.532384
-0.213330
0.771639
0.513840
0.247527
-0.385338
-0.367963
-0.774877
0.472027
0.138984
-0.967048
0.370184
-0.448519
0.359806
-0.674871
-0.833431
-0.486826
-0.802756
0.453444
-0.093069
-0.504395
0.305687
-0.971253
-0.824092
-0.531821
-0.962458
-0.150927
0.985048
0.036297
-0.122609
0.913000
-0.297888
-0.416982
0.769278
0.045510
-0.675052
-0.675038
0.451183
-0.904694
-0.546337
0.067295
0.478675
-0.762194
-0.217153
-0.265942
-0.826859
0.137861
0.938123
-0.201269
-0.417519
0.300493
0.513646
-0.127258
-0.659813
0.080991
-0.491171
-0.252291
-0.821904
-0.449096
0.671868
0.750585
-0.438377
-0.483573
-0.167949
0.446721
-0.865186
0.003202
-0.021172
-0.182701
0.410729
0.200257
0.122465
0.067096
-0.319015
0.087770
0.138481
-0.564105
0.186011
0.529203
-0.562495
-0.787503
-0.674203
0.419430
0.638231
0.005526
-0.194285
-0.378564
0.166435
-0.235302
-0.774678
-0.984588
0.527880
-0.806540
-0.291430
0.295065
-0.623569
0.635999
0.722832
0.134004
0.177456
-0.377165
0.106387
-0.738354
0.071517
0.225710
0.882950
-0.374537
-0.944866
-0.284294
0.867162
-0.321196
0.156486
0.190768
0.970199
0.664094
-0.422123
-0.920802
0.331342
0.253676
-0.704264
-0.524190
0.773134
-0.314770
-0.843785
0.932077
-0.282625
-0.572312
-0.438331
0.292833
-0.619669
0.266443
-0.585902
0.243360
0.499319
0.094518
0.522661
0.382835
0.175210
-0.011343
-0.881592
-0.072703
0.606239
0.073663
-0.073684
-0.712138
-0.164186
-0.190740
-0.209869
-0.588573
0.688830
0.476243
-0.866692
-0.647721
-0.670232
0.184392
0.445464
0.624002
-0.600360
0.052421
0.671838
-0.082795
-0.596047
0.477664
-0.957868
-0.340975
0.948050
-0.903770
-0.383117
0.670143
0.582592
0.058465
0.327497
-0.220617
-0.979056
0.960404
0.731116
0.089598
-0.480100
-0.894326
0.019445
0.038911
-0.804634
0.694826
-0.082933
0.297420
0.420426
0.197763
-0.773340
0.143042
0.264170
0.794922
-0.401600
-0.839771
0.576484
0.295199
0.604089
-0.990376
-0.370549
-0.755235
-0.251427
0.585215
0.419088
-0.603497
0.823356
-0.057114
0.030244
-0.827219
0.781033
-0.669012
-0.844874
0.813139
-0.836046
0.732300
0.144352
-0.544987
0.195018
-0.692038
-0.479184
-0.120702
0.791599
-0.899661
0.027130
-0.312328
-0.862325
0.423815
-0.114912
0.530084
-0.526882
0.690975
0.574158
0.597335
0.489804
-0.641363
0.533689
-0.394059
0.396888
0.397404
0.229530
0.146537
-0.356755
0.196046
0.105747
0.435035
0.844870
0.360160
0.563112
-0.506303
0.967707
-0.342991
0.299380
0.066736
-0.858656
-0.542509
-0.404428
0.266909
-0.384624
0.563284
0.796320
-0.187055
-0.676704
0.247800
0.151845
-0.179436
0.782980
0.419541
-0.301850
-0.312877
0.728418
0.791941
-0.813098
0.550421
0.835849
0.530280
-0.144435
0.315182
0.074029
0.527690
0.176097
-0.217112
-0.290693
0.444476
0.089473
-0.495246
-0.030976
-0.965453
0.854730
0.937446
0.947619
-0.698692
-0.862082
-0.213760
-0.578249
-0.867392
0.824868
-0.915805
-0.167556
0.797480
-0.603967
0.657662
0.253967
-0.055689
-0.396378
-0.633544
0.690309
0.325878
0.048390
-0.260082
0.146462
-0.413879
0.142241
0.912728
-0.618830
-0.131883
-0.797000
0.104177
0.629237
-0.905085
-0.476685
0.274763
0.030020
0.340546
0.481894
-0.751644
-0.636102
-0.718090
0.885813
-0.725176
0.665114
0.450912
-0.252701
-0.980590
-0.055804
-0.935666
-0.467233
-0.710049
0.777347
0.353518
-0.231912
-0.207948
0.482083
0.043961
-0.089883
-0.861972
-0.377099
-0.207018
0.390471
-0.735329
-0.306704
-0.920561
-0.838535
-0.059355
0.056272
0.641043
0.404569
-0.993080
-0.074779
-0.423795
0.056456
-0.730970
-0.585478
0.859440
-0.205764
0.258125
-0.088630
-0.400947
0.360964
0.401166
-0.144810
0.850819
-0.403675
-0.903963
-0.497123
0.775677
0.228093
-0.059539
-0.422863
0.663311
0.090116
-0.352949
-0.199422
0.138561
0.861486
-0.699850
-0.051671
0.779474
-0.025697
-0.492549
0.506704
-0.991724
-0.058580
-0.175274
-0.782408
-0.245839
-0.315859
-0.974063
-0.023507
-0.719352
0.014003
-0.886255
-0.752257
0.954266
-0.101001
-0.557457
-0.169004
0.930924
0.053004
0.087329
-0.841333
0.464049
0.642259
0.828262
-0.578467
-0.271216
-0.033733
-0.943567
0.094645
0.636159
0.174188
0.682563
0.191275
0.874596
-0.438006
-0.455425
-0.753612
0.116558
0.687395
0.307973
-0.338055
0.287448
-0.023270
0.223251
-0.458516
-0.760100
-0.627828
0.742418
0.523331
0.622056
-0.473899
0.813083
0.821719
-0.561034
-0.586999
-0.718632
0.524241
0.531135
-0.805982
-0.313987
-0.741717
0.573863
-0.157249
-0.792181
0.174193
-0.551977
-0.585062
-0.472288
0.526487
0.310474
0.608718
0.519710
0.509158
-0.179857
0.226768
-0.619155
0.093820
-0.522773
0.947824
-0.351531
0.875741
-0.571821
-0.180546
0.622872
-0.088689
-0.792278
-0.868625
0.551849
0.084211
0.572572
-0.750296
0.790902
0.218985
-0.412682
-0.535398
-0.529465
-0.410819
0.166760
-0.841457
0.708376
-0.403663
0.332997
-0.293801
-0.617928
0.262941
0.924229
-0.797765
-0.587266
-0.662634
0.928751
0.221005
-0.674566
0.993362
0.711642
0.492086
-0.287111
-0.256420
-0.717598
-0.061310
-0.539546
-0.141052
-0.060048
0.047886
0.724985
-0.992505
0.249205
0.090539
-0.016416
0.935878
-0.974936
0.541604
-0.905143
-0.875314
-0.873847
-0.635121
0.153311
0.124935
-0.309285
-0.596451
0.149804
-0.189026
-0.033615
0.514501
-0.012598
0.725999
-0.963999
-0.984755
0.147129
-0.113839
0.864036
-0.374781
0.986419
-0.007959
-0.436460
-0.359109
-0.825841
0.530068
0.128670
0.671050
0.810852
-0.239600
-0.442633
0.838019
0.894984
-0.791852
0.400666
-0.546482
-0.677366
0.243685
-0.788306
0.365277
0.997852
-0.614798
0.247551
0.576436
-0.523427
-0.804315
0.826053
-0.346064
-0.879994
-0.206480
0.317437
0.365243
-0.831635
-0.668490
-0.014021
0.431210
-0.168332
0.183130
-0.620049
-0.328135
0.735888
-0.960659
-0.213172
-0.091751
-0.796939
-0.836612
0.426889
-0.083591
0.057515
-0.024791
-0.314925
0.889039
-0.921099
-0.510761
-0.416871
0.962982
0.721372
0.253422
-0.424190
0.084777
0.709921
-0.269443
0.826750
0.299751
0.576455
0.388372
-0.389010
-0.554732
-0.329196
-0.620919
-0.314094
-0.691300
0.252019
0.100374
0.423824
-0.892237
0.445440
-0.757415
-0.985268
-0.480257
0.612797
0.301903
0.053009
-0.557369
-0.892517
-0.698856
0.670982
-0.350348
-0.171393
-0.468718
0.037883
0.354849
0.022527
-0.440193
-0.864892
0.496530
0.218906
-0.988687
0.717279
-0.292800
0.269762
0.305019
0.327492
-0.085791
-0.298090
-0.526524
0.692330
-0.064116
0.543711
0.166489
0.659868
0.304212
-0.738859
-0.103503
0.658289
-0.760651
0.628469
-0.533329
-0.113600
-0.844556
-0.949493
0.735736
-0.611260
0.408250
-0.512202
0.013149
-0.931840
0.699222
-0.351252
-0.507133
-0.573367
-0.379237
0.881326
-0.260937
-0.820752
-0.262041
0.972632
-0.246287
-0.354737
0.537079
-0.668318
0.543111
-0.720589
-0.793991
-0.301343
-0.358716
0.658587
0.443352
-0.491845
-0.842068
-0.401144
-0.650967
-0.449399
0.077169
0.598202
-0.911758
0.388828
-0.289183
-0.532635
-0.050238
0.572052
0.313588
0.486046
-0.198004
0.520544
0.681576
0.137499
0.900386
-0.259937
-0.804364
-0.860317
-0.816547
-0.040118
0.593338
-0.330544
-0.936858
0.821637
-0.980473
-0.788606
0.566635
-0.714722
0.457428
-0.890028
0.224537
-0.260235
-0.113602
0.840644
-0.307575
-0.012243
-0.575502
-0.551023
0.737339
-0.695860
0.860221
-0.561628
-0.040878
0.565395
-0.028500
-0.529401
-0.096033
0.572763
-0.377719
0.798087
-0.283557
-0.864224
-0.418488
-0.037811
0.704069
0.225775
0.822431
-0.240639
-0.561127
-0.833034
0.589944
0.191604
-0.836392
0.234276
0.996912
0.275394
-0.223537
0.441149
-0.359563
0.376701
0.434464
-0.656872
-0.508551
-0.541479
0.205630
0.436793
0.537012
-0.359602
-0.257558
-0.831185
-0.458104
-0.323844
-0.751628
-0.739208
0.965111
0.082247
-0.096340
0.246956
0.913828
0.406961
-0.311379
-0.495792
-0.853471
-0.112965
0.076101
0.454222
-0.567932
0.922459
-0.407892
-0.284146
0.240572
-0.522479
-0.714665
-0.533392
-0.973590
0.282399
-0.843407
-0.494091
0.728946
-0.100027
0.042546
0.289903
-0.519848
-0.145481
0.551242
-0.930228
0.894238
0.164392
0.053389
-0.978249
-0.067207
-0.921604
0.209997
-0.850929
-0.533429
-0.556415
-0.820407
-0.946449
0.914141
-0.914315
-0.222968
0.928977
-0.450008
0.797186
-0.137400
-0.483591
0.104366
-0.720446
0.707818
-0.347175
-0.411055
0.003922
0.764500
0.295863
-0.458339
-0.612232
0.278999
-0.270172
0.161325
-0.481893
0.860153
0.453608
0.751556
-0.539022
-0.955909
0.939864
-0.633677
-0.256454
-0.046822
0.642950
-0.683382
0.745945
-0.691715
-0.413312
-0.749750
0.106509
0.346233
0.169559
0.161414
-0.661077
-0.332682
0.205617
0.677044
0.225941
0.411261
0.607776
0.384594
0.798399
-0.794568
0.282749
0.934971
-0.587172
0.081786
-0.748104
0.695186
-0.794119
0.829417
0.423813
0.552685
-0.339673
-0.814093
0.277162
-0.970001
0.318410
-0.156283
0.710141
0.119712
-0.963064
0.735450
0.720941
-0.708150
-0.508862
-0.361725
0.597672
0.693585
0.013358
-0.876837
0.530450
0.748112
0.944052
-0.294874
-0.706837
0.929695
0.004745
0.205886
-0.330157
0.086176
-0.621054
-0.098488
-0.812144
0.876546
0.546483
0.251988
0.249761
0.063876
-0.745944
0.613131
-0.200513
-0.814287
-0.790089
0.022534
-0.257256
-0.541902
0.986666
0.436507
0.157983
0.766729
0.669617
0.508182
-0.421379
0.889472
-0.869565
0.732836
0.734115
0.094229
0.773940
0.550159
-0.582994
-0.588252
-0.204729
-0.093332
-0.450496
0.480058
-0.054024
-0.049370
-0.013712
-0.575538
0.670884
-0.262818
-0.054823
0.742562
-0.756540
-0.736941
0.973993
-0.291922
0.843435
0.565808
0.959271
0.362594
-0.827170
0.830172
0.315630
0.215000
-0.155789
-0.407996
-0.018588
0.284183
0.267280
-0.750791
-0.971355
0.972673
-0.641494
0.929434
-0.029642
0.678727
0.256726
-0.898467
-0.744263
0.541423
-0.234895
0.444097
0.954562
0.533945
-0.093191
0.769686
-0.672631
-0.870286
-0.888311
-0.421077
-0.922920
-0.309010
-0.929598
-0.233345
-0.321273
0.638290
0.281367
0.304125
-0.008361
0.547153
0.982913
-0.412053
-0.001987
0.089448
0.894643
-0.162789
-0.928203
-0.933327
0.616204
-0.783325
0.759869
-0.365692
-0.159712
-0.535943
0.432936
0.202797
-0.907597
-0.421058
-0.708338
-0.990493
-0.824608
-0.331332
0.798517
0.505205
0.086429
0.461667
-0.478842
0.364273
-0.321466
-0.038248
-0.327370
0.003603
-0.121132
-0.414791
0.326087
0.082871
-0.298505
-0.906866
-0.670483
0.204139
-0.217286
-0.608116
0.182592
0.010314
-0.069436
0.832465
-0.846532
-0.443764
-0.154537
-0.014294
-0.446301
0.982486
-0.913918
0.275102
-0.750031
-0.003030
-0.763960
-0.420239
-0.981452
0.465856
0.780852
0.121449
0.620436
0.925100
-0.871585
0.752091
-0.575998
0.715260
0.833072
-0.959134
-0.750386
-0.300407
-0.084024
0.629074
0.674162
-0.986983
-0.230371
0.559295
-0.060567
0.791860
0.391591
0.236238
-0.982650
0.332203
0.362292
0.318242
0.480556
-0.958829
0.809534
-0.673064
0.045597
0.540961
-0.635072
0.463015
0.074459
0.940471
0.789298
-0.486457
-0.030911
-0.983055
0.579752
-0.768442
0.009231
-0.013150
0.082975
0.752355
-0.825060
-0.237801
0.266156
0.260974
-0.661260
0.236967
0.664255
0.474303
-0.186183
-0.984290
-0.645974
-0.288480
-0.832632
0.347956
0.378687
0.323934
0.150675
-0.046002
-0.981123
0.005300
-0.855430
-0.734291
-0.538664
-0.647719
-0.084633
-0.503553
0.897947
0.274047
-0.832765
-0.769808
-0.844574
0.451613
0.082705
0.380327
0.451477
-0.684815
-0.816546
-0.902341
-0.401075
0.534833
0.503310
-0.212443
-0.310519
0.903432
-0.226284
0.204876
0.803712
0.897311
0.741634
-0.514098
0.147072
0.466152
0.260306
0.590486
0.386266
-0.069026
-0.723849
0.067093
-0.668421
-0.985052
0.358817
0.757077
0.680900
-0.053450
-0.303727
0.426271
0.533584
0.820829
0.392224
-0.852961
-0.592969
-0.310766
0.354084
-0.966904
0.820816
0.901555
-0.892065
-0.353567
0.227163
-0.230795
-0.377359
-0.123855
-0.737550
0.601998
0.609506
0.399099
-0.525668
-0.192546
0.842405
0.682630
0.013237
0.309046
-0.677344
0.351059
0.344726
0.877264
-0.770258
-0.769152
0.801407
-0.784207
-0.016068
0.972496
0.190759
-0.485923
-0.290854
-0.601494
-0.570021
-0.162417
0.238650
0.069609
-0.366679
0.740852
0.047433
0.860177
0.636146
0.350828
-0.292762
0.198721
-0.950671
-0.078988
-0.182158
0.026697
-0.945851
-0.748359
0.519155
-0.859803
-0.867356
-0.395317
0.190028
-0.179781
0.617223
0.882442
-0.733284
-0.804551
-0.282446
-0.578512
0.279957
-0.619837
-0.948119
-0.736399
0.374821
-0.451698
0.106494
-0.588503
-0.249826
-0.706985
-0.138385
0.277636
0.803780
0.254896
0.965425
-0.022063
0.527323
0.058296
-0.469383
0.529041
-0.602415
-0.533448
-0.484267
-0.643732
0.274835
0.899275
0.761225
-0.469240
0.037703
-0.698052
0.740644
0.629908
0.411875
0.702214
-0.568509
0.062961
-0.181108
-0.486646
0.789647
0.101032
0.086528
-0.574207
0.450321
0.743376
-0.874075
0.256491
0.972864
-0.079557
-0.951582
0.564038
-0.529283
-0.785802
0.270502
0.484959
-0.375945
0.207093
-0.498112
-0.199259
-0.885244
-0.330893
0.011475
0.828693
0.373284
-0.996349
0.732696
0.832339
-0.225872
-0.580155
0.393606
-0.073626
-0.529252
0.013661
-0.637698
0.070037
-0.186048
-0.151784
-0.377375
0.969429
0.699632
0.880942
0.166282
-0.000687
-0.388834
0.929847
0.083028
0.415222
0.933331
0.661590
-0.314412
-0.356631
-0.234584
-0.976920
-0.225196
-0.458523
-0.986741
0.465106
0.283080
-0.734550
0.047052
-0.380953
0.355609
-0.366674
-0.644692
0.181821
0.879084
0.679995
-0.543803
0.141106
0.791842
-0.097595
0.842868
-0.903578
-0.106894
0.064531
0.012269
0.872330
0.243235
-0.764751
-0.629278
0.216424
0.060803
0.710499
0.303950
0.828692
-0.741314
0.833819
0.863514
0.218631
-0.298526
-0.840910
0.051488
0.465648
-0.959977
-0.292123
0.792472
-0.152296
0.214012
-0.009243
0.680105
0.406672
0.274996
0.725665
0.364222
0.760419
-0.558521
0.232955
-0.817624
0.936041
0.640654
-0.952769
-0.478988
0.706251
-0.814350
0.011830
-0.405132
-0.180961
-0.147996
-0.420666
0.958022
-0.928461
-0.651596
0.126463
-0.971132
0.239597
-0.939931
-0.316771
-0.874430
-0.653662
0.089567
-0.634215
-0.728397
-0.983937
-0.891562
-0.334586
-0.772971
-0.182860
0.187231
0.138303
-0.695950
-0.515283
0.834501
-0.503444
0.057270
-0.400415
-0.872945
-0.133207
-0.668120
-0.835930
0.180962
-0.054233
0.192638
-0.005574
0.102876
0.376280
-0.268064
0.525539
-0.741771
0.802393
0.502188
-0.911383
0.093441
-0.367060
-0.958513
0.014162
-0.296661
0.847409
0.093179
-0.481084
-0.339136
0.542047
0.615042
0.776235
0.116683
0.452152
-0.972322
0.037410
-0.652093
-0.209883
-0.143727
-0.666605
0.564600
-0.335358
-0.422644
0.361695
-0.460480
-0.134279
0.073445
-0.600129
-0.195716
0.222168
0.923794
-0.301241
-0.682558
0.702351
0.437751
-0.585661
-0.331633
-0.827862
-0.844728
-0.341054
0.784937
0.841197
-0.677050
-0.216993
-0.059567
-0.543979
-0.218488
0.350127
0.740316
-0.856005
0.183806
0.302894
-0.736415
0.667508
0.067334
0.111974
0.077779
0.275123
0.583952
-0.860055
-0.936309
-0.696766
0.730679
-0.238421
0.313247
-0.353363
-0.673251
0.748964
0.051190
-0.550838
0.588532
0.784217
-0.526309
0.918068
-0.808788
0.905816
0.453210
0.481856
-0.392357
-0.186605
0.824155
0.855222
-0.686363
-0.100559
-0.788039
-0.952176
0.211272
0.932348
0.126925
-0.590014
-0.924381
0.712911
-0.538144
-0.239001
0.218054
0.262248
0.259515
-0.626446
-0.792105
0.364307
0.758311
-0.916313
-0.110839
0.738944
0.294236
-0.104976
0.997697
0.436308
-0.635094
-0.364598
-0.707637
-0.614972
0.093713
-0.510443
0.623805
-0.939679
-0.954819
-0.766357
0.505558
0.079088
-0.399492
0.255898
0.468956
-0.909532
-0.780816
-0.021103
-0.409173
-0.071411
0.842727
-0.405711
-0.602027
-0.963776
0.377482
0.873499
0.968381
0.907683
0.471088
-0.689046
0.969990
-0.455808
0.939485
-0.982270
0.495435
0.834529
0.079672
-0.391261
-0.468353
0.200203
0.420512
0.128035
-0.928070
0.364954
0.015712
-0.579943
0.749042
-0.081766
-0.107285
0.689747
0.529858
0.823246
0.667561
0.867802
0.349404
-0.761043
0.501364
-0.642699
-0.230079
0.584751
-0.842841
-0.795948
0.581892
0.841714
0.253925
0.706342
0.341693
-0.851804
-0.592294
0.977694
0.018113
-0.343958
0.864530
-0.767078
0.348238
0.357916
-0.795465
0.665335
-0.878165
0.562230
0.110057
-0.883584
0.215420
-0.862186
-0.989377
-0.587138
-0.899536
0.785252
0.758524
0.923016
-0.625224
-0.293006
-0.147997
0.009333
-0.709938
-0.990092
-0.523709
0.774490
-0.219102
0.409595
0.671332
0.245630
-0.425460
0.762950
0.691363
-0.734914
0.659221
0.915190
-0.983834
0.274115
-0.628960
-0.610966
0.735104
0.630138
-0.901341
0.464420
-0.123503
-0.558007
-0.547776
0.095728
0.966024
0.888597
-0.197368
-0.439245
0.284784
0.121552
-0.850195
-0.948083
0.437599
0.100037
0.403205
0.483300
-0.185432
0.826608
-0.401699
-0.415855
-0.904827
-0.293799
0.844604
-0.347899
-0.115950
0.460944
-0.637220
0.038285
-0.111570
-0.419343
0.295959
-0.069851
-0.318553
-0.248275
-0.400084
0.353194
-0.324572
0.627498
-0.796009
0.691618
0.518688
-0.809455
-0.881583
-0.781538
0.243321
-0.898645
0.930012
-0.987145
-0.892022
-0.928922
-0.291577
0.460518
-0.850704
0.214804
0.340274
-0.340922
-0.644024
0.485229
-0.695142
0.841482
0.096380
0.949667
0.204757
0.301132
0.853877
0.583403
0.355292
0.530207
0.940343
-0.850272
-0.528785
-0.414592
0.763165
-0.005150
0.384255
0.281291
0.374088
0.462930
0.264640
0.476330
-0.368356
-0.028163
0.696165
-0.229765
0.074917
-0.671272
-0.489838
0.025561
-0.780961
-0.066500
-0.864379
-0.861283
-0.502018
0.176709
-0.062095
0.846339
-0.141955
0.976401
0.270572
-0.568111
0.722660
0.319193
0.321044
0.673631
0.698053
0.982018
-0.991850
-0.613519
0.327206
0.770836
-0.353609
0.209807
-0.189068
0.150119
-0.914164
-0.515557
0.119648
-0.186197
0.409020
0.269832
-0.751058
-0.732857
0.356991
-0.698921
-0.786442
-0.401874
0.549892
-0.508915
-0.062928
0.592839
0.157620
-0.993380
0.835073
0.859752
-0.738531
0.473802
0.940323
-0.152966
0.495630
0.550169
0.492231
0.902043
-0.005942
0.667282
0.791456
-0.282741
0.587362
0.288304
0.059187
-0.965526
-0.204653
-0.887141
-0.741149
-0.080808
0.650821
0.533202
-0.406642
0.696440
-0.601011
0.173932
-0.880964
0.216221
-0.750190
0.745152
0.489294
0.294536
0.344708
0.984741
0.603609
0.381498
0.818754
0.764550
0.420541
0.714932
-0.225724
0.590694
0.537648
0.397938
-0.962673
0.985186
-0.605335
-0.862877
0.807896
0.109764
0.120583
-0.059096
0.448649
-0.630442
0.577039
-0.441576
-0.479280
-0.031308
-0.186674
-0.583422
0.279495
0.262923
0.856372
-0.466894
0.321390
0.561227
-0.601387
-0.628388
0.704264
0.269745
0.706856
-0.458125
0.298297
-0.648390
0.308023
-0.397512
0.511174
0.072650
-0.451596
-0.863418
-0.318700
-0.859902
0.532517
-0.642415
-0.065628
-0.649128
0.795680
-0.872045
0.637981
-0.458577
0.267965
0.114280
0.177591
0.386753
0.995885
-0.446870
-0.291908
-0.703890
0.689596
-0.679279
0.048771
-0.970068
-0.578879
0.262138
0.225281
-0.142886
0.603357
-0.034515
-0.280613
-0.418797
0.239319
-0.394364
0.552539
-0.782424
-0.705788
0.939895
-0.710264
0.277257
-0.632745
-0.584386
-0.482776
0.949559
0.853822
0.254715
-0.176357
-0.837559
0.337072
0.080200
-0.369310
-0.237487
0.828707
0.040525
0.690665
-0.684916
0.009210
-0.859141
0.889397
-0.384591
-0.115568
0.735670
-0.733650
-0.374228
0.145960
-0.992694
0.277083
0.224897
-0.003029
0.171697
-0.634572
0.490746
-0.984659
0.880435
0.605112
-0.365425
-0.271717
0.225438
0.999650
0.817589
-0.318844
0.801996
-0.437876
0.878623
-0.260548
0.807304
-0.154012
0.173584
0.221419
0.161828
0.907267
-0.919119
0.043630
0.463824
-0.816838
-0.958439
-0.783403
0.026641
-0.582321
0.770108
-0.569305
-0.581358
0.694209
0.208307
-0.272863
0.189552
-0.394103
0.193188
0.618991
-0.929374
0.570988
-0.738008
0.978836
0.438437
0.146561
0.279004
-0.716983
0.165460
0.122995
0.333406
0.021926
-0.502949
-0.458487
-0.692235
0.270365
-0.936758
-0.805607
0.395476
-0.553738
-0.237547
0.076969
-0.521078
-0.919320
0.438597
0.366978
-0.591157
-0.589191
-0.478301
-0.637325
-0.269147
-0.247473
-0.539265
-0.878378
-0.525965
-0.599784
0.964344
0.175176
-0.362925
-0.432799
-0.281243
0.121682
-0.064698
0.149957
-0.095372
-0.091074
0.026907
-0.398618
-0.240154
-0.286127
0.681093
-0.496176
-0.066114
0.671234
0.501080
0.384780
-0.737227
-0.016824
0.172490
-0.652989
-0.529806
0.540639
0.524489
0.054573
0.046163
-0.460345
-0.669278
0.789730
-0.479104
-0.560712
-0.112658
-0.814714
-0.938273
-0.895966
0.011878
0.925667
-0.136270
0.625023
-0.507888
0.978832
-0.120557
-0.631236
-0.004895
-0.926698
0.705075
0.727820
0.684791
-0.547753
0.031033
-0.800854
-0.327458
0.913964
-0.182368
-0.228376
0.271767
-0.716872
0.680735
0.057399
0.804654
0.493601
0.402951
0.597769
0.768257
-0.237577
0.034433
0.525567
0.814691
-0.906171
-0.975774
-0.485370
0.659278
-0.735837
0.130859
0.557311
-0.895956
0.759097
-0.202962
0.845944
-0.086304
-0.131396
0.905461
0.173858
-0.549436
0.981952
-0.490920
-0.881581
0.508824
-0.877970
0.416466
0.963803
0.998343
0.940297
-0.574025
-0.746057
-0.967190
-0.405514
0.015696
-0.528342
0.199207
0.959942
-0.840974
0.203249
-0.584910
0.866107
0.285403
0.708279
-0.662199
-0.728765
0.197534
0.658318
-0.378665
0.492970
-0.643721
-0.170766
-0.566202
-0.139326
0.808685
-0.141597
-0.115492
0.603597
0.523604
-0.201618
0.071312
0.252333
-0.338256
0.821398
-0.164387
0.068950
-0.014417
0.254032
0.100676
-0.365294
-0.336187
-0.792360
0.172084
-0.119287
-0.238918
-0.480744
-0.553829
-0.965731
-0.673926
-0.681914
0.746766
0.743966
-0.559014
-0.907557
0.267395
-0.819042
0.506982
-0.511611
0.719549
-0.570014
-0.967127
-0.495163
0.893865
0.082375
-0.381477
-0.714749
-0.543788
-0.587458
0.071741
-0.916138
-0.483660
0.131876
0.931836
0.093407
-0.171571
0.213875
-0.147163
-0.720092
-0.415328
-0.459120
0.538924
0.796440
0.841398
-0.490008
-0.845776
0.986253
-0.478152
0.533776
0.809707
-0.135111
-0.633968
-0.780161
-0.749435
-0.050776
0.449140
-0.075087
0.991214
-0.817497
-0.954216
-0.156342
0.436543
-0.585069
-0.294378
0.878720
-0.323254
-0.912224
-0.937428
-0.879319
-0.473574
0.593289
-0.184123
-0.524429
0.304168
0.714084
-0.506940
-0.978760
-0.383775
-0.965289
-0.388290
-0.331407
-0.932781
-0.843545
0.369822
-0.405400
-0.314072
-0.777528
-0.972970
0.109317
0.704741
-0.610726
-0.143318
0.412559
-0.431561
0.878420
0.029045
-0.357120
0.163040
-0.988520
-0.022125
0.390260
0.227207
0.173987
-0.730902
-0.851225
-0.077706
-0.044088
-0.655411
-0.559732
0.386047
0.299282
-0.877104
0.966602
-0.915012
0.996866
-0.481397
-0.779469
-0.918903
-0.299455
-0.127091
-0.674196
-0.335719
0.651929
0.630332
0.480743
0.847864
-0.112449
0.609612
0.908620
-0.235048
-0.713570
-0.691358
0.763430
0.367265
0.604593
0.891468
-0.621120
-0.802865
-0.710895
-0.501973
-0.169640
0.982378
0.863813
-0.827350
-0.283623
0.120012
-0.839836
-0.200689
-0.846117
-0.816769
-0.666967
-0.845001
-0.574309
0.434167
-0.038725
-0.820879
-0.197865
0.140965
-0.349554
-0.865818
0.119549
-0.157009
-0.033895
0.084157
-0.976576
-0.649051
0.873205
0.830863
-0.521217
0.290177
-0.607961
0.279374
-0.571626
0.485272
0.452940
0.826609
0.802118
0.180864
0.803276
-0.307115
-0.121051
-0.199117
-0.833551
0.234740
0.409834
-0.274516
-0.394901
0.461396
0.877602
-0.101429
0.590875
-0.362635
0.568967
0.160348
0.090558
0.546663
-0.480308
0.203074
0.524060
0.770074
-0.878877
0.474042
0.952687
-0.658257
-0.451364
0.593405
0.781201
0.669548
-0.801241
-0.613780
0.238619
-0.268923
0.323152
-0.090262
0.158524
0.353555
-0.583013
-0.524468
-0.674254
0.016967
0.958119
0.021007
0.445291
-0.114371
0.664473
-0.486886
-0.777704
-0.591438
0.756739
-0.293839
-0.561314
0.260447
-0.475290
-0.673738
0.896819
0.753039
-0.505472
0.072459
-0.727939
0.459289
-0.344691
0.213925
-0.956722
0.025633
0.999660
0.317620
0.402898
-0.645413
0.422012
-0.440981
0.428360
-0.369805
-0.855662
0.841232
-0.322018
-0.224091
0.531848
0.922945
0.631473
-0.854968
0.957295
0.309158
0.418396
-0.072453
-0.368997
0.926340
0.176107
-0.533385
-0.897826
-0.751195
0.874310
0.737276
-0.832640
0.624521
0.317507
0.828202
0.484123
-0.834569
-0.787728
0.526976
0.267650
-0.596032
0.581018
-0.742899
0.848494
0.444432
-0.407001
0.123256
-0.643517
0.031004
-0.505116
0.646498
0.423824
-0.129679
-0.701367
0.962077
-0.761897
0.905429
-0.227865
-0.821450
0.827077
-0.598786
-0.898703
0.291628
0.036348
0.039978
-0.629618
-0.722766
-0.389563
-0.044584
-0.126180
-0.801521
-0.376873
0.125910
-0.234438
0.482601
0.170434
0.783018
-0.803435
0.854326
0.425129
-0.097509
0.889826
-0.853387
0.605107
-0.481432
-0.051420
0.708052
-0.788011
-0.083389
0.423159
0.118862
-0.225458
0.983311
-0.445234
-0.143781
0.814312
-0.140408
-0.906585
0.510413
-0.756346
-0.661400
-0.779937
-0.139540
-0.495849
-0.432495
-0.584823
-0.265138
0.502601
-0.533984
-0.133284
0.630237
-0.411269
0.398760
0.928968
-0.677663
-0.102402
-0.976441
0.991195
0.892905
-0.784528
0.138787
-0.823134
0.047713
0.445557
0.639695
-0.099810
0.472405
0.734459
0.898305
0.241851
-0.091580
-0.498365
-0.721272
-0.982664
-0.463648
0.055260
0.012775
-0.335785
-0.633479
-0.344054
-0.156470
-0.209501
-0.855026
0.618449
-0.923319
-0.511728
0.540826
0.838730
-0.780664
-0.386364
0.315485
-0.839494
0.481362
-0.631341
-0.550656
-0.973782
-0.047978
0.008115
0.549299
-0.710389
0.096484
-0.835006
0.046635
-0.969785
0.950182
-0.732066
0.968674
0.620158
0.169733
0.295500
0.891856
0.897200
-0.365849
0.819331
-0.052730
-0.665909
0.917488
-0.060331
0.454791
-0.251634
-0.345947
-0.237714
-0.019791
-0.836070
-0.050702
0.342303
0.163149
0.529501
-0.770529
0.589396
-0.168902
-0.872502
-0.963920
0.222060
-0.641555
-0.875150
0.811823
0.929511
-0.293363
0.679149
-0.853534
0.020422
0.970690
0.661261
0.852074
0.442726
-0.241608
0.550327
-0.392152
-0.503054
-0.698353
-0.324937
0.292745
0.906825
-0.077942
0.447261
0.961372
0.555369
-0.756776
0.455122
0.620231
0.261310
-0.866221
-0.623022
-0.251122
-0.208514
-0.898744
0.023847
-0.804536
0.400595
-0.975573
-0.128368
0.153977
-0.973892
-0.734153
-0.318009
-0.030070
-0.579558
-0.058439
0.223480
0.832912
-0.475712
-0.589470
0.280877
-0.456583
0.079501
-0.108731
0.630924
0.620743
0.434498
0.162509
0.246398
-0.818547
0.786455
0.660213
-0.785062
-0.316412
-0.109955
0.164431
0.263380
-0.230221
-0.053654
0.553091
-0.180656
-0.419039
0.992279
0.702999
-0.179340
0.539832
0.087181
-0.635578
0.501100
-0.306520
0.525157
-0.416839
-0.237091
-0.494707
0.487247
-0.134944
-0.415178
-0.744649
0.890622
0.597913
0.701850
-0.892395
0.582109
-0.273542
0.426732
0.137644
0.391841
-0.697107
0.903052
-0.153934
-0.205365
0.326130
0.032469
-0.743739
-0.543646
0.445505
-0.883709
0.589835
-0.171761
-0.905439
-0.974315
0.643178
-0.525650
-0.481307
0.335507
0.398691
0.618846
-0.237098
0.326789
-0.591013
0.665582
0.522692
0.652641
-0.977044
0.234660
-0.471957
0.120878
0.459897
0.797869
0.747634
0.008114
0.831436
0.698752
0.751399
-0.307592
0.022240
0.183717
-0.196520
0.207323
-0.885627
-0.149617
-0.846325
-0.684685
-0.442693
0.007249
-0.464328
0.879394
-0.319732
0.571722
-0.952304
-0.152253
-0.582556
-0.348820
-0.651732
-0.217143
-0.473025
-0.926086
0.986978
-0.231484
0.290514
0.126433
0.408496
-0.799333
-0.658595
0.740222
0.234384
-0.723112
0.724562
0.207677
-0.338945
0.013279
0.603895
-0.067137
0.889456
0.833552
0.142133
-0.560926
-0.578354
0.431812
0.524989
0.088942
0.873812
0.351499
0.336622
0.239586
0.941291
-0.108424
0.062635
-0.375482
-0.644150
-0.416562
0.584060
0.812162
0.593528
-0.573285
-0.923151
-0.809766
-0.840779
0.589211
0.176284
-0.433657
-0.484730
0.939231
-0.073377
0.680024
0.227549
0.910139
0.602672
0.400588
0.549358
-0.326749
0.065257
-0.947110
-0.591154
0.795687
-0.918706
-0.395349
-0.081900
-0.834889
0.697391
0.856799
-0.502856
-0.803754
-0.576457
-0.049796
0.669699
0.027848
0.781518
0.013470
-0.624889
-0.456900
0.897449
0.634990
0.362465
-0.727474
-0.259274
-0.915994
0.459865
0.557051
0.827728
-0.371122
-0.932252
0.317074
0.044871
0.238298
-0.800684
0.798728
-0.693983
0.788951
-0.516277
0.335706
-0.535894
0.038757
-0.977479
-0.135536
-0.661569
-0.600225
-0.219768
0.523830
0.617258
-0.601895
-0.915528
-0.165632
-0.487322
-0.042549
-0.255911
-0.094079
-0.377980
0.489014
0.245949
0.944884
0.425033
0.427693
-0.319253
-0.952371
0.227148
0.707374
0.300010
-0.847582
0.371506
-0.441786
0.987555
0.615770
0.869802
-0.969573
-0.063982
0.213294
-0.771660
0.754046
0.013363
0.198508
0.901042
-0.678791
0.171771
0.900344
0.367198
-0.777816
0.127060
-0.298778
0.127713
0.276112
-0.752609
0.352380
-0.674387
0.626500
0.637367
-0.761213
0.989096
0.952727
-0.359072
-0.439179
-0.312461
-0.474585
-0.144695
-0.461286
0.378116
0.892680
-0.545596
0.885476
0.373490
-0.535071
0.236509
-0.133947
-0.745536
0.781781
0.853162
0.099779
-0.573123
0.231647
-0.675969
0.235044
-0.881357
0.186260
0.064729
-0.487154
-0.882783
-0.595884
-0.031184
0.925511
-0.756402
0.997015
-0.854274
-0.992627
0.711598
0.368131
-0.412750
0.836159
0.293776
-0.445867
-0.328032
0.434413
0.599291
-0.294244
0.484150
0.280914
-0.764621
0.925490
0.198844
-0.314080
0.796740
-0.843649
-0.161410
0.697583
0.800018
0.287634
-0.191336
-0.420365
0.117821
-0.082618
0.091259
0.606667
-0.493420
-0.547279
-0.076385
0.372663
-0.518273
-0.685786
-0.741555
0.945508
-0.438183
-0.622329
0.699489
0.055151
0.812582
0.269269
-0.418079
-0.841236
-0.734338
0.110723
-0.179324
-0.917360
0.686995
-0.122699
-0.142930
0.686472
0.882955
-0.663168
-0.814743
0.950842
0.045781
-0.031531
-0.389278
0.121496
0.548558
-0.745039
0.719552
-0.469459
-0.725126
0.907119
-0.445314
-0.436510
-0.667229
-0.465632
-0.520831
-0.054258
-0.002203
0.786820
-0.751021
-0.874761
-0.886911
-0.249613
0.069787
-0.052823
0.189582
-0.373262
-0.429697
0.801159
-0.618144
0.289302
-0.843432
-0.309098
-0.361707
-0.214186
0.025801
0.507288
0.726130
0.309546
0.005997
-0.969852
-0.697163
-0.293613
-0.135365
0.628055
0.051109
0.845727
-0.971079
-0.470076
0.514980
-0.163977
0.420049
-0.097540
0.464350
0.300271
-0.493330
-0.714401
0.414177
-0.883045
-0.239627
-0.051092
-0.140227
-0.415428
0.781240
-0.112586
-0.902154
0.279759
-0.917236
0.238469
0.748361
0.759664
0.951318
-0.592556
0.737167
-0.897014
0.070005
0.642069
-0.142854
0.212778
0.712913
0.995507
0.538908
-0.640616
0.312352
0.281662
-0.698588
0.353931
-0.821819
-0.997942
-0.481382
-0.608249
-0.162865
0.250150
-0.207940
0.423260
-0.526492
0.776626
-0.373524
0.238399
0.322502
0.641039
-0.564688
0.368969
-0.693748
-0.969536
0.195483
0.114284
-0.494897
0.809230
0.196464
0.297880
-0.679752
-0.134222
0.779376
0.684345
0.311367
0.493522
-0.020802
-0.385734
-0.765586
-0.451755
-0.186742
0.409382
0.743042
-0.838853
-0.531468
-0.368757
-0.697471
-0.779873
0.767106
-0.246979
-0.062667
-0.896551
0.451136
0.011928
-0.717772
-0.372629
-0.547916
0.958552
0.086748
0.392003
-0.562661
-0.249210
0.746515
0.725737
0.050640
-0.967238
-0.038787
0.871214
-0.172280
-0.155797
-0.900401
-0.893573
-0.889820
-0.308482
0.135128
0.077192
0.075747
0.546647
-0.111129
-0.778243
-0.878526
0.182707
0.134143
0.243065
0.878158
0.027359
0.045684
-0.066332
0.132756
-0.118976
-0.490373
0.053498
-0.465497
0.310109
-0.083454
0.418058
0.873902
0.071243
0.096582
0.854128
-0.745840
0.724588
0.071337
0.808045
0.695780
0.519341
0.861736
0.092248
-0.117154
-0.215258
0.679482
-0.370006
-0.057214
-0.882318
-0.117079
0.129894
0.646716
-0.229949
-0.635534
0.157301
0.905099
0.943100
0.734270
-0.483778
0.578696
0.539083
0.222675
-0.456445
0.694734
0.885515
-0.636870
-0.320946
0.948749
-0.272054
0.298031
-0.953372
0.260585
0.167097
0.704888
0.332924
-0.177801
0.377029
-0.834846
0.014295
-0.981730
-0.396253
-0.498526
0.684495
-0.673433
-0.621820
-0.610666
0.047305
0.307599
-0.081518
-0.449409
0.311472
0.188893
-0.846730
-0.575352
-0.131112
-0.096864
-0.800122
-0.526817
-0.444933
-0.227290
0.759625
-0.202060
0.788028
0.118887
0.068447
0.475939
0.876733
0.744235
-0.392317
0.653822
0.308717
-0.482359
-0.616711
0.441769
0.810060
-0.193048
-0.916676
-0.942427
-0.277052
0.813883
-0.949364
0.224197
-0.651585
-0.726410
0.712337
-0.376304
-0.131239
-0.714845
-0.558840
0.564599
0.219166
0.073972
-0.983748
0.715590
0.362430
0.080219
0.067700
0.733970
-0.396412
-0.324711
-0.209642
0.962381
-0.485213
0.022133
0.492690
0.190530
0.901868
0.790356
0.326128
-0.842823
-0.973679
-0.326838
-0.419915
0.933364
0.580540
0.910706
-0.326087
0.014892
0.471710
-0.277572
-0.770350
-0.621066
0.364518
0.304330
0.795199
-0.835290
-0.748591
-0.236102
0.017577
-0.618230
0.542868
-0.745120
-0.039999
-0.135533
-0.081552
0.450720
-0.235729
-0.139770
-0.535278
-0.489274
-0.020859
-0.407121
-0.106956
0.033655
0.649895
0.226884
0.406024
-0.545478
-0.301854
0.099455
-0.318242
0.387956
-0.048622
-0.905618
0.352843
0.562150
0.825570
-0.690144
0.862881
0.835469
0.371745
-0.009619
0.396232
-0.453164
0.554170
0.785793
0.811505
0.214588
0.751601
0.703997
0.706613
0.002712
-0.116446
0.747961
0.495717
0.810485
0.672641
-0.065038
-0.123926
0.862510
0.762377
-0.903522
0.642065
-0.042712
0.704991
0.775555
-0.051852
0.716804
0.119580
0.347777
0.475073
-0.017428
0.652996
-0.305454
-0.098959
0.626141
-0.851434
0.312525
0.431410
-0.000768
0.389616
0.796506
-0.910968
0.028222
0.283974
-0.303367
-0.734526
0.537723
0.118301
0.109886
-0.626745
-0.937002
0.372648
-0.548555
0.339602
-0.559064
0.198219
0.482195
0.916875
-0.686481
-0.109974
0.555421
-0.066869
-0.738242
0.940606
-0.306192
0.824290
-0.841666
0.670085
-0.891242
-0.569601
0.987237
-0.078161
0.071056
-0.810067
0.856837
0.849129
0.534655
0.885023
-0.125045
0.042215
-0.993471
-0.288798
-0.439286
0.794111
0.320943
-0.348323
0.907915
0.757824
0.525194
-0.014253
0.526763
0.964197
-0.646497
-0.484302
-0.510761
-0.367539
-0.407182
0.131144
-0.635122
0.018315
0.640396
0.048856
-0.350391
0.264415
-0.918168
-0.838886
-0.013038
-0.424479
0.861858
-0.672087
-0.716036
-0.145060
-0.369996
0.912489
-0.423581
0.903397
-0.909664
0.587895
-0.826146
-0.707237
0.074242
-0.403556
-0.730138
0.084857
0.667634
0.798045
-0.542670
-0.202195
-0.411066
0.224805
0.813931
-0.870661
-0.132292
0.584202
0.165106
-0.656991
0.745768
-0.367809
-0.904814
0.715611
-0.887225
-0.753353
0.254845
0.698681
-0.045183
-0.145188
0.432822
-0.368831
0.895807
0.140391
-0.221020
-0.616744
0.139608
0.762835
0.516954
-0.221892
-0.199514
-0.184578
0.962693
0.079214
-0.192535
0.661321
-0.294320
-0.911786
-0.647777
0.723434
0.077097
0.697385
-0.290921
0.278664
0.542627
-0.900264
-0.738726
-0.315669
0.323760
-0.355746
0.627918
-0.544834
-0.635162
0.219061
-0.151273
-0.808316
0.271506
0.566139
-0.647402
-0.597814
0.497788
-0.238012
0.961888
0.061292
0.746738
-0.732407
-0.598831
-0.329369
-0.183207
0.903321
0.521647
-0.595231
0.281454
-0.957917
0.796941
0.335274
-0.524136
0.840116
0.476951
-0.592541
-0.251701
-0.576852
0.042866
0.838266
0.254711
0.972969
0.798740
0.895481
0.365744
-0.541979
-0.305270
-0.534984
-0.763976
-0.989305
-0.725433
-0.559898
-0.463304
0.400086
0.452561
-0.738405
0.944384
-0.210234
-0.135695
0.120884
-0.730714
-0.887299
0.687331
-0.349087
0.824634
0.389245
0.263947
-0.181913
-0.438130
0.070489
0.860588
0.710818
0.590611
-0.481529
-0.054762
0.770761
0.923186
0.394011
-0.600039
0.027806
-0.582572
0.557692
-0.632661
-0.216764
0.904133
0.038688
0.535374
-0.444260
-0.145254
0.202612
-0.143830
-0.018900
0.657410
0.228863
-0.346159
-0.717479
0.656294
-0.274777
0.136477
-0.209431
-0.768925
0.691261
0.792978
-0.684257
0.527538
0.005075
0.205666
-0.823717
-0.672218
0.442473
0.103120
-0.726931
-0.421484
0.742857
0.393658
-0.652136
-0.767070
0.689589
-0.613635
-0.810023
-0.456014
0.817914
0.280565
-0.811967
-0.843721
0.558504
-0.044818
-0.059386
0.921944
-0.832788
0.053513
-0.192243
-0.369916
-0.615778
0.522299
0.675958
-0.249196
-0.296022
-0.936283
0.802512
-0.703479
-0.132740
-0.290448
-0.843342
-0.047087
0.593286
0.250579
-0.637608
0.600942
-0.928940
-0.937013
-0.955111
-0.871155
0.277556
0.164373
-0.062380
-0.941990
0.012061
0.019795
0.018185
-0.013929
-0.060227
0.966822
0.063914
-0.433887
0.515006
-0.530298
0.438091
0.824068
-0.661294
0.130646
0.264890
0.326840
-0.107135
0.164215
0.641290
-0.145663
-0.576184
-0.387903
-0.061207
0.343045
0.524195
-0.493311
-0.087781
0.893890
0.770797
0.795903
-0.833442
0.631925
0.525339
0.554785
0.932173
-0.331693
0.177284
-0.960363
0.503789
0.211563
-0.695815
0.410961
-0.746260
0.966843
-0.891138
0.866429
-0.333930
0.985592
-0.429363
0.686377
-0.993202
0.799665
-0.939912
0.735419
-0.341293
-0.439355
-0.398732
-0.882437
0.985271
0.165855
0.045374
0.405788
0.429715
0.622302
-0.736041
-0.202064
-0.004839
-0.607031
-0.515908
-0.025243
0.716326
-0.814529
-0.383592
-0.267758
0.224251
0.934426
0.447149
0.953373
0.049581
0.799460
0.921030
0.927904
-0.328700
-0.081824
-0.493589
-0.856178
0.585037
-0.074766
-0.337088
-0.730351
0.543059
0.616846
-0.544716
-0.122058
-0.698104
-0.214702
-0.134295
0.548971
-0.646432
0.700868
-0.646837
0.455134
0.843219
0.785828
-0.065276
-0.495924
0.940993
-0.002889
0.385879
0.740443
0.595147
-0.206511
0.702287
-0.393325
-0.612958
-0.246782
-0.872973
-0.257366
0.066868
-0.959328
-0.999572
0.041692
-0.938783
0.979691
-0.988098
0.307515
0.271645
-0.330578
0.502646
-0.909442
-0.920910
-0.595579
0.585061
-0.669854
-0.000808
0.217611
-0.774637
-0.596128
0.435442
-0.752972
-0.615135
0.002308
0.195212
0.582720
-0.469037
0.051911
0.215687
-0.281410
-0.240947
0.943825
0.310524
-0.660735
-0.710693
0.872236
-0.306772
0.164821
0.885642
0.982503
0.918689
0.525403
-0.464692
-0.849247
-0.338660
-0.749459
0.153619
0.608086
0.192411
-0.895819
-0.692578
0.485943
0.516767
0.194305
0.495818
0.247034
0.914843
0.688976
-0.471591
-0.326753
0.820070
-0.257213
0.716836
0.014629
0.907661
0.033362
-0.560350
-0.336974
-0.518937
-0.489773
-0.629661
-0.386327
-0.360004
0.511330
0.431826
0.754525
-0.644660
0.596821
-0.616623
-0.215451
0.260351
-0.266687
-0.883485
0.753467
0.731856
-0.624881
0.745582
-0.792528
0.011469
0.427719
-0.468415
0.300803
-0.582340
-0.510444
-0.655531
-0.382511
-0.630165
-0.237734
0.964321
0.107648
0.652576
0.881951
-0.737198
-0.477665
-0.434543
0.769019
0.973104
-0.809950
0.974024
0.614351
-0.503702
-0.604607
0.700575
-0.236816
0.175210
-0.551513
-0.122844
0.068402
0.689391
0.369525
-0.063776
-0.624468
0.903643
0.870448
-0.001425
0.609452
-0.209513
-0.504483
-0.080131
-0.929152
0.597567
0.355867
-0.353458
-0.115080
0.855263
-0.940276
-0.005542
0.971818
-0.775182
-0.909641
0.992688
0.970649
-0.184603
-0.656619
-0.706393
0.076132
-0.505431
0.583210
-0.823454
0.216423
0.851332
0.547929
0.556463
-0.481639
-0.053088
0.263047
-0.717765
0.909235
-0.279663
0.805240
-0.957751
-0.353070
-0.409479
0.380665
-0.121639
0.432242
0.450279
0.972382
0.401202
-0.043107
0.059888
-0.951211
-0.991498
-0.440122
0.213019
-0.481051
-0.294634
-0.800222
0.222712
0.419264
-0.546790
-0.982179
-0.069739
-0.623242
-0.065791
0.485557
-0.087160
0.652371
0.191394
-0.817646
-0.804633
0.614812
0.741630
0.915631
-0.049059
-0.479873
-0.542345
-0.628035
0.943911
0.689572
0.637618
0.367113
-0.743698
-0.846315
0.661032
-0.065303
-0.843922
-0.209244
-0.886456
0.569201
0.353128
0.655396
-0.711596
-0.211175
0.850848
-0.224577
-0.651395
-0.924850
0.659538
-0.017373
-0.186831
-0.129511
-0.856392
0.503225
-0.785486
-0.836283
0.496550
0.281867
-0.045997
-0.670538
0.555999
-0.979932
0.253852
0.400022
-0.490659
-0.944829
-0.492847
0.299461
-0.325115
-0.556346
-0.669989
-0.877277
0.625072
0.220574
-0.404251
-0.337470
0.735586
0.585859
-0.079983
-0.543068
-0.521354
0.229304
0.619239
0.001985
0.442348
0.196149
0.608242
-0.442406
-0.517859
-0.558361
-0.027673
-0.301275
-0.347767
0.549352
-0.281309
-0.255611
0.431870
0.763693
-0.673500
-0.945659
0.539944
0.653682
-0.512041
0.166861
0.414963
0.560398
0.849556
0.730080
0.202340
0.520261
-0.389551
-0.663808
-0.922434
0.236767
0.669524
-0.032977
0.745013
-0.833748
0.949133
-0.745462
0.106392
0.663031
-0.920662
0.964649
0.656564
0.766384
0.684405
-0.971540
-0.898760
-0.267067
0.723964
0.229652
-0.205975
0.339267
0.163014
0.187278
-0.190777
-0.886624
0.993880
0.786751
0.636968
0.270564
0.353448
-0.438590
0.938808
-0.203784
-0.429891
-0.579659
0.898543
0.449926
0.382999
-0.858143
0.266203
-0.611923
-0.592073
-0.477522
-0.604691
0.931955
-0.269087
-0.330659
0.949809
0.616539
0.212918
0.561320
-0.573095
-0.583259
0.954852
0.036329
0.754504
0.827365
-0.418585
-0.875392
0.054029
0.853319
-0.256246
-0.418110
-0.752178
0.247873
-0.078192
0.360667
0.359570
-0.619501
0.173276
0.978464
-0.058373
-0.699178
-0.213020
0.602732
-0.633565
0.888720
-0.969360
-0.202428
-0.765468
-0.638307
-0.323756
0.023675
-0.464136
-0.296998
-0.589648
0.936003
-0.428282
0.466529
-0.696974
-0.732553
0.571417
0.323746
-0.687538
0.355319
-0.867046
0.936784
0.873582
0.624704
0.934195
0.200899
-0.455729
0.935990
-0.734868
-0.610226
-0.068617
0.292594
-0.323136
0.853832
0.109799
0.072375
-0.163600
-0.797639
-0.427455
0.666017
-0.562224
0.236370
-0.237780
0.917765
-0.883780
0.440557
0.258770
0.920838
0.809153
-0.372932
-0.006770
0.718794
0.318898
0.532692
-0.256841
-0.594568
0.031208
-0.523176
0.816221
-0.698597
-0.356278
-0.567724
-0.200899
-0.681275
-0.897099
0.775509
0.167634
-0.283820
0.020526
-0.665541
-0.549681
0.413795
0.902055
0.739905
-0.778088
0.894065
0.396198
0.526818
0.039025
0.434356
-0.086078
-0.739952
-0.407848
-0.047664
-0.679157
0.105541
0.290680
0.201466
0.966142
0.584837
0.973527
-0.006042
-0.368134
-0.312484
0.366410
-0.076799
-0.640269
-0.226857
0.769110
-0.994416
0.967781
0.105711
-0.492330
0.367721
0.404923
0.666439
-0.595370
0.486577
-0.236954
-0.781907
0.160267
-0.705742
-0.877487
0.374397
-0.706954
0.424367
-0.720292
0.727387
-0.227401
0.997089
0.324515
-0.206548
-0.314758
-0.673434
-0.352265
-0.490534
-0.440841
-0.678836
-0.967050
-0.817723
-0.245372
0.073180
0.126832
0.448194
-0.560694
-0.164549
0.159040
0.425015
-0.780917
0.843917
0.213095
0.445122
-0.054961
-0.813199
0.463703
0.300807
-0.506115
0.170458
0.947028
-0.146001
0.845297
0.796434
0.007855
0.964191
0.611307
-0.176154
-0.784313
0.840183
0.130240
-0.335704
-0.073265
0.398524
-0.906493
-0.329436
-0.932894
0.873311
0.950768
0.415531
-0.203044
0.514049
0.540738
-0.111683
0.927025
0.626834
0.483972
0.746841
0.253675
-0.081405
0.340375
-0.269596
-0.964517
-0.588337
0.049055
-0.657898
-0.408004
0.694545
-0.037148
-0.631693
-0.469768
0.320700
0.637084
0.650619
0.689660
0.558425
0.963732
-0.097002
-0.832045
0.780841
0.856035
0.566831
-0.294123
0.974414
-0.196730
-0.705266
-0.990447
-0.827183
-0.788741
-0.304388
0.250433
-0.352796
-0.132005
-0.953618
-0.068385
-0.621618
-0.290472
0.519838
-0.639492
0.836751
0.542078
-0.189028
0.880411
-0.450882
0.925046
0.513947
0.429039
-0.922144
-0.247989
-0.299385
-0.526961
0.607218
-0.091812
-0.341769
-0.113160
0.052206
0.013543
0.294759
-0.043466
-0.365019
-0.602355
0.483856
0.519440
-0.203303
-0.873264
-0.027542
-0.651145
-0.799144
0.354263
0.885296
0.803839
-0.771250
0.965467
0.771994
0.032600
0.165879
-0.783564
-0.352900
-0.665279
-0.098817
0.805491
-0.516645
-0.762523
-0.930491
-0.681938
-0.830802
0.281248
0.347870
0.654339
0.970504
0.372463
0.600994
-0.317266
-0.293530
-0.959154
-0.204944
-0.566917
0.911258
0.257841
0.803090
-0.642107
0.486618
0.927795
0.538526
0.751239
0.758756
-0.013223
0.007500
-0.122770
-0.228570
0.753660
0.314305
-0.983726
-0.282307
0.385753
-0.975999
-0.687323
-0.170349
0.550107
-0.386215
-0.958737
0.230670
-0.858422
0.097106
-0.020865
-0.027436
-0.307647
0.949988
0.068669
-0.866448
-0.911460
-0.550867
-0.339432
-0.913587
0.637470
0.573102
0.389625
0.646163
0.559238
-0.254672
-0.966458
0.165748
-0.972188
0.905573
0.305464
-0.475720
-0.272206
-0.380787
-0.995034
-0.352885
-0.364085
-0.323961
0.455362
-0.143729
-0.950725
0.778322
-0.005742
-0.935810
0.639462
0.175057
-0.908499
-0.171145
-0.883036
-0.730249
-0.448427
-0.864318
-0.138624
-0.313241
-0.090289
0.047915
-0.305601
-0.221442
0.372617
0.833373
-0.413384
0.692584
0.878163
0.554952
-0.416208
-0.430743
0.457447
0.086632
-0.119191
0.997204
0.551290
-0.103601
-0.283685
-0.825757
0.957159
-0.531795
-0.411429
-0.748182
0.597801
0.603289
-0.700046
0.223597
0.027969
-0.876425
-0.010317
-0.640021
0.338026
-0.086011
0.700475
0.552178
-0.120742
0.240073
-0.053386
-0.513778
0.552969
0.038381
-0.450273
0.015597
-0.467342
0.329680
0.194324
-0.528694
-0.502640
0.919764
0.454620
-0.344373
0.285898
0.654777
-0.520328
0.398596
-0.060884
-0.277466
-0.068465
0.628260
-0.998692
-0.867995
-0.836005
-0.204259
0.137326
0.113657
0.302145
-0.854506
-0.138274
-0.350536
0.078273
0.882795
-0.761212
-0.754523
-0.019844
0.242657
0.313804
-0.517294
-0.031834
-0.930017
0.570621
-0.388838
0.197683
-0.952276
0.845934
-0.520570
0.513392
0.167814
0.812529
0.239250
-0.832968
0.013731
0.344790
-0.594742
0.126660
-0.368526
0.912213
-0.942228
-0.264494
0.904954
-0.037158
-0.860007
0.554148
-0.933133
0.023122
-0.674536
-0.750895
0.730494
0.620007
-0.310517
0.384071
0.797014
-0.208923
-0.988149
-0.506751
-0.934972
0.217649
-0.494908
0.192831
0.308132
-0.156573
-0.959587
-0.127418
0.873543
-0.752051
-0.686242
-0.010231
-0.736547
0.309203
-0.401967
0.976513
0.284753
0.880825
0.500497
-0.887759
0.413020
-0.854436
0.026581
0.409913
-0.121257
-0.130616
-0.125003
-0.245609
0.475074
0.187064
0.858463
0.436878
-0.252239
0.515460
-0.744234
-0.738779
0.104493
0.196981
-0.927095
0.722792
0.810640
0.663433
-0.429202
-0.914494
-0.527378
0.130915
0.291492
0.150678
-0.718298
-0.595553
-0.719169
-0.458828
-0.449461
0.169036
0.217206
0.557028
-0.895051
0.568938
0.983922
-0.471816
-0.518294
-0.982712
-0.326390
-0.515063
0.368727
-0.120297
-0.442004
-0.413572
-0.126716
0.043550
0.067172
-0.932188
-0.201514
-0.033960
-0.705990
0.922293
-0.709585
0.540360
0.028295
0.401785
-0.253905
-0.887061
-0.969283
0.043318
0.298528
0.343063
0.576875
-0.308538
0.058814
-0.180679
0.668321
0.092230
-0.299396
0.150776
-0.514590
0.421902
-0.276633
0.625734
0.394324
0.549268
-0.415191
0.004994
-0.380187
-0.372174
-0.941753
-0.969857
-0.083508
-0.581967
-0.326448
-0.731159
-0.089586
-0.837868
-0.038358
-0.199700
0.363390
0.957327
-0.862280
-0.915919
0.460813
-0.077132
-0.305380
0.001213
0.569141
-0.543401
-0.790330
-0.513657
-0.339736
-0.773548
0.882388
-0.274048
0.064703
-0.383179
0.554586
0.146705
-0.575616
0.864454
0.144229
-0.305274
0.172421
0.129193
-0.854392
0.389629
-0.210065
0.634156
0.778052
0.715325
-0.898031
0.755478
0.407006
-0.532861
0.965252
-0.522395
0.457757
0.377060
-0.134505
-0.614039
0.594137
0.848131
0.891927
-0.704139
-0.873593
0.521926
0.525308
0.117391
0.839395
-0.158735
-0.597434
0.851876
-0.134793
0.190614
0.370055
0.425227
0.059498
0.835711
0.805040
0.506702
-0.358886
-0.153358
-0.935143
-0.506970
0.940375
0.154158
0.561227
-0.593008
0.117894
0.694049
0.696584
-0.149685
0.640154
-0.181599
0.333557
-0.031629
-0.662753
-0.000537
0.443807
0.984501
0.949742
0.982731
-0.357447
-0.898429
-0.659664
0.204714
0.670252
-0.998236
-0.861478
-0.833447
-0.164231
0.944584
-0.510697
-0.722085
-0.276271
-0.497146
0.361540
-0.678587
-0.088259
-0.519927
0.642061
0.782727
-0.306477
0.334347
-0.634717
0.893064
0.565451
0.721875
-0.539224
-0.955133
0.131689
-0.303017
0.893715
0.942511
-0.357940
0.796663
0.948397
-0.396322
0.863509
-0.077966
0.319097
0.601963
0.695228
0.571932
0.238024
0.709511
0.885736
-0.599897
0.905585
-0.225048
-0.089235
-0.405336
0.916211
0.763930
0.590630
0.110781
0.872503
0.607621
-0.885409
0.366512
0.349117
-0.229501
0.428719
-0.792863
-0.122389
-0.514392
-0.298338
0.208474
0.434328
0.076519
0.264866
-0.769019
0.955390
0.334209
0.137826
-0.204214
0.433190
-0.121833
-0.689477
0.654725
-0.223099
-0.500445
-0.961856
-0.609376
-0.593452
0.169953
-0.999697
-0.017042
-0.846799
-0.503314
-0.419657
-0.531848
0.820674
-0.645967
-0.433734
-0.999646
-0.699532
-0.293520
-0.484710
-0.080038
-0.952150
0.799505
-0.953646
0.033954
0.864654
0.799325
-0.580497
0.381088
0.130741
0.751994
-0.970237
0.127941
-0.563287
0.568440
-0.919077
-0.571742
-0.376707
0.229190
-0.974935
0.971179
0.909854
-0.134620
-0.847485
0.886515
0.981624
-0.360168
0.819939
-0.986611
0.419691
-0.485370
-0.456662
0.666602
0.734913
0.246320
0.577648
-0.493426
0.175407
0.450992
0.230088
-0.295965
0.636710
0.082666
0.665467
-0.933227
0.333797
0.021001
0.796567
-0.865245
0.317649
0.086803
0.034602
