-0.931275
0.381228
0.707921
0.984261
-0.907527
-0.760602
0.057122
0.050949
0.952418
-0.968398
-0.468278
-0.001499
0.692530
0.921972
-0.984389
-0.167111
-0.430908
-0.905856
-0.637961
-0.861705
-0.462629
0.760357
-0.346456
-0.199317
0.838839
-0.353479
-0.958033
-0.913449
-0.482094
0.218116
0.861237
-0.413369
-0.400655
0.569159
-0.429108
-0.308183
0.808557
0.628014
0.742766
0.760975
0.659616
-0.725511
-0.240524
0.352146
-0.803539
-0.224913
-0.814965
-0.234448
-0.130769
-0.452926
-0.096152
0.406602
-0.692569
0.557392
-0.792715
-0.853730
-0.796087
-0.750748
-0.767178
-0.278181
0.467369
-0.905941
0.308449
-0.933287
0.663218
0.879341
-0.241470
0.471775
0.507356
-0.498703
0.232750
0.166972
-0.224215
0.992226
-0.480882
-0.027754
-0.232687
-0.295847
0.737798
0.636544
0.251228
-0.358354
0.043146
0.558659
-0.800962
0.250431
0.704930
-0.597049
0.499683
0.937751
0.124769
-0.032948
-0.968190
-0.566781
0.033765
0.695028
-0.687440
0.792295
0.166803
0.819916
-0.706408
-0.600448
-0.013112
0.069377
-0.608222
0.506006
-0.958377
0.159091
-0.789841
0.779421
-0.204365
0.461387
-0.578932
0.838781
0.020046
-0.379895
0.089212
-0.275024
0.023056
-0.411105
-0.337273
-0.852175
0.555947
-0.305462
-0.418956
-0.410288
-0.610434
-0.106396
-0.617993
0.556368
-0.286481
-0.324401
0.955920
0.700407
0.744976
-0.652302
0.206413
0.786599
0.506789
0.416572
0.566020
-0.697576
-0.122041
0.987088
-0.858795
0.898005
-0.392807
0.230417
-0.377018
0.630249
0.819313
0.285709
0.778074
0.375260
0.980247
-0.640882
0.964971
-0.630187
0.252722
-0.653021
0.926181
0.966241
