0.786373
0.668418
0.314577
0.200079
0.090571
0.783098
-0.946676
0.543521
0.981685
0.064402
0.936578
-0.571249
-0.123368
0.465981
-0.527490
0.320962
-0.025965
-0.900500
-0.879832
0.900052
-0.692812
0.919844
-0.237135
-0.251862
0.839847
-0.239723
0.307914
-0.920462
-0.295884
0.231560
-0.331587
0.860360
0.547873
-0.473501
-0.657871
0.003284
-0.861141
0.157713
0.067333
0.271339
0.986361
-0.831984
-0.796872
-0.732257
0.986887
0.437785
0.781987
-0.234760
-0.935288
0.027313
0.565176
0.269818
0.950139
0.239289
-0.613654
0.739158
-0.012335
-0.385307
-0.413844
0.497434
0.085833
-0.869785
0.340073
0.026679
-0.957272
-0.238904
0.548864
-0.234126
0.665026
-0.872219
-0.861588
0.573990
0.730281
-0.771931
-0.710339
0.831175
0.054101
0.384447
-0.249351
0.213809
0.818192
0.803438
-0.296448
-0.409017
-0.751018
-0.237356
-0.133354
0.247679
0.842938
-0.697284
0.854355
-0.087416
-0.201377
-0.612371
-0.659565
0.616655
0.719843
-0.825342
-0.624320
0.698658
-0.859666
0.606725
-0.287971
-0.705934
-0.526341
0.750910
-0.021531
0.069922
0.386727
0.107142
0.857029
-0.488936
0.879109
-0.780685
0.738843
-0.599355
-0.736670
-0.621910
0.737585
0.805526
-0.315376
-0.905376
-0.174334
-0.922544
0.009851
-0.306790
0.884313
0.644352
0.649759
-0.979531
0.315797
0.487091
0.883352
-0.115041
0.282066
0.329838
0.861915
-0.227863
-0.934870
-0.299199
0.877002
-0.454962
-0.034629
0.744863
-0.746495
0.158840
0.354928
0.860978
-0.094714
-0.028412
-0.743920
-0.649693
0.905355
0.067795
0.401816
-0.412203
0.232310
0.492228
-0.357266
0.086971
0.495034
-0.023317
0.167465
-0.406681
0.957469
0.234549
0.557753
0.202243
-0.449890
-0.370312
0.039705
0.787454
0.720167
-0.143801
0.254028
-0.367947
-0.075476
-0.221765
-0.491642
0.932930
0.600897
0.804787
-0.002894
-0.551700
-0.909290
-0.944816
0.364170
0.184772
-0.936757
0.010053
0.469497
-0.567012
-0.924267
0.970515
0.368910
0.213798
-0.597765
0.388237
0.397386
0.904328
-0.224889
-0.182945
0.066075
0.065217
0.016127
-0.739912
-0.630224
0.036955
-0.158748
-0.276365
-0.918959
0.309053
0.761077
0.810780
-0.092968
-0.329566
0.951317
-0.210420
-0.308811
0.371249
0.596303
-0.100573
0.469229
0.990023
0.625295
-0.644372
0.354934
0.400953
0.849945
0.730198
-0.107629
0.519122
-0.456639
-0.365226
0.562997
0.130279
0.328907
-0.384173
0.973066
0.332157
-0.403855
0.231789
0.608023
0.795729
-0.429706
0.949100
0.477487
0.272615
0.554472
-0.624102
0.041001
0.472260
0.628334
-0.035152
-0.292977
0.398354
-0.101601
0.955030
0.763282
0.905643
0.756468
-0.827341
0.989479
-0.551341
0.414000
-0.849010
-0.630273
0.066643
0.362972
0.580455
0.823768
-0.633259
-0.980191
0.564745
0.314950
0.325899
0.059554
0.353047
-0.567289
0.823944
-0.273615
0.050793
0.921255
-0.861538
-0.037862
0.216862
-0.831556
0.056126
0.146637
0.537106
-0.472815
-0.501163
0.774048
0.260078
-0.956223
-0.853871
0.975823
0.813185
0.709916
-0.658687
0.965795
0.457817
0.103264
-0.348599
-0.391980
-0.893789
-0.756740
-0.201963
0.167006
0.414310
0.935909
-0.176717
-0.785555
-0.284803
0.966456
0.783192
-0.386827
0.912756
0.017601
-0.278595
-0.856083
-0.390698
0.157573
0.764238
0.114043
0.919789
-0.199693
-0.908181
0.522733
-0.111367
-0.025957
0.206582
-0.650953
-0.478535
0.691085
0.103150
-0.773082
-0.919827
-0.653773
0.402449
0.812013
0.271800
0.471461
0.448047
0.541434
-0.559534
-0.480653
-0.874507
0.326077
0.128593
0.664178
-0.407374
-0.151294
0.007978
0.993483
0.200569
-0.174725
-0.842280
0.968021
-0.173964
-0.573745
-0.496054
-0.691933
0.321710
-0.201363
0.349808
-0.391823
-0.525961
0.095303
0.855706
-0.449953
-0.111974
-0.792774
0.605844
-0.330897
0.924181
-0.870154
0.656438
-0.299957
0.000705
0.958623
0.631564
0.176062
-0.747066
0.144018
0.464975
0.284028
0.943168
0.569560
-0.747949
-0.689520
-0.851089
-0.849758
0.116572
-0.035687
-0.107258
0.027096
-0.455832
0.982558
0.254804
0.317804
-0.567284
0.120364
-0.578114
-0.518767
0.596228
0.534039
0.039497
-0.604929
0.137506
-0.487231
-0.593017
0.196273
-0.477682
-0.501344
-0.245296
0.561855
0.954195
0.093047
-0.101910
0.318324
0.888006
0.451591
0.416602
0.702538
0.706106
-0.356280
0.055801
0.888939
-0.480479
0.337489
-0.311972
0.656403
-0.993268
-0.206568
0.378590
0.181664
-0.532369
0.865908
-0.380278
-0.874395
0.516675
-0.059234
-0.755125
0.351900
-0.833671
0.385058
-0.085661
0.837216
-0.554166
0.314169
0.583472
-0.778442
-0.885658
-0.499670
0.878216
-0.026336
0.965962
-0.483123
0.979168
-0.926735
-0.719524
-0.373388
-0.218174
0.973560
0.800653
-0.657027
0.974605
-0.687523
0.166076
0.760168
0.524252
0.435399
-0.882498
-0.476974
0.597071
-0.552109
0.015347
0.772907
-0.049713
-0.497218
-0.255321
0.792740
-0.638479
-0.701096
-0.809423
0.014903
0.422842
-0.734580
0.427623
-0.984608
0.326886
0.182084
0.433884
0.337833
0.249937
0.013889
-0.232222
-0.408293
-0.475192
-0.099101
0.403993
0.500611
-0.508777
0.180394
-0.016148
-0.951187
0.355159
-0.635612
0.912221
-0.648939
-0.558972
0.226078
0.463144
-0.072399
0.221066
-0.414479
0.958114
-0.699981
-0.500468
-0.825601
-0.654241
-0.841030
0.497995
0.493715
-0.963298
-0.608798
0.463356
0.070610
-0.462122
-0.852305
-0.901264
-0.412139
-0.146325
-0.612218
-0.199113
0.331001
0.997105
0.878151
-0.514661
-0.376173
0.864746
0.714864
0.598828
-0.387534
-0.658784
-0.910972
0.204863
0.574495
0.511853
0.138536
-0.374647
0.349458
-0.485749
-0.607751
-0.369208
-0.653332
0.239330
-0.797824
0.258572
0.203642
0.872649
0.447289
0.900434
0.318341
0.538046
0.229222
0.987796
0.607244
-0.187387
-0.518919
-0.100333
-0.904642
-0.213223
0.466956
-0.411949
-0.088231
-0.763109
-0.864929
-0.160712
0.635589
0.576625
-0.313890
-0.369056
0.405060
0.838808
0.689996
-0.298733
0.261467
-0.862966
0.949371
0.598847
0.828092
0.220056
-0.966522
-0.696834
-0.312024
-0.124245
-0.174494
0.581481
-0.582018
-0.977818
-0.207963
0.416841
-0.954475
-0.647814
0.238503
-0.415028
0.646131
0.413216
-0.825798
0.774802
0.506032
-0.256139
-0.381501
0.467305
-0.855760
-0.206477
-0.666234
-0.803754
0.471384
-0.580664
0.434724
-0.950322
-0.477878
0.241683
-0.309226
0.474243
-0.241786
0.761337
0.702672
0.771849
0.812422
-0.826981
0.523388
0.770833
-0.439675
0.827208
-0.717813
-0.402042
-0.053369
-0.926757
-0.158308
0.512785
0.943078
0.493214
-0.703002
0.930366
0.775633
0.444871
-0.334513
-0.223924
-0.007571
0.702927
-0.512107
-0.893364
-0.857683
-0.022192
-0.186904
-0.861164
0.151064
-0.575336
0.864146
0.133666
-0.000600
0.913988
0.154024
-0.799866
0.596474
-0.205398
-0.966266
0.345711
0.439269
0.203754
-0.158130
0.245881
0.716442
0.712666
-0.934990
0.942273
-0.789180
-0.462850
0.511325
-0.380099
-0.124959
0.344347
-0.139574
-0.949878
0.929444
0.702971
-0.569852
-0.650104
0.519074
-0.010316
-0.748233
-0.104450
0.031302
0.158112
-0.638772
0.785143
-0.022070
0.433077
0.407928
0.145358
-0.901290
-0.146534
-0.420944
0.939929
0.885258
-0.354710
-0.266563
-0.093413
0.956910
-0.295985
-0.760642
0.694436
-0.174388
-0.751129
0.461785
0.179835
0.966299
0.556104
-0.198907
-0.928228
-0.906726
-0.304380
0.845612
-0.976059
-0.425854
-0.789858
-0.326649
-0.702635
-0.926357
0.366599
0.026666
0.461954
-0.179548
0.400697
0.179681
0.654918
-0.928699
-0.536438
0.773188
0.086742
0.884696
0.673881
-0.897169
-0.845410
0.331458
0.067024
-0.301539
0.803027
0.028299
-0.194337
0.499979
0.105662
0.779394
-0.150836
-0.140553
0.103208
0.020858
0.744921
-0.927683
-0.143382
0.050792
0.424946
0.110511
0.584516
-0.551572
-0.091962
0.627055
-0.994363
-0.494490
0.666467
-0.669741
-0.365554
-0.815288
-0.271325
0.828533
0.375508
0.662027
-0.392649
-0.799793
-0.238997
-0.866951
-0.446130
-0.252020
0.874363
-0.585781
-0.152886
-0.058568
0.564569
-0.041453
-0.469251
-0.824270
-0.560156
-0.373063
-0.821152
0.353491
-0.649871
-0.031263
-0.980277
-0.780687
-0.592930
0.025023
0.634954
0.593483
0.705878
-0.730877
-0.173346
0.311748
0.718503
0.913215
-0.644509
0.512632
0.493012
-0.411719
-0.337321
-0.756947
-0.406064
0.719658
-0.785327
0.252041
-0.594275
0.193282
-0.492882
0.054729
-0.555057
0.835241
0.987045
0.373376
-0.588923
-0.796337
0.406289
-0.584928
0.569561
0.117995
-0.804646
-0.940620
-0.248255
-0.176984
-0.782244
0.157267
-0.791996
-0.616362
0.852413
0.562674
-0.815569
-0.866985
0.273594
-0.589622
-0.700566
0.000800
-0.425744
-0.025381
-0.499250
0.966928
-0.269579
-0.200832
0.181486
0.247518
0.383198
0.336540
0.034431
-0.165608
-0.830675
0.621150
0.936178
0.348940
-0.966545
0.554083
-0.824877
-0.903103
0.859638
-0.748195
-0.343128
0.622193
-0.617677
0.698173
0.924871
0.115376
-0.667690
-0.625339
0.220831
-0.123938
-0.118492
0.461288
0.395045
-0.562145
-0.725203
-0.025637
0.029041
-0.717765
0.331783
0.507175
-0.775418
0.390871
0.132497
-0.463056
-0.181823
0.527949
-0.990331
-0.605480
-0.296129
0.896742
0.573547
-0.151997
0.092442
0.588122
-0.205382
-0.230342
-0.094113
-0.446083
-0.817740
0.721910
0.231485
-0.146256
0.065364
0.401848
-0.126757
-0.349572
-0.637894
-0.379732
-0.317754
0.712852
0.574113
-0.877678
-0.391417
0.893354
0.810519
0.034115
0.877617
-0.476068
0.871871
0.273066
-0.209015
-0.103907
-0.777290
-0.667418
0.192761
-0.010026
0.974666
0.856581
0.146845
0.373138
0.800394
-0.037338
0.280334
0.199944
-0.959399
0.890581
-0.097375
-0.244895
0.365654
-0.869380
0.715018
0.392595
-0.945939
0.647107
-0.652375
-0.772992
-0.336991
0.842769
-0.347059
0.534688
0.604149
-0.926551
0.894125
0.567542
0.173979
0.603130
0.386687
0.531030
0.966958
0.241499
0.610891
-0.102026
-0.656005
0.845508
-0.576248
0.755481
-0.230017
0.919160
0.540739
0.020038
-0.932804
0.752881
-0.642289
-0.444019
0.001888
-0.035992
-0.289778
0.371546
-0.256321
0.397907
0.270924
-0.284894
0.231997
-0.517284
0.773694
0.149655
0.641190
0.262385
-0.311118
-0.050066
0.094106
0.473047
0.554209
0.837257
-0.898184
-0.267161
0.290204
-0.591228
-0.146255
0.416501
0.485478
0.954984
0.594998
0.611959
0.065649
-0.766169
0.661122
0.021798
0.749788
0.460710
-0.053081
0.407141
-0.280150
-0.147433
0.339399
0.285843
-0.971007
0.469817
0.245914
-0.760285
-0.905634
-0.747207
-0.168301
-0.614526
0.227620
-0.187706
0.145235
-0.036706
0.604043
-0.019195
-0.408005
0.959465
0.067401
0.234899
0.508709
0.674126
-0.520080
0.832222
0.409063
0.898275
-0.752153
0.450453
-0.267446
0.964309
0.927240
-0.225133
0.029003
0.719781
0.292900
-0.420519
0.900784
0.469975
0.937605
-0.035001
0.291242
-0.413911
-0.993753
-0.064124
0.685316
-0.506448
0.204808
-0.737357
-0.179444
-0.770341
-0.802400
-0.058696
-0.017413
-0.176296
0.929055
-0.349270
0.658092
0.922982
-0.793194
-0.252092
0.742348
0.900248
-0.211711
0.161580
0.075619
-0.016114
0.042710
0.738501
0.004418
-0.077235
0.654222
0.544733
-0.265436
-0.879548
-0.867982
-0.692718
0.852047
0.543707
0.643735
-0.378002
0.917771
0.746100
-0.264065
0.531949
-0.605498
0.882841
-0.953053
0.463997
-0.060768
0.602138
0.083915
-0.080949
-0.371805
0.753229
0.514109
-0.446921
0.931622
0.740982
0.522802
-0.682936
0.672108
-0.008605
-0.609898
0.391615
-0.117275
-0.793665
0.550946
-0.399619
0.051676
0.580592
0.368769
-0.407325
0.645243
-0.748700
-0.391035
0.895147
-0.714617
0.281352
0.736958
0.141768
-0.715971
0.124797
-0.557428
-0.153049
0.512700
-0.676381
-0.048365
-0.092670
0.819768
-0.824258
-0.814845
0.409725
0.105254
-0.139166
0.305159
0.557791
-0.183344
-0.897504
0.390375
-0.756385
0.735372
-0.152258
0.775816
0.579559
0.437354
-0.597183
-0.068852
0.968861
0.109052
0.264449
-0.443072
-0.907624
-0.133716
-0.011063
-0.475732
-0.833810
0.730415
-0.119839
-0.500723
-0.208731
-0.941709
0.473962
-0.156660
-0.678344
-0.911935
0.007203
-0.015975
0.856186
0.752967
-0.075348
-0.479765
-0.219312
-0.446348
0.608833
0.374284
0.909936
-0.473048
-0.740658
0.178723
-0.197301
-0.281767
-0.636162
-0.331540
-0.002661
0.129936
-0.059455
0.262466
0.579531
-0.199785
0.197133
0.616524
0.013712
-0.930846
-0.317378
0.083156
0.756069
0.578627
-0.118532
-0.045702
-0.716717
0.449424
0.578443
-0.196801
0.914954
-0.545927
0.724737
-0.110520
0.655584
-0.270360
-0.045043
-0.192424
-0.720696
0.183837
-0.442129
0.404767
-0.788199
0.067426
-0.994943
-0.866920
-0.882074
-0.884649
-0.968850
0.446727
0.704201
-0.907222
-0.049448
0.554898
-0.840208
0.664651
-0.919097
0.366269
-0.661509
0.221563
-0.108184
0.250615
-0.095526
-0.357205
-0.877645
-0.473645
0.474624
-0.362474
-0.262235
-0.234553
0.672285
0.313620
0.267076
-0.243493
-0.804109
-0.076006
-0.197565
-0.527691
-0.155640
-0.447735
-0.134487
-0.049245
-0.366474
-0.526498
-0.851900
0.092998
0.358751
-0.925086
0.662059
-0.563227
-0.104377
-0.312377
-0.103182
-0.774147
0.800736
-0.325119
-0.114192
-0.207753
0.781127
-0.643367
0.558426
0.786528
-0.530725
-0.337648
0.060314
-0.340367
0.636646
0.605047
0.333196
-0.404964
0.759925
-0.679504
-0.446907
0.813156
0.375031
0.868205
-0.342245
-0.362820
-0.753066
0.352853
-0.454184
0.366692
0.479816
-0.703813
-0.915618
-0.867994
-0.239111
-0.970837
-0.619526
-0.530410
0.717275
0.299315
0.866053
0.791565
0.593139
0.997895
-0.404161
-0.758814
0.550652
-0.378819
0.401042
-0.820304
0.107368
0.688860
-0.870083
-0.092374
-0.167078
-0.127598
-0.994639
-0.655460
-0.826379
0.855081
-0.750615
0.890971
0.808937
-0.492796
0.308298
0.584116
0.164367
0.703325
-0.424573
-0.544332
-0.329690
-0.438962
-0.155186
-0.172407
0.732622
0.680399
0.022849
-0.079989
-0.688320
-0.091500
-0.582069
0.588550
0.706769
0.953646
-0.930928
-0.962471
-0.193921
-0.204715
-0.855808
0.633256
-0.606199
-0.753815
0.841507
0.050962
-0.224092
0.650326
0.083639
0.041620
-0.908813
0.942519
-0.139875
0.413267
0.573122
-0.494055
0.429991
-0.047765
0.263382
-0.817997
0.337066
0.318233
-0.140188
-0.211833
-0.867666
-0.439268
-0.044359
-0.051146
0.991045
0.305973
0.623640
0.346483
-0.395158
-0.081308
0.467390
0.052055
-0.742629
-0.497008
-0.977698
-0.775877
0.258130
-0.013168
0.746486
-0.400990
0.214664
0.706310
-0.358462
-0.786103
0.586929
-0.511474
-0.506934
0.495992
0.051424
0.650393
-0.452011
0.437119
0.974155
0.593995
-0.559777
-0.315035
-0.832577
-0.823021
0.020518
0.531452
-0.046060
-0.737621
0.225281
0.521697
0.829284
0.957285
-0.514335
-0.019532
0.299677
-0.475380
0.496117
-0.023216
-0.400263
-0.595678
-0.869944
-0.817285
-0.991255
0.117685
0.248466
0.153087
0.294569
0.670465
0.880799
-0.172379
-0.216834
0.686087
-0.003807
-0.094660
-0.548046
-0.757738
0.327138
0.229261
0.674843
-0.857081
-0.614597
0.936969
-0.545952
-0.354241
0.986336
0.915614
0.761040
-0.368355
-0.532609
-0.712762
0.330207
0.737124
0.980068
0.820949
-0.051203
0.429087
-0.188403
0.131474
-0.571279
-0.904817
0.543043
0.716630
-0.698896
-0.538806
-0.397381
-0.216027
-0.457619
0.268291
-0.623020
-0.886146
-0.120863
-0.978479
-0.876609
0.976042
0.351115
0.879526
0.408518
-0.919722
0.640826
-0.826821
-0.203190
0.848918
-0.083102
-0.426371
0.056809
0.475068
-0.150350
-0.950349
-0.867499
-0.707398
0.174950
-0.392863
0.013714
0.426405
-0.982117
-0.575875
0.277159
0.145700
-0.275024
0.044961
-0.462894
0.840199
0.358422
0.183757
-0.499268
0.289504
0.574115
-0.655958
0.129687
-0.807579
0.580903
-0.584546
-0.930979
0.281077
0.793582
-0.618989
-0.032656
0.661054
0.568601
-0.522105
-0.706028
0.590785
0.894096
0.416783
0.198368
-0.452705
0.179035
-0.713600
0.322784
0.539206
0.710187
-0.806027
-0.339117
0.181867
0.607412
0.853502
0.725825
-0.202765
-0.687320
0.013082
0.481865
-0.944599
-0.979689
0.316256
0.966208
0.639445
-0.626632
-0.453648
0.887436
0.239030
-0.368536
0.987077
0.966851
0.872996
0.362799
0.622826
-0.791530
-0.447104
-0.981713
-0.578177
-0.375023
-0.287855
0.509488
0.454348
0.415020
-0.135272
-0.396670
-0.764436
-0.745408
-0.561988
-0.537214
-0.663095
0.952788
-0.397924
0.350870
0.547366
0.047008
-0.501442
-0.296427
-0.717559
-0.385181
0.408840
-0.928208
-0.625550
0.351204
-0.691980
0.392006
-0.632457
0.876550
0.730140
0.096317
-0.276580
-0.707083
0.660801
0.238237
-0.989379
0.139163
-0.241799
-0.589972
-0.261757
0.263914
-0.345359
-0.699703
-0.855866
0.059175
-0.444679
0.666202
0.068053
-0.333610
-0.697754
0.945521
-0.444056
0.389109
0.184633
0.309439
0.201579
0.290611
-0.323125
-0.260702
-0.116875
-0.085457
0.082747
0.054011
-0.822407
-0.520035
-0.329433
0.161687
-0.290788
-0.595342
0.667692
0.325670
-0.233607
0.474282
0.550731
0.250632
0.678097
-0.621210
0.820554
0.771591
-0.620751
0.538788
-0.449177
-0.065485
-0.097110
0.770033
-0.068989
-0.825453
-0.568257
-0.190613
0.789939
-0.672180
0.122466
0.281017
0.932611
0.121454
0.807418
-0.035685
0.387596
0.000817
0.829712
0.230983
-0.190353
-0.994248
0.824787
-0.512282
-0.736755
-0.863265
-0.955507
0.304118
0.255256
0.748584
-0.864403
-0.545253
-0.235138
0.644750
-0.630891
0.675451
0.306880
0.082089
-0.864754
-0.951194
-0.880598
0.442234
-0.974927
0.722670
-0.557975
0.792078
0.586597
-0.007383
0.272156
0.840835
-0.323205
-0.837440
-0.393669
-0.012857
-0.600328
0.736595
0.717684
-0.264374
0.178708
0.184912
-0.061140
0.395927
0.359994
-0.345022
-0.291072
-0.389780
-0.628230
-0.631777
-0.524283
0.807140
-0.879292
-0.675983
-0.969372
-0.624463
0.303187
-0.778751
0.711182
0.081225
0.658091
0.228815
0.049672
0.715556
-0.981500
0.077041
0.151243
0.363749
0.770135
0.620828
-0.140207
0.123664
-0.971097
0.978751
0.065344
-0.507898
0.409094
-0.081463
-0.223705
0.048949
-0.038244
-0.138884
-0.155777
-0.036661
0.750403
0.970062
-0.950324
-0.578865
0.124142
-0.293356
-0.188843
-0.406936
-0.852928
0.524654
0.297943
-0.642531
0.537687
-0.305645
-0.172007
0.450140
-0.585309
-0.908962
0.805865
0.597944
0.386842
-0.532667
0.991696
0.242042
0.991742
-0.432761
-0.975191
-0.925796
-0.900862
0.998101
-0.512416
0.243374
-0.112532
0.072777
-0.005028
-0.958341
-0.681671
-0.940198
-0.772646
-0.525553
0.123902
0.134975
-0.615762
-0.643469
-0.474381
0.425210
0.398096
-0.756462
-0.077266
0.423507
0.318635
-0.770947
-0.073795
-0.572923
0.597048
-0.796038
-0.187134
0.020360
0.132117
0.398929
0.256385
-0.487785
0.735422
-0.445176
0.558573
-0.409115
0.031211
0.980266
0.761350
0.246179
0.764348
0.790779
-0.856715
0.642503
0.998718
0.763517
-0.175473
0.921898
-0.448954
0.176351
0.583699
0.431368
0.298244
0.330949
0.094619
0.068795
0.121617
-0.847904
0.168041
-0.674638
-0.846464
0.141863
-0.239234
0.231229
0.887359
0.146142
-0.345328
-0.154663
0.939330
-0.805448
-0.975685
-0.232563
-0.786456
-0.855211
0.862971
-0.219027
0.705861
-0.782340
0.336167
0.000598
0.158042
0.184740
0.122052
-0.437975
0.822024
-0.906884
0.996676
0.040607
0.723119
0.628950
-0.415267
0.701559
-0.323432
0.551191
0.774349
0.610194
-0.916626
0.715773
0.065300
0.334361
0.571599
-0.685418
0.737540
-0.993415
-0.702331
-0.230100
-0.756685
0.956829
-0.156755
-0.236027
0.076218
0.625665
0.939279
0.346212
0.971821
-0.006585
-0.825868
-0.429864
0.427330
0.735138
0.697598
-0.940545
0.014522
0.788237
-0.724971
0.753133
-0.060735
0.370563
-0.578753
-0.373734
-0.842038
-0.997138
0.298133
0.855732
0.959349
0.626952
-0.885532
-0.337807
0.786655
0.833669
0.483938
0.103619
-0.954262
-0.361176
0.641379
0.940072
-0.440087
-0.285660
-0.165438
-0.419227
0.495977
-0.496230
0.217924
0.792373
0.879729
-0.975882
0.259486
0.403243
0.899054
-0.973423
0.842893
0.882350
-0.646916
0.466527
-0.470800
0.374095
-0.539341
0.117585
0.000666
-0.175498
0.335341
0.384702
0.946470
-0.601025
0.540771
0.234780
0.753332
0.778564
0.444473
0.814566
-0.805001
-0.888311
0.507910
0.362557
0.191464
0.110793
0.182749
-0.522386
-0.681291
-0.782573
-0.741245
-0.645015
0.039438
-0.254061
0.262185
0.168999
0.774877
-0.040072
-0.271552
-0.772005
-0.473887
-0.957128
0.051002
-0.548608
-0.832724
0.366611
0.731360
-0.976390
-0.414887
0.341203
-0.083256
-0.337840
-0.608684
0.400576
-0.997015
-0.115581
0.733295
-0.077986
-0.024491
0.869185
0.406085
-0.887741
0.636738
-0.705648
0.077360
0.345721
-0.386777
0.804463
0.733348
-0.730178
0.433776
-0.158938
-0.763828
-0.192998
0.212418
-0.559588
-0.096040
-0.916011
0.928155
-0.423777
0.707232
-0.187364
0.010264
0.898925
0.514373
-0.282634
0.881796
-0.743594
-0.565228
0.924571
-0.147344
0.875869
0.875326
-0.689990
-0.463362
0.568178
-0.337196
-0.484168
-0.505773
-0.307769
0.666143
-0.989194
0.545295
0.910119
-0.445344
-0.970029
0.676030
-0.318617
0.350671
0.984469
0.769543
-0.703524
-0.355310
-0.461273
-0.174381
0.519757
0.365050
0.375642
-0.858952
0.460732
-0.687579
-0.273294
0.455633
0.409049
0.917884
0.716798
0.437780
-0.160894
-0.097069
0.545954
0.503189
0.627942
0.514191
0.606172
0.560077
0.131320
-0.738647
0.198627
0.697322
-0.965952
0.632432
-0.060610
0.656306
0.917432
0.162361
0.443985
0.058180
0.949938
0.736177
-0.647747
0.719921
-0.607968
-0.002974
0.225093
-0.198930
0.003934
0.970921
-0.502927
0.909591
0.241493
0.374130
0.844845
0.038105
-0.065741
0.516366
-0.081340
0.082852
0.644761
-0.764768
-0.927366
0.264488
0.541873
-0.263420
-0.707254
0.439127
-0.866173
0.567688
0.925108
-0.052511
-0.837937
-0.396233
-0.622899
-0.130586
0.809186
-0.561221
-0.938827
0.371447
-0.947468
0.220161
0.188063
-0.963146
-0.726329
-0.136055
0.028982
0.478638
0.592447
-0.637222
-0.602979
0.152607
-0.120254
0.445295
0.743879
0.753995
-0.283469
0.778992
-0.886573
0.464751
0.589795
-0.479285
-0.600913
0.413506
0.610483
-0.124578
0.914463
0.497743
-0.204835
0.361354
-0.892319
-0.085192
-0.285688
-0.433193
0.185514
-0.905836
-0.735659
-0.699834
0.716449
0.121221
0.146106
-0.915899
-0.998312
0.273154
-0.629630
-0.986745
-0.903512
0.023354
-0.326499
-0.891429
-0.307379
-0.233183
-0.739531
-0.201975
-0.870205
-0.677038
0.439140
-0.501865
0.887016
-0.216590
-0.033884
-0.882896
0.282036
-0.047387
-0.983612
0.141195
-0.955177
-0.568059
-0.974668
0.260872
0.464676
-0.661671
0.177164
0.851497
-0.427464
-0.807256
-0.548486
0.611241
0.317537
-0.405551
0.885752
-0.515161
0.376984
0.653642
0.057797
-0.622743
0.351346
-0.100938
0.432802
0.700844
-0.716081
0.748290
0.223189
-0.652830
-0.730551
0.637915
0.026087
0.001648
-0.245857
0.013629
0.779173
-0.588257
-0.596410
0.811333
0.984308
-0.134326
-0.044614
-0.385400
0.731584
0.166845
-0.445767
-0.805573
-0.143950
0.834874
-0.494600
-0.102663
-0.589184
-0.380827
-0.505045
0.198598
-0.947136
-0.169655
-0.170163
-0.079221
0.292314
-0.822396
0.600420
-0.331327
-0.925091
0.243873
0.765622
0.204742
0.940469
-0.885057
0.731842
-0.078510
-0.481143
-0.346510
-0.512756
0.023533
-0.784627
-0.925598
0.795658
-0.282020
-0.179520
-0.312879
-0.311891
0.053743
-0.717520
0.692488
0.349870
-0.707825
0.774826
0.301192
-0.860458
-0.482183
-0.900816
0.540763
0.923114
-0.705856
0.748662
0.620765
0.203033
0.883023
-0.191269
0.323912
0.689181
-0.295536
0.008061
0.685922
0.253648
0.750670
-0.525251
-0.026796
-0.459772
0.636881
-0.418982
-0.449695
-0.437481
-0.527164
0.638303
0.694460
0.345916
-0.165095
0.663789
-0.525260
0.435150
0.062529
0.048194
-0.761734
0.020061
-0.504392
0.853263
0.670368
0.197666
0.129528
0.766393
-0.541488
0.957684
-0.357318
-0.580074
0.394943
0.619577
0.757676
-0.101015
-0.344620
-0.846230
0.501193
0.660788
0.801782
-0.447852
0.169898
-0.812758
0.249620
-0.125329
0.188137
0.206279
0.132712
-0.256997
0.629654
0.903380
-0.050120
0.325899
-0.149662
-0.968320
0.073540
0.253242
0.332739
-0.282917
0.761309
-0.151098
0.144426
-0.885474
0.215578
-0.670578
-0.966511
0.149262
0.774671
0.576094
0.571622
0.002689
-0.353511
-0.445420
0.918247
0.101871
0.910336
0.113352
0.832454
0.609576
-0.294006
0.567722
-0.107009
0.796785
0.042644
0.401075
0.431179
0.163522
-0.881006
-0.995197
0.497742
-0.745797
-0.100424
-0.556315
-0.890738
-0.876638
-0.636970
0.378386
-0.428291
0.320547
-0.238987
-0.239630
-0.926730
-0.263776
-0.535715
0.947187
-0.702046
0.308538
0.447753
-0.798173
0.122596
0.845844
-0.039712
0.286379
0.100480
0.968792
0.096420
-0.966974
0.548169
0.169923
-0.893906
0.472071
-0.046899
0.324310
-0.537363
-0.367172
-0.069627
0.456211
-0.763264
0.659897
0.249473
0.869696
-0.041628
0.265596
-0.577778
0.691310
-0.529646
-0.792398
-0.566119
0.456755
-0.577488
-0.290395
0.718259
-0.167791
-0.359661
-0.879427
0.051169
0.903743
0.231283
-0.209411
0.707843
0.376952
0.159503
0.854640
0.451074
-0.455481
0.282513
-0.232854
-0.141619
0.040280
0.958017
-0.673858
0.314618
0.666920
-0.954175
-0.533087
0.670549
-0.262718
-0.537650
-0.763813
0.727301
0.791776
0.792078
0.121150
-0.889872
0.722736
0.066909
0.325240
-0.703688
0.513140
-0.690289
0.104473
-0.896579
0.859151
-0.111586
-0.885463
-0.155853
-0.142548
0.326744
0.171511
0.365716
-0.223021
-0.974715
-0.726605
-0.923110
0.557505
-0.476516
-0.133896
0.631340
0.128722
-0.105595
-0.025094
-0.721662
-0.879531
-0.897108
0.428529
0.372905
-0.998337
-0.423861
0.129789
-0.817820
-0.736740
-0.076637
-0.959653
-0.322751
0.903232
-0.984253
0.975148
0.513692
0.063599
-0.982832
-0.796546
-0.156490
0.741727
-0.102103
0.893370
0.369853
-0.069565
0.741315
0.811744
0.386448
-0.897237
-0.228707
0.769241
-0.794176
-0.994806
-0.525411
0.134237
0.559122
0.228762
0.982131
-0.740792
-0.489221
0.148168
0.987925
0.619732
0.627819
0.111703
-0.650532
-0.805989
0.686341
0.751873
0.233569
0.746676
0.183339
-0.312056
-0.250807
-0.305984
-0.935045
0.823238
-0.285146
0.453836
0.000279
-0.511764
0.383092
-0.245342
-0.176082
0.498820
0.144978
-0.501811
0.409417
0.179198
-0.273844
-0.408353
-0.048781
-0.097938
-0.780463
-0.940642
0.956427
-0.830559
-0.455748
-0.730164
-0.235702
0.896888
-0.232110
-0.542474
-0.045434
0.524009
-0.814866
-0.279521
0.758700
-0.980528
0.889327
-0.663080
-0.595054
0.672124
-0.660869
0.552903
0.492667
0.842063
-0.139202
0.701995
0.750966
-0.140280
0.591697
0.453264
-0.135464
0.311940
-0.584344
-0.057570
-0.837210
-0.860375
0.365460
-0.817357
-0.816372
-0.749164
0.174701
0.537627
-0.346169
0.858589
-0.065836
-0.577714
0.215194
-0.733229
-0.248431
0.090178
0.598622
-0.316057
0.903458
-0.132238
-0.226523
-0.412248
0.197166
-0.547792
-0.863986
0.447643
0.228462
0.084313
0.020271
0.416838
-0.841816
-0.506739
0.579006
-0.291353
-0.370833
0.478436
-0.565424
-0.398482
0.539051
0.439731
0.088661
-0.822725
0.343664
-0.616376
0.707426
-0.679314
-0.852282
-0.164986
0.158789
0.333339
-0.086514
-0.557429
0.581009
-0.891922
-0.571917
0.238840
0.003697
-0.705109
-0.776734
-0.431579
-0.228822
0.184386
0.028762
-0.154931
-0.839120
0.379304
0.697298
0.996423
-0.282121
0.246409
0.291244
0.762775
-0.288994
0.758678
-0.110093
0.578160
-0.174934
0.438275
0.995536
-0.258973
0.995939
-0.509220
0.086550
-0.478086
0.776422
0.072574
-0.361695
0.893884
-0.629729
-0.130236
-0.515342
-0.148687
-0.613495
0.708679
-0.670412
-0.972061
-0.387876
-0.489324
-0.529773
0.678986
-0.234957
0.657526
-0.610338
0.252709
0.854867
0.446808
-0.325384
0.467255
0.336025
0.910467
0.443472
0.151878
0.411893
-0.238162
-0.284702
0.911818
-0.486593
-0.923428
0.025148
-0.279751
0.663690
-0.533740
0.570979
0.413893
-0.536818
0.591196
-0.260743
0.743518
0.396103
-0.640248
0.611616
-0.987264
0.534720
0.422666
0.588118
0.605989
-0.961547
-0.526505
0.415713
-0.667225
0.282906
-0.173440
-0.355968
-0.866259
-0.762493
0.062994
0.436831
0.993214
0.916128
-0.076959
-0.302714
0.318625
0.791069
-0.344929
-0.578246
0.587366
0.631531
-0.178562
0.854646
-0.817653
0.531169
0.393521
0.282318
-0.296332
-0.225895
-0.261107
-0.392116
-0.067452
-0.679742
0.353341
0.038524
0.782727
-0.868712
-0.708114
0.759047
-0.650999
0.677143
-0.423800
-0.925308
-0.034740
-0.342067
0.589821
0.744211
0.892074
0.291290
0.767782
-0.072220
-0.698407
-0.975360
-0.149231
0.527950
0.972462
0.907109
0.165487
-0.160983
-0.006236
0.338368
0.529928
0.812358
0.810825
0.851654
-0.498192
-0.067443
0.181476
0.355349
-0.546631
-0.125086
0.583128
0.497209
-0.695034
-0.396470
0.462262
-0.520678
-0.654895
-0.736847
0.251031
-0.334115
0.765045
0.317997
-0.750968
0.875648
0.071881
-0.903331
0.350778
0.357497
0.173541
0.274037
-0.551710
0.372800
0.964132
-0.140836
-0.600779
0.310953
0.715462
-0.407324
0.954726
0.804187
0.020465
0.315585
-0.760708
-0.377979
0.222452
-0.224589
-0.992209
-0.584806
0.384212
0.817163
0.831741
0.350907
0.780076
0.210520
0.529035
-0.135408
-0.258364
-0.132525
0.810329
-0.657279
-0.199785
-0.577124
-0.353051
0.530796
0.283281
-0.834456
-0.755538
-0.707418
-0.149104
0.616242
0.293172
0.492644
0.232621
-0.147870
-0.891797
0.063976
0.215289
-0.920178
0.454822
0.402690
-0.861033
0.777983
0.682815
-0.875549
0.441618
-0.523750
-0.627263
-0.270197
0.703794
-0.830612
-0.834043
-0.891884
-0.966569
0.712940
-0.379446
0.619982
-0.804808
0.110939
0.146736
0.032879
0.331496
-0.077800
-0.316762
-0.741986
0.630873
0.958103
-0.885557
-0.814716
-0.590477
0.040908
-0.967122
-0.394784
0.881028
0.382699
0.146520
-0.519264
0.912347
-0.004149
0.843144
0.948833
0.227802
-0.162387
0.835514
-0.928303
-0.904428
0.698329
0.165282
-0.260570
0.002633
0.357755
0.084351
-0.866963
0.890669
-0.600955
-0.281129
0.865766
0.826619
0.332848
-0.705599
-0.249681
-0.570026
0.178825
0.900047
0.663053
-0.825632
-0.643316
0.962322
-0.735261
0.788530
0.456316
-0.948800
0.682829
-0.427530
-0.755182
0.051865
-0.538079
-0.625977
-0.206395
0.538785
-0.014971
-0.717491
0.297526
-0.654236
0.376699
0.252638
-0.341752
-0.205366
0.764102
-0.261215
-0.979107
-0.472447
0.892547
-0.787343
0.686466
-0.974422
0.553304
0.857394
0.740150
0.196495
-0.361313
-0.594622
-0.771893
-0.565544
0.020350
0.492404
-0.597345
-0.162826
0.689838
0.834854
-0.683377
0.382759
0.497820
0.400513
0.937175
-0.254951
-0.724844
0.635934
0.058479
0.391804
0.043537
0.187697
0.838090
0.778489
-0.575923
-0.637091
0.453456
0.875748
0.705181
0.188419
-0.162805
0.116920
0.949712
-0.183079
0.681845
-0.427765
-0.611206
0.233641
0.131889
0.621429
-0.426718
-0.955529
0.251292
-0.978648
-0.038309
0.151089
0.697982
-0.052047
0.087725
-0.761728
0.512707
0.333988
-0.169757
0.579940
-0.696285
-0.487682
-0.378737
0.383178
0.581093
0.148260
0.014073
0.001291
-0.749626
-0.130379
-0.346040
0.406803
0.386808
0.967774
0.339502
0.612161
0.431923
0.682252
0.059877
-0.898112
0.908381
0.453884
-0.810941
-0.173330
-0.857016
0.735493
0.094859
-0.540948
-0.625181
0.573836
-0.345644
-0.158248
-0.726016
-0.318221
-0.619916
0.354231
-0.444152
0.675831
-0.918044
-0.903659
0.863429
0.766230
-0.667691
-0.725673
-0.881137
0.923102
-0.191861
0.088313
-0.923797
0.682951
0.864877
0.063446
0.831660
0.481099
-0.883031
-0.616105
0.948416
0.455371
-0.373709
0.257077
-0.487852
-0.146301
0.279173
0.787847
-0.510565
-0.599864
0.763892
-0.278178
0.379152
-0.149298
0.932468
-0.484474
-0.143890
-0.952691
-0.519548
-0.350374
-0.567525
0.767074
0.774940
0.489278
-0.079347
-0.906687
-0.340805
0.396992
0.840506
-0.227282
0.407477
0.896216
-0.111071
0.569756
-0.791174
0.088898
0.372944
0.990859
0.246542
-0.140811
0.577182
-0.594695
0.139193
0.091826
0.762718
0.234569
0.952801
0.167942
-0.530011
0.025543
-0.399495
-0.587604
-0.256050
-0.670491
-0.400332
-0.359090
0.506142
-0.619071
-0.353004
-0.879540
-0.795247
-0.383187
-0.667287
-0.736035
-0.741152
0.000228
-0.091973
-0.632252
-0.494837
-0.930982
0.422151
0.399124
-0.446483
0.289787
0.760940
-0.359404
-0.302589
-0.236459
-0.789395
-0.900973
-0.399554
0.002292
0.751621
0.072307
-0.293057
0.281958
0.924375
0.525568
-0.661358
0.243567
0.937173
0.373474
-0.781323
0.671463
-0.778246
0.750050
-0.437972
0.204733
-0.642293
-0.667599
0.867297
-0.318574
-0.711758
-0.931154
-0.406128
-0.776465
0.596022
0.777142
-0.369427
-0.227694
-0.959153
-0.059016
0.242482
-0.027417
0.100866
-0.739148
-0.655408
0.362793
-0.439081
-0.588583
0.797487
0.298352
-0.989947
0.896011
0.092378
0.588591
0.503066
0.899723
-0.444098
0.240327
0.448242
0.321850
-0.061657
-0.445505
-0.666841
-0.558824
-0.756759
0.808503
-0.514475
-0.999154
0.968512
0.131371
-0.453834
0.289785
-0.544303
-0.990532
0.045263
0.392889
0.635316
-0.727629
0.320944
0.604187
0.316451
0.870437
-0.836850
0.858583
0.837741
-0.857215
0.184828
0.315513
0.114586
-0.903986
0.503227
0.708525
0.415964
0.597666
-0.988293
0.311332
0.460200
-0.770059
0.331676
-0.850443
0.562018
0.629188
0.425437
-0.802689
-0.393360
0.841188
0.338122
0.198159
-0.267949
0.714318
-0.118555
0.955014
-0.320166
-0.988400
-0.471725
0.036766
0.112142
-0.136044
0.577456
0.547223
-0.655600
-0.584700
-0.110736
-0.235898
-0.059543
0.447845
0.912741
0.254855
-0.358295
0.510626
-0.848971
0.198243
-0.963710
-0.188426
0.229386
-0.249226
0.698304
-0.920517
-0.370753
0.054790
-0.993393
0.768183
-0.055232
0.109515
-0.582570
-0.849670
-0.352765
0.335238
0.156640
0.964342
-0.887389
-0.193149
-0.334385
-0.354814
-0.928750
0.347618
-0.428164
-0.947999
-0.129214
-0.851169
-0.480444
-0.633897
-0.721414
-0.516289
-0.717988
0.904882
0.645758
-0.300612
-0.802648
-0.295605
-0.239536
0.233705
-0.326977
0.749263
-0.369908
0.369762
-0.358006
0.350780
0.155238
0.468371
0.345319
0.026851
0.015735
-0.976895
0.404394
0.941373
-0.885133
0.080503
0.721928
-0.045066
-0.333907
-0.102698
-0.352729
-0.967525
0.486919
0.160031
0.626123
0.441102
-0.227303
0.314684
0.386825
0.825585
0.822538
-0.663571
-0.699879
0.875117
0.596945
0.580017
-0.914842
0.081127
0.202946
0.541288
0.005556
0.675352
-0.090699
-0.850103
-0.388284
-0.969003
0.647685
0.951997
0.108197
0.767819
-0.538356
0.727292
0.664378
-0.932081
0.289884
-0.767994
0.242342
0.187851
0.985566
0.654056
0.972383
0.462233
0.566287
-0.799013
-0.642797
0.767198
-0.642491
-0.847639
-0.632868
0.410227
-0.188669
0.634191
-0.825364
0.109410
0.908658
-0.104780
-0.857508
-0.689372
-0.145632
-0.097111
0.375659
-0.650126
0.612592
0.420762
0.020411
-0.900389
-0.293987
-0.901706
-0.259323
0.742366
0.081169
-0.709885
0.732759
0.037337
-0.385985
-0.053953
-0.038113
0.494649
0.952440
0.598033
0.538416
-0.285772
0.781202
-0.537412
-0.536016
-0.880623
0.071069
-0.830141
0.990119
-0.892090
0.851816
-0.505203
-0.576648
0.940928
-0.634520
-0.693772
-0.265296
-0.967359
-0.444420
-0.546174
0.252141
0.785094
-0.842602
0.880253
0.955059
-0.729719
-0.853057
-0.774077
-0.687087
-0.726546
0.338468
-0.428616
-0.811838
-0.098831
0.812962
-0.817549
-0.631561
0.339600
0.587118
0.228100
0.517280
-0.685356
-0.246872
0.134182
-0.203876
-0.338461
-0.135521
-0.902435
0.436924
-0.512793
-0.807410
0.649864
0.333790
-0.138197
0.694972
0.620659
0.510700
0.079719
0.906196
-0.211458
-0.959095
-0.080678
-0.633036
-0.775431
-0.913321
-0.765860
-0.313454
0.413779
0.404886
0.494263
-0.031254
0.308143
-0.262438
-0.756939
0.437975
0.261645
-0.436464
0.185349
0.846649
0.951142
-0.480015
0.018890
0.588134
-0.647512
0.108247
-0.684412
-0.868416
0.573728
-0.289452
-0.795412
0.352310
0.642887
0.718366
0.734581
-0.947630
0.878175
0.778493
0.774460
0.776721
-0.566815
-0.910870
0.834445
0.931184
0.202242
0.008985
-0.338060
-0.274932
0.657616
-0.881914
0.074750
-0.499285
-0.965154
-0.575571
-0.714901
0.292793
0.309945
0.478382
0.865810
-0.888452
-0.421003
-0.037501
-0.692333
0.082681
0.097498
0.080135
-0.285012
-0.288669
-0.777053
0.820174
-0.230394
-0.727057
-0.766363
0.942678
0.150189
-0.468610
-0.722850
0.215588
0.565101
-0.243698
-0.037502
-0.461046
-0.886753
-0.009495
0.693053
-0.365770
0.306366
-0.853304
0.947008
0.162730
0.887861
-0.911945
-0.606808
-0.956463
-0.684600
-0.198571
-0.879670
-0.178741
-0.231962
-0.112824
0.002140
-0.564320
0.351136
0.557748
0.690232
-0.636320
-0.446396
-0.477559
0.522336
0.585548
0.026654
0.643542
0.193946
0.520095
0.016547
0.959926
0.546792
-0.496182
0.479858
0.594367
0.234923
-0.695423
0.399566
-0.692876
0.319866
0.207286
-0.207781
-0.585324
-0.975839
0.956380
0.961703
-0.517818
-0.928943
0.356707
-0.053858
-0.392585
0.512110
-0.468913
-0.931512
0.880633
0.030722
0.147622
-0.456605
-0.432317
-0.135370
-0.495922
-0.566514
0.116875
-0.381639
-0.793884
0.466678
-0.970842
-0.122181
-0.765727
0.141325
0.793650
0.765010
0.906567
0.856458
0.510520
0.339778
0.511875
0.742529
0.996417
0.146395
0.345405
0.756299
0.119257
-0.171760
0.984427
-0.742959
0.756507
0.980033
0.829184
0.489712
0.256757
0.030978
-0.349120
-0.171318
0.582584
-0.695415
-0.376429
0.091596
-0.767385
0.525305
-0.282182
-0.334510
0.705324
-0.146634
-0.455489
0.747343
0.493421
0.623336
-0.021894
0.816254
0.204157
0.050587
-0.210915
-0.166364
-0.244407
-0.288820
-0.270917
-0.377540
-0.990040
0.836582
-0.772782
-0.158215
-0.297902
-0.344761
0.878939
0.745767
0.181259
-0.144466
-0.069389
-0.864712
0.278005
-0.161645
0.243975
0.046964
-0.414332
-0.569228
0.513009
-0.031816
0.007975
0.137177
-0.487344
-0.052322
0.811664
0.318319
0.626558
-0.140372
0.902293
0.466532
0.599226
0.490966
-0.400775
0.151307
0.176087
0.970641
0.626765
-0.368667
0.651594
0.596168
0.714686
0.393498
0.239397
-0.164135
0.686599
-0.164361
-0.115479
0.433981
-0.391442
0.912860
0.364519
-0.785368
0.325272
-0.944731
0.689241
-0.811025
-0.191096
-0.588152
-0.868715
0.736003
-0.670444
-0.977705
0.042811
-0.740456
-0.331895
0.823736
-0.769435
-0.520295
-0.316119
-0.984929
-0.230704
0.554667
-0.034151
0.803042
0.995235
0.756540
-0.996271
0.642221
-0.926330
0.688405
-0.002776
-0.375815
-0.064257
0.713666
0.213689
0.980304
0.241549
-0.987816
0.413411
0.580276
0.466494
0.026560
-0.095879
-0.456928
-0.613384
-0.586346
-0.133218
-0.181647
0.108224
-0.585642
0.908560
-0.516116
0.615100
0.254822
-0.258037
-0.990432
0.393032
-0.215497
-0.612767
-0.372341
0.664188
0.776602
0.148725
0.083402
0.962484
-0.811942
0.615592
0.346703
-0.523659
-0.431949
0.980711
0.706808
0.941581
0.778153
0.030242
-0.532424
0.070206
-0.431408
0.568009
-0.254541
0.965855
-0.865369
0.957243
0.478577
0.540280
0.281502
-0.592660
-0.280207
-0.315707
0.339624
0.032182
-0.513317
0.907805
-0.165323
0.944625
-0.841131
0.444496
0.272757
0.887697
-0.382295
0.813816
-0.666802
0.937471
0.540448
0.923319
-0.284560
0.726920
0.960977
0.374339
0.352764
0.233704
-0.570573
0.710058
-0.856632
0.424284
0.028951
-0.569082
-0.817751
0.668452
-0.371535
0.902332
0.684319
0.863914
0.947978
-0.589231
0.878161
0.512920
-0.966697
-0.859510
0.646599
0.292468
0.740597
-0.262977
-0.772351
0.757485
0.455190
-0.416930
-0.416950
-0.350371
0.928748
-0.042687
-0.344938
-0.993472
-0.857802
-0.138362
-0.452028
0.792681
-0.769990
-0.290124
0.454310
0.401340
-0.877839
0.798200
-0.477541
0.491137
-0.774091
0.834843
-0.286236
-0.097193
0.410288
-0.628241
-0.432214
0.558228
0.800284
0.615107
0.280095
0.890521
-0.820041
-0.011151
-0.622072
0.717266
0.371039
-0.387918
-0.608610
-0.516222
0.266230
-0.344628
-0.042542
0.751428
0.489780
-0.529391
0.844188
0.192807
0.790751
0.283659
0.648509
-0.727752
-0.721304
0.923566
0.592618
0.065787
0.527250
0.258616
-0.130253
0.527435
-0.474268
0.896795
0.417031
0.252025
-0.018394
0.951224
0.332069
-0.746184
-0.378170
-0.983109
0.739616
0.300216
-0.775729
0.554769
-0.644845
-0.562025
0.206522
-0.891542
-0.088149
0.098754
-0.146332
0.075870
-0.982200
0.984604
0.587607
0.929753
-0.498303
0.458405
0.625963
0.948333
0.154539
0.524427
0.447887
-0.002759
-0.482709
-0.948618
0.112977
0.280950
-0.019493
0.127969
-0.117665
0.067665
-0.240727
-0.783521
-0.674859
0.163561
0.432516
-0.515428
-0.088333
0.707570
0.443828
-0.759178
0.352375
0.860670
-0.400630
0.933666
0.907750
0.296693
0.403877
0.079115
0.169203
-0.911337
0.706746
0.546046
0.870665
-0.470063
-0.652530
-0.958714
0.554516
-0.873770
0.684353
-0.302646
0.421226
-0.656632
0.163241
-0.932187
-0.687608
0.189405
0.249303
-0.763345
-0.013065
0.565267
0.100838
0.242444
0.797031
0.474130
-0.348118
-0.953936
0.145102
-0.085606
-0.001375
-0.996231
-0.296974
-0.862202
0.002064
0.035497
0.382497
0.082939
-0.034259
-0.734823
0.594182
-0.217945
0.052202
0.726469
-0.194074
0.161785
-0.112367
-0.298116
0.680597
0.506942
-0.516942
-0.833554
-0.047094
0.295758
-0.911663
-0.521455
0.131577
0.641172
0.340471
-0.723825
0.948130
0.316936
-0.686234
-0.718455
0.936718
0.235698
-0.342679
0.613776
-0.526366
0.699611
-0.657068
-0.131833
0.095670
0.464302
-0.751582
-0.610446
-0.581742
-0.293589
0.785080
-0.713615
0.857246
-0.788630
0.970112
-0.077549
-0.142541
-0.053541
-0.899317
-0.341970
0.397769
0.942605
0.089041
0.191179
-0.300984
-0.349859
-0.935341
0.614615
-0.865858
-0.079388
0.586625
-0.133043
0.029666
-0.922911
0.494620
0.344589
-0.367970
0.135687
-0.692978
0.998098
0.347954
0.026237
0.323734
0.626632
-0.701403
0.692920
-0.297881
-0.029558
-0.550318
-0.951588
0.082057
0.238006
0.920703
0.588081
-0.492094
-0.984762
-0.117485
-0.130778
0.228048
-0.361407
-0.708605
0.405315
-0.087465
0.374248
-0.185162
-0.695242
-0.402938
-0.729807
0.397929
-0.500210
0.257061
-0.129612
0.200219
-0.298131
-0.522077
-0.863228
0.693699
-0.499503
-0.907620
-0.802967
-0.144166
0.281538
0.377788
-0.788092
0.417776
0.179127
0.699425
-0.843906
0.154514
0.300579
0.461590
-0.381247
0.772378
0.173886
-0.246272
0.890733
-0.010003
-0.662542
0.757145
-0.669420
-0.889249
0.977687
0.378028
-0.857471
-0.735173
0.353059
0.794493
-0.474771
-0.337419
0.955991
0.336361
-0.001745
-0.566333
-0.738690
0.525682
0.346228
0.071569
-0.159084
-0.578656
0.572731
0.432552
-0.392559
-0.253497
-0.490611
0.984371
0.548565
0.864806
-0.282333
-0.320196
-0.031312
0.988193
0.645894
0.755411
-0.325546
0.745927
0.128490
-0.378150
0.440274
0.887109
-0.643052
0.244924
0.810355
-0.776016
-0.663475
-0.501181
0.778472
-0.065420
-0.193112
-0.750592
-0.900693
0.459003
0.521578
0.897969
0.844244
-0.612633
-0.819806
0.203389
-0.241713
-0.019915
0.099370
-0.437535
-0.361251
0.930570
-0.409606
0.793139
0.302680
-0.762278
0.246529
0.299325
-0.715566
0.174417
-0.619760
0.513220
0.541939
0.961301
-0.953286
-0.911658
-0.486356
-0.478473
-0.836985
0.771797
-0.324924
-0.384144
0.483015
0.950812
-0.083992
0.958370
-0.818978
-0.111881
0.870619
-0.956347
0.738837
0.504299
0.575037
-0.376913
-0.859762
0.410139
-0.766973
0.096648
-0.031495
-0.419096
0.237807
0.142689
0.023341
-0.798577
-0.783685
0.831133
0.049320
-0.884608
0.774126
0.065056
0.960659
0.088641
0.088190
-0.711252
0.658914
0.668726
0.545701
0.116811
-0.989317
0.911811
-0.719672
-0.720961
0.103863
0.594015
-0.706999
0.537703
-0.897542
-0.637788
-0.356064
-0.298387
-0.604255
0.671258
-0.637036
-0.862921
-0.750897
-0.843300
0.005403
-0.399637
0.744925
0.863419
-0.094224
0.884697
-0.883610
-0.083948
0.314562
-0.368956
-0.707008
-0.388472
-0.616689
0.244005
-0.426741
-0.008003
0.137384
0.800709
0.794702
-0.848352
0.744396
-0.273854
-0.623369
-0.429712
-0.636399
-0.275730
0.625729
0.999432
0.153863
0.428330
-0.274225
-0.018088
0.249752
0.508971
0.542374
-0.803171
0.975994
-0.040038
0.429671
-0.141071
0.737207
0.466933
0.847120
-0.946724
-0.046696
0.710595
0.421518
0.429829
0.990541
-0.898948
-0.002048
-0.479502
0.283967
-0.977275
-0.718318
0.379875
0.458382
0.110899
-0.092914
0.279749
-0.243362
0.041117
0.582501
-0.004343
-0.980319
0.016166
-0.288641
0.045190
-0.899733
-0.894439
-0.971278
-0.510218
-0.818419
0.141251
0.872687
0.518026
0.374427
0.378117
0.014944
0.630873
0.095010
0.023095
-0.816797
0.813349
-0.300306
-0.693197
-0.763408
-0.823351
-0.763234
0.959663
0.229394
0.550016
-0.127545
-0.017311
0.972900
-0.618352
0.413893
-0.498651
0.527238
-0.913039
0.065708
0.980989
-0.348012
-0.412611
-0.108719
0.854127
0.873018
-0.257930
-0.616604
-0.805692
0.364886
-0.408434
-0.244985
0.380409
-0.383517
-0.344162
0.199725
-0.840909
0.617706
0.684134
-0.882558
-0.385250
0.642181
0.180870
0.998167
0.579895
0.868997
0.604755
-0.733332
-0.688288
-0.069161
0.951033
-0.621772
0.943004
0.514393
0.427541
-0.706305
-0.266870
0.433855
-0.220724
-0.039836
-0.213438
0.220415
-0.113918
-0.809536
0.691410
0.574491
-0.201947
0.548468
0.705305
0.585577
-0.270262
-0.950250
0.316879
0.286434
-0.648852
0.912022
0.413853
0.611220
-0.687097
0.803642
0.975936
-0.806955
0.080928
-0.287001
0.547041
-0.552720
0.681707
0.694987
-0.122178
-0.359721
0.767228
0.671986
0.636151
0.027800
0.054813
-0.544761
-0.959849
-0.275035
0.106941
-0.367911
0.812655
-0.739892
0.563127
0.628041
-0.750812
-0.498981
-0.476654
-0.880497
0.211498
-0.170554
-0.386569
0.251606
0.457359
0.863266
0.062550
-0.763440
-0.393751
0.112214
-0.559060
0.811598
0.044225
-0.009124
-0.069081
-0.929272
-0.768176
0.359544
0.144011
-0.231970
0.665364
-0.138555
0.511045
-0.716255
-0.614670
-0.404454
-0.957194
0.796344
0.334775
-0.352765
0.873921
-0.206865
0.503852
-0.110643
0.381717
-0.840998
-0.581804
0.755124
-0.212375
0.420478
0.634992
-0.897284
-0.629446
-0.268330
0.707019
0.457224
0.093962
-0.723700
0.707137
-0.682252
-0.678767
0.538966
-0.503233
0.226282
0.941520
-0.813505
-0.953608
-0.714333
-0.512650
-0.041843
0.053899
0.065261
0.634869
-0.924667
-0.727489
0.820056
-0.421551
0.503253
-0.155733
-0.683290
-0.695675
0.058803
-0.893441
0.217698
-0.340224
0.057592
0.523546
0.770614
0.378882
0.023607
0.567583
0.536686
0.491652
-0.740907
-0.007011
0.830059
-0.656564
0.184953
-0.081438
0.199897
-0.846141
0.877757
-0.098023
-0.968055
-0.208127
0.902480
-0.978575
0.048782
-0.858223
-0.747291
-0.990751
-0.142421
-0.109519
0.195538
0.069574
0.331464
0.107549
0.071322
0.752097
0.885841
-0.926103
-0.429941
0.643137
0.175377
0.529588
0.773510
0.712412
-0.702162
0.382847
0.094157
0.233559
-0.852397
-0.121054
0.035448
-0.772196
0.768974
0.274198
-0.106835
-0.470495
0.089391
0.065088
-0.086608
-0.152583
-0.338034
0.784230
-0.965557
0.921430
0.561905
-0.248006
0.719338
0.039805
-0.417438
-0.079641
-0.969763
0.981065
-0.187311
-0.884969
0.629273
0.093577
-0.958961
-0.412441
0.553816
0.441803
0.061967
-0.275614
-0.776850
-0.958065
-0.087517
0.571024
-0.653756
-0.508814
-0.309808
0.626446
-0.312355
-0.669225
0.290040
0.392965
0.612608
-0.102759
-0.070713
-0.682405
-0.778816
0.372785
-0.925269
-0.574441
-0.758272
0.710324
0.813228
0.012007
-0.497409
-0.045599
0.598977
0.898893
0.518097
-0.468453
0.107681
-0.626598
0.139498
-0.762487
0.859040
0.296540
-0.780053
-0.606776
-0.300796
-0.374396
-0.590905
-0.354224
-0.430408
0.130127
-0.839466
-0.456139
0.968236
0.075012
-0.848391
0.871070
0.000900
0.667018
-0.155165
0.767582
0.267284
0.922927
0.158399
0.146999
0.887778
-0.997357
0.374565
0.660928
0.283779
-0.664261
-0.168788
0.453453
0.257997
0.080481
-0.381590
-0.834395
0.838446
-0.715380
-0.216441
-0.637114
-0.407812
0.656787
0.324318
0.443443
0.153459
0.531777
0.171017
0.119476
-0.588334
-0.288927
-0.674728
-0.189663
0.543357
-0.550966
0.794432
-0.313578
0.178096
0.613584
0.627856
0.433201
-0.163291
0.604530
0.678929
-0.109678
0.431171
0.644662
0.912499
0.857085
0.694958
-0.178193
0.655164
0.181031
0.122948
-0.850107
-0.818386
-0.684436
-0.272532
-0.614030
-0.734214
0.931806
0.314969
0.814795
0.052563
0.045592
-0.299527
-0.201954
-0.019068
0.439749
-0.457225
-0.540635
-0.412101
-0.124451
0.993216
-0.483983
0.570763
0.070629
0.216164
-0.770104
-0.740410
-0.469705
0.825749
0.104247
-0.397512
-0.855572
0.151595
0.304437
0.064762
0.800254
0.759095
-0.602353
0.691422
-0.845594
0.219993
-0.176140
0.963217
0.333685
0.249023
0.554205
0.745895
0.511085
-0.962571
0.793331
-0.483321
-0.243581
0.264728
0.875224
-0.536892
-0.827086
-0.135366
-0.731263
-0.560560
0.462342
0.340684
0.551184
-0.748704
0.890956
-0.788748
-0.998198
0.476456
0.800538
0.361021
0.623841
0.397534
0.872852
0.502606
-0.762076
-0.163954
0.318462
0.492599
0.656948
0.302826
0.582569
0.192788
-0.558588
-0.540127
0.844502
-0.512674
0.098288
-0.486215
0.674281
0.807740
-0.089474
0.518674
0.610570
0.924969
0.600590
0.806898
0.869898
0.418645
0.363802
0.761550
-0.731082
0.459577
0.257746
-0.029997
0.576857
-0.300373
-0.510213
0.614070
0.892704
0.101755
-0.267690
0.149928
0.347206
0.720156
0.062450
-0.869399
-0.147947
0.594115
0.775213
0.454585
-0.518695
0.110383
0.810078
0.427124
0.829269
-0.480989
-0.834836
-0.630499
0.160976
0.967842
-0.475391
-0.285268
-0.215251
0.697009
0.713084
-0.474592
0.159713
0.594350
-0.880682
0.835400
0.686249
-0.322841
-0.669336
0.112676
-0.704627
0.918188
-0.649486
-0.460285
0.956987
0.576920
-0.616697
-0.855361
-0.483484
-0.432715
0.072320
-0.629146
0.046786
0.514103
-0.627433
0.953178
0.576810
-0.984073
0.414014
-0.548269
-0.643948
-0.122555
0.426094
-0.145895
-0.004088
-0.264678
-0.743048
-0.776033
-0.538950
0.134839
-0.149658
-0.647392
0.251600
0.833665
0.955070
0.828141
0.423102
-0.639836
0.142333
-0.613487
0.744328
-0.068880
0.203252
-0.795865
-0.650768
0.138025
0.970336
0.045564
0.671581
-0.152935
0.854549
-0.867844
-0.048308
0.904606
-0.992244
0.312318
-0.407663
-0.525870
-0.819276
-0.554874
-0.551786
0.772096
-0.498207
-0.916327
0.967582
0.020171
-0.028996
0.178986
-0.867910
-0.236772
-0.243007
-0.587003
0.023848
-0.458385
-0.098006
0.050369
-0.430035
-0.614163
0.035058
0.402413
0.585337
0.596918
-0.371537
0.767781
-0.710717
0.370858
-0.933982
0.297112
0.267217
-0.012338
-0.947399
-0.728826
-0.345123
-0.285459
0.552076
0.668939
0.276522
-0.466714
0.927292
-0.019986
-0.315390
0.836985
0.041086
0.030139
-0.576231
-0.684674
0.072673
0.716506
0.903099
0.582218
-0.626464
-0.262936
0.026977
-0.372910
-0.840292
0.878401
-0.022751
-0.628626
-0.406608
0.984767
-0.295589
0.379305
0.738322
0.409242
-0.098523
-0.115530
0.778684
0.653400
-0.373447
0.689722
-0.386488
0.624301
0.254637
-0.088968
0.477896
0.432702
-0.825533
-0.077437
-0.874955
0.694043
0.289423
-0.720585
-0.235689
-0.214875
-0.396882
0.689455
-0.782214
-0.466533
0.542704
0.519872
-0.668861
-0.948554
0.326339
0.131028
0.987842
0.092208
0.966159
0.197607
-0.046498
0.483207
-0.381046
0.475244
-0.896038
0.834942
-0.778948
0.865402
-0.180479
0.301154
-0.401943
-0.386785
-0.847166
-0.156683
-0.332339
0.246379
-0.085676
0.111240
0.698161
-0.343870
-0.761285
0.834742
0.115918
0.491831
0.490165
0.387929
0.594693
0.765908
0.543797
-0.365709
-0.071120
0.582940
-0.123689
0.137169
-0.463951
-0.530858
-0.583340
-0.390645
0.893511
0.241764
-0.857854
0.399221
-0.839886
0.642172
0.363730
0.959531
0.606113
0.276705
0.678352
0.601627
-0.467144
0.083359
-0.466255
0.752179
0.623689
-0.633575
-0.396731
0.186060
0.014006
0.878357
-0.851123
0.946666
-0.074918
-0.045583
-0.354549
-0.546361
0.998829
0.198918
0.215770
0.283168
0.931401
-0.677247
0.339875
-0.564283
-0.431878
-0.081788
-0.598429
-0.643717
-0.772886
-0.630947
-0.991926
-0.782567
0.761024
-0.614623
0.257898
0.240421
-0.689651
0.717643
-0.137275
-0.051968
-0.629455
-0.205582
0.793708
0.891122
-0.924098
-0.722669
-0.359348
0.475035
-0.723792
-0.630632
-0.357569
0.479361
-0.840985
-0.509101
-0.398382
0.724186
-0.458086
-0.325724
0.987503
-0.859992
-0.124614
0.718930
0.222575
-0.550390
0.755767
-0.611100
-0.239681
-0.553897
-0.512612
-0.101540
-0.130449
0.496070
-0.763858
0.776769
0.033418
-0.259482
-0.141642
0.264062
0.377601
0.480700
0.694487
-0.306159
0.005216
0.214644
-0.016053
0.499088
-0.723621
0.902633
-0.590312
-0.820828
-0.335159
-0.439011
-0.049754
0.842954
-0.871305
-0.839174
-0.283679
0.339260
-0.943400
0.993565
0.627030
0.787251
0.210173
0.557381
-0.646787
0.857298
0.163615
0.215203
-0.120132
0.385926
0.597105
-0.658824
-0.329793
0.012706
0.137628
0.588030
-0.676471
0.787880
-0.292019
-0.525953
0.513621
-0.877125
0.939541
0.392324
-0.995046
-0.216087
-0.447454
0.402708
-0.517741
0.512231
0.237772
-0.953206
0.109295
0.620034
0.397576
0.808546
0.537786
-0.224049
0.826284
-0.527621
-0.589127
0.787629
0.921852
0.597044
0.636449
0.405150
0.661562
-0.384462
0.403893
-0.503758
-0.875179
0.550145
-0.300584
0.328144
0.067589
0.719607
0.124541
0.948976
0.795987
-0.196316
-0.792625
0.922797
0.345003
-0.647227
-0.121219
0.894948
-0.650245
-0.965590
-0.609366
-0.649076
0.878293
0.525933
0.267377
-0.394028
-0.226737
0.430339
0.986711
-0.869454
-0.488096
-0.783378
0.939488
-0.908279
-0.267134
0.560473
0.707851
-0.063931
0.168754
0.034672
0.123575
0.602368
0.757040
0.451349
-0.708650
-0.819688
-0.221438
-0.110734
-0.088803
-0.350325
-0.464883
-0.026468
-0.337123
-0.980058
-0.555769
-0.278967
0.449915
0.611774
-0.226510
-0.132593
0.718642
0.720668
0.047667
0.665303
0.649263
-0.212611
0.499973
0.543236
0.027327
0.267766
-0.798986
-0.903130
-0.843516
0.716824
-0.715112
-0.351907
-0.043381
-0.939682
0.017554
0.955278
0.744042
-0.737274
-0.711254
-0.109548
0.180832
-0.735632
0.216147
0.608459
0.964741
-0.402676
-0.204172
-0.560966
-0.283896
-0.812312
0.932914
-0.089820
-0.734735
-0.391292
-0.410692
0.533669
-0.643708
0.055094
0.100861
-0.596900
-0.225105
-0.144314
-0.356808
-0.768592
0.073945
0.079554
0.033797
0.051737
0.665608
0.979532
-0.288555
0.971989
-0.688017
0.264363
0.209400
0.189074
-0.426610
0.419437
-0.129537
0.839208
0.049120
-0.381469
0.302751
0.246622
0.099199
0.956164
-0.181172
-0.026281
-0.231279
0.465626
-0.945892
0.554400
-0.798502
-0.774579
0.135385
-0.083787
-0.133385
-0.989211
-0.028355
0.462633
0.605063
0.691818
0.970341
-0.389637
-0.078396
-0.449492
-0.859443
-0.050839
0.966345
0.498844
0.915581
-0.431734
0.066773
-0.653003
0.514094
0.975219
-0.503195
0.642959
-0.431225
0.250482
-0.358302
0.306817
0.179550
0.555946
-0.812918
-0.960713
0.294687
0.428333
-0.799132
0.116976
-0.462936
0.390306
0.018421
-0.060172
-0.119521
0.408375
0.332891
-0.691035
0.444314
0.688773
0.435197
0.608912
-0.982888
0.223142
-0.258545
-0.116698
-0.132752
-0.605335
-0.766668
0.359383
0.460847
-0.715905
0.306780
-0.759562
-0.179642
0.149757
-0.390230
-0.215170
0.287875
0.663031
-0.383815
0.951256
-0.751912
-0.782494
0.539071
-0.380880
-0.517012
0.551795
-0.082057
0.302775
-0.792343
-0.633126
0.059642
-0.891307
-0.750749
-0.474257
-0.263264
-0.676510
-0.782162
0.950023
-0.980485
-0.905280
-0.586520
-0.794463
-0.519571
-0.146884
-0.366675
-0.217394
-0.266740
0.750855
-0.196673
0.760449
0.573301
0.709451
0.148085
-0.770447
-0.464718
-0.900839
-0.518107
0.647551
0.481422
0.948781
-0.772628
-0.903827
0.672738
0.681774
0.290721
-0.428345
-0.435670
0.902403
0.750477
0.653661
-0.213213
0.027380
0.387445
0.145791
0.917319
0.095868
0.917833
-0.959362
0.833586
0.765674
-0.461656
-0.338107
0.132031
-0.900136
-0.467449
-0.285345
0.352288
0.247227
0.705341
-0.777383
0.920356
-0.949378
-0.636646
-0.274061
-0.133338
0.507586
-0.109513
-0.160090
0.005014
0.776478
0.182742
0.743140
0.543892
-0.291435
-0.553125
-0.666242
0.097305
0.766720
-0.341665
-0.659717
-0.038554
-0.451714
-0.340229
-0.976837
-0.942096
-0.107352
0.670675
-0.569026
0.431742
-0.074642
-0.885464
0.318370
-0.490081
-0.024758
0.266342
-0.121389
0.738180
-0.322463
-0.402916
0.669013
-0.855532
-0.652848
-0.909886
-0.311677
0.467551
-0.506479
-0.746122
-0.041083
-0.113499
-0.831421
-0.365266
0.314771
0.080681
0.348326
0.650816
0.824769
-0.420797
0.402877
0.558101
0.432858
-0.741191
-0.004725
-0.603272
-0.779391
0.060229
-0.808944
0.836999
0.910942
-0.606285
0.813814
0.238560
-0.059117
0.474891
0.185004
0.043950
0.541571
-0.606201
0.156169
0.239421
-0.786833
0.152537
-0.092207
0.443940
0.356025
-0.244187
-0.861838
-0.837917
-0.063822
-0.570966
0.096503
0.511395
0.568077
0.521844
-0.388346
0.278600
0.424737
0.644542
-0.881080
0.063349
-0.912524
0.397640
-0.786830
-0.034196
0.661793
-0.384261
-0.309969
-0.757986
-0.192027
0.481473
-0.072229
0.894426
0.768045
0.696939
-0.264903
-0.873983
0.766445
-0.731969
0.552631
0.707027
0.963574
-0.965438
0.446942
-0.309502
-0.850554
0.904769
0.073058
0.692564
0.250988
-0.138835
0.107689
0.769781
-0.939863
0.871358
-0.529133
0.898327
-0.093810
0.782245
0.295428
0.804660
-0.112068
-0.124083
0.683941
0.501109
0.257768
0.371649
0.564865
0.119058
-0.312815
0.968520
0.900597
-0.469631
-0.648846
-0.964404
-0.899819
-0.765431
-0.427940
0.780157
0.031653
-0.258320
0.807851
0.420287
-0.930569
0.325080
-0.242595
0.090053
0.482592
0.663603
0.542216
-0.657633
-0.153849
-0.995660
-0.035047
0.533711
0.013689
-0.299430
-0.488389
0.163216
0.318113
0.578156
0.218706
0.900189
0.861079
-0.647793
0.042252
-0.290133
-0.359384
0.360215
-0.169908
-0.580101
-0.198947
-0.788893
0.892297
-0.835146
0.194994
-0.629105
-0.329078
-0.723890
-0.273203
0.133026
-0.970514
-0.584161
0.479539
-0.881514
-0.230727
0.621734
-0.915161
0.498284
0.582236
-0.228634
-0.455695
-0.963077
-0.398768
0.824645
-0.539622
0.275186
-0.777974
0.483897
-0.622137
-0.121189
0.800736
0.127497
0.002383
0.384298
-0.922858
-0.538432
0.385357
0.796857
0.446166
-0.014058
0.638049
0.333755
0.881169
0.701059
-0.813480
-0.878707
0.913222
0.900416
0.405913
-0.023261
-0.119612
0.757471
0.146476
0.298132
0.882595
0.864643
0.375613
0.122197
-0.106716
0.938597
0.749322
-0.284314
-0.027910
0.493025
0.105224
-0.927934
0.372364
-0.539515
-0.321548
-0.485199
-0.323192
-0.015324
0.506942
0.552875
-0.225624
0.895816
-0.569206
-0.571717
-0.309564
0.475930
0.761776
-0.078432
-0.177317
-0.797198
-0.177635
-0.557664
0.041604
-0.407448
0.235807
-0.732328
0.619012
-0.114896
0.927533
0.861792
0.397226
0.918287
0.909575
-0.258970
-0.188636
-0.405822
0.387375
0.259314
0.118951
-0.665303
-0.476554
0.299185
-0.034180
0.597258
0.454521
-0.836659
-0.924209
-0.879213
-0.746375
-0.152759
0.049159
-0.911335
0.687862
-0.727119
-0.368857
0.525545
0.020545
0.836511
-0.430175
0.778002
0.730786
0.803130
-0.733623
0.494046
-0.778933
0.163481
-0.346454
-0.658115
0.282718
-0.932254
0.039449
-0.915675
-0.062509
0.024650
0.332322
-0.123380
0.803580
0.084997
0.755411
0.619746
-0.796356
0.920243
-0.488987
-0.933391
0.539592
-0.461997
-0.342547
0.986859
-0.160897
-0.184702
-0.667625
0.649885
-0.131982
-0.211375
0.923672
-0.925839
0.201149
0.779230
-0.666857
-0.570446
0.171462
-0.615677
-0.061558
-0.278709
-0.822756
0.366015
0.194607
0.281441
0.279373
-0.162040
0.568084
0.385189
0.936343
-0.561576
-0.286149
-0.446752
-0.287810
0.955533
-0.581535
0.945657
0.607125
0.852842
-0.602247
-0.855822
-0.907133
-0.324745
-0.132246
0.863582
0.306765
0.086807
0.131307
0.171582
0.939005
-0.219251
-0.261146
0.256474
-0.922321
-0.336322
-0.917671
-0.135590
0.631018
0.001455
0.996871
-0.893883
0.762978
0.125543
-0.628733
-0.286377
-0.245449
-0.218843
0.376896
-0.037592
0.705883
-0.469858
0.194406
0.174369
-0.356870
-0.461268
0.317392
-0.907568
0.158841
-0.147191
-0.628860
-0.817405
0.582455
0.238390
0.106979
-0.421737
0.021707
0.527564
0.978993
-0.692012
0.934336
0.432489
-0.759761
0.132313
0.740629
0.150454
0.142202
-0.046814
0.201097
0.425028
-0.273859
-0.353144
0.243510
0.481651
-0.374735
-0.933557
-0.475332
-0.473623
-0.865087
0.290665
-0.018813
-0.922309
0.700531
-0.293227
-0.190862
-0.171974
0.895401
0.911279
0.146269
0.094602
-0.531977
0.203309
0.314463
0.711531
-0.519586
-0.561870
0.268428
0.832669
0.978474
0.619336
0.952580
0.492411
0.997697
-0.724729
0.753606
0.275782
-0.354132
0.892413
-0.072041
-0.219653
0.449099
-0.294874
0.852238
-0.243880
0.685242
0.138501
0.001623
-0.359000
0.084481
-0.192905
-0.039044
0.882798
-0.106805
-0.107327
-0.459036
-0.727784
0.668746
0.411330
0.446532
-0.301279
0.728492
-0.796451
0.407050
0.675620
0.781981
0.000939
0.618220
-0.928509
-0.421941
-0.686912
-0.278331
-0.073200
-0.446175
-0.349726
-0.778901
-0.576191
0.729561
-0.617002
0.398005
0.954428
-0.611133
0.687439
0.652145
-0.195407
0.652333
-0.208267
0.572330
0.325070
-0.060755
0.365671
0.530884
0.948632
0.707699
-0.272932
-0.867473
0.337128
-0.623339
-0.861460
0.365017
0.105051
0.933678
0.989296
0.758231
0.878260
-0.419195
-0.399902
-0.507450
0.739190
-0.568857
0.345782
-0.674136
0.142891
0.388696
-0.616457
0.437785
-0.510968
0.915790
0.501789
-0.977672
0.262499
-0.615110
-0.858482
-0.170363
-0.328470
-0.728459
-0.985804
0.410155
-0.965502
0.951984
-0.958576
0.404467
0.131404
0.019691
-0.982024
-0.817627
0.900918
-0.240218
-0.302948
-0.374560
0.856424
-0.186006
0.680688
-0.292169
0.553838
-0.722513
-0.856613
-0.847940
0.195837
0.966015
0.257895
0.210201
-0.731177
-0.522818
-0.053090
0.029586
0.496906
-0.349524
-0.622066
0.702332
0.047029
0.350886
0.862149
-0.498718
0.223576
0.125559
0.190430
-0.288396
-0.944392
0.196227
-0.591273
0.083748
0.086348
-0.005471
-0.548629
-0.537923
0.543241
0.413083
0.357347
-0.416099
0.125474
-0.701667
-0.118706
-0.784732
-0.093176
-0.774297
-0.852142
0.463023
0.366740
-0.699597
0.738007
-0.822321
-0.926169
-0.875457
-0.351841
0.141598
-0.404427
0.348466
-0.912949
-0.661364
-0.152058
-0.449774
0.063384
-0.810996
0.162068
-0.913637
-0.114871
0.247617
-0.944523
0.755867
-0.283541
0.656337
0.044638
-0.525727
-0.271588
-0.575895
0.353761
0.406747
-0.420994
-0.844705
0.606828
-0.156459
0.048553
0.456348
-0.925206
-0.631140
0.089602
-0.717410
-0.274108
0.645497
0.732285
-0.785516
0.037568
-0.686379
0.833546
-0.928216
-0.128247
0.132659
0.346050
0.949170
0.641721
-0.464541
-0.537864
0.254232
-0.066057
-0.600912
-0.778633
-0.343765
-0.385878
-0.536608
0.871288
-0.564371
-0.043481
0.212302
-0.098223
0.476912
0.149482
0.919666
0.036088
-0.977454
0.782556
-0.318940
0.716777
-0.740436
-0.245009
-0.515686
-0.601439
-0.147777
-0.080329
0.806753
-0.511351
0.273785
-0.047917
0.654364
0.503334
-0.467401
-0.040666
-0.072723
-0.229506
-0.738489
-0.213622
0.568725
-0.422577
0.067569
0.783117
0.035810
0.096620
0.935328
-0.618315
0.942194
-0.819581
0.264372
-0.989413
-0.162516
0.142468
-0.644052
-0.633305
0.495201
0.399644
0.439098
0.566482
-0.865809
0.434739
0.983937
-0.627348
-0.738961
-0.026075
0.425816
0.961248
-0.382516
-0.517364
-0.667640
0.153078
0.609026
0.371409
0.095697
0.077677
-0.888672
-0.023170
0.791551
-0.856494
-0.929822
-0.240722
-0.941513
-0.295357
-0.552417
-0.664379
-0.128266
0.422237
0.617049
-0.972469
-0.330857
-0.784714
0.135709
0.129244
-0.769415
0.740836
0.888955
0.082814
0.274120
-0.525988
-0.738684
-0.846590
-0.911225
-0.775602
-0.945378
0.748480
0.550831
0.963400
-0.397799
-0.707569
0.265445
0.727797
0.120206
-0.431784
-0.252369
-0.346964
-0.791690
0.917159
-0.997685
-0.911403
0.839547
0.471612
-0.761654
-0.157961
-0.068973
0.234606
0.713423
-0.846843
-0.003369
-0.117391
-0.604872
0.140760
0.556357
-0.450620
-0.783753
-0.002029
0.106340
0.639747
0.967735
-0.301226
0.608854
0.470342
-0.911734
0.264290
0.847365
-0.141440
0.985098
0.166926
-0.649769
-0.925849
0.295145
0.394702
-0.918955
0.376616
-0.895672
0.026424
0.538441
-0.747313
0.866332
-0.344677
-0.211710
-0.376222
-0.203830
0.653144
-0.008575
0.796005
-0.913398
-0.598975
0.273672
0.932360
0.031152
-0.559979
0.522917
-0.025024
0.823092
-0.578034
-0.081230
0.346061
-0.095369
0.710778
-0.205310
0.795700
-0.127204
-0.583158
-0.732546
0.591739
0.290654
0.999631
0.180543
-0.846727
-0.703367
-0.679319
0.927699
-0.302091
-0.975882
-0.197740
-0.559079
-0.387574
-0.952875
-0.833344
0.081718
-0.475900
0.405021
0.136097
0.947334
0.535983
-0.692131
-0.312824
-0.382073
-0.630415
-0.841403
0.465260
-0.284214
-0.219932
0.885391
-0.682441
0.117518
-0.027939
0.590651
0.841619
-0.580259
-0.362519
-0.297165
-0.700128
-0.734994
-0.033463
0.222049
0.807066
0.489517
-0.142822
0.925400
-0.559260
0.521182
0.552743
-0.845769
0.288431
0.182215
-0.599881
0.432524
-0.426290
-0.802318
-0.295920
-0.868631
-0.496384
-0.168724
-0.593859
-0.580452
0.534152
0.726470
-0.406113
-0.656121
-0.134536
0.510904
0.562002
0.871109
0.874541
-0.784810
0.644718
-0.921620
-0.959838
-0.428529
0.957297
-0.641191
0.884968
0.292627
-0.763670
0.729810
0.272797
-0.266786
0.707460
-0.720990
0.851908
-0.877712
-0.914235
-0.258797
0.072733
-0.282856
-0.371246
0.387204
-0.555787
0.580450
0.786486
-0.407177
-0.238525
0.980186
0.282035
-0.877267
-0.526252
-0.144574
-0.894729
-0.132416
0.884569
0.208310
-0.443855
-0.253944
-0.863038
0.679330
0.616063
-0.280923
0.300126
0.807817
0.780242
0.873523
-0.563173
0.784852
-0.228443
-0.299761
0.434537
0.904098
-0.122649
0.913589
-0.724732
-0.600577
0.448742
-0.242405
-0.720879
-0.003218
0.305632
-0.759625
-0.942438
0.564947
-0.943113
-0.487705
-0.769632
0.246549
0.902024
0.844136
-0.740974
-0.564052
-0.016259
-0.486631
-0.839866
-0.280279
-0.777000
0.982165
0.478578
0.546315
0.074232
0.767599
0.915982
0.741720
0.849536
0.398841
-0.334398
0.130503
0.852600
-0.455673
-0.494744
-0.351184
0.441032
-0.906209
0.905379
-0.053090
0.673895
-0.553367
0.896225
0.104831
0.808175
0.290160
0.346638
-0.219237
0.010988
0.069453
0.299903
0.430782
-0.711525
0.672382
0.867235
0.889251
0.498994
-0.539020
0.193083
-0.391699
-0.906905
-0.865759
-0.745496
-0.606706
-0.598058
0.262322
-0.531210
0.999879
0.822427
0.482744
0.559983
-0.911088
0.238253
0.070384
-0.721779
-0.628309
-0.352424
-0.768232
-0.252643
-0.304575
0.840524
-0.881684
0.082226
0.330846
0.854523
0.097120
-0.383435
0.894026
-0.466278
-0.547946
0.519308
-0.596038
0.748781
0.025061
-0.127696
-0.553865
0.610823
0.763349
0.382438
-0.891713
0.174882
-0.762434
0.940322
-0.263027
0.042576
0.625914
0.569761
0.504734
-0.374322
0.705917
0.534929
-0.205269
-0.502863
-0.974756
-0.123650
-0.620686
-0.362217
0.649226
-0.610790
0.781399
0.832035
0.969274
0.216125
-0.645937
-0.964094
-0.243318
0.628910
-0.313187
0.893338
-0.475404
0.584349
0.671325
0.730976
0.968276
0.427978
0.003251
-0.123966
0.054223
0.135355
-0.155179
-0.252462
-0.558835
-0.666609
0.539067
0.489382
0.329377
0.932519
-0.852177
-0.523901
0.393837
0.072977
0.787037
-0.056721
0.364419
-0.619493
0.785672
-0.862933
0.279664
-0.858633
-0.807944
0.801635
0.457623
0.510348
-0.413588
0.725415
0.295225
-0.941131
0.900572
-0.929398
0.572826
-0.641326
0.218359
-0.585343
0.525833
0.339299
0.201172
-0.909491
-0.908512
-0.355289
-0.572710
0.982744
-0.060488
0.291065
-0.256476
0.225196
0.667935
0.080715
-0.509389
-0.622148
-0.813078
0.239933
0.438654
0.490905
0.508364
0.715220
-0.806906
-0.090048
0.957568
0.196338
0.473694
-0.911535
-0.440013
0.901965
0.848500
0.860920
0.252701
-0.231511
0.073946
-0.584734
-0.672294
0.027854
-0.174112
0.542298
0.477860
-0.039132
0.170322
0.950395
-0.824269
0.151461
-0.734223
0.822723
0.461520
0.377637
-0.645372
0.042975
-0.752127
-0.854468
0.383234
-0.355452
-0.684209
-0.713667
-0.774370
0.251558
-0.526540
-0.065731
-0.668659
-0.368347
0.254887
0.502585
-0.972896
-0.115368
-0.042031
-0.412187
0.236410
-0.149852
0.625096
-0.361087
-0.807198
-0.693662
0.838052
-0.042827
0.795232
-0.732532
0.819688
-0.616974
-0.836353
0.047809
0.708227
0.739381
-0.146691
-0.498204
-0.455830
-0.832242
-0.539381
-0.978302
-0.065299
0.592846
0.477507
-0.298282
0.647154
-0.367091
0.873465
0.949120
0.612039
0.203958
0.776216
-0.071023
0.128073
-0.148975
0.378384
0.607777
0.510722
-0.602060
0.324898
-0.543588
0.660568
-0.191198
0.383265
-0.659896
-0.949248
0.721375
-0.571721
0.964872
0.482731
-0.354828
0.063506
-0.280443
0.760868
-0.248993
-0.510344
0.939037
-0.593013
0.057004
0.450414
-0.042067
-0.741651
0.455646
0.910053
-0.874035
-0.583443
0.046151
-0.611682
0.204529
-0.387526
-0.589928
0.035580
-0.353013
0.701252
-0.861581
0.644610
0.890373
0.249032
-0.144505
0.019067
-0.443762
0.234266
-0.094631
-0.335008
0.802574
-0.929381
-0.209933
0.519340
-0.514021
-0.844315
-0.164517
-0.277652
-0.546790
-0.822016
0.032291
0.769195
0.772442
-0.325137
0.359949
-0.934889
0.971538
-0.077769
-0.327236
0.803671
0.151687
0.531499
-0.539285
-0.148859
0.275190
0.884770
0.622163
0.843062
0.197991
-0.687242
0.890901
0.773086
-0.869159
-0.055085
0.831997
0.299007
-0.416006
0.027150
0.098431
0.241762
0.568044
0.036328
-0.528023
-0.282715
0.119910
-0.475666
-0.918723
-0.461900
-0.144367
-0.223763
0.561661
-0.498089
-0.688089
-0.993604
0.959410
0.546904
-0.276247
-0.962715
-0.076037
0.268595
0.676736
0.902334
0.447597
-0.730834
-0.737625
-0.488470
-0.730814
0.837098
-0.312321
-0.875047
0.288717
0.676847
-0.561992
-0.314730
0.111315
0.526211
-0.961877
-0.499561
0.401249
0.499084
0.279773
-0.440525
-0.527914
-0.429065
-0.217570
0.896114
-0.743194
0.961246
0.456566
-0.179873
0.585405
-0.634491
-0.024399
-0.924162
-0.544084
-0.910108
-0.655663
-0.963621
0.289708
0.011968
0.178950
-0.268716
0.984058
0.761998
-0.683476
-0.452293
-0.047649
-0.458714
0.401389
0.979894
0.254416
-0.116539
-0.090803
-0.035662
0.375745
0.838048
0.772923
-0.336416
0.053910
0.501207
-0.151928
-0.013803
0.665504
-0.486843
0.164823
0.716392
0.323718
0.193876
-0.870813
0.205601
-0.401574
-0.757225
-0.593050
0.113117
0.225092
-0.964692
-0.539017
-0.985134
0.886845
0.813925
0.561925
0.937386
0.651951
0.859310
-0.595111
-0.330469
0.312227
-0.316554
0.812817
0.738785
-0.747431
-0.502575
-0.398429
-0.644710
-0.298525
-0.615487
0.834767
-0.370457
-0.399882
-0.840596
0.909916
0.442045
-0.711510
0.485710
0.931677
0.550311
0.058828
0.730151
0.513250
-0.281541
0.308261
-0.495886
-0.390348
-0.934543
-0.254954
0.925952
-0.998628
-0.523742
0.437464
-0.192439
0.149765
-0.117173
-0.119346
0.256387
-0.973854
-0.576841
-0.633994
-0.549057
0.862177
-0.583781
0.231744
-0.927616
0.149038
-0.042762
-0.825991
0.041359
-0.502012
-0.848029
-0.555029
0.020486
0.438737
-0.152705
-0.309165
-0.941635
0.181259
-0.795438
0.116132
0.730863
0.912154
-0.753586
0.036105
0.296540
-0.306159
0.962338
-0.340580
-0.549703
0.204322
0.236224
0.511919
0.988455
0.858121
-0.258579
0.542736
-0.550768
0.508405
-0.858447
-0.019857
0.052583
0.883363
0.860833
-0.347561
0.099747
-0.474467
0.883999
0.195671
-0.978242
-0.051474
-0.882881
0.462886
-0.085419
-0.400174
-0.379031
-0.071087
0.739208
-0.793957
-0.840955
0.137522
-0.588563
0.030839
0.666720
0.339865
-0.100392
-0.255550
0.540796
0.176120
0.603251
-0.643964
-0.861401
-0.375925
0.325875
0.390495
-0.830845
-0.114234
0.257682
0.799606
-0.078661
-0.611801
0.000376
-0.367631
-0.748323
0.278723
0.376683
0.423066
0.048598
0.044574
0.721166
-0.665764
-0.281070
0.210858
-0.045325
0.866282
-0.139554
0.631974
-0.024784
-0.164468
0.987805
-0.047210
-0.850315
-0.686811
-0.756095
0.738179
0.225911
-0.626206
0.880823
-0.366898
-0.846590
-0.271888
-0.583758
-0.779043
0.232748
-0.470362
-0.425890
0.153962
-0.120729
-0.565127
0.863839
0.949505
0.387963
0.669996
-0.419785
0.947258
0.396523
-0.972139
-0.640462
0.770803
0.920933
0.401909
-0.015236
-0.305213
0.376883
0.456000
0.263190
0.563788
0.251773
-0.018652
-0.640313
0.544569
-0.324111
-0.729446
-0.913082
0.912936
-0.674209
-0.856129
0.241016
-0.453735
0.667570
-0.413375
-0.291309
-0.601732
0.498675
0.246427
0.263052
-0.258882
-0.116995
-0.853422
0.199718
0.340675
-0.745798
-0.206829
0.253343
-0.861816
-0.671496
-0.044018
0.398143
0.818132
0.214437
-0.832303
0.045749
-0.020219
-0.430614
-0.112662
-0.330913
-0.813549
0.490580
-0.362512
-0.234177
0.460050
-0.747439
-0.988161
-0.066775
-0.929686
-0.482942
0.954322
-0.845126
0.450507
0.049596
0.251361
-0.472272
0.408456
-0.314306
0.845044
-0.398762
0.908887
0.858225
0.435141
-0.433495
0.558220
-0.947314
-0.899458
0.352609
0.612227
-0.984015
0.153946
0.253869
0.411993
-0.964183
0.855088
-0.196955
-0.241839
-0.960417
-0.546023
-0.024180
-0.433434
0.216149
0.339900
0.489234
-0.732899
0.660286
-0.271397
-0.360008
-0.748905
0.855459
-0.835304
0.855200
-0.654216
0.631007
0.130529
0.839718
0.388738
-0.118718
0.407758
0.610985
-0.082142
-0.540434
-0.869974
0.430375
0.986505
0.853711
0.572774
0.839634
0.751941
-0.407092
-0.923848
0.547707
-0.041116
-0.756761
-0.557222
-0.035035
-0.290884
0.592319
0.656516
-0.493143
0.708296
0.844676
-0.860348
0.401524
0.396899
-0.850509
-0.815949
0.881238
0.174510
0.770493
0.875712
-0.720411
0.359087
-0.808958
-0.273596
0.344384
-0.330986
0.703888
-0.452827
0.349343
-0.086747
0.230286
0.496967
0.260368
0.209563
-0.060373
0.806927
-0.357872
-0.782235
-0.759660
0.614508
0.300302
0.929506
-0.338019
0.031788
-0.621044
-0.973256
-0.326022
0.269971
0.793147
0.490527
-0.683704
-0.093068
-0.611131
-0.510721
0.620913
0.855832
-0.508486
0.821866
0.584308
0.932536
0.629414
0.971476
0.145461
-0.159221
-0.281552
0.614897
-0.738383
-0.000868
0.310329
0.182915
0.715343
-0.187605
0.418139
0.400947
-0.384349
0.628445
0.350713
-0.271646
-0.112673
0.765991
0.249945
-0.013381
-0.116737
-0.935943
0.341570
0.755200
0.973722
0.752032
0.033057
0.983565
0.932290
0.302388
-0.084895
0.054376
0.366957
-0.262683
0.247227
-0.877462
-0.508471
-0.932260
-0.412865
-0.678433
-0.727150
-0.634409
-0.790935
0.433358
0.451503
0.913231
-0.710288
0.605678
0.754929
0.274322
-0.239942
0.485249
0.364088
-0.146222
0.656408
-0.371851
-0.257984
-0.967787
-0.045265
0.272202
0.229824
0.135654
-0.537806
0.377678
-0.778270
-0.758046
0.508671
-0.962750
0.961194
-0.812402
0.951531
0.525747
0.093098
-0.853574
0.238947
0.994625
-0.143895
0.119229
-0.054637
0.031316
0.709719
-0.814488
0.496222
0.302233
0.234092
0.353826
0.464307
0.945975
-0.502445
-0.537623
0.339932
-0.089094
0.828565
-0.944173
-0.913268
0.513022
0.948829
-0.762147
0.917289
-0.209262
-0.780113
-0.402523
-0.574380
0.343654
0.617769
-0.312068
0.867699
-0.394331
0.062494
-0.629667
0.477184
0.262702
-0.076082
-0.895051
-0.886974
-0.319601
-0.657019
-0.059473
0.569487
-0.475503
-0.711628
-0.625902
-0.935014
-0.221581
-0.930729
-0.675199
0.879903
0.571478
-0.149034
0.963152
-0.176745
-0.101391
0.252618
-0.315549
-0.442464
0.893721
0.037377
0.798200
-0.112674
-0.843532
0.148264
0.446779
-0.400981
-0.883834
-0.768854
0.122879
-0.178377
-0.780723
-0.244847
-0.075768
-0.729419
0.787924
0.382334
-0.869519
0.014153
-0.277595
-0.717355
0.585574
-0.347865
0.669215
-0.008018
0.597087
-0.210461
-0.804189
-0.023859
-0.154077
0.007033
-0.856469
-0.851981
0.629281
0.850926
0.960008
0.998688
-0.606722
0.314335
0.313189
0.892490
0.879646
0.604597
0.655800
-0.271387
-0.258411
0.372274
0.006892
-0.773983
0.783617
-0.382733
-0.238294
-0.177457
-0.509629
-0.415848
-0.720025
0.217923
0.529544
-0.517702
0.555470
-0.635796
0.112500
-0.220609
-0.370093
0.751206
0.409048
-0.125218
0.254378
0.795212
0.076033
-0.530156
0.577152
-0.933476
0.983786
-0.673314
-0.526891
-0.498551
0.034234
0.938408
0.112549
0.388747
0.710616
0.453097
-0.475397
-0.896899
0.357142
-0.151530
-0.470475
0.707961
0.865404
-0.288382
0.440653
-0.129765
0.078257
-0.203085
0.999658
-0.641881
0.634223
0.606077
0.335802
-0.093733
0.277209
-0.185748
-0.686482
-0.192437
0.855377
-0.967634
0.502886
0.869572
-0.931188
-0.174392
-0.405821
0.760824
-0.146042
0.763479
-0.891875
-0.741280
0.669755
-0.486547
-0.175098
0.788337
0.910339
0.217119
0.228200
-0.153539
0.830477
0.670805
0.486242
-0.571235
-0.948854
0.500613
-0.368802
0.872159
-0.305302
0.091522
-0.911600
0.545688
-0.447602
-0.695769
0.729175
-0.013197
0.881060
0.623010
0.510723
0.992803
0.450661
0.214984
-0.289185
0.525589
-0.665620
-0.579987
-0.192083
0.916380
-0.958840
-0.826935
-0.242587
-0.202145
0.214004
0.401689
0.206285
0.702961
-0.791906
-0.612970
-0.098286
-0.591237
-0.487412
-0.831044
0.139684
0.179810
0.313474
-0.374462
-0.533838
0.051204
0.148355
0.619906
-0.510616
-0.809262
-0.810988
0.447451
0.623344
0.577656
-0.926409
0.520336
0.645817
-0.483805
-0.635543
-0.869621
-0.223652
-0.755824
0.394040
0.212423
0.843033
-0.317851
0.222279
0.140453
-0.520111
-0.790602
0.819081
0.216916
0.821343
-0.967999
0.643534
0.854809
-0.936623
-0.008790
0.331668
-0.668645
-0.183130
0.497042
-0.703471
0.895261
-0.870455
0.889924
0.155947
-0.621852
0.362863
0.299608
0.683712
-0.625600
-0.009611
0.519219
0.684812
0.026978
0.996484
0.936583
-0.614897
-0.909466
-0.625986
0.011732
-0.492518
0.781510
0.585366
0.514054
0.363974
0.649390
0.889601
0.020560
0.970389
-0.224143
-0.987951
0.739037
-0.745824
0.044349
0.889490
-0.490865
-0.429935
-0.405754
0.132104
-0.707120
-0.455607
-0.111649
-0.764728
0.413407
0.179425
-0.314278
-0.479878
0.159686
0.582486
-0.691249
-0.077028
-0.529618
0.637518
-0.862667
0.833721
0.487240
0.109391
0.195380
0.593559
0.549502
0.295311
0.909780
-0.140166
0.116537
0.023602
0.676461
0.918565
0.813637
0.410783
-0.177295
0.984708
0.766073
-0.544349
0.929937
0.241665
0.429024
0.436067
-0.501947
0.142744
0.813307
-0.714925
-0.906766
0.937309
-0.430220
-0.976641
0.716648
0.462289
-0.154258
-0.677896
0.532814
-0.154274
-0.298049
-0.188178
-0.420230
-0.698779
-0.019563
0.565963
0.773429
0.291462
0.485129
-0.284437
-0.462703
-0.205029
0.854740
0.448036
-0.368848
0.015018
-0.874310
-0.441758
0.178650
0.298176
-0.512958
-0.565043
0.285642
0.219897
0.212582
0.926621
-0.535007
0.089244
0.707536
-0.674208
0.364318
-0.882137
-0.115608
0.563856
0.770173
0.198301
0.452774
-0.461944
-0.604015
-0.636011
-0.287378
-0.017140
0.192933
-0.221878
-0.026669
-0.523029
0.104128
-0.431782
0.678428
-0.734087
0.748198
-0.149388
0.459987
-0.299305
0.638892
-0.413326
0.477123
0.684553
0.377901
-0.616365
0.425391
0.976869
0.547930
-0.550839
-0.580538
0.748221
0.821005
0.328781
-0.924149
0.534810
0.087988
0.745506
-0.290493
0.853881
-0.456980
-0.179274
-0.423903
-0.268971
0.782337
-0.677138
-0.905494
0.661538
-0.413114
0.666649
-0.773528
-0.626717
0.424764
0.550246
0.279991
0.422337
0.683094
0.605303
0.205308
-0.358730
0.737722
-0.045577
-0.441938
0.503959
-0.418906
-0.168435
0.181388
-0.605692
0.943010
-0.191945
0.060255
-0.173823
0.967023
-0.720067
-0.408354
-0.662252
0.748981
0.175764
0.178685
0.787702
0.424217
0.196120
-0.591590
0.084733
-0.351743
-0.276616
-0.428813
0.427143
-0.556819
-0.097973
-0.652524
0.743441
-0.515446
-0.287859
-0.093996
0.841237
-0.321538
-0.365529
-0.477539
-0.114853
-0.877808
-0.944749
0.515813
-0.515065
0.519544
-0.782890
-0.624911
0.094546
0.863615
0.643577
0.053160
0.838716
0.843307
-0.295920
-0.343483
-0.048487
0.165463
-0.691940
-0.687716
-0.304832
-0.944894
-0.276226
-0.883530
-0.790860
0.442830
-0.134417
0.857953
0.664703
-0.866156
-0.729865
0.204579
-0.839724
-0.870381
0.828823
0.783881
0.117431
0.855163
-0.955317
-0.461866
0.887421
0.174919
0.240322
0.872593
0.278139
-0.638797
-0.342471
0.048061
-0.267144
0.183637
-0.870943
-0.311947
-0.974411
-0.012301
-0.534496
0.924267
-0.208574
-0.525943
0.539207
-0.023797
0.672332
0.913241
0.514385
-0.161205
-0.103175
0.192843
-0.154921
0.511248
-0.117808
0.978244
-0.251009
-0.806281
-0.771012
0.272162
-0.455059
-0.622201
-0.402845
-0.770585
0.272268
0.095500
0.941980
0.961716
-0.608209
-0.025054
-0.199518
0.213433
-0.874540
-0.092279
0.715950
0.931912
0.817966
0.066875
-0.308293
0.342378
0.312830
-0.744210
-0.370073
0.674148
-0.848002
0.471037
0.260177
0.411005
0.389874
0.457738
-0.805938
0.020750
-0.506275
0.843984
0.956920
0.384195
0.676658
0.556157
-0.296378
-0.963070
-0.388522
0.534604
-0.966547
-0.990632
0.451273
-0.412542
-0.823218
0.465627
-0.038711
0.250575
-0.147093
-0.814260
0.024496
-0.230576
-0.218300
-0.655098
0.306150
-0.479015
0.798188
0.602074
-0.739098
-0.623179
0.167820
0.313649
0.183958
0.813081
0.012952
-0.049175
0.223124
-0.999314
-0.023880
0.189793
-0.906393
-0.023997
0.620758
-0.106796
-0.737130
0.020822
0.294432
-0.116456
0.063206
-0.368211
0.773789
-0.988798
0.200436
-0.774853
0.941392
0.477713
-0.717288
0.341598
0.583460
-0.117985
-0.423902
-0.348719
0.683771
0.798360
-0.285606
0.312288
-0.246396
0.082392
0.376146
0.464110
-0.717204
0.069020
-0.944680
0.773609
-0.423832
-0.324774
0.916419
-0.625193
0.970521
0.642605
0.919908
-0.979096
0.593682
0.129222
-0.012146
-0.641882
-0.336937
-0.401992
0.057753
0.518065
-0.947207
0.421367
0.104741
-0.211746
-0.900014
-0.193582
-0.218210
0.183672
0.696163
0.276280
0.319979
-0.744879
0.891045
-0.862501
-0.925123
0.257207
0.368490
-0.705922
-0.843502
-0.239350
0.358027
0.437923
0.162750
0.020031
-0.829168
0.598190
0.799098
0.811134
-0.910282
0.965851
-0.365894
0.881350
-0.887963
-0.486352
-0.284011
-0.622404
-0.973962
0.985670
-0.332863
-0.608621
0.599809
-0.959072
0.458582
0.424491
0.850730
-0.737456
-0.387046
0.818261
-0.935363
0.667021
0.721041
-0.494896
0.196305
-0.295300
-0.836967
0.253643
-0.301031
-0.659483
0.665012
-0.553927
-0.309773
-0.293623
-0.534611
-0.750870
-0.909429
-0.178259
-0.769782
-0.234481
-0.851279
0.959855
-0.633552
0.203656
-0.776174
0.642651
0.810079
0.678561
-0.802356
-0.509909
-0.862508
-0.764192
0.512707
0.095358
0.542463
-0.500196
-0.320675
-0.669739
-0.233294
-0.907330
0.845489
-0.748811
-0.924999
-0.425276
0.264247
0.468142
0.394313
-0.073569
-0.924194
0.502574
-0.371307
-0.745934
-0.762896
-0.507588
-0.566839
0.346553
-0.356807
0.508292
-0.742960
-0.480367
-0.426848
-0.624100
0.728425
-0.042725
-0.606214
0.201231
0.986528
0.337393
0.579172
0.366218
0.140242
-0.914435
0.736709
-0.808862
-0.645042
-0.232861
0.466555
-0.304237
0.461405
-0.525708
-0.142217
-0.358138
-0.378221
0.803337
0.097055
-0.797705
-0.986832
-0.143960
-0.104547
-0.562575
-0.922199
0.885606
0.686833
0.048881
-0.086401
-0.082792
0.622710
-0.537534
0.030232
-0.450872
-0.980331
-0.321907
-0.230963
0.789999
-0.258727
-0.814620
-0.288840
0.606849
-0.924002
0.749599
0.454438
0.276155
-0.828553
-0.966004
0.445798
0.818536
0.062519
-0.337340
0.795565
0.494093
0.044438
0.642014
-0.540258
-0.330297
-0.688900
0.764068
0.557250
0.777160
-0.502263
-0.107512
0.326632
0.572403
0.098409
-0.048865
-0.998345
-0.265511
-0.511006
-0.004409
0.586196
0.098970
0.124702
0.331237
0.861278
0.673035
0.350065
0.930633
-0.481158
0.920644
0.345543
-0.975759
-0.389062
0.851333
-0.379530
0.974473
0.033353
0.772029
0.976551
0.964032
0.954436
0.806199
0.029367
-0.245846
0.574357
0.341195
-0.866245
-0.198830
-0.633322
-0.192061
0.137106
0.641096
-0.398001
-0.236808
-0.039632
-0.397306
-0.597874
-0.878823
0.615275
0.143682
0.978400
-0.134437
-0.497174
0.282652
-0.570173
-0.683810
-0.047885
-0.334780
0.389674
-0.027499
-0.435858
-0.643444
-0.000833
-0.438808
0.620196
-0.067462
-0.659487
-0.189831
-0.760883
-0.481499
-0.832364
-0.074063
0.992482
-0.455645
0.708717
0.557559
0.021024
0.698149
0.661280
-0.278290
0.203052
0.881890
-0.013363
-0.458230
0.015124
-0.549246
-0.265004
0.510657
-0.611547
0.117094
0.904229
-0.360334
0.761014
-0.707784
-0.089914
-0.931956
0.001655
-0.970180
0.281661
0.831124
-0.215485
0.204854
-0.466950
0.856726
-0.721791
-0.047223
-0.204595
-0.680105
0.933344
0.616885
0.436024
0.124719
0.092051
0.378843
-0.225468
0.366175
-0.932312
0.014753
0.115076
-0.459397
-0.850141
-0.261446
-0.943751
-0.717561
-0.025076
-0.582108
-0.222999
-0.248671
-0.444446
0.088431
-0.853985
0.609888
-0.316913
0.767463
-0.755196
-0.246570
-0.358679
-0.785142
0.736183
0.382092
-0.809402
-0.158475
0.084093
-0.896094
0.754177
-0.110286
-0.157900
-0.198014
0.393599
0.166173
-0.486786
-0.245656
0.952159
0.095475
0.258902
-0.217432
0.513992
-0.308402
-0.123504
0.905191
0.640608
-0.882268
-0.960219
-0.806079
0.582116
0.781294
0.947877
0.025331
-0.299928
-0.299594
0.456084
-0.404725
0.756010
-0.253360
0.980779
-0.046298
0.104702
-0.712820
0.220839
-0.002640
-0.528457
-0.060161
0.869349
-0.798847
0.968107
0.978096
-0.782681
0.910035
0.346411
-0.580324
-0.127101
0.037316
-0.702100
0.044979
-0.582380
-0.702257
-0.517429
0.353974
-0.022932
-0.236057
0.881483
-0.607969
0.554000
0.293866
-0.933841
0.383905
0.035401
0.299444
0.710043
0.978837
-0.689853
-0.796184
-0.089288
0.301342
-0.133756
-0.887341
0.457900
0.637160
-0.663732
0.068392
-0.738489
0.437548
