0.820261
0.669004
-0.734871
-0.925927
-0.798363
0.071371
-0.207999
-0.787207
0.851337
0.063125
0.031754
0.968220
0.815710
-0.209986
-0.909009
0.310172
-0.155637
-0.173332
-0.303780
-0.226871
0.125065
-0.842324
0.819078
0.149866
-0.501522
0.780415
0.828696
0.192641
-0.433903
0.957733
-0.118325
0.700912
0.688043
-0.207878
0.585291
0.327825
-0.245331
0.050901
-0.503962
-0.096013
-0.124723
0.587385
-0.126559
0.532266
-0.235523
0.520076
0.723132
-0.102590
0.426561
-0.956575
0.129177
0.458827
0.509498
-0.111865
-0.612257
-0.423402
0.677028
0.792074
0.650381
-0.426799
0.816813
-0.311272
-0.581714
-0.933751
0.589398
-0.443034
0.301736
0.249302
0.177431
-0.288858
0.365999
-0.283997
-0.583781
-0.044441
-0.544141
-0.703772
0.673656
0.316673
0.436566
-0.248282
-0.446113
0.965239
-0.499367
-0.292480
0.363167
-0.149092
0.406852
-0.926143
0.137559
-0.442232
-0.108103
0.550851
0.220410
-0.759776
-0.905772
0.503974
-0.109149
0.851527
0.242125
0.246818
0.410668
0.828791
-0.938112
-0.850048
0.752668
-0.873610
-0.419050
-0.769523
-0.165039
0.097081
-0.373200
0.652762
0.767814
-0.335834
0.285004
0.071994
0.968606
-0.042163
0.737159
0.072281
0.472117
-3213198518981.750000
64263970379.110016
-3213198518980.534668
-3213198518981.286621
706903674175.425537
-3213198518981.459961
-3213198518980.562500
-3213198518981.293945
-3213198518981.081055
706903674175.291138
-3213198518981.017578
-3213198518981.153809
64263970379.121353
-3213198518981.193848
-3213198518980.356445
706903674176.092773
-3213198518982.028809
-3213198518980.891602
-3213198518980.268066
-3213198518980.959473
706903674175.278198
-3213198518981.988770
-3213198518981.279297
64263970378.999649
-3213198518981.971191
-3213198518980.408691
706903674176.190552
-3213198518981.871094
-3213198518981.326660
-3213198518980.816895
-3213198518981.487793
706903674175.503052
-3213198518981.583496
-3213198518981.590332
64263970378.832314
-3213198518980.626953
-3213198518982.001953
706903674175.328735
706903674176.401733
706903674175.652710
706903674176.397705
706903674175.437866
706903674176.450073
-3213198518981.006348
-3213198518981.481934
64263970379.132065
-3213198518980.106445
-3213198518981.944336
706903674175.807495
-3213198518981.650391
-3213198518981.721680
-3213198518981.824219
-3213198518981.555664
64263970378.919579
-3213198518980.744629
64263970379.679817
64263970378.799965
-3213198518980.198242
-3213198518982.050781
64263970380.045860
-3213198518981.199219
-3213198518981.110840
-3213198518981.533203
-3213198518980.923828
64263970379.409096
-3213198518980.154297
-3213198518981.331055
64263970378.756485
-3213198518981.746582
-3213198518980.657715
706903674174.961426
-3213198518981.736328
-3213198518980.795898
64263970380.281631
64263970380.549232
64263970379.366066
-3213198518981.329590
-3213198518981.845703
64263970379.875595
-3213198518981.596191
-3213198518981.637207
706903674176.596313
-3213198518980.722656
-3213198518981.661621
64263970379.342644
-3213198518980.715332
-3213198518981.486328
-3213198518982.005859
706903674176.538696
706903674175.559326
706903674175.054932
706903674174.916992
706903674176.054810
-3213198518981.609863
-3213198518980.172852
64263970379.089828
-3213198518980.428223
-3213198518981.209961
-3213198518980.512695
-3213198518980.091309
-3213198518981.635742
-3213198518981.611816
-3213198518980.089844
706903674175.661743
-3213198518980.388672
-3213198518981.924805
64263970379.288795
64263970379.048576
64263970379.564873
64263970380.109550
-3213198518981.996094
-3213198518980.132812
-3213198518980.674316
-3213198518980.313965
706903674176.037354
-3213198518981.219727
-3213198518981.458008
-3213198518980.095215
-3213198518981.990723
64263970379.789253
-3213198518981.450684
-3489567122131.676758
69791342442.675034
-3489567122131.701172
-3489567122130.721191
767704766869.830688
-3489567122132.575684
-3489567122130.737793
-3489567122131.654297
-3489567122132.150879
767704766869.084106
-3489567122131.555176
-3489567122132.557129
69791342442.877777
-3489567122132.027832
-3489567122131.649414
767704766868.088257
-3489567122132.043945
-3489567122132.353516
-3489567122132.227051
-3489567122131.031250
767704766868.416504
-3489567122132.395020
-3489567122132.363770
69791342442.417114
-3489567122131.558594
-3489567122131.490234
767704766869.482910
-3489567122132.107910
-3489567122132.077637
-3489567122131.174316
-3489567122131.893066
767704766868.409180
-3489567122131.155273
-3489567122130.728027
69791342443.565659
-3489567122130.838379
-3489567122130.902832
767704766868.103516
767704766869.933472
767704766868.952881
767704766868.842896
767704766868.206909
767704766868.090332
-3489567122132.009766
-3489567122131.080566
69791342441.820419
-3489567122132.090820
-3489567122130.918945
767704766869.288330
-3489567122131.438965
-3489567122130.811035
-3489567122131.596191
-3489567122132.003418
69791342441.659485
-3489567122132.326660
69791342441.869705
69791342443.158020
-3489567122132.075684
-3489567122131.170410
69791342442.493652
-3489567122132.391602
-3489567122130.875977
-3489567122131.250488
-3489567122131.204590
69791342443.102661
-3489567122131.425293
-3489567122132.075684
69791342441.834717
-3489567122132.411621
-3489567122131.510254
767704766868.788940
-3489567122131.407227
-3489567122130.864746
69791342442.047546
69791342443.461380
69791342442.238098
-3489567122132.596680
-3489567122131.194824
69791342442.100800
-3489567122131.523926
-3489567122131.934082
767704766869.929565
-3489567122131.256348
-3489567122131.977539
69791342442.740952
-3489567122132.224121
-3489567122131.670898
-3489567122131.864746
767704766869.582153
767704766869.827759
767704766868.280151
767704766869.167969
767704766869.857666
-3489567122130.654785
-3489567122131.948242
69791342441.787979
-3489567122132.321777
-3489567122132.003418
-3489567122131.380859
-3489567122132.587891
-3489567122132.503418
-3489567122131.843262
-3489567122130.855957
767704766868.888428
-3489567122132.191406
-3489567122130.927246
69791342443.379120
69791342442.070099
69791342443.529541
69791342441.732605
-3489567122132.424805
-3489567122131.027344
-3489567122132.098633
-3489567122132.384766
767704766868.463135
-3489567122131.025879
-3489567122130.974609
-3489567122132.055664
-3489567122132.125488
69791342441.856598
-3489567122132.219727
-2503426700480.047852
50068534010.289146
-2503426700478.837891
-2503426700479.838867
550753874104.832031
-2503426700479.063477
-2503426700480.224121
-2503426700480.254883
-2503426700479.117676
550753874104.636230
-2503426700479.108398
-2503426700479.067383
50068534010.107307
-2503426700479.756836
-2503426700479.259766
550753874104.956177
-2503426700478.899414
-2503426700480.180176
-2503426700478.598633
-2503426700478.510254
550753874104.588379
-2503426700479.359863
-2503426700479.763672
50068534009.535339
-2503426700479.772461
-2503426700479.747559
550753874105.082153
-2503426700479.255371
-2503426700479.180664
-2503426700480.070801
-2503426700479.702637
550753874105.807251
-2503426700479.502930
-2503426700478.451660
50068534010.543350
-2503426700478.912598
-2503426700479.220215
550753874104.629517
550753874105.484009
550753874105.378052
550753874104.544189
550753874106.362061
550753874104.631592
-2503426700479.770020
-2503426700479.394043
50068534010.208168
-2503426700479.177734
-2503426700480.345703
550753874105.056274
-2503426700479.322266
-2503426700479.013672
-2503426700479.977539
-2503426700479.534180
50068534008.629082
-2503426700478.921875
50068534009.135826
50068534009.828278
-2503426700479.537109
-2503426700479.708496
50068534010.388084
-2503426700479.932617
-2503426700479.910156
-2503426700479.091309
-2503426700479.154297
50068534010.246590
-2503426700479.071289
-2503426700478.987305
50068534010.380463
-2503426700479.958496
-2503426700478.648926
550753874105.409912
-2503426700480.083984
-2503426700479.487305
50068534010.025993
50068534010.380157
50068534008.962761
-2503426700478.837891
-2503426700480.033691
50068534009.359749
-2503426700480.208008
-2503426700480.335938
550753874104.880249
-2503426700478.716797
-2503426700479.477539
50068534009.155540
-2503426700479.287109
-2503426700479.818848
-2503426700479.977051
550753874106.437134
550753874105.303955
550753874105.298950
550753874105.916626
550753874105.344482
-2503426700479.413086
-2503426700479.938477
50068534010.110741
-2503426700478.920898
-2503426700480.204590
-2503426700479.250977
-2503426700479.410156
-2503426700480.071289
-2503426700478.432129
-2503426700478.458496
550753874104.576294
-2503426700480.031738
-2503426700479.178223
50068534010.447876
50068534009.733665
50068534009.535698
50068534009.671089
-2503426700479.917480
-2503426700479.587402
-2503426700480.305176
-2503426700479.288574
550753874105.605347
-2503426700478.534180
-2503426700480.336914
-2503426700478.963379
-2503426700478.374023
50068534009.084068
-2503426700479.254395
-0.972115
-0.516173
0.874196
0.686084
-0.144260
-0.681106
-0.383803
0.250680
-0.557219
-0.687961
0.070661
0.364369
0.550183
0.294479
0.252293
-0.427220
-0.105745
-0.566010
0.201339
0.808488
-0.635742
0.777099
-0.972310
-0.581879
0.703560
0.555260
-0.871357
-0.935708
-0.515852
-0.092901
-0.414795
0.512428
0.635540
-0.065744
0.331932
-0.740567
-0.767744
-0.061014
0.317665
-0.284496
-0.868335
-0.693598
-0.196156
0.653211
0.049923
-0.210577
-0.018929
0.571444
0.960140
0.050029
-0.518487
-0.947736
0.103771
-0.291401
-0.678980
0.738368
-0.045581
-0.866786
-0.032147
0.951299
-0.351228
-0.707622
-0.661515
0.052638
-0.935743
0.854988
0.575388
0.428834
-0.900870
-0.104849
-0.862775
0.881530
0.857349
0.753773
-0.646307
0.560475
0.639455
0.246151
0.813335
0.617861
-0.680177
-0.070688
0.868411
0.961999
0.609160
-0.012590
-0.098437
-0.765428
0.343529
-0.931393
0.140615
0.789504
-0.145606
-0.213594
-0.657978
0.321586
0.300042
0.446064
-0.220640
-0.419476
0.358683
0.532922
-0.401019
-0.907657
0.252256
0.004833
-0.376489
-0.222298
0.940715
0.145078
-0.504317
0.662500
0.631049
-0.827455
0.064946
0.956977
0.011591
0.499137
-0.584458
-0.964873
0.245586
-230776946519.905426
4615538929.805254
-230776946519.958801
-230776946520.221191
50770928233.299095
-230776946519.125977
-230776946518.829163
-230776946520.231140
-230776946519.788025
50770928233.809845
-230776946519.103149
-230776946519.106476
4615538930.913904
-230776946519.604095
-230776946518.634155
50770928233.604652
-230776946519.291199
-230776946519.524933
-230776946520.150238
-230776946518.286194
50770928233.442902
-230776946519.884003
-230776946519.198730
4615538930.898144
-230776946519.924316
-230776946519.733612
50770928234.761093
-230776946520.018005
-230776946519.671356
-230776946519.664246
-230776946519.090912
50770928233.651596
-230776946518.321869
-230776946518.286743
4615538929.545084
-230776946520.043091
-230776946519.728882
50770928233.314766
50770928235.018867
50770928234.803978
50770928234.325394
50770928234.319038
50770928235.188210
-230776946519.527344
-230776946519.019012
4615538930.924452
-230776946520.232056
-230776946519.233337
50770928233.957352
-230776946519.837280
-230776946518.725494
-230776946518.379181
-230776946519.519714
4615538929.461606
-230776946518.536194
4615538930.030464
4615538930.390720
-230776946519.404022
-230776946520.124268
4615538930.949494
-230776946519.958588
-230776946519.393433
-230776946518.844330
-230776946520.021271
4615538931.052181
-230776946518.631836
-230776946519.057953
4615538929.616858
-230776946518.685059
-230776946518.411255
50770928233.481834
-230776946519.063934
-230776946518.872406
4615538931.103994
4615538929.879784
4615538929.626247
-230776946518.609436
-230776946519.869965
4615538931.215481
-230776946518.507935
-230776946519.720703
50770928233.289474
-230776946519.712708
-230776946518.923798
4615538929.800054
-230776946518.979095
-230776946518.384216
-230776946519.241455
50770928234.646301
50770928234.932175
50770928233.695984
50770928234.125076
50770928233.928093
-230776946519.728241
-230776946519.172668
4615538930.152411
-230776946518.749542
-230776946518.412567
-230776946518.668549
-230776946518.288544
-230776946519.719482
-230776946520.015686
-230776946519.406647
50770928235.148056
-230776946518.820374
-230776946519.342194
4615538931.085514
4615538930.367120
4615538929.453566
4615538930.639615
-230776946519.667236
-230776946520.222229
-230776946519.724030
-230776946518.966583
50770928233.253098
-230776946519.696472
-230776946519.704803
-230776946518.542419
-230776946518.359528
4615538929.509197
-230776946518.464478
-5218226118659.381836
104364522373.590164
-5218226118658.372070
-5218226118658.360352
1148009746105.390137
-5218226118658.454102
-5218226118658.538086
-5218226118659.379883
-5218226118658.007812
1148009746104.864990
-5218226118658.778320
-5218226118658.303711
104364522373.450470
-5218226118658.613281
-5218226118659.304688
1148009746105.662109
-5218226118658.639648
-5218226118658.592773
-5218226118659.173828
-5218226118657.627930
1148009746104.720459
-5218226118658.038086
-5218226118657.889648
104364522372.539749
-5218226118658.902344
-5218226118659.139648
1148009746104.022461
-5218226118657.752930
-5218226118659.224609
-5218226118659.283203
-5218226118658.298828
1148009746104.471191
-5218226118657.788086
-5218226118658.971680
104364522373.504181
-5218226118659.039062
-5218226118658.538086
1148009746104.407471
1148009746105.369141
1148009746104.800781
1148009746104.791504
1148009746104.755371
1148009746105.644775
-5218226118659.411133
-5218226118658.608398
104364522372.416443
-5218226118658.200195
-5218226118657.457031
1148009746105.659668
-5218226118659.201172
-5218226118658.428711
-5218226118658.997070
-5218226118658.935547
104364522372.869812
-5218226118659.331055
104364522373.019852
104364522372.827484
-5218226118659.147461
-5218226118659.232422
104364522373.659866
-5218226118659.193359
-5218226118657.835938
-5218226118657.585938
-5218226118658.718750
104364522372.556778
-5218226118658.688477
-5218226118657.442383
104364522372.606613
-5218226118658.463867
-5218226118658.690430
1148009746103.942383
-5218226118658.402344
-5218226118659.387695
104364522372.419754
104364522373.565887
104364522372.988419
-5218226118658.232422
-5218226118658.125000
104364522373.255432
-5218226118658.435547
-5218226118658.386719
1148009746104.979980
-5218226118658.701172
-5218226118658.984375
104364522373.062317
-5218226118659.263672
-5218226118657.730469
-5218226118658.429688
1148009746105.299805
1148009746104.815430
1148009746104.506104
1148009746105.803467
1148009746105.475586
-5218226118657.476562
-5218226118658.725586
104364522373.771820
-5218226118659.081055
-5218226118659.178711
-5218226118657.858398
-5218226118657.533203
-5218226118657.522461
-5218226118658.344727
-5218226118659.310547
1148009746103.886475
-5218226118659.129883
-5218226118658.333008
104364522373.331879
104364522373.688095
104364522373.057861
104364522372.239182
-5218226118659.041992
-5218226118658.439453
-5218226118658.306641
-5218226118658.275391
1148009746105.728271
-5218226118658.016602
-5218226118659.374023
-5218226118658.370117
-5218226118658.006836
104364522373.471130
-5218226118658.913086
0.630695
-0.848249
-0.049306
-0.737237
0.885518
0.113967
-0.885740
0.761118
-0.079161
0.009765
-0.671131
0.373522
0.199669
0.095234
0.912063
0.408539
0.764619
-0.930093
0.891568
-0.337042
0.815762
0.694621
0.096359
-0.372487
0.709316
0.568540
-0.502400
-0.164550
0.268125
0.055164
0.234515
0.903451
0.352607
-0.554301
-0.290023
-0.643114
-0.842611
-0.109350
0.838772
0.321367
-0.776441
0.086021
0.085301
0.205825
0.683833
-0.710463
-0.017144
-0.427247
0.488626
-0.545483
0.405666
0.360675
0.756669
-0.488586
-0.960726
0.863695
0.018384
-0.704396
0.705647
0.908933
0.224830
0.571449
-0.160396
-0.736494
-0.491149
0.775740
-0.762907
-0.978723
-0.286812
0.704574
-0.274876
-0.451329
0.685464
0.120770
-0.401066
-0.574195
-0.519099
-0.248830
0.206171
-0.715468
-0.288448
-0.578700
0.960210
-0.885046
-0.086620
-0.921310
-0.176897
0.056515
0.003402
-0.158355
-0.948753
0.970299
-0.248405
-0.647347
-0.859022
0.756568
0.946620
-0.955318
0.623833
-0.576797
0.460749
-0.081516
0.868143
0.203711
-0.425032
-0.064594
-0.017110
-0.131971
-0.089799
0.522188
-0.097806
0.419567
0.735328
-0.610603
-0.182114
-0.732850
0.403514
0.648612
0.624638
-0.917353
0.828136
0.628021
-0.704219
0.644301
0.370537
-0.491177
0.652876
0.703705
0.592071
0.653211
0.884164
0.572415
-0.766688
-0.559633
-0.096871
-0.634345
0.006349
0.767571
0.344195
0.101043
0.606212
-0.529145
-0.014545
0.953992
-0.579034
0.641624
-0.870646
0.627242
-0.670949
0.878320
0.640250
0.327489
0.141569
0.733342
-0.321990
-0.286582
0.489240
0.008863
0.603049
-0.780655
0.434833
-0.785347
0.798516
-0.577008
-0.747609
-0.603595
-0.981266
0.638369
-0.668832
-0.473717
0.608104
0.936098
0.302065
0.072603
0.218438
-0.505902
0.032304
-0.767611
0.987927
-0.084562
-0.900578
0.196046
-0.127057
-0.688150
-0.904922
0.871537
0.525221
0.215888
0.273974
0.786954
-0.429496
-0.396676
0.448126
0.771662
0.388840
-0.133561
-0.287356
-0.396955
0.367394
-0.194461
0.313494
-0.740820
-0.043015
-0.240322
0.166377
-0.781599
0.755739
0.669249
0.521658
0.476947
-0.964627
-0.099558
0.819911
0.153247
-0.779854
0.375223
0.301330
0.374656
-0.248843
0.201083
0.748256
0.919870
0.967363
0.355214
0.188816
0.113970
-0.692225
0.104974
0.448083
-0.602356
-0.247595
-0.188573
-0.662644
-0.422556
0.328321
-0.205311
0.231896
0.628105
0.747857
-0.261628
0.523012
0.802752
-1641864746664.532227
32837294933.098061
-1641864746666.100342
-1641864746664.963379
361210244267.076660
-1641864746665.557129
-1641864746665.521240
-1641864746666.092529
-1641864746665.251953
361210244266.328308
-1641864746666.239746
-1641864746666.260498
32837294934.152443
-1641864746665.700439
-1641864746665.206787
361210244266.147827
-1641864746666.180420
-1641864746666.153564
-1641864746665.416016
-1641864746666.146240
361210244266.771667
-1641864746665.368896
-1641864746665.229248
32837294933.725849
-1641864746664.788330
-1641864746664.507080
361210244265.502808
-1641864746665.884277
-1641864746664.666504
-1641864746666.301758
-1641864746664.482178
361210244266.014709
-1641864746664.919922
-1641864746665.129639
32837294933.957436
-1641864746665.838623
-1641864746664.780518
361210244266.494507
361210244266.193237
361210244266.062927
361210244266.103271
361210244267.275208
361210244265.618103
-1641864746665.997070
-1641864746666.086182
32837294933.548462
-1641864746666.119385
-1641864746664.892090
361210244265.411072
-1641864746665.020996
-1641864746666.179932
-1641864746666.177979
-1641864746665.132324
32837294933.857723
-1641864746666.287598
32837294933.663860
32837294933.680992
-1641864746664.832520
-1641864746664.870605
32837294933.014549
-1641864746665.220215
-1641864746665.200439
-1641864746666.138672
-1641864746664.767578
32837294933.095947
-1641864746666.449219
-1641864746666.030029
32837294933.504238
-1641864746664.800049
-1641864746665.217529
361210244265.929016
-1641864746666.144531
-1641864746665.878906
32837294932.927654
32837294932.340073
32837294933.444946
-1641864746664.754150
-1641864746666.203125
32837294932.411259
-1641864746665.082275
-1641864746666.184570
361210244266.843140
-1641864746665.996582
-1641864746666.230225
32837294932.604954
-1641864746664.782471
-1641864746664.743164
-1641864746665.684326
361210244265.709351
361210244266.216125
361210244267.264893
361210244266.936707
361210244266.065796
-1641864746665.361084
-1641864746665.665527
32837294932.422874
-1641864746664.487305
-1641864746666.240967
-1641864746665.504150
-1641864746665.368652
-1641864746666.020264
-1641864746665.463135
-1641864746665.490967
361210244266.442383
-1641864746665.610107
-1641864746666.031250
32837294932.456013
32837294933.233345
32837294933.071579
32837294933.539886
-1641864746666.434326
-1641864746665.332275
-1641864746665.428711
-1641864746665.829590
361210244267.305176
-1641864746664.702637
-1641864746664.472168
-1641864746664.532715
-1641864746665.201660
32837294932.761093
-1641864746666.220703
-4315201194675.476562
86304023893.604675
-4315201194674.879883
-4315201194674.717773
949344262828.817627
-4315201194675.814453
-4315201194675.674805
-4315201194675.932129
-4315201194675.551270
949344262828.213501
-4315201194675.543945
-4315201194674.725098
86304023892.772171
-4315201194674.672852
-4315201194675.008789
949344262827.773438
-4315201194676.177734
-4315201194675.496582
-4315201194676.058594
-4315201194675.457031
949344262829.288574
-4315201194675.629883
-4315201194675.503418
86304023893.279800
-4315201194675.673828
-4315201194676.171387
949344262827.717163
-4315201194675.647949
-4315201194675.687500
-4315201194676.210938
-4315201194675.346680
949344262827.683838
-4315201194674.514648
-4315201194674.610352
86304023893.249329
-4315201194675.167480
-4315201194674.658203
949344262828.709595
949344262828.982910
949344262828.403198
949344262828.017578
949344262829.334595
949344262828.526123
-4315201194676.154785
-4315201194674.478027
86304023892.737518
-4315201194675.714844
-4315201194676.030273
949344262828.457153
-4315201194675.589844
-4315201194675.463867
-4315201194675.228027
-4315201194674.705078
86304023893.006104
-4315201194676.302246
86304023892.617722
86304023894.251968
-4315201194675.404785
-4315201194675.039062
86304023893.373230
-4315201194675.585449
-4315201194675.485352
-4315201194676.225586
-4315201194675.762695
86304023894.251877
-4315201194676.084961
-4315201194675.619141
86304023894.355774
-4315201194676.131836
-4315201194674.405762
949344262828.393799
-4315201194676.328613
-4315201194674.931152
86304023893.167084
86304023892.744324
86304023894.127151
-4315201194676.000000
-4315201194675.386719
86304023894.055862
-4315201194675.704102
-4315201194674.447266
949344262829.547119
-4315201194676.011230
-4315201194675.434082
86304023894.318420
-4315201194675.678223
-4315201194674.887207
-4315201194675.540527
949344262828.930786
949344262827.902832
949344262828.001099
949344262829.339966
949344262828.247925
-4315201194675.027832
-4315201194674.611816
86304023893.809143
-4315201194675.542480
-4315201194675.785156
-4315201194675.129395
-4315201194675.354492
-4315201194675.876465
-4315201194675.076172
-4315201194675.905273
949344262828.522095
-4315201194675.684082
-4315201194674.398926
86304023894.022049
86304023893.346298
86304023894.409912
86304023893.627319
-4315201194675.668457
-4315201194675.308594
-4315201194674.404785
-4315201194675.171875
949344262829.498901
-4315201194675.514160
-4315201194674.915527
-4315201194676.158203
-4315201194675.893066
86304023893.947891
-4315201194676.128906
0.127471
0.585533
-0.166884
-0.729164
-0.199407
0.232436
0.906846
0.760803
0.835618
0.624370
-0.526360
-0.580156
0.032307
-0.097533
-0.957516
-0.982298
0.222686
0.167088
0.444589
-0.683598
-0.407587
-0.762902
0.536725
-0.423807
0.464068
-0.198038
0.434940
0.000404
-0.877443
0.603241
0.437853
-0.302678
0.242820
-0.210065
0.981858
0.222990
-0.437997
-0.357101
0.037547
0.304603
-0.464607
0.330713
-0.783842
0.348625
0.872676
-0.169721
0.296948
0.757676
-0.261324
0.746661
0.534653
0.834966
-0.921759
0.574141
-0.066580
0.070272
-0.233781
-0.890652
0.270195
-0.897795
0.388212
0.398379
-0.499519
-0.169740
-0.509153
-0.586137
-0.013011
0.276738
0.188231
-0.881272
-0.820077
-0.750166
0.703930
0.662800
0.473578
-0.445163
0.120519
0.581145
-0.073407
0.108661
0.023400
0.764604
0.322818
0.634502
-0.481887
-0.213759
-0.566980
0.081195
0.384277
-0.429861
0.779622
0.457715
0.196030
0.978669
-0.641075
0.806193
-0.414454
-0.831301
-0.240290
0.733052
0.257534
0.012033
0.831281
-0.355951
0.322354
-0.988263
-0.198611
-0.522258
-0.851079
-0.403502
0.810572
-0.942696
-0.029437
0.204479
-0.938856
0.355596
-0.478683
-0.870708
0.884353
-0.462041
-0.931331
-3738628331913.147461
74772566637.616089
-3738628331914.150879
-3738628331914.125488
822498233022.092896
-3738628331914.603516
-3738628331913.312012
-3738628331914.932129
-3738628331913.147949
822498233021.382446
-3738628331913.749023
-3738628331914.763184
74772566638.117233
-3738628331914.439941
-3738628331914.312500
822498233021.482544
-3738628331914.686035
-3738628331913.500000
-3738628331914.662109
-3738628331914.673828
822498233020.894043
-3738628331914.725586
-3738628331913.759277
74772566637.875885
-3738628331914.561523
-3738628331913.488281
822498233021.181641
-3738628331913.293945
-3738628331914.440430
-3738628331913.333984
-3738628331914.688477
822498233021.759155
-3738628331914.579102
-3738628331913.500488
74772566637.338791
-3738628331913.808105
-3738628331914.440918
822498233020.492310
822498233021.489868
822498233020.471313
822498233022.048950
822498233020.641724
822498233020.578003
-3738628331913.560059
-3738628331913.539062
74772566638.833725
-3738628331913.704102
-3738628331915.035645
822498233020.962158
-3738628331914.987305
-3738628331913.713867
-3738628331913.964355
-3738628331914.290039
74772566638.257950
-3738628331913.102051
74772566637.596695
74772566639.123962
-3738628331915.069336
-3738628331914.458496
74772566638.874054
-3738628331914.250977
-3738628331913.571777
-3738628331913.728516
-3738628331914.541504
74772566637.826202
-3738628331913.885254
-3738628331913.770508
74772566638.455109
-3738628331914.434082
-3738628331913.970215
822498233021.280518
-3738628331913.981445
-3738628331914.914551
74772566638.754166
74772566638.507629
74772566638.066742
-3738628331913.356445
-3738628331914.846191
74772566638.048615
-3738628331914.043945
-3738628331915.041504
822498233020.332520
-3738628331914.433594
-3738628331913.697754
74772566638.645996
-3738628331914.404785
-3738628331914.924805
-3738628331914.532715
822498233021.816284
822498233021.098511
822498233021.785400
822498233020.478027
822498233021.276001
-3738628331914.907715
-3738628331914.661133
74772566638.657776
-3738628331913.640625
-3738628331913.985840
-3738628331914.156250
-3738628331915.048340
-3738628331913.129883
-3738628331913.941406
-3738628331914.870117
822498233021.564453
-3738628331915.073242
-3738628331913.270020
74772566639.158310
74772566638.983719
74772566637.359406
74772566638.625702
-3738628331914.910156
-3738628331914.946289
-3738628331913.665039
-3738628331914.470215
822498233020.883179
-3738628331913.564453
-3738628331913.128418
-3738628331913.725586
-3738628331914.776367
74772566638.666031
-3738628331914.985352
0.810301
-0.350131
0.958156
-0.058733
0.593257
0.032566
0.144831
-0.583172
-0.974645
0.832152
0.729767
-0.816046
0.118673
0.848536
-0.729339
0.231839
0.736601
0.062730
0.946233
-0.789646
0.470502
0.235697
-0.794251
0.056621
-0.466615
0.316043
-0.868441
-0.248221
0.019823
0.563382
0.983202
0.651162
-0.722287
0.289770
0.927709
0.607146
-0.955994
-0.579172
0.920483
0.492300
0.471624
0.109673
0.325117
0.027190
0.547169
0.869786
0.440394
0.432067
-0.242997
0.209841
0.693221
-0.455662
0.240976
-0.476039
0.119332
0.274213
-0.928732
0.234962
-0.603918
-0.708788
-0.257494
-0.760105
0.909829
-0.603850
-0.336858
0.708164
-0.652841
-0.847614
-0.756511
-0.832264
-0.397535
-0.657014
0.064736
0.174047
-0.346412
-0.253642
0.105618
-0.679572
-0.963569
-0.072037
0.059348
-0.643405
0.596894
-0.877740
-0.132929
-0.499304
0.483623
0.849323
0.722440
-0.166281
0.053569
0.153526
-0.139369
0.776016
-0.250001
-0.551871
0.309121
0.983167
-0.153850
0.065248
0.271159
0.027042
-0.653618
-0.360456
0.043989
-0.895491
0.268938
0.957911
-0.316138
0.325260
0.979233
0.059195
0.049571
0.829875
0.904867
-0.268039
-0.540600
0.839656
0.396418
0.950534
0.356049
0.199536
-0.307999
-0.650568
0.840634
0.910484
-0.319044
0.096093
0.568792
-0.763537
-0.034914
0.811728
-0.079420
0.152455
0.561978
-0.628626
0.031546
0.974509
-0.579205
0.369740
0.611228
-0.487392
0.986738
0.185700
0.241324
0.978203
0.855203
0.797878
0.180290
0.686044
0.448444
0.114921
0.884882
-0.195813
-0.916856
0.008490
-0.073335
0.238150
-0.768477
0.728752
0.807938
-0.467180
0.911180
0.806915
-0.091750
-0.287322
-0.024100
0.063440
-0.253986
-0.976286
-0.504127
-0.809213
0.899857
0.999509
-0.999561
0.597174
0.904552
-0.980790
0.620267
-0.707192
-0.821590
0.990637
0.678470
0.618432
0.115783
0.146975
-0.043113
-0.807453
0.925329
0.804621
-0.167058
0.866010
0.242104
-0.196555
-0.793587
0.461190
-0.183781
0.192465
-0.488003
-0.408493
0.893770
0.292582
-0.135878
0.364377
0.737616
0.700155
0.860126
-0.082839
0.890701
-0.143985
0.692974
-0.327538
-0.004858
0.454336
0.699546
0.769407
-0.949811
0.475960
0.149478
-0.275022
0.416544
0.619229
0.637721
-0.549254
0.430846
0.469194
0.587373
-0.828252
-0.168362
0.709849
0.301047
-0.601122
0.781422
0.637310
-0.426795
-0.706010
-0.540146
-0.938423
-0.570316
0.342453
-0.589476
-0.398931
0.212269
-0.305181
0.999899
-0.215523
0.116053
-0.993279
-0.642590
0.103177
0.670530
-0.991926
0.151016
0.303217
0.046803
0.562758
-0.847763
-0.842047
-0.109133
0.361306
-0.434047
-0.624297
0.048656
-0.483537
0.433294
-0.079986
-0.339899
0.729117
0.619858
0.977286
0.250949
-0.376368
-0.793065
0.143673
-0.266510
-0.661968
-0.371864
-0.713538
-0.936251
-0.997309
-0.370002
-0.277333
0.805576
0.096079
-0.498473
-0.014980
0.145873
-0.852478
0.259881
-0.624278
-0.204936
-0.583872
-0.619593
-0.685927
0.664563
-0.656579
0.476618
0.921133
-0.664166
0.905357
-0.989342
-0.939118
-0.431985
0.646465
-0.475240
0.106469
0.306323
0.173084
-0.808187
-0.923695
0.709692
-0.316427
-0.439083
0.932876
-0.845556
-0.183881
-0.150585
-0.367181
0.515439
0.780749
0.111942
0.363666
0.424556
-0.054253
0.548311
0.748963
-0.603279
-0.273876
0.937378
0.393164
-0.599035
-0.765190
-0.529881
0.262360
0.630664
0.143129
0.713379
-0.799315
0.674173
0.199371
-0.136898
0.033972
-0.021508
-0.145361
-0.148572
0.485158
0.261010
-0.591408
-0.533216
-0.365457
-0.126372
0.753649
0.195488
-0.319350
-0.230266
-0.174901
-0.759583
0.938967
0.700644
-0.932150
-0.293278
0.011808
0.403770
0.500573
0.503453
-0.489858
0.615468
0.029454
-0.469934
0.612828
0.739537
-0.036939
0.432033
-0.030544
0.076408
-0.554032
-0.452526
0.657086
-0.719941
0.389317
-0.631741
0.573948
-0.810998
0.961783
0.814789
0.213317
0.165301
0.969624
-0.084766
-0.314248
-0.148601
0.718290
0.570197
0.324482
-0.472564
0.002995
0.163896
-0.442254
0.333261
-0.448271
0.986889
-0.717388
0.409071
-0.827497
0.120767
0.030887
0.369069
0.490333
0.814215
-0.411356
-0.075089
-0.817441
0.814343
-0.053567
-0.525529
-0.226460
0.860228
0.322595
0.701691
0.574921
0.236335
-0.834904
0.118356
-0.408465
-0.546217
0.781451
-0.438611
-0.450846
-0.782794
-0.641657
0.155278
-0.635504
-0.661330
0.565794
-0.704787
-0.007933
0.408285
-0.428950
-0.743368
-0.483929
-0.104624
-0.594187
0.564731
0.848847
-0.639723
-0.529883
0.566907
-0.325651
-0.287032
0.862995
-0.027704
0.778833
0.542077
-0.187995
0.786773
0.550489
0.064068
-0.706228
0.398880
0.100753
-0.208338
0.599720
-0.693445
-0.972302
0.114851
0.429834
0.753196
-0.416617
0.057360
0.422778
0.795276
-0.315885
0.513986
0.104324
0.913414
0.952235
-0.302733
0.573469
-0.661913
0.549889
-0.055796
-0.705799
-0.111320
0.942042
0.522087
0.004803
0.097572
-0.012803
-0.622880
0.161748
0.319275
-0.651502
0.592664
0.948270
0.891476
0.129133
-0.372452
-0.440884
0.669261
-0.258076
0.966475
-0.527678
-0.441690
-0.237775
-0.512122
-0.759807
0.171105
-0.132060
0.916293
0.311253
0.824084
-0.972888
-0.275617
0.890104
0.691558
-0.855660
0.991490
0.137390
-0.836173
0.608887
0.234729
0.589007
0.884531
0.988984
0.832346
0.453820
0.034046
-0.241880
-0.865443
-0.267420
0.981894
-0.287312
0.085156
-0.756370
-0.705208
0.057698
0.978618
-0.126418
0.851574
0.673202
0.234985
0.418544
0.757284
-0.319851
0.627238
0.684490
-0.126915
0.672873
-0.534708
-0.244266
0.978326
-0.748753
-0.174294
-0.665207
0.167566
-0.127181
0.130564
-0.106552
-0.863885
0.974246
-0.219114
-0.052783
-0.089578
0.672940
0.351152
0.017644
-0.067555
0.467424
-0.875966
-0.047812
0.249194
0.059269
-0.442362
0.281693
-0.774297
-0.640814
-0.609367
0.953358
0.067381
-0.868505
0.576596
-0.931040
0.383445
-0.171035
-0.808813
-0.395232
0.305781
-0.128554
0.259914
-0.057579
-0.483749
0.201607
0.940055
-0.225190
-0.850606
-0.127994
-0.103686
-0.437294
-0.252654
0.030156
-0.406233
-0.513897
-0.757796
0.818919
0.453975
-0.083227
0.364668
0.456782
0.228908
-0.009669
0.269582
-0.583567
0.392852
0.056081
0.907031
0.470017
0.232691
0.753354
-0.612924
-0.290308
0.519316
-0.525268
0.481739
-0.913465
-0.698386
0.678011
0.983307
0.791334
-0.496390
0.164722
-0.388832
-0.646619
0.811177
0.911758
0.478111
-0.343342
-0.904461
0.119119
-0.437372
-0.342781
0.448996
-0.945593
-0.351529
-0.233826
-0.609751
-0.527317
0.481720
-0.419468
-0.448018
-0.808433
0.171069
-0.612303
-0.639452
0.674951
-0.155950
0.806999
0.380190
0.029267
-0.775103
-0.140137
-0.726024
-0.199004
-0.586983
0.415247
0.424381
-0.364166
-0.721371
0.637244
0.338438
-0.495295
0.253487
-0.888463
0.535099
-0.025078
-0.498270
0.135672
0.842351
0.562151
0.916166
-0.316156
-0.665797
-0.095746
-0.531371
0.682732
0.152563
0.097915
-0.282468
-0.495436
0.217708
0.105946
-0.756163
-0.343507
0.992197
0.390488
-0.488271
-0.981856
0.418474
0.009698
-0.529509
0.484788
0.076519
0.868733
-0.696993
0.428215
-0.438945
0.709943
-0.111284
0.352814
0.454333
0.355717
0.589103
-0.061013
0.054126
-0.763561
-0.983762
0.053549
-0.820789
0.604665
0.014947
-0.505562
0.784864
0.945870
-0.544786
-0.091243
0.508333
0.447047
-996829851709.838013
19936597033.778774
-996829851709.676147
-996829851708.931641
219302567376.239716
-996829851709.486938
-996829851709.036011
-996829851709.402588
-996829851710.634521
219302567375.577545
-996829851709.087524
-996829851710.257446
19936597033.963081
-996829851709.488037
-996829851709.765747
219302567375.991211
-996829851710.591064
-996829851709.630371
-996829851708.800903
-996829851710.143188
219302567377.030396
-996829851710.443970
-996829851710.329346
19936597034.176464
-996829851709.481689
-996829851709.831909
219302567375.750427
-996829851710.153564
-996829851710.324829
-996829851709.783081
-996829851710.276489
219302567375.698944
-996829851708.773926
-996829851709.458252
19936597034.722488
-996829851708.715454
-996829851708.728638
219302567375.222961
219302567375.886627
219302567377.112518
219302567375.604218
219302567376.168243
219302567377.015594
-996829851709.805420
-996829851709.059082
19936597033.674839
-996829851708.802124
-996829851709.508423
219302567375.881439
-996829851709.344238
-996829851709.841675
-996829851709.022217
-996829851710.152954
19936597033.752567
-996829851710.013428
19936597033.195900
19936597034.731785
-996829851709.419800
-996829851709.707275
19936597035.078163
-996829851709.978882
-996829851709.128174
-996829851710.482178
-996829851710.148804
19936597034.364517
-996829851709.001709
-996829851709.029175
19936597034.125656
-996829851708.770752
-996829851709.206909
219302567375.144958
-996829851708.691162
-996829851709.239136
19936597033.805115
19936597034.710190
19936597034.159008
-996829851710.588989
-996829851709.126343
19936597033.579311
-996829851708.898804
-996829851710.039795
219302567376.193604
-996829851710.541748
-996829851710.524048
19936597033.725166
-996829851710.118652
-996829851710.467041
-996829851709.234497
219302567376.192566
219302567376.779785
219302567376.871918
219302567375.581604
219302567376.711700
-996829851709.181030
-996829851710.343018
19936597033.213360
-996829851709.018799
-996829851710.515991
-996829851708.680908
-996829851710.510254
-996829851708.683105
-996829851709.941406
-996829851710.120972
219302567376.120575
-996829851709.754517
-996829851709.671387
19936597034.966095
19936597033.760647
19936597033.366436
19936597033.862675
-996829851710.443848
-996829851710.125488
-996829851708.750000
-996829851709.253052
219302567376.307831
-996829851710.581299
-996829851710.070068
-996829851710.525024
-996829851708.987305
19936597034.050194
-996829851710.063354
-0.249984
-0.469403
-0.302505
0.668168
-0.507917
0.449579
0.004178
0.507731
-0.028035
0.085945
0.762812
-0.016797
0.930093
-0.706203
0.307571
0.290597
-0.419623
-0.348413
-0.471698
0.582279
0.545843
0.282237
-0.077708
-0.585412
0.158426
0.130292
-0.052526
0.037090
-0.657387
0.783763
-0.419726
0.288767
0.325285
-0.803260
0.763556
0.164712
-0.623763
-0.317963
0.038740
0.386825
-0.472472
0.888378
0.719313
0.081387
-0.403207
-0.542231
0.904207
0.969631
0.848058
0.465608
0.293742
0.792933
0.605364
-0.127427
0.836636
-0.796171
0.851748
-0.824794
-0.977527
-0.490202
-0.521791
-0.615478
0.093114
-0.031087
-0.158352
-0.755009
-0.538925
-0.569644
-0.074814
0.651503
-0.314449
-0.923788
-0.293995
0.468592
0.888286
-0.136534
0.352333
0.134749
-0.229117
0.382011
-0.027756
-0.535045
0.418511
0.838652
0.807540
-0.241968
-0.541705
-0.958727
-0.488692
-0.409769
0.878765
0.367591
-0.113191
0.148601
-0.042738
0.521418
-0.506039
0.595628
0.091444
0.074501
-0.679832
0.907884
0.629215
0.514839
0.188674
-0.979373
-0.011460
-0.747442
-0.114628
0.545933
0.904550
0.248645
0.476996
-0.116072
-0.865093
-0.223505
-0.526545
0.537859
0.695723
0.791329
0.076353
0.092571
0.640026
0.655460
-0.214475
-0.841925
0.898576
0.524684
0.748231
0.454855
-0.758958
0.626919
0.134245
0.570973
-0.105863
-0.646888
0.686986
-0.149296
-0.702519
-0.906566
-0.165552
-0.695777
0.037057
-0.306331
0.578904
0.064489
-0.496139
-0.871917
0.896700
-0.962167
0.379895
-0.925949
-0.445538
0.469313
0.851543
0.855940
0.984615
-0.477849
0.846681
0.995000
0.220186
0.028634
-0.509838
0.294024
-0.186632
-0.698148
-0.228004
-0.734707
0.845277
0.875143
-0.673838
0.189093
-0.232632
0.433309
0.796940
0.750491
-0.698389
-0.355516
0.280866
-0.725897
0.945127
0.317923
-0.511198
0.077891
0.429112
0.620444
0.002616
0.734953
0.090673
-0.375400
0.976992
0.390651
0.447726
0.428444
0.028298
-0.601516
0.775271
0.317668
0.890470
0.883741
-0.106083
-0.173010
0.449080
-0.551138
0.688107
-0.565565
-0.581891
-0.501244
-0.544455
-0.022329
0.387441
-0.266567
-0.636209
0.669033
-0.838925
-0.011717
-0.042008
-0.440315
-0.466001
0.957450
0.655678
-0.705240
-0.016817
0.888434
0.698857
0.436218
0.870779
-0.791769
0.730050
0.825356
0.630426
-0.881795
-0.295159
-0.308948
0.990566
-0.983780
0.798936
0.909482
-0.401092
0.674965
0.871823
0.763171
-3917967294627.959961
78359345892.398483
-3917967294627.115723
-3917967294628.077637
861952804818.515503
-3917967294628.076660
-3917967294627.766113
-3917967294628.341309
-3917967294627.708984
861952804818.382935
-3917967294627.336914
-3917967294628.943848
78359345892.808319
-3917967294628.187988
-3917967294628.986328
861952804818.478638
-3917967294628.791992
-3917967294628.870117
-3917967294627.519531
-3917967294628.485352
861952804818.921265
-3917967294628.056641
-3917967294629.028809
78359345892.337799
-3917967294627.701660
-3917967294629.036621
861952804818.470337
-3917967294627.277832
-3917967294627.692871
-3917967294628.072754
-3917967294628.911621
861952804817.358765
-3917967294627.436035
-3917967294627.626953
78359345893.197586
-3917967294628.047363
-3917967294627.313477
861952804818.174805
861952804818.187622
861952804818.618042
861952804817.249878
861952804818.373535
861952804818.334717
-3917967294627.103516
-3917967294628.863770
78359345892.220413
-3917967294628.679199
-3917967294628.714355
861952804818.434937
-3917967294627.924316
-3917967294627.650879
-3917967294627.371582
-3917967294628.927734
78359345891.787598
-3917967294628.770508
78359345892.142258
78359345893.315979
-3917967294628.784180
-3917967294627.486328
78359345893.441254
-3917967294628.184082
-3917967294628.313965
-3917967294628.964355
-3917967294629.062500
78359345893.179916
-3917967294627.563965
-3917967294627.131348
78359345893.325302
-3917967294627.736328
-3917967294628.028320
861952804818.903198
-3917967294627.384766
-3917967294628.485352
78359345892.137283
78359345892.508728
78359345892.075531
-3917967294627.562988
-3917967294628.753906
78359345892.364899
-3917967294628.895996
-3917967294628.375977
861952804818.064941
-3917967294628.572754
-3917967294628.977051
78359345891.842346
-3917967294629.059082
-3917967294628.661621
-3917967294628.408203
861952804818.544312
861952804818.386108
861952804818.845581
861952804817.524170
861952804818.329468
-3917967294628.860352
-3917967294627.837891
78359345892.934143
-3917967294628.026367
-3917967294628.460449
-3917967294627.960449
-3917967294628.055664
-3917967294628.428223
-3917967294628.407715
-3917967294627.390137
861952804817.355591
-3917967294628.428711
-3917967294627.529297
78359345893.035446
78359345892.519623
78359345892.181854
78359345892.728455
-3917967294628.408203
-3917967294628.768555
-3917967294628.251953
-3917967294627.461914
861952804819.020142
-3917967294628.454590
-3917967294628.109863
-3917967294627.947754
-3917967294627.555176
78359345891.700897
-3917967294628.376953
-1316742880645.285400
26334857612.385159
-1316742880644.956055
-1316742880646.065918
289683433741.485596
-1316742880645.179443
-1316742880645.280029
-1316742880646.272461
-1316742880645.149414
289683433741.146729
-1316742880646.684814
-1316742880645.678955
26334857613.453636
-1316742880646.251709
-1316742880646.085938
289683433741.610229
-1316742880646.102539
-1316742880645.837891
-1316742880646.602051
-1316742880645.472168
289683433741.255188
-1316742880645.097168
-1316742880644.919434
26334857612.261410
-1316742880646.583252
-1316742880645.204834
289683433741.443237
-1316742880644.965576
-1316742880646.597656
-1316742880646.405762
-1316742880646.387451
289683433742.494446
-1316742880645.464355
-1316742880646.246338
26334857612.548851
-1316742880644.892334
-1316742880646.580322
289683433742.780334
289683433741.690674
289683433742.211914
289683433741.942444
289683433741.474243
289683433742.075012
-1316742880646.035400
-1316742880645.841553
26334857612.258282
-1316742880646.222412
-1316742880645.884033
289683433742.894470
-1316742880645.079834
-1316742880646.400635
-1316742880644.968994
-1316742880645.644287
26334857613.469936
-1316742880646.492676
26334857612.143761
26334857613.696980
-1316742880645.544434
-1316742880645.643066
26334857613.250954
-1316742880644.943359
-1316742880645.960449
-1316742880646.336914
-1316742880645.663818
26334857612.179688
-1316742880646.305664
-1316742880645.467285
26334857613.429665
-1316742880645.526123
-1316742880646.222900
289683433742.566772
-1316742880646.030762
-1316742880645.639404
26334857613.667965
26334857612.765511
26334857612.161877
-1316742880646.449707
-1316742880645.176025
26334857613.144283
-1316742880645.173340
-1316742880646.227051
289683433741.232056
-1316742880646.384277
-1316742880645.691162
26334857613.911293
-1316742880645.766602
-1316742880646.261230
-1316742880646.836182
289683433741.167969
289683433741.724121
289683433741.548279
289683433742.200439
289683433741.259888
-1316742880646.111816
-1316742880646.498779
26334857613.420776
-1316742880646.194580
-1316742880645.376953
-1316742880646.500977
-1316742880645.182129
-1316742880645.654053
-1316742880645.802734
-1316742880645.979492
289683433741.325012
-1316742880646.591797
-1316742880646.816162
26334857612.342129
26334857611.940491
26334857612.577782
26334857612.048203
-1316742880645.806396
-1316742880645.409912
-1316742880646.656494
-1316742880646.737061
289683433741.747131
-1316742880645.718506
-1316742880646.513916
-1316742880646.782227
-1316742880644.976074
26334857613.385300
-1316742880646.409424
0.821906
-0.384811
-0.940657
0.437499
-0.718078
-0.258015
0.340325
0.032580
-0.571790
-0.750392
-0.544870
0.265665
0.489243
-0.541688
0.465366
-0.787921
-0.316481
-0.861116
-0.186276
-0.757593
-0.899111
-0.085868
0.041873
-0.692826
-0.317504
0.813118
-0.878858
0.274284
-0.541289
-0.434054
0.446913
-0.801010
-0.286832
-0.194570
-0.922949
-0.217567
0.773463
0.978855
-0.105339
0.744828
-0.771578
0.694060
0.634868
0.922761
-0.588358
0.018374
0.913282
0.170315
0.844981
-0.131790
-0.307943
0.093542
0.286812
-0.428523
-0.363812
0.592240
-0.722358
-0.419604
-0.626097
-0.040151
-0.078194
0.642351
0.393991
0.850866
0.209959
0.328954
-0.714743
0.848532
0.465592
0.389114
-0.444151
0.469694
-0.699620
0.003738
-0.944307
-0.687609
-0.400743
0.468836
-0.094802
-0.950327
0.154714
-0.025947
0.731536
0.398734
-0.871790
-0.848185
0.779784
-0.201252
-0.854468
0.304033
-0.819229
-0.591148
0.250769
-0.927605
-0.948250
-0.162832
0.431085
0.324378
-0.418718
0.690066
0.941142
0.836805
-0.753353
0.335109
0.821346
-0.818929
-0.328056
0.152954
0.324275
-0.746878
0.841821
0.356831
0.829527
-0.448092
-0.278193
0.521181
0.285632
0.807744
0.653624
-0.652565
-0.945887
-2450223022821.895996
49004460455.617401
-2450223022821.703125
-2450223022821.841797
539049065021.665283
-2450223022822.600586
-2450223022822.539551
-2450223022822.183594
-2450223022821.756836
539049065020.172180
-2450223022822.999023
-2450223022823.030762
49004460455.492264
-2450223022822.385254
-2450223022823.019531
539049065020.752625
-2450223022822.783691
-2450223022821.241699
-2450223022821.610840
-2450223022821.402832
539049065020.325378
-2450223022821.221680
-2450223022822.065918
49004460456.170891
-2450223022822.653809
-2450223022822.275879
539049065021.387878
-2450223022821.418945
-2450223022821.333008
-2450223022822.008789
-2450223022822.831543
539049065019.957764
-2450223022822.023926
-2450223022821.321777
49004460457.304268
-2450223022822.739746
-2450223022822.574219
539049065020.370422
539049065020.692139
539049065021.543152
539049065021.488831
539049065020.017883
539049065020.052734
-2450223022822.138184
-2450223022822.992676
49004460457.329544
-2450223022822.469238
-2450223022822.582520
539049065020.050964
-2450223022821.177246
-2450223022822.971680
-2450223022821.187500
-2450223022821.936523
49004460456.718040
-2450223022822.937500
49004460456.305695
49004460455.945824
-2450223022821.134277
-2450223022822.897461
49004460456.792198
-2450223022822.714355
-2450223022822.449707
-2450223022821.503906
-2450223022822.159180
49004460455.562531
-2450223022822.982910
-2450223022821.524902
49004460457.130440
-2450223022822.425293
-2450223022821.966309
539049065021.726868
-2450223022822.875000
-2450223022821.897461
49004460456.516624
49004460455.958420
49004460455.954910
-2450223022822.371582
-2450223022821.331055
49004460456.704987
-2450223022821.202148
-2450223022822.284180
539049065021.273132
-2450223022821.077148
-2450223022821.275391
49004460456.558296
-2450223022822.151855
-2450223022822.789551
-2450223022821.276855
539049065021.768005
539049065020.500854
539049065020.529419
539049065020.994202
539049065020.481628
-2450223022822.454590
-2450223022822.637695
49004460456.364632
-2450223022821.247070
-2450223022822.990234
-2450223022821.852051
-2450223022823.005371
-2450223022821.494629
-2450223022822.016602
-2450223022822.897949
539049065020.277222
-2450223022821.568359
-2450223022822.251953
49004460455.791496
49004460456.704308
49004460456.800156
49004460457.360771
-2450223022822.691895
-2450223022821.548828
-2450223022821.626465
-2450223022821.667969
539049065020.628540
-2450223022821.124512
-2450223022822.310059
-2450223022822.525391
-2450223022821.718262
49004460456.918434
-2450223022822.860352
-1019265690891.363037
20385313817.621983
-1019265690889.826782
-1019265690890.004639
224238451995.850922
-1019265690890.885132
-1019265690889.887329
-1019265690890.128906
-1019265690890.048828
224238451996.615448
-1019265690891.117798
-1019265690890.173096
20385313818.345009
-1019265690890.209839
-1019265690890.416748
224238451995.186615
-1019265690889.817993
-1019265690889.553101
-1019265690890.285645
-1019265690891.078125
224238451995.704071
-1019265690890.604980
-1019265690891.254028
20385313816.909748
-1019265690889.784180
-1019265690890.437622
224238451995.647125
-1019265690890.764404
-1019265690890.738525
-1019265690890.302734
-1019265690891.089600
224238451996.537537
-1019265690889.979736
-1019265690889.951172
20385313817.737431
-1019265690891.043823
-1019265690891.044556
224238451995.563110
224238451996.402771
224238451996.305450
224238451996.653076
224238451996.103729
224238451996.515686
-1019265690889.843384
-1019265690890.191772
20385313817.210289
-1019265690890.608398
-1019265690890.951660
224238451996.420593
-1019265690891.154785
-1019265690890.021484
-1019265690889.619141
-1019265690889.712402
20385313818.084934
-1019265690890.383667
20385313818.791626
20385313817.048775
-1019265690889.762695
-1019265690889.908569
20385313818.732464
-1019265690890.657471
-1019265690890.614746
-1019265690889.852661
-1019265690891.163818
20385313818.232304
-1019265690890.299561
-1019265690889.577271
20385313817.646252
-1019265690890.549194
-1019265690891.379028
224238451996.586121
-1019265690891.270874
-1019265690891.147705
20385313817.979057
20385313816.912510
20385313817.182159
-1019265690890.330078
-1019265690890.794556
20385313817.874702
-1019265690890.684448
-1019265690889.596924
224238451996.825470
-1019265690890.313232
-1019265690890.920776
20385313817.851028
-1019265690890.832886
-1019265690890.313965
-1019265690889.571289
224238451995.619171
224238451995.967957
224238451996.002686
224238451995.195282
224238451996.115356
-1019265690890.758057
-1019265690890.469604
20385313817.297089
-1019265690889.484741
-1019265690890.931763
-1019265690890.142090
-1019265690890.617554
-1019265690890.992676
-1019265690890.205444
-1019265690890.184326
224238451994.972961
-1019265690890.329224
-1019265690889.614258
20385313818.192085
20385313818.456867
20385313818.524338
20385313817.488159
-1019265690890.902344
-1019265690890.704834
-1019265690890.948608
-1019265690891.344971
224238451996.835724
-1019265690889.896851
-1019265690889.862305
-1019265690890.134277
-1019265690890.453735
20385313817.014072
-1019265690889.438721
0.439841
-0.020899
0.344806
0.655157
-0.071339
-0.040318
0.737744
-0.952966
0.284688
-0.537806
0.688550
-0.479269
0.770790
0.817982
0.989815
0.101348
-0.012725
-0.557732
0.296900
-0.640543
0.874429
0.150028
0.480698
-0.737275
0.679060
0.804965
0.095533
-0.255531
0.077040
-0.577228
-0.464766
-0.537851
0.625785
0.076724
-0.904429
-0.400979
0.458282
0.430744
0.994722
-0.686008
-0.439513
0.697507
0.406374
0.145714
0.003823
-0.443650
-0.760093
-0.955007
0.691041
-0.348485
-0.496315
-0.155370
-0.353989
0.364059
0.361481
-0.198210
0.715778
0.257937
-0.434611
-0.526984
-0.310244
-0.623934
-0.704975
0.271189
-0.835624
0.521172
0.335041
-0.399644
0.584453
0.302926
-0.042639
-0.092101
0.940825
-0.217018
-0.387492
-0.930989
0.902328
0.618894
0.117045
-0.491632
0.261474
0.736790
-0.103840
0.743683
-0.547085
0.838017
-0.920601
0.942444
0.368021
0.262510
0.340492
0.730254
-0.847391
-0.624981
0.968915
0.256192
0.488604
0.884701
0.200535
0.177289
-0.707145
-0.244319
0.110104
-0.453844
0.886640
0.074078
-0.177311
-0.424298
0.162868
0.828232
-0.489243
0.053656
0.931652
-0.611566
0.665423
-0.122250
0.946154
-0.762419
-0.102571
0.907308
-0.403838
-258810852337.276825
5176217046.499611
-258810852338.209167
-258810852337.373474
56938387514.155846
-258810852337.602814
-258810852336.561310
-258810852337.440369
-258810852338.064331
56938387515.186424
-258810852338.139252
-258810852336.792450
5176217047.131099
-258810852336.675598
-258810852337.884979
56938387513.813416
-258810852337.142761
-258810852337.201782
-258810852337.263245
-258810852337.522125
56938387514.792282
-258810852337.066193
-258810852336.933655
5176217045.993478
-258810852336.843658
-258810852336.345490
56938387515.075165
-258810852337.339600
-258810852336.621277
-258810852336.901978
-258810852338.135529
56938387514.239990
-258810852336.811066
-258810852336.579132
5176217045.782633
-258810852336.534851
-258810852336.625153
56938387513.858223
56938387513.277313
56938387514.218987
56938387514.948395
56938387515.174889
56938387514.175461
-258810852337.141541
-258810852337.885468
5176217047.498389
-258810852336.752563
-258810852337.638184
56938387514.981636
-258810852336.619843
-258810852337.483002
-258810852336.836182
-258810852337.758392
5176217047.171342
-258810852337.309357
5176217046.228186
5176217047.738625
-258810852336.542908
-258810852337.461975
5176217046.849469
-258810852337.610107
-258810852336.833588
-258810852338.101288
-258810852337.723846
5176217046.209562
-258810852336.711945
-258810852337.214233
5176217047.539620
-258810852336.885040
-258810852336.948822
56938387514.787354
-258810852337.332825
-258810852336.690460
5176217046.012601
5176217045.791809
5176217046.461560
-258810852336.941803
-258810852336.683624
5176217047.368061
-258810852337.792297
-258810852336.395264
56938387514.959740
-258810852337.577148
-258810852336.913177
5176217046.492383
-258810852337.465790
-258810852337.261292
-258810852337.431885
56938387513.309280
56938387514.237419
56938387513.245544
56938387513.832649
56938387514.256569
-258810852336.757660
-258810852338.016724
5176217047.233469
-258810852337.170929
-258810852337.528778
-258810852338.047852
-258810852336.898102
-258810852337.217712
-258810852337.567566
-258810852337.302979
56938387514.632538
-258810852337.293060
-258810852337.816711
5176217046.555383
5176217046.758481
5176217046.781680
5176217047.672105
-258810852337.826111
-258810852336.549347
-258810852336.911865
-258810852336.327240
56938387513.666145
-258810852336.860107
-258810852337.940918
-258810852338.097351
-258810852336.816406
5176217046.054796
-258810852337.242035
-38632382541.160950
772647650.721442
-38632382540.988274
-38632382540.936829
8499124158.922982
-38632382542.119759
-38632382542.094635
-38632382542.175545
-38632382540.395996
8499124159.168174
-38632382540.388977
-38632382542.198608
772647650.515610
-38632382541.939415
-38632382541.281754
8499124158.442874
-38632382542.016983
-38632382541.619514
-38632382541.372704
-38632382540.968529
8499124158.616604
-38632382541.889091
-38632382541.568993
772647650.529323
-38632382541.679832
-38632382541.955956
8499124159.547409
-38632382541.528908
-38632382540.614914
-38632382540.507011
-38632382541.046829
8499124159.082886
-38632382541.012871
-38632382541.092964
772647650.262741
-38632382541.894836
-38632382542.137817
8499124159.943752
8499124159.214795
8499124159.748181
8499124159.143669
8499124159.374911
8499124159.297750
-38632382540.378067
-38632382540.911118
772647651.773133
-38632382542.256958
-38632382541.251305
8499124158.115703
-38632382540.549820
-38632382540.513924
-38632382540.922661
-38632382541.733643
772647650.192194
-38632382540.341125
772647651.537051
772647650.448541
-38632382540.432388
-38632382541.411873
772647651.474292
-38632382540.768730
-38632382541.956688
-38632382541.630287
-38632382542.309608
772647651.732003
-38632382540.977509
-38632382541.259880
772647650.229893
-38632382541.794159
-38632382541.805092
8499124158.556017
-38632382540.795563
-38632382541.637032
772647650.473285
772647650.321375
772647651.332094
-38632382542.132088
-38632382541.225914
772647650.424826
-38632382540.596039
-38632382541.524277
8499124159.633714
-38632382540.920815
-38632382541.861664
772647650.902695
-38632382541.301079
-38632382540.871033
-38632382541.818085
8499124159.695240
8499124158.491334
8499124158.754748
8499124158.945932
8499124159.540272
-38632382541.452675
-38632382541.931816
772647651.670502
-38632382541.090988
-38632382541.554840
-38632382541.403000
-38632382540.662292
-38632382540.662483
-38632382541.481155
-38632382541.254532
8499124158.107450
-38632382541.918938
-38632382540.343651
772647651.768775
772647650.064362
772647650.264247
772647649.881340
-38632382541.923431
-38632382541.789734
-38632382541.012093
-38632382541.143219
8499124159.360008
-38632382540.787682
-38632382540.544930
-38632382541.783264
-38632382541.874428
772647650.181869
-38632382541.626572
0.656441
0.050520
-0.335600
0.876633
-0.893919
0.077580
0.543554
0.678257
-0.054440
0.800939
-0.529951
-0.720674
0.132528
0.173753
0.334675
-0.113754
-0.896232
0.344413
-0.818973
-0.184259
-0.134363
0.325896
-0.392304
-0.231152
-0.668589
-0.076697
0.117097
0.595306
0.004055
-0.372152
0.819696
-0.775026
-0.426079
-0.485126
-0.976548
-0.538214
-0.267428
-0.775067
-0.643863
-0.544931
0.244445
0.785141
0.178063
0.326213
-0.785645
0.828771
0.634663
0.462251
0.647885
-0.081313
0.496287
0.385089
0.756559
-0.878485
-0.709105
0.016495
0.404929
-0.207513
-0.753476
-0.070665
-0.687115
0.630610
0.359807
0.493832
-0.892812
0.422916
0.649829
0.049115
-0.146048
0.526559
-0.068062
0.465128
0.906620
0.980292
0.569157
-0.100239
0.772189
0.611627
-0.548849
-0.965323
-0.336566
-0.052007
-0.193526
-0.376583
0.694445
-0.353003
0.225436
-0.009058
0.982705
-0.467633
0.672904
0.353152
-0.092400
-0.214146
-0.914112
0.375984
0.516965
0.703598
0.492875
0.198262
-0.833515
0.211942
0.323268
0.267805
0.468575
-0.232647
-0.703337
-0.644229
-0.453601
0.073438
0.990369
-0.484825
0.213213
0.828753
0.368566
-0.450832
-0.046312
-0.981407
0.850572
-0.608588
0.236585
-0.549450
-0.557237
0.652488
0.492569
-0.008439
-0.300624
0.919304
-0.998498
-0.974725
-0.650738
0.605480
0.875739
0.391070
0.726017
0.944006
0.174930
0.787584
-0.069930
0.603578
-0.811091
-0.877716
-0.208309
0.533255
0.704732
0.438811
0.271453
-0.972541
0.275722
0.731792
0.011474
-0.821803
0.938420
0.834644
0.192684
-0.422344
-0.317154
-0.119386
-0.015702
0.023243
0.259031
-0.552109
0.672543
0.482422
-0.259114
0.369526
0.803654
0.132990
-0.326704
0.172213
0.294494
0.129668
0.866071
0.256707
0.954652
0.310087
-0.480530
-0.188305
-0.159220
0.653255
0.546326
-0.971734
-0.948466
0.569079
-0.725048
-0.100354
0.122789
-0.316734
0.267634
-0.596045
-0.534339
-0.185098
0.364586
-0.227391
0.484607
0.990144
-0.413911
0.916992
0.514341
0.612863
0.924410
0.382740
-0.382065
0.871296
-0.132785
0.307338
0.085733
-0.632970
0.544815
0.836430
-0.829110
-0.107454
-0.514695
0.012539
0.148889
-0.493843
-0.746919
-0.492975
-0.951225
0.898195
0.965511
-0.024921
-0.796464
-0.287424
-0.237833
-0.758266
0.803981
0.757447
-0.430136
0.555912
0.828613
-0.072714
-0.566418
-0.387397
-0.370163
0.243445
-0.729301
-0.505817
-0.000516
0.155417
0.188698
-0.215521
-4294862999136.217773
85897259983.244553
-4294862999136.790527
-4294862999136.317383
944869859810.418945
-4294862999136.300293
-4294862999135.586426
-4294862999136.421875
-4294862999136.760254
944869859810.079224
-4294862999136.737305
-4294862999136.622559
85897259982.263977
-4294862999136.396484
-4294862999136.135254
944869859810.186646
-4294862999137.069336
-4294862999137.162109
-4294862999136.278320
-4294862999137.157227
944869859810.163696
-4294862999135.960938
-4294862999137.227051
85897259982.469818
-4294862999135.689941
-4294862999135.528320
944869859810.130615
-4294862999137.232422
-4294862999135.844727
-4294862999136.658203
-4294862999136.540039
944869859810.685425
-4294862999137.089844
-4294862999135.297852
85897259982.408920
-4294862999136.168945
-4294862999135.842773
944869859809.914429
944869859810.484253
944869859809.368652
944869859809.870972
944869859810.690308
944869859809.625244
-4294862999136.083984
-4294862999137.172363
85897259983.341476
-4294862999136.155762
-4294862999135.774902
944869859809.763916
-4294862999136.761719
-4294862999136.749023
-4294862999136.603027
-4294862999136.077637
85897259982.964706
-4294862999136.677734
85897259982.142731
85897259982.167236
-4294862999136.269043
-4294862999135.508789
85897259982.443085
-4294862999135.882324
-4294862999135.742188
-4294862999136.399902
-4294862999135.795410
85897259982.748703
-4294862999136.584473
-4294862999136.402344
85897259983.112091
-4294862999136.485352
-4294862999136.983887
944869859810.592896
-4294862999135.359375
-4294862999136.877930
85897259982.037048
85897259982.046539
85897259983.134277
-4294862999137.254395
-4294862999136.428711
85897259983.059860
-4294862999136.740723
-4294862999136.746582
944869859809.654053
-4294862999137.250488
-4294862999135.956543
85897259982.560455
-4294862999137.017090
-4294862999136.165039
-4294862999136.510254
944869859810.658081
944869859809.822510
944869859810.234253
944869859810.706665
944869859810.358276
-4294862999137.046387
-4294862999136.680176
85897259982.191360
-4294862999135.618164
-4294862999135.523926
-4294862999136.982910
-4294862999137.042480
-4294862999136.052734
-4294862999136.234375
-4294862999136.015625
944869859809.543579
-4294862999135.664062
-4294862999136.800293
85897259982.687225
85897259982.029037
85897259982.880875
85897259982.065979
-4294862999136.649902
-4294862999136.443848
-4294862999135.760254
-4294862999136.522949
944869859809.832520
-4294862999135.820312
-4294862999136.356934
-4294862999136.876465
-4294862999136.091309
85897259982.519165
-4294862999136.093750
-4065129473369.208984
81302589466.678802
-4065129473369.487793
-4065129473369.265625
894328484142.007935
-4065129473368.988770
-4065129473368.954590
-4065129473368.046875
-4065129473367.740234
894328484141.859009
-4065129473369.395996
-4065129473368.772461
81302589468.146881
-4065129473368.910156
-4065129473369.495117
894328484140.314819
-4065129473369.184570
-4065129473368.601074
-4065129473367.662109
-4065129473369.271973
894328484141.391724
-4065129473369.176270
-4065129473368.642578
81302589468.189774
-4065129473369.268066
-4065129473369.108887
894328484140.286255
-4065129473369.276367
-4065129473367.790039
-4065129473368.003418
-4065129473367.700684
894328484140.811646
-4065129473368.337891
-4065129473368.205078
81302589468.087067
-4065129473368.463867
-4065129473368.811035
894328484141.736816
894328484141.313232
894328484141.696289
894328484141.546631
894328484141.110718
894328484141.441040
-4065129473369.420898
-4065129473368.527832
81302589466.397903
-4065129473369.027344
-4065129473369.093262
894328484140.249756
-4065129473369.083496
-4065129473367.970215
-4065129473368.879883
-4065129473369.435547
81302589466.462463
-4065129473369.346680
81302589466.709015
81302589467.142563
-4065129473369.434082
-4065129473368.142578
81302589468.171295
-4065129473367.993652
-4065129473368.000000
-4065129473368.343262
-4065129473368.190430
81302589467.518906
-4065129473369.012695
-4065129473368.368164
81302589467.255936
-4065129473369.295410
-4065129473367.663574
894328484140.960327
-4065129473368.337891
-4065129473368.009766
81302589467.948776
81302589468.323364
81302589466.750885
-4065129473369.062012
-4065129473368.148438
81302589466.609909
-4065129473367.843750
-4065129473369.386230
894328484140.884399
-4065129473368.262207
-4065129473367.925781
81302589467.429550
-4065129473368.004883
-4065129473368.614258
-4065129473368.123047
894328484141.047119
894328484141.647827
894328484141.998047
894328484141.750977
894328484142.063599
-4065129473367.969727
-4065129473367.702637
81302589467.515320
-4065129473368.926270
-4065129473368.539551
-4065129473369.221191
-4065129473369.349121
-4065129473369.522949
-4065129473368.951172
-4065129473369.120605
894328484141.296143
-4065129473369.024902
-4065129473368.859863
81302589467.519226
81302589468.013428
81302589467.331467
81302589466.377945
-4065129473369.432129
-4065129473368.435059
-4065129473369.271484
-4065129473367.994141
894328484140.607910
-4065129473368.446777
-4065129473369.549316
-4065129473368.713867
-4065129473368.485352
81302589466.507492
-4065129473369.426758
0.796941
0.384289
-0.022714
0.601755
-0.278647
0.278302
-0.200565
0.811705
-0.388193
0.755182
-0.069065
0.686844
0.628411
-0.345347
0.609046
-0.615504
0.627718
0.374839
-0.383331
-0.710983
0.380286
-0.842690
-0.162630
0.462979
0.778275
0.246583
0.429500
0.133904
0.665738
0.357564
-0.657916
0.943047
0.838776
0.376426
0.085218
0.572465
0.486982
-0.844076
0.697748
0.721809
0.516140
0.008778
0.876040
-0.753397
-0.081077
0.125055
0.411079
0.880575
-0.690184
0.421439
0.555136
-0.734175
-0.033879
0.560959
0.703218
0.018821
-0.834688
-0.043268
0.758041
0.707655
-0.021933
-0.392496
0.628151
0.551784
-0.281982
0.485052
-0.550497
0.620941
0.982505
-0.740798
-0.926687
0.199848
0.976807
0.147617
0.952558
0.046706
-0.061382
0.067016
-0.265439
-0.113295
-0.044252
-0.658792
0.948824
0.093118
-0.250510
-0.388432
0.468598
0.806673
-0.331885
-0.277672
-0.760440
-0.294256
0.070610
-0.838147
-0.347907
-0.059119
-0.800635
0.903970
-0.724771
0.176242
0.979387
-0.720697
-0.108533
-0.689517
0.894884
-0.544682
-0.973998
-0.623835
0.740602
-0.099333
0.961250
-0.019748
-0.010772
-0.750656
-0.387616
0.568555
0.121416
-0.149829
0.405074
-0.734596
0.457236
0.740939
0.205380
0.717483
0.091427
0.868405
0.239554
-0.078898
-0.246143
-0.683867
-0.090336
-0.814387
-0.037513
-0.662953
0.228768
0.010415
-0.618341
0.239135
-0.278386
-0.640885
-0.797594
-0.394723
0.671420
0.064824
0.071668
0.648271
0.571628
0.542142
0.692079
0.839932
-0.796800
0.681465
0.480447
-0.127887
-0.585292
0.951511
-0.344600
-0.637386
0.875213
0.516025
0.198717
-0.308016
-0.890305
0.577262
-0.081152
0.909063
-0.455530
-0.742947
0.855197
-0.909403
-0.420203
0.872223
-0.075078
-0.512321
0.328905
0.718542
0.806320
-0.954691
-0.307294
0.345645
-0.557236
0.088519
-0.298922
-0.995193
0.356958
-0.685864
0.781246
0.577039
-0.717372
-0.152454
-0.694294
0.286853
-0.756558
-0.024914
-0.409558
0.174045
-0.938702
0.562158
0.678405
-0.309525
-0.740169
0.952408
0.587221
-0.255352
0.297610
-0.023151
0.525557
0.454577
-0.445057
0.594171
0.558887
0.004864
0.470008
-0.411214
-0.311241
-0.093577
0.214917
0.671496
0.204018
-0.060224
-0.601549
0.366790
0.711341
0.582362
-0.819091
0.227493
0.632266
0.583274
0.589109
-0.404448
-0.470519
0.260309
0.420233
-0.157691
-0.226827
-0.912349
-0.403803
-0.032082
-0.183002
0.207582
0.274777
-0.655913
-0.157370
-0.225354
-0.088561
-0.238812
-0.658401
0.475272
-0.049265
-0.652275
0.890937
0.318457
0.559778
-0.105729
-0.970360
0.810138
-0.220852
-0.542421
-0.903920
-0.650610
0.597482
0.957305
0.763499
0.984498
0.027455
-0.389924
0.404495
-0.090084
-0.407191
0.499890
0.786137
-0.902041
0.876049
-0.031349
0.135040
-0.121272
0.737656
0.696227
-0.219700
0.099366
0.609158
-0.453368
0.230040
-0.437446
0.938746
-0.023966
0.230313
-0.506372
0.719032
0.557964
-0.116857
-0.451646
-0.576151
-0.279933
-0.105991
-0.978381
0.641202
0.491950
-0.109636
0.655723
-0.772774
0.081175
-0.877776
-0.174436
0.320199
-0.858369
-0.647902
-0.968186
0.303473
0.180656
-0.721186
-0.695804
0.237944
0.961060
0.968333
-0.332994
0.802917
0.505542
0.371697
-0.375441
0.328319
0.272653
0.705590
0.945719
0.161347
0.778645
0.722230
-0.053090
0.688212
0.749763
0.745639
0.581219
0.023032
-0.004816
0.845335
0.537748
0.850629
0.768776
-0.551572
0.938169
-0.923176
-0.025757
-0.261013
-0.194237
-0.290063
-0.546496
0.128006
0.572323
-0.044790
-0.364740
0.228519
0.171729
-0.244029
0.145330
-0.886594
0.689775
0.023121
-0.397433
0.613465
-0.129583
-0.627548
0.577617
0.242086
0.970604
0.149910
-0.076523
-0.205310
-0.942512
-0.899591
0.636254
0.471585
0.572878
0.544898
-0.587631
0.760579
-0.853312
-0.289353
-0.851078
-0.191626
-0.518110
-0.629343
0.310444
-0.749853
0.356541
0.543395
-0.089901
0.868301
-0.373531
-0.333631
-0.679650
-0.195165
0.639869
-0.542935
0.359650
-0.653020
0.201495
-0.807193
0.158445
0.800396
-0.104017
0.887481
0.038828
-0.890950
-0.346324
-0.271721
0.321218
0.390861
0.422075
-0.064848
-0.187088
-0.219471
-0.588065
0.696800
-0.060232
-0.048394
0.697054
0.350464
-0.201254
0.046106
-0.013465
0.429820
0.507970
0.947931
-0.435091
0.841523
0.279888
0.825398
-0.231980
0.799180
0.598780
0.053678
0.560082
-0.287334
-0.656845
-0.450310
0.112735
-0.080515
0.802493
0.557860
-0.906727
-0.411858
0.532685
-0.351300
-0.114595
-0.818950
0.721549
-0.210894
0.881334
-0.672664
-0.672769
-0.215062
-0.789471
-0.848990
0.865982
-0.939073
0.908031
0.056580
0.737687
-0.429698
0.714087
0.779694
0.363919
0.428754
-0.610136
-0.730130
0.118520
0.204533
-0.389546
-0.859259
-0.368625
0.468645
0.445771
0.994664
0.785916
0.377210
0.360125
0.476152
0.741737
-0.455260
0.615386
0.719552
0.130306
-0.702759
-0.893604
-2660542560646.198242
53210851212.307434
-2660542560645.719238
-2660542560645.749023
585319363342.942017
-2660542560645.273438
-2660542560645.694336
-2660542560645.217285
-2660542560645.968262
585319363342.313354
-2660542560645.962402
-2660542560645.742188
53210851213.822266
-2660542560645.020996
-2660542560644.993652
585319363342.807007
-2660542560645.414551
-2660542560646.178223
-2660542560646.019043
-2660542560645.479980
585319363343.037842
-2660542560645.925781
-2660542560645.218750
53210851213.202232
-2660542560645.798340
-2660542560645.403809
585319363342.762939
-2660542560646.307617
-2660542560646.685547
-2660542560646.198730
-2660542560645.105957
585319363342.014771
-2660542560646.015625
-2660542560645.779785
53210851211.993217
-2660542560645.108887
-2660542560645.223145
585319363342.486694
585319363342.621216
585319363342.331665
585319363341.316040
585319363342.336426
585319363343.024414
-2660542560646.080078
-2660542560646.325684
53210851213.269882
-2660542560646.138672
-2660542560645.524414
585319363342.768921
-2660542560646.605957
-2660542560645.880859
-2660542560645.621094
-2660542560646.020996
53210851213.204231
-2660542560646.844727
53210851213.640823
53210851213.378441
-2660542560646.736328
-2660542560645.175293
53210851212.075134
-2660542560645.259766
-2660542560645.637695
-2660542560646.049805
-2660542560646.578125
53210851213.225067
-2660542560645.983398
-2660542560645.136719
53210851212.291138
-2660542560646.374512
-2660542560646.596191
585319363342.168457
-2660542560646.376953
-2660542560646.092285
53210851213.833839
53210851212.004677
53210851213.133606
-2660542560646.603027
-2660542560645.501465
53210851213.910080
-2660542560645.500488
-2660542560645.510742
585319363341.293091
-2660542560646.643066
-2660542560646.061035
53210851213.332184
-2660542560646.406738
-2660542560646.635742
-2660542560646.707031
585319363341.491455
585319363342.177612
585319363341.599854
585319363342.981567
585319363342.585693
-2660542560646.822266
-2660542560645.584961
53210851213.616386
-2660542560645.084961
-2660542560644.890137
-2660542560645.413574
-2660542560645.621094
-2660542560646.628906
-2660542560646.138184
-2660542560644.936523
585319363341.803345
-2660542560645.588379
-2660542560645.763184
53210851213.435768
53210851213.316536
53210851212.846825
53210851212.807365
-2660542560646.156738
-2660542560646.167969
-2660542560646.110840
-2660542560646.178711
585319363341.848511
-2660542560646.615723
-2660542560645.447266
-2660542560646.476562
-2660542560646.560547
53210851212.946243
-2660542560646.752930
-1895018520521.523193
37900370410.256493
-1895018520522.103027
-1895018520522.710205
416904074515.318726
-1895018520522.668213
-1895018520522.529297
-1895018520520.852783
-1895018520521.733643
416904074514.139404
-1895018520522.376221
-1895018520521.895508
37900370409.776909
-1895018520521.815430
-1895018520522.265869
416904074514.571472
-1895018520521.712891
-1895018520521.232910
-1895018520522.090576
-1895018520522.365479
416904074513.837585
-1895018520521.705322
-1895018520521.110107
37900370409.767044
-1895018520522.470703
-1895018520522.414795
416904074514.038391
-1895018520522.710693
-1895018520521.529053
-1895018520521.019775
-1895018520521.748047
416904074513.994385
-1895018520521.747070
-1895018520522.022705
37900370410.630653
-1895018520521.450439
-1895018520520.801514
416904074515.551941
416904074515.547668
416904074513.891846
416904074515.172363
416904074514.176941
416904074514.782837
-1895018520522.579346
-1895018520522.767334
37900370410.910904
-1895018520522.458008
-1895018520522.487793
416904074514.555176
-1895018520522.091797
-1895018520521.351074
-1895018520521.078857
-1895018520522.566650
37900370409.571815
-1895018520522.604492
37900370410.653847
37900370411.057762
-1895018520521.081543
-1895018520521.100098
37900370409.758247
-1895018520522.316895
-1895018520521.199707
-1895018520522.500732
-1895018520522.538086
37900370409.917656
-1895018520521.123047
-1895018520522.401855
37900370409.965378
-1895018520522.332031
-1895018520520.922119
416904074514.859802
-1895018520522.394043
-1895018520521.755615
37900370410.550560
37900370410.035019
37900370411.427811
-1895018520522.256592
-1895018520521.700439
37900370409.509445
-1895018520521.350098
-1895018520522.134277
416904074515.658508
-1895018520521.159912
-1895018520521.177734
37900370409.678017
-1895018520520.902588
-1895018520521.291992
-1895018520522.623291
416904074514.757690
416904074515.366760
416904074514.528870
416904074515.268005
416904074514.878723
-1895018520522.513672
-1895018520520.787598
37900370411.061203
-1895018520521.278320
-1895018520521.273682
-1895018520522.247803
-1895018520521.034424
-1895018520521.357178
-1895018520520.908691
-1895018520521.375732
416904074514.154663
-1895018520522.162354
-1895018520522.136230
37900370411.029572
37900370410.279205
37900370410.358223
37900370411.041466
-1895018520522.117432
-1895018520521.557129
-1895018520521.215820
-1895018520522.439697
416904074514.119263
-1895018520521.479736
-1895018520520.791016
-1895018520522.597656
-1895018520522.143311
37900370410.322098
-1895018520522.200928
-869693480644.092163
17393869613.578686
-869693480643.281738
-869693480644.176758
191332565741.374359
-869693480644.157837
-869693480643.296387
-869693480642.773315
-869693480643.571411
191332565740.844299
-869693480643.381836
-869693480643.398926
17393869613.855152
-869693480643.453613
-869693480644.451538
191332565741.801727
-869693480643.509033
-869693480642.992432
-869693480644.442993
-869693480644.389282
191332565740.743927
-869693480644.029541
-869693480643.296143
17393869612.152588
-869693480644.069946
-869693480642.838257
191332565740.775604
-869693480643.292114
-869693480643.878174
-869693480643.719971
-869693480643.034790
191332565741.714264
-869693480643.606689
-869693480643.563232
17393869612.419418
-869693480644.723633
-869693480643.259399
191332565740.684235
191332565742.009644
191332565742.345856
191332565742.177063
191332565741.262665
191332565741.590790
-869693480643.496704
-869693480643.112793
17393869612.927383
-869693480643.909790
-869693480643.853149
191332565740.949646
-869693480644.629395
-869693480643.475830
-869693480644.693115
-869693480643.758545
17393869613.782478
-869693480643.126465
17393869612.783939
17393869612.038261
-869693480644.242554
-869693480643.628784
17393869612.377445
-869693480643.563354
-869693480644.318481
-869693480644.587402
-869693480644.427368
17393869612.533672
-869693480642.839844
-869693480642.786743
17393869612.356373
-869693480644.405396
-869693480644.093994
191332565742.570282
-869693480644.199585
-869693480642.761230
17393869613.534653
17393869612.468277
17393869612.180653
-869693480643.927368
-869693480644.693604
17393869612.567635
-869693480644.189331
-869693480643.610840
191332565741.886292
-869693480644.550293
-869693480644.432251
17393869611.949326
-869693480643.536377
-869693480644.096313
-869693480643.666504
191332565741.762970
191332565742.007080
191332565742.001709
191332565741.363251
191332565741.652161
-869693480643.438599
-869693480644.370483
17393869612.964169
-869693480643.879150
-869693480644.193848
-869693480643.611328
-869693480644.092041
-869693480643.981201
-869693480642.938477
-869693480643.222534
191332565740.754883
-869693480643.042847
-869693480644.628906
17393869611.964249
17393869613.242447
17393869613.536808
17393869612.370655
-869693480644.063232
-869693480642.777710
-869693480643.321167
-869693480644.522949
191332565740.742340
-869693480644.045288
-869693480643.919312
-869693480644.662598
-869693480643.166748
17393869612.294312
-869693480644.612183
-525586282731.814575
10511725653.741247
-525586282730.474548
-525586282730.453125
115628982201.548630
-525586282730.752441
-525586282731.364868
-525586282730.472168
-525586282730.729248
115628982200.052078
-525586282731.464111
-525586282730.557556
10511725654.998613
-525586282730.803467
-525586282731.633850
115628982201.867340
-525586282731.543152
-525586282731.035217
-525586282731.940979
-525586282732.273132
115628982200.616165
-525586282731.494446
-525586282731.396545
10511725654.262949
-525586282732.330811
-525586282731.457764
115628982201.863953
-525586282731.934509
-525586282731.382446
-525586282732.295044
-525586282732.242188
115628982200.450714
-525586282731.184570
-525586282732.178589
10511725655.352446
-525586282730.600647
-525586282731.911621
115628982200.281952
115628982201.503693
115628982200.955902
115628982200.499756
115628982201.897461
115628982201.053970
-525586282730.965393
-525586282731.400208
10511725654.109142
-525586282730.703857
-525586282730.882324
115628982201.728470
-525586282730.460876
-525586282730.773560
-525586282730.880188
-525586282732.126831
10511725654.947309
-525586282731.466125
10511725654.794436
10511725654.835449
-525586282731.250732
-525586282730.711975
10511725654.270475
-525586282732.254639
-525586282732.207825
-525586282732.102539
-525586282731.214905
10511725655.221603
-525586282731.882080
-525586282731.214966
10511725655.508322
-525586282731.487915
-525586282731.152344
115628982201.504822
-525586282731.880188
-525586282731.594543
10511725653.785013
10511725654.123014
10511725654.384430
-525586282731.945923
-525586282731.385254
10511725653.687449
-525586282731.583923
-525586282731.865356
115628982200.201614
-525586282731.453369
-525586282731.691772
10511725654.351374
-525586282731.064758
-525586282731.860352
-525586282730.808167
115628982200.153976
115628982201.320618
115628982201.260056
115628982201.616791
115628982200.133850
-525586282732.323242
-525586282731.331055
10511725655.232107
-525586282732.365051
-525586282732.349304
-525586282731.940308
-525586282731.353638
-525586282731.511597
-525586282731.169067
-525586282730.797668
115628982201.524826
-525586282730.856140
-525586282731.542908
10511725654.345625
10511725654.897762
10511725654.851336
10511725654.222742
-525586282730.690857
-525586282731.608521
-525586282732.205383
-525586282731.609558
115628982200.111496
-525586282730.885254
-525586282730.673340
-525586282731.189026
-525586282731.695374
10511725653.738638
-525586282731.216370
-628364390017.298218
12567287800.111736
-628364390017.383423
-628364390017.592407
138240165804.566772
-628364390016.791260
-628364390017.130615
-628364390017.410767
-628364390016.244995
138240165803.585602
-628364390017.434814
-628364390018.090820
12567287801.151663
-628364390018.228027
-628364390018.194092
138240165803.558685
-628364390017.893311
-628364390017.334961
-628364390017.635864
-628364390016.944824
138240165802.891174
-628364390017.933472
-628364390016.627441
12567287799.533945
-628364390017.911255
-628364390016.936401
138240165804.227997
-628364390017.673584
-628364390016.958862
-628364390018.175537
-628364390016.336914
138240165804.135895
-628364390016.640869
-628364390017.870239
12567287801.112019
-628364390016.914062
-628364390016.717407
138240165803.479034
138240165804.152100
138240165804.689087
138240165803.656586
138240165804.653778
138240165803.468048
-628364390016.611938
-628364390017.550781
12567287800.008320
-628364390017.750122
-628364390016.496948
138240165804.156281
-628364390016.575684
-628364390016.455933
-628364390017.501221
-628364390017.646118
12567287800.789429
-628364390017.260376
12567287799.385427
12567287800.218985
-628364390018.094116
-628364390017.061768
12567287799.989197
-628364390017.697754
-628364390016.835938
-628364390017.375488
-628364390016.939941
12567287801.283554
-628364390016.485718
-628364390017.893921
12567287801.231298
-628364390017.329712
-628364390016.323730
138240165804.460419
-628364390017.843872
-628364390017.853027
12567287800.051542
12567287801.011774
12567287799.957634
-628364390017.038330
-628364390016.246704
12567287800.909000
-628364390016.847900
-628364390017.124878
138240165804.088684
-628364390017.549683
-628364390017.824097
12567287800.892817
-628364390017.337402
-628364390017.800537
-628364390017.152710
138240165804.244171
138240165803.390961
138240165803.559113
138240165804.624329
138240165803.896637
-628364390017.532837
-628364390017.039062
12567287800.129789
-628364390017.265259
-628364390016.445923
-628364390017.690063
-628364390017.539062
-628364390016.740356
-628364390016.315796
-628364390017.449829
138240165803.403992
-628364390017.473511
-628364390016.426270
12567287799.368387
12567287799.923683
12567287800.309587
12567287800.363667
-628364390016.620361
-628364390017.309937
-628364390018.023804
-628364390016.539307
138240165803.803436
-628364390016.689087
-628364390017.506226
-628364390017.497437
-628364390017.684448
12567287799.932783
-628364390017.228149
-56666960506.195000
1133339210.745332
-56666960507.284851
-56666960505.851913
12466731310.774046
-56666960506.043808
-56666960506.690598
-56666960506.568291
-56666960507.767418
12466731312.434885
-56666960506.939354
-56666960506.894691
1133339209.337156
-56666960507.137726
-56666960507.431427
12466731310.943390
-56666960507.452095
-56666960506.375381
-56666960507.610229
-56666960505.858704
12466731312.423857
-56666960506.534271
-56666960506.749168
1133339209.735703
-56666960506.673317
-56666960507.308235
12466731310.524475
-56666960507.001907
-56666960506.018852
-56666960507.533646
-56666960507.073456
12466731310.905647
-56666960506.644501
-56666960507.630066
1133339209.634296
-56666960506.490746
-56666960506.444992
12466731311.772049
12466731310.727049
12466731311.622299
12466731311.703974
12466731311.795586
12466731311.904432
-56666960507.758354
-56666960507.140762
1133339209.949566
-56666960505.911011
-56666960507.463783
12466731312.147802
-56666960505.821838
-56666960506.585426
-56666960507.410713
-56666960506.684372
1133339211.054166
-56666960506.014587
1133339210.832293
1133339210.848237
-56666960507.227196
-56666960507.772079
1133339210.352551
-56666960507.510933
-56666960506.674156
-56666960506.484283
-56666960505.962730
1133339209.529349
-56666960506.751945
-56666960506.251587
1133339209.475196
-56666960505.902969
-56666960506.562119
12466731312.411358
-56666960507.183823
-56666960507.585175
1133339210.176763
1133339210.965259
1133339210.942808
-56666960507.419144
-56666960506.829979
1133339209.813779
-56666960507.155334
-56666960506.611717
12466731311.359316
-56666960506.072479
-56666960505.903107
1133339210.334538
-56666960507.797516
-56666960507.227386
-56666960507.483063
12466731311.957499
12466731312.193989
12466731311.252638
12466731311.088993
12466731311.057749
-56666960506.534622
-56666960507.183769
1133339210.914247
-56666960507.007683
-56666960506.716179
-56666960507.806862
-56666960506.938797
-56666960507.598763
-56666960506.691956
-56666960507.550766
12466731311.275599
-56666960506.036209
-56666960506.318687
1133339209.316293
1133339209.391747
1133339210.682901
1133339209.568368
-56666960507.331024
-56666960506.620750
-56666960506.056648
-56666960507.682892
12466731311.146564
-56666960506.818512
-56666960506.447594
-56666960505.902206
-56666960506.345657
1133339211.026559
-56666960506.286858
-2840222644090.053711
56804452881.225685
-2840222644089.090820
-2840222644090.914551
624848981698.923096
-2840222644089.320312
-2840222644089.412109
-2840222644090.609863
-2840222644090.494629
624848981699.411987
-2840222644090.949219
-2840222644089.784180
56804452881.399582
-2840222644089.500000
-2840222644089.637695
624848981700.483643
-2840222644090.794434
-2840222644089.101074
-2840222644089.479492
-2840222644090.168945
624848981699.475586
-2840222644090.615234
-2840222644089.871582
56804452882.180527
-2840222644090.287598
-2840222644090.557129
624848981699.876587
-2840222644089.744141
-2840222644089.781738
-2840222644090.913574
-2840222644090.013184
624848981700.765991
-2840222644090.633789
-2840222644089.949219
56804452882.433609
-2840222644089.092285
-2840222644089.408203
624848981700.577148
624848981699.618408
624848981699.508179
624848981700.058228
624848981698.851440
624848981700.557007
-2840222644089.715332
-2840222644090.595215
56804452880.923622
-2840222644090.183594
-2840222644090.554199
624848981699.419434
-2840222644090.310547
-2840222644089.272949
-2840222644090.253418
-2840222644089.850586
56804452882.037254
-2840222644090.902344
56804452881.876030
56804452882.244614
-2840222644089.636719
-2840222644090.181152
56804452881.286057
-2840222644090.448730
-2840222644090.843262
-2840222644090.418945
-2840222644090.559082
56804452881.797356
-2840222644090.871582
-2840222644089.658203
56804452881.456184
-2840222644089.154785
-2840222644090.782715
624848981700.142090
-2840222644089.184082
-2840222644090.232910
56804452882.214958
56804452881.564812
56804452881.734299
-2840222644089.231445
-2840222644089.880859
56804452882.199654
-2840222644090.760254
-2840222644089.681641
624848981698.896240
-2840222644089.065918
-2840222644089.795898
56804452881.972298
-2840222644090.146484
-2840222644090.027344
-2840222644089.012695
624848981700.673462
624848981700.505127
624848981699.698975
624848981699.483154
624848981700.744995
-2840222644089.201172
-2840222644089.736328
56804452882.787308
-2840222644089.676270
-2840222644090.532227
-2840222644089.883301
-2840222644089.910645
-2840222644089.424316
-2840222644089.646973
-2840222644090.715820
624848981700.349976
-2840222644090.239258
-2840222644090.242676
56804452880.810738
56804452880.929298
56804452881.355141
56804452881.851768
-2840222644090.956543
-2840222644090.964355
-2840222644089.237305
-2840222644089.181152
624848981699.979370
-2840222644090.713867
-2840222644090.589355
-2840222644090.313477
-2840222644090.017578
56804452881.720978
-2840222644090.811523
0.277141
-0.796385
0.686342
0.566096
-0.056390
0.274156
-0.498492
0.611259
0.987785
0.456980
0.361922
0.712206
-0.581415
0.040416
-0.072561
0.068437
-0.140247
-0.684465
-0.456376
-0.701360
0.950538
-0.481585
0.652163
0.651600
0.126218
-0.428699
-0.358947
0.834421
-0.337286
0.771977
0.420209
-0.576783
0.684390
0.765195
0.451669
-0.726442
0.609321
-0.055493
0.741376
0.587608
0.641740
0.134607
0.581501
0.502883
-0.284370
0.576133
0.588584
0.182859
0.307984
-0.809929
0.863024
0.368959
0.447531
-0.761449
0.951594
0.529552
0.170859
0.795026
0.160243
-0.450700
-0.994907
-0.267305
0.542437
-0.211556
-0.473900
-0.169570
0.830564
-0.424082
0.049627
-0.808458
0.979330
-0.107786
-0.474253
-0.432232
0.356597
0.198205
0.465487
0.705671
0.129674
0.802732
0.619660
-0.412465
-0.872326
0.218690
-0.826068
0.339171
0.891834
-0.299419
0.954736
-0.292059
0.518701
-0.070360
0.880048
0.403095
-0.825806
0.828649
-0.467714
0.212764
-0.136635
0.336292
-0.772113
-0.648233
-0.290559
-0.403842
-0.759017
-0.612844
0.847006
0.711161
-0.414895
-0.101900
0.825059
-0.654428
0.158594
-0.245162
0.015116
0.698647
-0.736124
-0.423294
0.327349
0.415818
0.885923
-4322707672617.767090
86454153452.121201
-4322707672617.432617
-4322707672618.804199
950995687975.232788
-4322707672617.292969
-4322707672617.902832
-4322707672617.912598
-4322707672617.704102
950995687975.007446
-4322707672618.849121
-4322707672618.749023
86454153451.721405
-4322707672618.662109
-4322707672618.807617
950995687975.676636
-4322707672619.101562
-4322707672617.436035
-4322707672618.203125
-4322707672618.631348
950995687976.664795
-4322707672617.438965
-4322707672618.930664
86454153452.784927
-4322707672618.737305
-4322707672618.402832
950995687975.188477
-4322707672618.858887
-4322707672618.406250
-4322707672618.972168
-4322707672617.355469
950995687975.517700
-4322707672619.158691
-4322707672618.343262
86454153451.737411
-4322707672618.811035
-4322707672618.990723
950995687975.706421
950995687975.386475
950995687976.630615
950995687975.547729
950995687975.218384
950995687976.979004
-4322707672617.795410
-4322707672617.164062
86454153453.160507
-4322707672618.138184
-4322707672618.654297
950995687976.348145
-4322707672618.013184
-4322707672617.362793
-4322707672617.853516
-4322707672617.854980
86454153452.321854
-4322707672617.278809
86454153453.272278
86454153453.265457
-4322707672617.562012
-4322707672618.843262
86454153452.802841
-4322707672618.063477
-4322707672619.089355
-4322707672617.405762
-4322707672617.513672
86454153453.038269
-4322707672618.751953
-4322707672618.552734
86454153453.001205
-4322707672618.667480
-4322707672618.760254
950995687975.368286
-4322707672618.558594
-4322707672618.675781
86454153452.134232
86454153452.136887
86454153452.853897
-4322707672619.014160
-4322707672618.716797
86454153451.535004
-4322707672617.359375
-4322707672617.919434
950995687976.876953
-4322707672618.850586
-4322707672618.045898
86454153453.032654
-4322707672618.597656
-4322707672617.735840
-4322707672618.729004
950995687975.316528
950995687975.853271
950995687975.279297
950995687975.792358
950995687976.810181
-4322707672618.743652
-4322707672617.677246
86454153453.248215
-4322707672617.968262
-4322707672619.091309
-4322707672618.222656
-4322707672617.269043
-4322707672618.799316
-4322707672617.632812
-4322707672617.966797
950995687975.286133
-4322707672618.278809
-4322707672617.454102
86454153453.360001
86454153451.929306
86454153451.966797
86454153452.063568
-4322707672618.752441
-4322707672617.758789
-4322707672618.279785
-4322707672619.012695
950995687975.243774
-4322707672618.834961
-4322707672619.021484
-4322707672618.185059
-4322707672618.563965
86454153452.804398
-4322707672619.131836
-0.582373
0.646734
-0.597380
0.205292
0.382376
-0.443933
0.790374
0.809465
0.324477
0.264701
0.533595
0.697869
-0.215601
0.524824
0.317009
-0.920823
0.124386
0.704146
-0.781155
-0.493561
0.946226
0.837773
0.417482
-0.141055
-0.831932
0.650716
-0.756399
-0.224502
0.428841
0.187660
-0.952611
0.516806
0.171778
-0.761872
0.046596
0.120168
0.444158
0.520145
0.138423
-0.170460
-0.398469
-0.835758
0.602411
-0.183415
0.806492
0.318047
0.361827
-0.205131
-0.835227
-0.938785
0.311879
0.592436
0.866186
0.510410
0.670921
-0.318012
-0.886247
0.943771
0.037843
-0.461560
-0.429440
0.753376
0.012635
0.963384
-0.180302
-0.599831
0.079911
-0.601496
0.405843
-0.379439
-0.496190
0.208331
0.379979
0.744361
-0.980879
-0.592769
0.876997
0.349019
0.938103
0.309951
-0.206193
0.299188
0.626356
0.642787
-0.071867
0.475949
0.973447
-0.718988
0.404141
-0.517127
-0.087970
-0.687578
0.625907
-0.187452
0.593553
-0.913948
0.909479
-0.669894
0.283197
0.922603
0.780979
-0.025802
0.741619
0.717568
0.440015
-0.039620
-0.174164
0.054854
-0.096164
-0.580247
-0.871690
-0.358858
0.603440
0.552879
-0.422842
0.062395
-0.518680
0.951420
-0.989445
0.682337
0.203548
0.086353
-0.906969
0.569772
0.586002
-0.125908
0.044371
-0.551821
-0.586216
-0.817544
-0.740903
-0.228874
0.677810
0.460426
-0.576314
0.480658
-0.549164
0.207303
0.914356
-0.572781
0.217989
0.942603
0.902446
0.179292
-0.281542
0.341201
0.891683
-0.304362
-0.107934
0.654275
-0.173632
-0.792585
-0.426894
0.582600
0.137355
0.834237
-0.513350
-0.103932
0.599886
0.351086
0.396366
-0.979690
-0.794811
0.887293
0.487875
0.995581
0.907542
-0.902365
0.546275
-0.592222
0.554427
0.004427
0.978314
-0.685197
0.861497
0.583405
0.598479
0.523662
-0.068547
-0.540020
-0.472299
-0.792804
0.057040
0.792048
-0.394645
0.763563
0.563105
-0.172326
0.512039
-0.277145
0.043598
-0.148138
0.602963
0.164567
-0.002398
0.345070
-0.312656
0.336103
-0.423887
-0.840933
-0.073766
-0.719904
-0.799811
0.994326
-0.296245
0.265200
0.023979
-0.867984
0.762001
-0.047525
0.192348
0.724614
0.605739
0.595261
0.959227
-0.701006
-0.957805
0.787048
-0.719456
0.453601
0.019648
-0.122217
0.772629
0.933852
-0.940138
0.865821
0.684402
-0.440983
-0.342373
-0.501705
0.044122
-0.116098
0.936611
0.214607
0.921593
-0.826944
-0.908037
0.972889
0.955201
-0.827231
0.541244
0.288619
-0.883166
0.886061
-0.719367
-0.246389
0.005540
-0.400269
-0.405050
0.486991
0.232362
-0.392374
-0.762108
0.383930
0.089527
0.857647
-0.391730
-0.152113
0.489612
-0.545112
0.201413
-0.251135
0.274899
0.474746
-0.402952
-0.724046
0.038054
0.805553
0.172262
0.693342
-0.703323
0.911232
0.277174
0.180507
-0.921311
-0.107177
-0.701606
0.867016
0.975116
-0.290428
-0.840197
-0.918334
0.406929
0.798177
-0.636776
-0.884092
-0.809358
0.876148
0.992612
-0.079813
-0.453664
-0.247888
0.740783
-0.012888
-0.558859
-0.130926
-0.277447
0.278148
0.008829
-0.711305
-0.232863
0.524828
0.781574
0.408494
-0.025564
0.967077
0.234013
-0.167725
-0.787848
-0.928677
-0.348052
-0.439805
0.789309
-0.233065
0.619387
0.519196
0.038861
0.460396
0.693133
0.026457
-0.594237
-0.760229
0.376634
0.720571
-0.365250
-0.056432
0.208117
-0.021018
0.537314
0.090777
-0.830917
0.702487
-0.808747
0.589392
-0.121185
0.847815
0.260059
0.158489
0.244616
-0.374216
0.167427
0.349626
-0.413019
0.277525
0.562788
-0.532246
-0.920210
-0.094169
-0.464056
0.015605
-0.405536
-0.897270
0.677916
-0.159219
-0.398875
0.403385
0.227528
-0.084680
0.868421
-0.607319
0.277320
-0.128327
-0.830298
-3028893236469.761719
60577864729.144089
-3028893236469.562012
-3028893236469.934570
666356512024.022461
-3028893236469.843750
-3028893236469.341797
-3028893236469.668945
-3028893236469.460938
666356512023.430542
-3028893236468.048340
-3028893236468.295410
60577864729.209747
-3028893236469.528809
-3028893236469.548340
666356512023.283081
-3028893236469.846680
-3028893236468.422363
-3028893236468.593750
-3028893236468.720215
666356512023.589844
-3028893236468.281738
-3028893236468.809082
60577864729.111031
-3028893236468.583008
-3028893236468.957520
666356512022.937744
-3028893236468.759277
-3028893236468.390625
-3028893236470.000000
-3028893236469.866211
666356512023.555420
-3028893236469.434570
-3028893236469.713379
60577864729.035454
-3028893236468.569824
-3028893236469.097168
666356512022.801147
666356512023.790771
666356512023.128296
666356512024.022827
666356512023.891113
666356512023.770264
-3028893236469.748535
-3028893236469.234375
60577864730.103813
-3028893236469.122070
-3028893236468.544434
666356512022.400635
-3028893236469.543945
-3028893236469.946289
-3028893236469.855469
-3028893236468.728516
60577864730.069756
-3028893236468.438965
60577864728.775993
60577864730.200363
-3028893236469.808105
-3028893236469.231934
60577864729.921989
-3028893236469.878906
-3028893236469.691895
-3028893236468.857910
-3028893236468.470215
60577864728.852943
-3028893236468.640625
-3028893236469.667969
60577864729.030243
-3028893236469.116699
-3028893236468.564941
666356512022.410767
-3028893236469.831543
-3028893236468.808105
60577864729.384026
60577864729.957069
60577864729.164162
-3028893236469.514648
-3028893236468.541016
60577864729.349518
-3028893236468.541016
-3028893236469.596191
666356512023.974854
-3028893236468.805176
-3028893236469.176758
60577864729.038902
-3028893236468.464355
-3028893236469.268066
-3028893236469.240234
666356512023.826050
666356512023.486450
666356512023.750732
666356512023.075317
666356512022.961426
-3028893236468.331055
-3028893236468.732910
60577864730.113747
-3028893236469.057617
-3028893236470.010254
-3028893236469.895508
-3028893236468.546387
-3028893236468.361328
-3028893236469.655762
-3028893236469.127441
666356512022.704468
-3028893236468.202148
-3028893236469.774414
60577864729.427429
60577864729.156815
60577864729.961609
60577864728.545631
-3028893236468.325195
-3028893236468.291504
-3028893236469.387207
-3028893236468.789062
666356512022.467041
-3028893236468.416504
-3028893236468.980469
-3028893236468.451172
-3028893236468.859863
60577864730.165070
-3028893236468.139160
0.311250
0.032116
-0.648004
0.817474
0.315612
0.280606
0.887569
-0.667604
0.909368
-0.865075
0.486388
0.957986
-0.783710
-0.865074
-0.522477
0.375120
-0.569192
0.008113
0.976656
0.181966
-0.788013
-0.926859
-0.329288
0.243267
-0.477238
0.515187
0.272481
0.703832
-0.691304
-0.974559
-0.932706
0.488840
0.531996
0.622988
0.608233
-0.861925
0.238205
-0.007503
-0.080235
0.239420
0.335397
-0.539844
0.058157
-0.641003
-0.146387
-0.547770
0.362517
-0.879479
0.303154
-0.419377
0.370728
-0.091907
0.776388
0.641664
-0.273796
-0.259930
-0.567403
-0.775972
0.486250
-0.963481
0.012734
-0.317014
-0.377579
0.932575
0.376234
-0.823761
0.294436
0.751824
-0.064427
0.098674
-0.436968
0.870959
-0.846326
-0.231730
0.389087
-0.645385
-0.738989
-0.706027
0.775529
-0.652806
-0.310881
0.067556
-0.217282
-0.097743
0.483707
-0.341805
-0.556196
-0.798997
-0.565153
-0.538283
-0.707600
-0.478171
-0.315478
0.362861
0.246048
-0.808633
0.643092
-0.113635
0.048969
0.885747
-0.474102
-0.266543
0.787200
-0.973026
0.690257
-0.091674
0.899762
0.211966
-0.656561
0.105321
-0.315580
0.659810
0.393121
0.377579
0.851329
0.967648
-0.282013
0.413024
-0.007210
-0.638800
0.877002
-4610959141268.844727
92219182826.232651
-4610959141268.030273
-4610959141268.967773
1014411011078.895142
-4610959141267.156250
-4610959141267.434570
-4610959141268.073242
-4610959141268.465820
1014411011078.375732
-4610959141268.900391
-4610959141268.581055
92219182824.991104
-4610959141268.993164
-4610959141268.451172
1014411011078.513794
-4610959141267.448242
-4610959141268.333008
-4610959141268.736328
-4610959141268.149414
1014411011079.940674
-4610959141269.038086
-4610959141268.616211
92219182825.200134
-4610959141268.201172
-4610959141267.587891
1014411011078.585571
-4610959141268.774414
-4610959141268.710938
-4610959141267.552734
-4610959141267.244141
1014411011078.690674
-4610959141268.621094
-4610959141268.413086
92219182825.089005
-4610959141268.033203
-4610959141267.993164
1014411011079.950562
1014411011078.472534
1014411011078.248291
1014411011078.859863
1014411011078.447876
1014411011078.304810
-4610959141268.522461
-4610959141268.496094
92219182825.843750
-4610959141267.111328
-4610959141267.672852
1014411011079.556152
-4610959141267.485352
-4610959141269.025391
-4610959141268.742188
-4610959141268.018555
92219182825.117828
-4610959141267.528320
92219182824.927322
92219182826.098816
-4610959141268.139648
-4610959141267.119141
92219182825.161896
-4610959141268.759766
-4610959141268.475586
-4610959141267.958984
-4610959141267.302734
92219182824.453583
-4610959141268.172852
-4610959141268.972656
92219182825.821411
-4610959141267.352539
-4610959141267.268555
1014411011079.585815
-4610959141268.964844
-4610959141268.038086
92219182824.371964
92219182825.862305
92219182825.169113
-4610959141268.704102
-4610959141268.152344
92219182826.252792
-4610959141267.078125
-4610959141267.389648
1014411011079.341675
-4610959141267.959961
-4610959141268.710938
92219182824.553040
-4610959141268.306641
-4610959141269.004883
-4610959141268.066406
1014411011078.380127
1014411011078.305420
1014411011079.626343
1014411011078.967285
1014411011078.186523
-4610959141268.712891
-4610959141267.375000
92219182826.004761
-4610959141267.241211
-4610959141268.790039
-4610959141268.190430
-4610959141268.706055
-4610959141267.655273
-4610959141267.786133
-4610959141268.626953
1014411011078.033447
-4610959141267.219727
-4610959141267.951172
92219182825.454056
92219182825.326736
92219182825.759781
92219182824.456696
-4610959141268.748047
-4610959141267.670898
-4610959141268.960938
-4610959141268.224609
1014411011078.117920
-4610959141268.048828
-4610959141268.964844
-4610959141267.367188
-4610959141268.857422
92219182825.129868
-4610959141268.384766
-0.830321
-0.708652
-0.654376
0.126013
0.290815
0.642216
0.830029
0.166694
-0.674983
0.755204
0.192947
-0.169697
-0.819913
0.085863
0.553477
-0.785117
0.031494
0.113801
0.701263
0.761751
0.282011
0.515150
-0.340672
-0.038103
-0.587521
-0.112913
0.474542
0.459672
-0.447102
-0.940419
-0.765697
-0.032125
-0.459631
-0.764315
0.760621
-0.704722
-0.279809
0.141694
-0.515955
-0.835667
-0.224402
0.944391
-0.024454
0.753327
-0.921381
-0.980925
-0.197804
-0.766458
0.422681
0.275566
0.307798
-0.897909
0.738976
0.368330
-0.423486
-0.262500
0.655100
0.824660
0.603980
0.652828
0.182812
0.554698
0.968023
-0.182730
0.519338
0.978840
0.371756
-0.964874
-0.533463
-0.194130
-0.359620
0.219644
-0.429215
0.344279
0.615288
0.872582
0.401708
-0.796515
0.525548
0.791966
-0.052628
0.277544
-0.135760
0.165063
0.431306
-0.084793
-0.572507
-0.181653
0.319500
0.311320
-0.225121
-0.751928
0.075020
0.724262
0.771657
0.707253
0.593149
-0.200226
0.528065
0.384887
-0.863623
-0.124422
-0.119645
0.113534
-0.641745
0.108183
0.421936
-0.526727
0.248961
-0.903351
-0.264629
0.250301
-0.854553
0.632528
0.103724
0.627879
-0.412424
0.732940
-0.075770
-0.509191
-0.136832
-0.634383
-0.573874
-0.127487
-0.706582
-0.184522
0.845452
-0.905826
0.768047
-0.078077
0.916907
0.878450
0.217327
-0.952980
-0.729118
-0.545827
-0.262885
-0.429443
-0.660795
0.976784
-0.616173
0.705307
-0.673736
-0.482656
-0.434551
0.380465
0.399341
0.212341
-0.258932
0.384548
0.544852
0.305935
-0.311951
0.553018
-0.897977
-0.804254
0.053084
0.392130
0.004345
0.899232
-0.581358
-0.608108
0.626472
0.727810
0.894475
0.647982
0.495545
0.415473
-0.336846
-0.680872
0.375371
-0.119225
0.146075
-0.286615
0.577494
0.216291
-0.887763
0.264373
0.292299
-0.523310
0.759570
0.123266
-0.221561
0.711831
-0.038864
-0.966005
-0.204448
-0.526915
0.644890
-0.049330
-0.829238
0.883057
-0.957627
-0.885161
-0.551532
-0.775426
0.279643
0.948952
0.681244
-0.040666
0.131409
-0.525995
0.269737
-0.666818
0.091049
-0.437672
0.694766
0.145243
-0.986982
0.677224
0.667414
0.674986
0.605092
-0.283511
0.065496
0.790539
-0.778062
-0.657194
0.565942
0.567407
0.608180
0.558891
0.334678
-0.337921
-0.567592
-0.748264
0.214326
-0.378398
-0.607399
0.157367
0.402002
0.182556
0.734242
0.057079
