0.682907
0.652118
-0.666995
-0.489267
0.276381
-0.328811
-0.918716
-0.618078
0.239366
-0.935731
0.854866
0.447872
0.817232
-0.310590
0.492557
0.520916
-0.875332
-0.864709
-0.642939
-0.599911
-0.050175
0.692157
0.247384
0.826560
0.757212
-0.472146
-0.496075
-0.702961
-0.428726
0.601808
-0.526623
-0.015890
-0.881286
-0.446867
-0.863157
0.104435
-0.595996
-0.776465
-0.931714
0.982392
-0.489217
-0.499533
-0.444667
0.987977
0.363945
-0.487819
0.196546
-0.368632
0.261716
-0.878952
-0.277284
-0.126097
0.132943
0.918065
0.135613
0.777678
-0.148256
-0.818281
-0.274494
0.669683
-0.897936
-0.814869
-0.999999
-0.705867
0.479412
0.066052
-0.344713
0.630930
-0.620160
0.283591
-0.993875
-0.326996
-0.281690
-0.096415
-0.989184
0.045978
0.958071
-0.884336
0.805762
-0.750977
0.967993
-0.125690
0.746923
-0.411183
-0.654939
-0.858368
-0.577425
0.342925
-0.317771
0.645849
-0.503762
0.026956
0.809254
0.701092
0.151538
0.672036
-0.772568
0.482445
0.382674
0.851710
-0.033388
0.633765
0.331335
0.188088
0.542164
0.221827
-0.818303
-0.838501
-0.832652
-0.475557
0.703676
0.532330
0.332554
-0.103754
0.118170
-0.493033
0.570964
-0.050964
0.549806
-0.780754
-0.421955
-0.766382
0.291395
0.836152
0.246692
-0.938854
-0.785827
-0.737938
0.728997
-0.477655
0.812596
0.636980
-0.662656
0.494338
-0.009652
0.513483
-0.882032
0.746774
0.149995
0.910112
0.200470
-0.386363
0.933844
-0.621784
-0.087421
-0.247168
0.505951
-0.146010
0.007740
0.756297
-0.855332
-0.771642
0.002065
0.386647
0.130445
-0.586711
-0.725024
0.465283
-0.096220
-0.115817
0.822503
-0.299685
-0.767609
-0.230027
0.565134
0.889524
0.990130
0.995192
-0.531179
-0.676838
-0.074926
0.963488
-0.966163
0.002454
0.356936
-0.905829
-0.916883
-0.049084
-0.663963
-0.605322
-0.958183
0.008682
0.474778
-0.892963
0.517941
0.716719
0.471974
0.847606
0.826823
0.169574
0.371471
-0.756446
0.419242
-0.988090
0.119160
0.486389
-0.606079
-0.260827
-0.285982
-0.808741
-0.405940
-0.920041
0.976004
-0.271000
0.506438
0.853783
-0.748788
0.009671
0.102203
-0.192754
-0.918698
-0.582557
-0.514060
-0.093013
0.567366
0.916115
-0.574912
0.730431
-0.735578
0.379935
-0.393141
-0.525075
-0.335451
-0.569015
-0.570317
-0.941087
-0.711536
0.544374
0.533998
0.479703
0.814335
0.660415
0.024946
-0.762687
-0.870297
0.690770
-0.400378
0.816492
0.985047
0.282013
-0.966062
0.259709
-0.353816
-0.360797
-0.122877
0.443088
0.340424
0.723016
0.721932
-0.920524
0.467927
-0.770646
0.035036
-0.012804
0.936861
0.012097
0.033388
0.186562
-0.238744
0.003745
0.277241
-0.770301
0.961941
0.842715
0.414090
-0.346273
0.314542
-0.268705
0.400167
-0.234629
0.477470
-0.559345
0.430554
-0.321003
-0.943826
0.017154
0.336963
0.363041
0.814068
-0.474134
-0.908125
-0.208887
0.966189
0.010186
-0.269910
-0.871761
-0.640078
0.895652
0.538455
0.727519
-0.268814
0.089385
0.405768
0.727051
0.010159
-0.321408
0.315412
-0.648203
0.698334
0.526158
0.305672
0.362320
-0.078189
0.592354
0.359732
0.001221
0.881297
0.132948
0.383551
0.392292
-0.986252
0.137774
-0.749330
-0.689693
0.926273
-0.679778
-0.723780
0.215523
-0.093603
0.678063
0.178398
-0.413288
0.716688
-0.451961
0.766535
-0.223914
-0.127618
-0.050715
0.680403
0.015082
-0.166633
0.748434
-0.180523
-0.789427
0.626826
0.519740
0.524081
0.899863
-0.551890
-0.172589
-0.933737
0.113923
0.549540
0.478838
0.016614
-0.304312
0.986888
0.008743
0.622723
-0.084108
0.245236
0.444266
0.854434
0.698815
-0.345930
-0.489251
0.794840
0.393908
0.002083
-0.864202
0.048752
0.495292
0.932758
-0.713533
-0.406912
-0.639677
-0.920703
0.422794
-0.129153
-0.126305
0.446092
0.424639
0.715596
-0.590456
0.562543
-0.043856
-0.898625
0.272973
0.221356
0.199169
-0.258051
-0.595900
0.526663
0.118933
-0.605247
0.257791
-0.843281
0.038228
0.920509
0.244158
0.770803
-0.784418
-0.744107
0.252936
-0.090128
0.995938
0.247131
-0.665449
0.004853
-0.335096
-0.540562
0.176634
-0.359434
0.108342
0.258901
0.372693
-0.515139
0.697319
-0.940783
-0.175504
0.741240
0.638241
0.947281
-0.273846
-0.667814
-0.363770
0.428249
-0.753662
-0.632550
0.862650
-0.575033
0.087065
-0.202056
-0.261062
0.545179
-0.264107
0.156077
0.011818
-0.827204
0.304962
-0.269380
0.155592
0.727896
-0.456673
-0.608816
-0.166578
-0.790806
0.748106
0.171990
0.884130
-0.410273
0.177245
0.540232
-0.467348
0.101947
0.946626
-0.718970
-0.959225
-0.732250
-0.584593
-0.170515
0.463903
0.432719
-0.738499
0.883417
0.613484
-0.611091
0.426501
-0.207684
0.987220
-0.551497
0.026346
0.355535
0.715003
0.688261
0.725348
0.985661
0.262503
0.505643
0.509912
-0.914581
-0.290561
-0.874062
-0.749522
-0.066311
-0.050703
-0.891544
0.996183
-0.915054
-0.338131
-0.566886
-0.386117
-0.332691
0.090753
0.762485
-0.067557
0.195507
-0.683844
-0.025304
-0.361153
0.769034
-0.647096
0.494000
0.297166
-0.914974
0.470156
0.187910
0.922377
-0.394585
-0.195968
0.911845
0.033768
-0.341564
0.478123
0.396926
0.038076
0.634753
-0.207097
0.743602
-0.915119
0.446012
-0.475323
-0.953256
0.019517
0.376370
-0.220826
-0.960233
-0.103764
-0.068045
-0.808599
0.061733
0.845508
0.454229
0.208073
-0.495127
0.928268
-0.091460
-0.360920
0.638053
0.320795
-0.480695
0.910004
0.590741
-0.407325
0.182952
0.166223
-0.360838
0.747200
0.919046
0.810167
0.299814
-0.039351
-0.290637
-0.901063
0.823536
-0.936977
0.893973
-0.721768
-0.984012
-0.670066
-0.528201
-0.510414
0.265591
-0.153816
-0.855049
0.018959
0.145676
0.770337
0.423142
-0.963680
0.653187
-0.666507
0.209110
-0.475347
0.037911
-0.178997
0.472199
0.451221
-0.309054
-0.094044
-0.591584
-0.524046
-0.143415
-0.129838
-0.759046
0.901800
0.594767
-0.898874
-0.248853
0.074174
0.385073
-0.580334
0.097924
-0.043495
-0.695770
-0.108930
-0.848369
-0.148471
0.940635
-0.459141
0.048999
0.329767
0.768637
-0.293798
0.157307
-0.393156
-0.815642
-0.039586
0.365825
0.170974
-0.901973
-0.102425
-0.589565
-0.669352
-0.970836
-0.031645
-0.766368
0.406807
-0.406666
0.794992
0.958103
-0.593006
0.812894
-0.490854
0.222218
-0.972650
0.381509
0.892903
-0.010172
-0.485565
0.230784
-0.416723
0.421256
0.951215
0.303453
-0.477431
-0.698780
0.374481
0.408926
-0.970932
-0.973624
0.843859
0.977316
0.600265
0.892219
-0.043483
-0.492451
-0.051828
0.782544
-0.028947
-0.304665
0.243466
0.601041
0.311302
0.028580
0.748522
0.425944
-0.982723
-0.643350
0.951527
0.518032
-0.461594
-0.962519
0.744695
0.247382
0.050117
-0.013063
-0.862312
0.000691
0.121503
0.092542
0.599105
0.477396
0.213056
-0.455041
-0.073267
-0.186269
0.765657
0.572239
0.419887
-0.368443
-0.020009
0.648757
0.097654
0.467492
0.412262
0.785964
0.374825
0.233033
-0.911710
0.125242
-0.882467
0.184952
-0.450702
0.989340
0.834853
-0.416248
0.252311
0.903730
-0.921565
0.976692
-0.827714
-0.344740
-0.168834
-0.742409
-0.861552
0.705197
0.958953
-0.226228
-0.232821
0.015427
0.164817
0.515712
-0.912498
0.792099
-0.147410
-0.759342
-0.063375
-0.948526
0.793968
-0.005919
0.293702
-0.820192
-0.607212
0.072792
0.401293
-0.280722
0.597785
0.999130
-0.999952
0.727239
0.891055
-0.200247
0.439271
-0.309370
-0.990982
-0.448563
0.750794
-0.038318
-0.224812
0.030325
-0.822162
-0.994801
-0.215445
-0.835731
0.515801
0.062807
0.923880
0.893308
-0.371998
-0.365344
-0.415176
-0.777593
0.449667
0.564868
0.813046
-0.889675
-0.246803
-0.493747
0.089257
-0.951403
-0.893242
-0.380446
-0.225640
0.095838
-0.040403
-0.314399
0.223895
-0.790591
0.441807
-0.729251
0.158976
0.077984
0.628546
-0.149768
-0.148682
0.920474
0.294846
0.254386
-0.631098
-0.474653
0.188489
0.666220
-0.327842
-0.359290
0.415604
0.347174
0.684756
0.915151
-0.910705
-0.891790
-0.561331
-0.976617
-0.952643
0.932983
-0.458168
0.334802
0.559877
-0.662370
0.485309
0.758176
0.303775
0.777898
-0.007182
0.328277
-0.915103
0.081892
-0.693789
-0.150044
0.109628
-0.023073
0.613389
-0.493174
-0.361144
0.957961
-0.219007
-0.141810
-0.564075
0.718847
0.401719
0.814324
0.590561
0.937507
0.621201
0.352335
-0.174844
0.590808
-0.315120
0.597106
-0.002734
0.124909
-0.676954
0.783081
-0.192059
-0.186163
-0.765672
-0.570382
-0.800687
0.960530
0.613230
0.574885
0.320426
0.512514
-0.257743
-0.535743
-0.842113
0.003221
0.980622
0.477168
0.646663
-0.723707
-0.223921
-0.316529
0.471972
-0.438199
-0.964911
0.890651
-0.652176
-0.732702
-0.306478
0.899952
-0.341024
0.475099
0.245252
-0.359309
-0.695694
-0.048276
-0.463265
-0.799381
0.364010
0.330350
-0.111363
-0.255328
0.211196
0.886513
-0.898998
-0.309042
-0.412294
-0.744732
0.942691
-0.952338
0.324283
0.431760
-0.588423
0.353456
0.561935
0.207315
-0.357867
0.503260
0.090268
-0.258366
-0.790762
0.559325
-0.550091
-0.583617
-0.461605
0.261489
-0.440309
-0.124075
0.201499
-0.519850
0.391581
-0.349542
-0.153445
-0.240597
0.712478
-0.121291
0.452275
0.071437
-0.695780
0.380118
0.040138
0.031469
0.652679
0.759457
-0.877846
-0.279899
0.928308
-0.692090
-0.363554
0.903100
0.989611
-0.424084
-0.894981
-0.909220
0.458450
-0.411240
-0.600386
-0.258477
0.962230
-0.529931
0.410861
-0.909025
0.696135
0.160619
-0.735010
-0.174020
0.853375
-0.391761
0.738294
0.791026
0.529441
-0.172735
0.067950
0.467927
-0.537660
0.605316
-0.283759
0.047565
0.342228
-0.218952
0.702539
0.821204
0.471690
-0.728653
-0.383639
0.066685
0.696417
0.196956
0.972856
0.606781
-0.113786
0.600464
-0.342172
0.435499
-0.608598
-0.562517
-0.154520
-0.361909
-0.579793
0.852587
0.836005
0.047520
-0.520741
-0.806602
-0.499211
-0.391528
0.876761
0.602482
-0.799330
-0.198531
-0.171673
0.289625
-0.045456
0.526650
-0.951091
-0.906814
-0.559811
-0.391729
-0.459453
-0.059589
-0.536638
-0.301253
-0.683408
-0.391657
0.210163
0.360350
-0.357746
0.417781
-0.592219
0.038996
-0.298131
0.912662
0.873846
-0.564852
-0.192960
0.379048
0.696977
-0.474183
0.954769
-0.064952
-0.587797
0.343161
-0.651342
-0.148993
-0.095429
-0.759255
-0.359620
0.777276
0.763640
-0.903851
0.697581
-0.099568
-0.830910
-0.706634
-0.795360
-0.776437
-0.945350
0.539980
-0.513472
0.254337
0.003146
0.104655
0.395793
0.459228
-0.667826
0.322177
0.022990
-0.624201
0.519516
-0.552731
0.719491
-0.541033
-0.546460
-0.149521
-0.856557
-0.072017
-0.670963
0.897694
0.471528
0.015125
-0.587105
-0.226070
0.714378
0.303594
-0.045190
-0.089837
-0.886402
0.313137
-0.672318
-0.293394
0.056794
0.149962
-0.621268
-0.355786
0.887398
-0.546500
-0.792781
-0.361798
-0.529226
0.281763
-0.078413
0.035015
0.779558
-0.770082
0.572441
-0.370232
0.169428
-0.162537
-0.061506
-0.400292
0.345872
0.045443
-0.430163
0.723038
0.111356
-0.137857
0.892400
0.262932
-0.725489
-0.783503
0.499088
0.978251
-0.390393
0.889447
-0.017328
0.019648
0.311073
0.402883
-0.788709
-0.253136
0.574917
-0.156582
0.841277
0.218929
-0.594278
-0.521263
-0.644266
0.764541
-0.739900
0.572332
0.844484
-0.130369
-0.208357
0.853384
0.831378
-0.726312
-0.958801
0.834096
-0.827604
-0.330866
0.921103
-0.512196
0.130140
-0.137594
0.682073
0.221803
0.209761
0.898628
-0.560807
0.709962
-0.068556
-0.575382
0.172528
0.369948
0.695880
0.687575
-0.387370
0.271385
0.399718
0.709725
0.120506
-0.052863
-0.925347
-0.915336
0.850627
-0.328602
0.926681
0.066493
0.471982
0.583732
-0.442163
0.763388
0.300281
-0.958516
-0.126592
0.565215
-0.701079
-0.288058
-0.189944
-0.090010
0.333300
-0.769516
0.911364
0.826315
0.592650
0.394835
0.820623
-0.096624
0.976585
-0.610877
0.554001
-0.160773
-0.253737
0.169747
-0.552767
0.853116
0.715300
0.352811
-0.045857
0.482114
0.410998
-0.617829
0.279826
-0.469659
-0.711321
-0.646263
-0.316248
-0.373854
0.268695
0.208060
-0.249835
0.595000
0.234706
0.244916
-0.050027
0.024990
-0.998267
-0.739980
0.634876
0.157505
0.286522
-0.803471
-0.809074
-0.820808
-0.421418
-0.812448
0.557704
0.418408
0.901677
-0.192912
0.036334
0.202912
0.090595
0.037354
-0.051134
-0.086726
-0.151376
0.787659
0.790710
-0.030395
0.283801
0.732990
0.973149
-0.005012
-0.400125
0.372959
0.043910
0.955484
-0.316913
0.825894
0.339647
0.634835
0.294625
0.201962
-0.461514
0.514947
0.909508
0.234261
-0.696098
0.200076
0.153491
-0.962140
0.868302
0.370053
0.426133
-0.665960
-0.299051
0.838382
0.218457
-0.824530
-0.952553
0.437633
-0.520534
0.382227
0.337443
-0.398932
0.989571
-0.924812
0.536029
-0.684232
-0.231634
0.214725
-0.660895
-0.608664
0.423744
0.298994
-0.407469
-0.563841
-0.960537
0.416483
0.703496
0.340235
0.706856
-0.599398
0.455321
0.907904
-0.008879
0.719186
-0.886553
-0.160561
-0.079921
0.598879
0.664920
0.365939
-0.987857
0.434064
-0.475321
0.470650
-0.734108
-0.915147
-0.081779
-0.466012
0.830932
-0.404330
0.090673
-0.535063
-0.619637
-0.419180
0.859332
0.158068
-0.621326
0.419418
0.188016
-0.386232
-0.879016
-0.115675
0.485165
0.055644
0.373876
0.033463
-0.667028
0.703811
-0.432997
-0.015741
-0.918433
-0.641531
-0.752988
0.580225
-0.984483
0.555341
0.430927
0.998805
-0.511331
-0.816060
-0.579187
0.010980
0.872167
-0.550908
0.108294
0.522927
0.451966
-0.516906
0.515443
0.651082
-0.691964
0.685256
-0.604153
-0.779087
0.740473
0.873133
-0.295255
0.833584
-0.158847
-0.833324
0.827960
-0.289261
-0.132939
0.175854
-0.507482
0.284951
0.800436
-0.210510
0.946327
0.277481
0.343428
0.467755
0.148397
0.857272
-0.845014
-0.199560
0.699084
0.718122
-0.001128
-0.913511
-0.424723
-0.665599
0.961525
0.846641
-0.241351
0.296133
0.423678
0.429788
-0.737997
0.952796
-0.792493
0.489679
-0.561605
-0.893973
0.161938
-0.439218
-0.939438
0.483481
0.572903
0.073958
0.475511
0.968753
0.436013
-0.003848
0.459733
0.925188
-0.728524
0.014687
0.047353
0.761393
-0.673487
-0.796656
0.940989
-0.316318
0.719402
-0.592075
0.877723
-0.653634
0.315648
0.781090
0.806035
-0.923453
0.952814
0.342287
0.236294
-0.765002
-0.075356
0.914723
-0.738859
0.985281
0.111233
0.473485
0.361443
0.246594
-0.747013
0.837246
0.421379
-0.292415
0.600505
-0.226772
-0.152485
-0.093999
-0.921365
-0.057522
-0.829960
-0.352319
0.598063
0.156895
-0.121731
0.402429
0.323576
0.393529
0.372930
-0.063678
0.361665
-0.977827
-0.797054
-0.585620
0.468791
-0.811763
-0.559703
-0.695815
0.222267
0.389834
0.967213
0.215566
0.008092
0.868201
0.641298
0.262591
-0.962459
-0.675143
-0.955795
0.785172
-0.754021
-0.398681
-0.644645
-0.342768
-0.357832
0.883982
-0.253889
0.974122
-0.367837
-0.402026
0.311742
0.628023
0.429289
-0.597280
0.383359
0.525532
0.296376
-0.531927
0.214271
0.621695
0.480575
0.946578
-0.464381
-0.455225
-0.370411
-0.819177
-0.338316
-0.867252
0.738391
0.722011
0.190007
-0.102034
0.867213
-0.388523
-0.665565
0.896821
0.598547
0.689196
0.100093
-0.878659
0.947359
-0.392267
-0.296812
-0.389592
-0.339406
0.635499
-0.664014
-0.719322
0.838579
0.385126
0.011417
-0.089259
0.898206
0.106657
-0.016169
-0.305588
0.931483
-0.480787
0.515742
0.968090
0.178328
0.270544
-0.249892
0.441572
-0.348649
-0.936605
0.187351
0.555431
0.251466
-0.906928
-0.587294
0.892724
0.734675
-0.955175
0.946376
-0.559404
-0.283478
0.823204
-0.890393
-0.564882
0.433578
0.960579
0.437445
-0.317264
-0.769562
-0.729661
-0.189683
0.496787
0.590421
0.660245
0.473080
0.859151
-0.555696
-0.524355
-0.784208
-0.576502
0.790114
-0.634217
-0.201616
-0.141860
-0.086046
-0.629507
0.522858
0.310615
0.033089
-0.071283
-0.689376
0.593017
0.281672
0.114504
-0.835775
0.968668
0.623826
-0.123050
0.365671
-0.673431
-0.863646
0.940923
-0.868965
0.330235
0.197361
0.740590
-0.834948
-0.713431
0.978669
0.443586
-0.609531
0.461260
0.527257
0.438791
0.247937
-0.156660
-0.159595
-0.418933
-0.561497
-0.059711
0.514021
-0.726533
0.048136
0.534659
0.035270
-0.798661
-0.118683
-0.876488
0.262916
-0.872607
-0.250612
0.042453
0.110558
-0.266211
-0.624372
0.986202
-0.125519
-0.500193
-0.242749
-0.094067
-0.593220
0.313445
0.321321
0.457209
0.451190
0.846976
0.455877
0.487973
0.674325
-0.387176
0.573592
-0.458230
0.821582
-0.921109
0.716092
0.265636
-0.257568
0.082078
-0.571512
0.382756
0.990185
-0.300341
-0.257253
0.034113
-0.627664
0.284350
0.497467
-0.526494
0.758721
0.362454
-0.241433
0.810049
-0.380171
0.567886
-0.549948
0.773253
0.894562
0.764602
0.924785
-0.621321
0.865551
-0.303233
-0.325369
-0.797086
-0.813715
-0.984127
0.148106
-0.168022
0.921847
0.037784
-0.054355
0.575924
0.181120
0.562106
0.222453
-0.368546
-0.502437
0.525784
0.854343
-0.482473
-0.951879
-0.381000
-0.379489
-0.640762
-0.153630
0.091297
0.185163
-0.402591
-0.374080
-0.756092
-0.648262
-0.592830
-0.941487
0.481933
0.604687
-0.155248
0.746035
0.655567
0.986745
-0.404198
-0.903911
-0.572383
-0.642159
-0.691341
0.813038
-0.787386
0.688936
-0.168712
-0.169730
-0.611168
0.886773
-0.530521
-0.845382
0.788960
-0.423957
0.433428
-0.896328
0.626508
0.169847
0.215833
0.156397
0.461277
-0.445500
0.897251
0.642401
-0.424920
-0.311895
-0.577094
-0.143906
0.573289
0.755799
0.733249
-0.465824
0.255552
-0.147892
-0.514340
-0.009781
-0.901445
-0.708584
-0.984237
-0.243441
0.025277
-0.733786
-0.902412
0.028400
0.695858
-0.829477
-0.250103
-0.486283
0.588295
0.678168
0.798629
-0.086934
-0.541372
0.704489
-0.981186
0.051777
-0.544120
-0.559216
-0.230007
-0.185720
-0.144461
-0.107492
0.787052
-0.967935
-0.656585
0.006893
-0.124602
0.488919
0.260820
0.046511
0.516401
-0.196608
-0.165978
0.890188
0.053886
-0.525104
-0.659227
-0.983988
0.911574
-0.217784
0.654511
-0.095746
0.156090
0.524441
-0.333191
0.740901
0.128523
-0.097018
0.935413
-0.306972
-0.922380
0.006024
-0.403335
-0.916319
0.310691
0.480695
0.509135
-0.309920
0.799018
0.079779
-0.377906
0.549534
-0.965264
-0.209220
-0.428160
0.181410
-0.247042
0.537671
-0.176492
-0.944089
-0.438815
-0.408660
0.790808
-0.832811
-0.782644
-0.987295
0.058394
-0.942128
0.484466
0.483251
-0.571053
-0.892125
-0.198566
-0.181366
0.565363
-0.903613
-0.551867
-0.915361
-0.453646
0.467435
0.247063
-0.629397
0.198637
0.101777
-0.570246
0.500445
-0.489719
0.721427
-0.319172
-0.069280
-0.649020
0.298443
-0.512989
-0.989364
-0.754920
0.318014
0.993136
-0.449961
0.704540
0.123245
0.088023
0.786511
-0.941415
-0.677563
0.925671
-0.435253
0.590770
-0.811832
0.571892
-0.898769
-0.015030
-0.002305
0.874865
0.550063
-0.096846
-0.435732
0.395726
-0.428038
0.366174
0.458631
-0.333407
-0.455960
0.576654
0.969570
-0.831572
-0.059334
-0.831669
0.320844
-0.435873
0.913881
0.985138
0.774338
-0.517535
0.568663
-0.988199
0.237270
-0.611541
0.538136
-0.158763
-0.586351
0.044419
0.797672
0.247847
0.199567
0.335084
-0.755721
-0.386461
-0.197208
0.473318
0.557135
-0.617298
-0.632826
0.846624
-0.864864
0.124337
-0.148385
0.610779
0.709026
-0.837114
0.519986
0.261298
-0.598913
0.802697
0.025997
-0.914695
-0.285545
-0.386780
0.858302
0.234311
-0.893503
-0.797959
-0.360244
0.986489
0.667318
-0.705907
0.950861
0.875758
-0.861306
-0.693205
0.826907
-0.830795
-0.994615
-0.656284
0.262265
0.447719
0.538190
-0.898156
-0.148020
-0.683114
-0.801333
0.975388
-0.048764
-0.616204
0.182568
-0.988033
0.826065
-0.640438
-0.022446
0.400601
0.333427
0.757626
0.148259
0.999755
-0.935238
0.008267
0.104628
-0.185463
-0.428116
0.787903
0.775697
-0.085991
-0.476669
-0.450546
-0.799541
-0.763729
0.722180
-0.780021
0.567114
-0.296835
-0.420984
0.377674
0.702736
0.936533
0.267511
-0.011867
0.314941
-0.281798
-0.928549
-0.575049
-0.920761
-0.979909
-0.923251
-0.278778
-0.027791
-0.767751
-0.342439
-0.438752
0.529360
0.348239
0.696009
0.174060
-0.353915
0.808616
-0.968501
0.310563
0.580126
-0.775014
-0.341537
0.369695
-0.227417
0.324816
-0.031436
-0.834741
-0.162544
0.438831
0.182609
-0.800020
-0.981211
0.312126
-0.709674
-0.548169
0.002651
0.980609
0.992618
-0.855162
-0.705488
0.132632
-0.423999
0.880322
0.478348
0.990697
-0.722961
-0.517177
-0.759558
0.778328
0.418543
0.257398
0.902992
-0.112224
-0.806073
0.282549
-0.428428
-0.883164
-0.911574
0.121196
0.651094
-0.222739
-0.828268
-0.554806
0.203336
0.915502
-0.553020
-0.987138
-0.963558
-0.060737
0.938696
-0.270192
-0.996849
-0.844347
0.773977
-0.511911
0.996621
-0.620907
0.015236
0.055345
0.306022
-0.482764
-0.947994
0.495049
0.868579
-0.334461
-0.437864
-0.274235
0.253625
-0.237052
-0.844578
0.910180
0.756286
-0.729324
-0.800581
0.257750
-0.374720
0.029319
-0.688621
-0.524425
-0.137426
-0.765739
-0.016839
0.182130
0.403141
-0.448825
0.873390
0.190205
-0.322654
0.160635
-0.935492
0.912786
0.139646
-0.698895
0.868008
-0.420008
-0.337880
-0.228416
-0.011948
0.229698
-0.836887
0.958185
-0.737904
0.830460
-0.255260
-0.142457
-0.917128
-0.322048
0.386402
0.582056
0.692873
-0.965573
-0.408973
-0.548189
0.365843
-0.570848
0.085358
-0.937886
0.932274
0.801103
-0.955759
-0.431459
0.881880
-0.380144
-0.400720
-0.999856
-0.969779
-0.479018
-0.545194
-0.862641
0.675468
0.477097
-0.658061
-0.424541
0.661820
-0.845722
0.902760
0.215217
0.306976
0.426899
0.087370
-0.995312
-0.681955
-0.527480
0.152695
0.668713
-0.465664
0.896201
-0.547425
-0.376853
-0.560206
-0.324351
-0.480868
0.256394
0.079909
-0.651553
-0.135296
0.555732
0.617572
0.329193
0.264863
-0.706904
0.438417
-0.901625
0.045026
-0.359365
-0.138788
-0.586540
0.630780
-0.436210
-0.333724
-0.686654
0.081520
-0.676965
-0.463084
-0.353057
-0.370849
0.424368
0.660273
-0.608746
0.438989
0.545845
-0.925055
-0.459238
0.121204
0.069026
0.672397
0.091095
0.242127
-0.244283
-0.878716
0.246753
-0.641363
0.279926
-0.753855
0.982012
0.193478
0.471349
0.964175
0.578085
0.576172
-0.432419
0.222192
-0.621824
0.682123
-0.522980
-0.319866
-0.085373
-0.997671
-0.942137
-0.511598
0.702146
0.892594
-0.847601
-0.778148
0.910971
-0.190546
0.653257
-0.525607
-0.632196
0.344432
0.184527
-0.924927
0.367109
0.807556
0.472853
0.323951
-0.529569
0.733809
-0.444494
0.884770
-0.653951
-0.285039
-0.259976
-0.679218
-0.870653
-0.201363
-0.615920
-0.655245
0.630291
0.713144
-0.996510
0.317830
-0.224071
-0.934263
-0.016298
0.626367
-0.427438
0.143387
-0.538897
-0.870647
-0.264917
0.409546
-0.683464
0.490445
0.332756
0.454443
0.915441
-0.880303
-0.858308
-0.555373
0.838830
0.298770
0.423977
-0.759717
-0.390392
-0.812166
0.727583
-0.868121
-0.271338
-0.760835
0.532011
-0.396075
0.949023
0.378612
-0.636591
-0.115104
-0.161125
-0.842287
0.309523
0.496350
0.930477
0.129228
0.731134
0.999924
0.786323
0.643728
0.300483
-0.952982
0.622553
-0.025511
-0.091413
0.792010
-0.453615
-0.223977
0.620334
0.521410
-0.925689
-0.390617
0.332218
0.906878
-0.231167
-0.552319
0.981292
-0.202139
-0.176039
0.006072
-0.164581
0.213389
-0.434902
-0.404085
0.585815
-0.535624
0.156094
0.334611
-0.157757
0.901055
0.436763
-0.979511
0.873988
-0.613971
-0.468990
-0.240917
0.278713
-0.124566
-0.676617
0.152334
-0.694423
0.451156
0.783448
0.971779
-0.933789
0.375365
0.782853
0.579839
0.959472
-0.587003
-0.575455
0.485076
-0.584270
0.056287
-0.573629
0.771945
0.947083
-0.387165
-0.030735
0.888708
0.352674
0.160368
-0.527631
-0.653600
-0.832895
0.870159
-0.259266
0.057462
-0.667618
-0.641209
-0.475664
0.922897
0.185963
-0.666672
-0.922461
-0.443953
0.283332
-0.015754
-0.703479
-0.192632
-0.238104
0.185739
-0.404221
0.000711
0.785639
-0.499425
0.099058
-0.478220
0.722768
-0.955319
0.124346
-0.357315
-0.451698
0.580407
-0.523487
-0.630572
-0.213310
-0.705849
0.886547
-0.761041
0.131816
0.819937
-0.938064
0.819045
0.023810
0.082941
0.021388
-0.246173
-0.832026
0.376577
-0.469749
-0.119672
0.878496
0.907982
0.680147
-0.057067
-0.439178
0.636831
0.487483
-0.239475
-0.342312
-0.035203
0.616279
-0.910409
-0.743018
-0.867415
-0.354767
0.067802
-0.743069
0.598605
0.755898
0.964507
0.487912
0.932095
-0.255883
-0.105253
0.940180
0.601793
-0.612201
0.843797
-0.896036
-0.449612
-0.618334
0.984585
0.284076
-0.967119
0.160508
0.041977
0.353909
-0.647347
-0.923337
0.563151
0.591252
0.917445
0.820523
0.716908
-0.468335
0.787966
0.477271
0.889717
-0.354643
0.813424
-0.764915
-0.110549
0.501856
-0.264354
0.666086
-0.527837
-0.280557
0.236829
0.411262
0.593971
-0.378228
-0.807488
0.611606
-0.257893
-0.328275
0.331956
0.528104
-0.148857
-0.001201
-0.904595
-0.301286
-0.886938
-0.503430
0.417257
0.249181
0.583843
-0.021137
-0.792433
0.178885
-0.359475
-0.429745
-0.990159
-0.822595
0.561139
-0.899931
-0.258851
-0.957233
0.452867
-0.768063
0.413494
-0.149505
0.094697
0.669684
-0.053857
-0.714947
-0.689924
-0.637287
0.879087
-0.456673
0.217742
0.643154
0.320133
-0.921294
-0.000265
-0.403758
-0.797402
0.511804
-0.576249
0.333515
-0.408624
0.224384
-0.777471
0.917917
-0.897076
0.196771
0.874474
-0.804970
0.837543
0.383069
-0.820065
0.486410
-0.958526
0.281040
-0.708700
-0.834985
0.825562
-0.816985
0.821253
0.128151
-0.557819
-0.649274
-0.979607
-0.876881
0.171891
0.968746
0.399492
0.210616
0.173233
-0.617328
0.187859
0.187489
-0.271820
-0.658087
-0.937223
0.857458
-0.531930
-0.834894
0.112622
0.675121
0.565003
-0.954637
-0.848017
0.585047
-0.007643
0.767508
0.562359
-0.135753
0.754345
0.638032
0.656065
-0.100853
-0.756436
-0.628177
-0.320395
-0.037631
0.812985
0.499575
0.471848
-0.725147
-0.999765
-0.140361
-0.910320
-0.854751
-0.417927
-0.684975
0.304420
0.260079
-0.980455
0.004515
-0.648768
-0.542872
-0.480177
-0.703439
0.897917
-0.371669
-0.114838
-0.466347
-0.274510
-0.132414
0.232270
-0.793230
-0.538321
-0.918618
0.463840
0.354520
-0.704400
0.311770
0.880720
-0.976810
-0.453904
0.281024
-0.701596
0.606025
0.288528
0.500038
-0.077372
0.955665
-0.844679
-0.598116
-0.607884
0.030949
-0.153976
-0.972211
-0.358207
-0.738190
-0.471832
-0.767888
0.127227
0.198553
0.139500
0.191017
0.726131
0.144971
0.901683
-0.367426
-0.736661
-0.545624
-0.400066
0.846552
-0.949675
0.338790
0.667946
-0.925007
-0.791874
-0.916848
0.821525
-0.888730
0.037095
-0.982535
-0.670453
0.327221
-0.403245
0.313020
0.299495
-0.388995
-0.335757
-0.542729
-0.387679
0.304583
0.652486
0.564159
0.640216
0.090028
0.699373
0.776228
-0.711932
-0.034875
-0.352131
-0.024138
0.813570
-0.973473
-0.147456
-0.844189
0.190807
-0.101128
0.075401
0.719318
-0.750739
0.380101
0.156919
-0.383632
0.370245
-0.612931
-0.766719
-0.632279
-0.154230
-0.629229
0.967682
-0.443139
-0.242781
-0.282727
0.158706
0.921288
0.685145
-0.521854
-0.677469
-0.353486
-0.491713
-0.085747
-0.939054
-0.200626
-0.448541
0.225305
0.908692
0.859260
0.031624
0.016304
-0.989700
-0.303185
-0.287870
-0.008943
-0.878701
-0.775922
0.424944
0.351578
0.259161
0.066369
0.904320
0.822553
0.763167
0.184882
-0.131522
-0.072858
-0.037379
-0.747111
-0.028458
-0.033120
-0.221763
-0.535787
-0.378241
0.414479
-0.016842
-0.864139
-0.950802
0.183476
-0.186160
-0.870732
-0.859998
-0.879088
-0.036286
0.751962
-0.544839
-0.686606
-0.280272
0.086997
-0.048679
0.740587
0.265568
-0.693564
-0.613591
0.009550
0.600645
0.739737
0.370427
-0.705211
0.702284
-0.817814
0.386726
-0.897813
-0.502085
-0.215765
0.700755
-0.360477
-0.026973
0.171700
0.906958
-0.004885
-0.421062
0.745985
0.986205
-0.670572
-0.347532
0.943746
0.642147
0.635908
0.089158
-0.237139
0.220305
-0.212046
0.385736
0.581006
0.917415
-0.073785
-0.379165
-0.374272
-0.145043
0.473346
0.620338
0.152425
0.175518
0.724912
-0.142372
0.423981
0.239475
0.726260
-0.274380
0.815266
-0.170861
-0.990498
-0.481015
0.353579
-0.489184
0.283788
0.888734
0.005367
0.539846
-0.459335
0.208313
0.930866
-0.071448
0.127627
0.446472
0.628584
0.461687
0.498537
-0.947450
0.851949
-0.927158
0.017932
0.732161
-0.112238
0.711163
-0.020755
-0.803128
0.028267
-0.684849
0.798729
0.238989
-0.498824
-0.869918
-0.835638
0.450051
-0.708038
0.069104
-0.401696
0.512896
0.641813
-0.482389
-0.435544
-0.546820
-0.600611
-0.554344
0.290284
-0.572889
-0.713081
0.219182
0.098164
-0.868494
-0.226458
-0.653982
0.310537
-0.932289
-0.855811
0.745486
-0.982799
0.513440
-0.204907
0.463578
-0.043532
-0.868521
0.412016
-0.685915
-0.425738
-0.364917
-0.466735
-0.626221
-0.574613
0.039489
0.526897
-0.499936
0.889957
-0.699835
-0.739961
0.955747
-0.498753
0.391013
-0.638131
0.477227
-0.872691
0.253327
-0.244152
-0.447732
-0.672654
-0.156640
0.677414
0.984442
-0.939362
0.992963
0.298440
0.933113
0.552084
-0.717023
-0.579775
-0.629032
0.750239
0.891165
0.117151
-0.032597
-0.399308
0.193582
-0.895073
0.304824
-0.928530
-0.572601
-0.858966
0.899218
-0.889456
-0.516755
-0.799149
-0.830338
0.395955
0.290531
-0.320551
0.874149
-0.283985
0.774719
-0.199773
-0.535257
-0.653654
-0.380342
-0.370890
-0.079128
0.017319
-0.984482
0.013782
0.157848
0.961493
-0.339895
0.859703
-0.249807
-0.999908
-0.265387
0.028606
0.706179
0.782179
-0.533094
-0.727866
-0.714691
-0.467483
-0.301842
-0.349084
-0.273241
0.084094
-0.012743
0.310495
-0.052255
-0.377869
-0.210010
0.342110
0.682495
-0.356571
0.364004
-0.506190
-0.922525
0.199042
-0.525121
0.777369
0.949181
-0.967023
-0.882295
0.946865
0.002437
0.717273
0.497438
-0.501924
0.841034
-0.536197
0.888109
0.241820
-0.434284
0.916559
0.712620
-0.570515
0.080246
0.808755
0.641681
-0.982931
-0.385818
-0.700409
-0.385306
0.906577
-0.077907
-0.686243
0.988705
-0.773519
-0.765726
-0.969842
-0.092189
-0.861403
-0.195278
-0.052642
0.585075
-0.064504
0.330684
-0.393961
0.838418
-0.363821
-0.611171
-0.359309
-0.573168
-0.869620
0.013488
-0.296613
0.673641
0.068639
0.094652
-0.866360
0.831611
0.672125
0.416829
0.872389
0.814419
0.924085
0.291239
-0.205987
-0.271150
0.121726
-0.791881
-0.550229
0.706752
-0.760550
-0.123430
-0.626944
0.828737
0.997711
0.681640
0.218082
-0.642771
0.487140
-0.522476
-0.991749
-0.638668
-0.572770
-0.058007
0.596738
0.487691
-0.706888
0.174161
0.895233
-0.123717
0.497175
0.872828
0.060973
-0.824649
0.262492
0.560442
-0.358637
-0.172119
-0.449642
0.856439
0.321433
0.710790
-0.740305
-0.012894
-0.833499
0.805729
0.275781
0.545153
0.959164
0.203066
0.880575
-0.679045
0.560800
-0.955655
0.777600
-0.832160
-0.336881
0.128545
-0.542538
-0.065204
-0.898292
0.614749
-0.594705
0.431228
-0.422201
-0.663325
-0.885241
-0.556977
0.995864
0.476962
-0.324145
-0.555163
0.255449
0.776028
-0.054582
0.201932
-0.570970
-0.907899
0.817947
-0.564074
0.378170
0.457470
-0.855655
0.478568
-0.461444
-0.072129
-0.688695
-0.895032
0.252942
0.134811
-0.828740
-0.762140
-0.346469
0.449035
0.232084
0.214380
-0.782643
-0.281418
0.052986
0.271000
-0.711376
0.103691
-0.609694
-0.727786
-0.641114
0.084439
0.219590
-0.906197
0.525708
0.774756
0.041371
-0.758490
-0.803613
-0.134882
0.088172
-0.069601
-0.846282
0.966947
0.101450
0.098159
0.879840
0.021546
-0.710549
0.572589
-0.250532
-0.109798
-0.798176
0.478561
-0.837846
-0.885416
-0.570187
-0.834504
0.525190
0.699519
0.590254
0.829836
0.848067
-0.847559
-0.421456
0.072848
-0.847348
-0.664843
0.480108
-0.482057
-0.160500
-0.375900
0.432548
0.760246
-0.429966
0.108214
-0.139969
0.123474
-0.765277
-0.858919
0.257386
0.085887
-0.439812
-0.390322
-0.232298
-0.468774
-0.790238
0.795202
-0.909651
0.916705
0.799772
-0.310923
0.625545
-0.530908
0.795255
-0.377852
0.731784
-0.757758
0.989035
-0.916041
-0.211876
-0.443211
0.209285
0.434818
0.542055
-0.152272
0.393621
0.152456
0.798608
-0.832769
0.469703
-0.592562
-0.746791
-0.760284
-0.006967
-0.978408
-0.421379
0.527636
0.734994
0.452580
-0.111383
-0.436263
0.723913
-0.777896
-0.221994
0.436211
0.163278
-0.311751
-0.415001
-0.943816
0.552733
0.135392
0.675955
0.713222
-0.181776
-0.672627
0.421947
-0.780158
-0.801169
-0.661509
-0.125813
0.571107
-0.551504
0.762416
-0.036880
-0.603498
0.181280
-0.688202
0.561066
-0.341644
-0.390184
0.156515
-0.068955
-0.506607
-0.937531
-0.068910
-0.788046
-0.343846
0.246261
0.302426
-0.742534
0.337288
0.850429
-0.274946
-0.114532
-0.483889
0.829080
0.215492
0.514339
0.316171
0.953933
-0.932587
-0.711327
-0.030308
0.314047
-0.534939
0.866021
0.789666
0.429012
0.085798
-0.817957
-0.759456
0.319127
0.388382
0.449261
0.898867
0.718272
-0.275941
-0.153233
0.886816
0.362502
-0.338158
0.748278
0.475725
-0.177121
-0.977980
0.446247
-0.471334
0.615575
-0.725368
-0.977639
0.737033
-0.474742
-0.923666
0.130784
0.028215
0.305005
-0.903043
-0.852479
0.562213
0.122430
-0.899326
-0.529246
0.766339
0.653687
0.784292
0.124354
0.402805
-0.292662
0.812406
0.281177
0.458544
0.053740
-0.175148
0.463886
-0.472990
0.861795
-0.256814
0.872323
-0.404222
0.284809
0.253206
0.126016
-0.347154
0.547209
-0.093096
-0.130098
-0.155717
-0.208874
-0.943546
-0.973894
0.366179
0.891773
0.060756
-0.814362
0.494584
0.126025
-0.822115
-0.088703
0.018136
-0.771937
0.521712
-0.194758
0.899657
0.252946
0.777157
0.166944
-0.543857
0.446165
-0.054446
-0.418386
0.599757
-0.872240
0.934577
-0.008490
0.647215
0.060796
-0.424168
-0.911680
-0.938116
-0.471949
0.013668
-0.403701
0.326234
0.671898
0.845733
0.364305
0.501783
0.789250
-0.663262
-0.094015
-0.837921
-0.569762
-0.266056
0.282176
-0.273561
-0.565334
0.269560
0.459942
0.040142
0.357908
-0.677985
0.741472
0.743471
-0.799485
-0.495258
0.066720
-0.729447
0.747229
0.214987
-0.269541
0.880856
-0.116751
-0.495881
0.222771
0.598166
0.134328
0.819889
-0.105870
0.239699
0.570741
0.690839
-0.007462
0.743864
-0.899261
0.409319
0.851721
0.145465
-0.937743
-0.865170
0.113269
-0.508868
0.328260
-0.878181
-0.422067
0.114130
0.366959
-0.691679
-0.535250
0.234321
-0.804311
0.587620
-0.748215
0.508756
0.437874
0.042876
0.871808
-0.777878
0.810391
-0.072850
-0.422451
0.482610
-0.164980
0.344458
0.996210
-0.989359
0.272540
-0.067808
-0.410989
0.120971
-0.072549
-0.481150
0.661318
0.209231
0.110402
-0.724699
-0.567580
-0.764166
-0.204784
-0.772609
-0.067102
-0.975492
0.340998
0.105847
0.727828
-0.031390
-0.648781
-0.812453
-0.713812
0.210119
0.281960
0.046918
0.904257
-0.141985
-0.663800
0.284957
0.897974
0.366407
-0.080273
-0.182239
-0.740326
-0.016760
-0.533090
0.635123
0.339981
-0.053825
-0.384810
0.421702
0.676917
-0.189552
0.304582
0.971847
0.342378
-0.167215
-0.735188
0.208481
-0.634092
0.380023
-0.954151
-0.554461
0.327426
0.485060
-0.164270
-0.370015
-0.464195
-0.001911
-0.299802
0.410884
0.319032
0.636267
-0.380645
-0.925797
0.135582
-0.467707
0.233580
0.603034
0.953790
-0.335779
0.092462
0.936450
-0.081832
0.796997
-0.280578
0.492225
0.766588
0.585302
0.965846
-0.902802
0.583680
-0.254017
-0.290554
0.565577
-0.974446
0.761294
0.203073
0.722205
-0.614993
-0.700400
-0.243575
-0.346836
-0.954514
0.876446
-0.036279
0.396263
-0.228477
-0.206282
0.668319
0.248893
0.567427
-0.989159
0.731199
-0.861365
0.494805
0.417951
-0.674414
0.586507
0.843232
-0.420845
-0.894489
0.227689
-0.740784
-0.911860
0.058489
0.186368
0.652678
0.133661
0.786298
0.987010
-0.460496
-0.073772
-0.982353
0.984313
-0.755030
0.876101
-0.440662
0.535967
-0.617423
-0.780390
-0.620498
0.602606
-0.409248
0.865646
-0.008379
-0.965769
-0.071840
-0.867188
-0.804547
-0.277547
-0.255355
-0.256537
-0.719897
-0.755210
0.042217
0.356122
-0.378024
0.074172
-0.340642
-0.626997
0.268157
-0.821556
0.177300
0.982179
0.306830
0.004397
-0.999607
-0.499276
-0.321298
-0.661595
0.129614
-0.148925
0.327069
0.926077
0.813261
0.263624
-0.847463
-0.008372
-0.578112
0.519618
-0.321249
0.138682
-0.199055
0.069536
-0.549122
-0.516706
-0.528385
-0.883793
-0.356557
0.155431
0.162307
-0.238606
-0.204639
0.652648
0.317342
-0.329935
0.154577
0.824859
-0.703323
-0.247048
0.790664
-0.977152
-0.680055
-0.936539
-0.496919
0.627470
0.127006
-0.526762
-0.349901
-0.949620
0.172214
-0.513407
0.382495
0.090792
-0.427451
0.217617
-0.284911
0.215520
0.401656
0.756118
-0.636755
-0.184360
-0.928796
0.615690
-0.373544
-0.639488
-0.372119
0.766125
-0.229238
0.947779
-0.754011
0.513603
-0.946222
0.160950
-0.177492
0.947850
0.332687
0.071542
0.716266
-0.509555
0.490729
-0.985770
-0.574165
-0.191218
-0.722205
-0.070046
-0.214296
-0.504085
-0.573912
-0.549209
0.224079
-0.518752
0.573456
0.037779
0.557893
0.932123
-0.124189
0.360361
0.901115
-0.418915
-0.627605
0.744580
0.482246
0.801258
-0.054126
-0.145693
0.571404
0.937607
0.765836
-0.100651
0.869433
-0.081622
0.676384
-0.534687
0.081021
0.375340
-0.759229
0.119849
0.639359
-0.154979
-0.224114
-0.931100
-0.470500
-0.796946
-0.149145
-0.176659
-0.121120
-0.137868
-0.329196
-0.787350
-0.107213
0.823977
0.347577
0.247484
0.911930
0.580685
-0.566549
-0.764253
-0.999655
0.285748
0.131932
0.447874
-0.080922
-0.582604
-0.605142
0.740481
0.998801
-0.981980
-0.800214
0.378083
-0.911200
-0.158112
-0.974344
0.776289
-0.626672
0.404778
0.516130
-0.171756
-0.327204
-0.742885
0.635641
-0.469188
0.180261
0.891884
-0.092179
0.650918
0.760802
-0.700960
0.913212
-0.692186
-0.804837
-0.536256
-0.550557
-0.070054
0.543211
-0.096771
0.999849
-0.843095
0.710402
0.909259
-0.738355
-0.806019
-0.759691
0.424652
0.681126
0.305675
-0.549407
-0.588659
0.321565
0.666183
-0.715888
0.085793
-0.507176
0.056670
0.161495
-0.027715
-0.420995
0.371535
-0.970946
0.544187
-0.763707
0.997281
-0.761799
-0.204061
-0.946589
0.505687
0.634559
0.686122
-0.146988
0.784738
-0.786208
-0.519387
-0.387678
0.613347
0.522444
0.429697
0.521465
0.834755
0.230044
0.388758
-0.564492
-0.404903
-0.671708
-0.134745
-0.077444
0.511569
-0.486059
-0.240320
-0.751043
0.422291
-0.218217
-0.807971
-0.780650
-0.392373
0.030896
-0.663381
0.856349
-0.766347
0.395553
0.228216
-0.743808
0.884919
-0.968636
-0.835289
-0.848512
-0.768361
0.267253
-0.329212
0.085170
-0.922772
-0.215079
0.487537
0.333962
-0.200232
-0.139981
0.778521
-0.428006
0.387678
0.701629
0.188977
0.307779
-0.734509
0.858717
-0.875643
-0.553927
-0.489163
0.111587
0.339213
0.531978
0.245463
-0.021146
-0.018246
-0.229346
-0.039586
0.759026
-0.593883
-0.995821
-0.799016
0.529205
0.646347
0.374917
0.426829
-0.824565
-0.369470
-0.186399
-0.015655
-0.209794
-0.315106
0.083710
0.640894
0.042705
-0.768833
-0.556317
-0.725484
0.228700
-0.895994
0.120852
0.608456
-0.673286
-0.208993
-0.429093
-0.335571
0.823332
-0.146044
0.672975
-0.576571
0.430088
-0.947096
-0.667267
-0.842304
0.142790
-0.927674
0.009049
0.390880
-0.371860
-0.856255
-0.670408
0.599064
0.648820
-0.840228
0.346370
-0.241479
-0.198837
0.751612
0.372746
-0.835361
-0.189342
0.335344
0.902601
-0.742853
-0.344238
-0.886761
-0.251557
0.683686
0.679122
-0.903411
0.113407
-0.485616
0.670005
-0.377004
0.267562
0.699898
0.609218
-0.807156
-0.599558
-0.258045
0.108619
-0.569238
0.085168
-0.681091
-0.946785
-0.337109
-0.405202
-0.155021
0.062829
-0.253926
0.017678
-0.732182
0.627769
-0.620924
0.512457
-0.042769
0.826349
-0.873361
0.744586
0.667913
-0.981258
0.900826
0.700876
-0.082104
-0.794723
-0.182241
-0.742607
-0.350147
0.748221
0.108735
0.693778
0.725939
-0.107780
0.259644
0.982948
0.916449
-0.821735
0.309740
-0.902404
-0.385230
0.946927
-0.117880
-0.110200
-0.122962
-0.037696
0.995828
-0.073385
0.453976
-0.755130
0.398120
-0.176601
-0.263241
-0.874378
-0.455019
0.265634
0.010626
0.691705
-0.449766
0.165663
0.560128
0.365214
-0.930081
0.608356
-0.815500
0.932672
0.639780
0.544904
-0.447407
-0.403137
0.336888
-0.404501
0.708257
-0.314938
-0.003380
-0.922301
-0.500108
0.172902
-0.130811
-0.368299
-0.606418
-0.192597
0.754576
0.639872
0.988228
0.397796
-0.674257
0.197844
-0.461232
-0.642655
0.529518
0.123934
-0.935114
-0.779005
-0.238645
-0.284456
-0.409971
0.320296
-0.553299
-0.647171
0.560207
0.456843
0.483543
-0.816914
-0.363196
0.250763
-0.149511
0.672542
0.763659
-0.023944
0.716002
-0.308878
0.888875
0.168978
0.349712
0.751928
-0.221722
-0.601626
0.405769
0.175061
0.585661
0.556739
0.021974
0.279528
-0.325761
-0.535855
0.683899
-0.815007
-0.770550
0.288546
0.501580
0.761532
-0.904205
-0.153946
0.898420
0.794899
0.677794
0.474459
0.913178
-0.491732
-0.209980
-0.614435
0.182411
0.905535
-0.990748
0.210175
-0.672506
0.497353
0.376523
0.297710
-0.702293
0.728333
-0.611933
0.322752
0.004580
-0.278508
0.239565
-0.367695
-0.679982
-0.071578
-0.674046
0.816044
0.866255
0.277446
-0.624645
0.454768
-0.815727
0.136937
0.593359
-0.972693
0.302117
-0.278020
-0.192494
0.622652
0.140892
0.594336
-0.731089
0.034166
0.533733
-0.400002
0.303974
-0.834548
-0.710397
0.129804
0.062633
-0.972624
0.711534
-0.513434
-0.308159
0.302833
0.254241
0.847313
0.374283
-0.451605
0.718518
-0.233415
-0.019361
0.091793
0.754181
0.647633
0.559503
-0.605467
-0.101751
-0.529247
-0.112089
0.007343
-0.918513
-0.648574
-0.677905
-0.677384
0.119387
-0.941650
0.907658
0.940984
-0.237133
0.737861
-0.240669
0.212243
-0.064740
-0.303481
0.020590
-0.027681
-0.923095
0.143413
0.692182
-0.799488
0.303490
0.243534
-0.172982
-0.525549
0.148211
-0.784441
0.881362
-0.861773
0.662047
0.644812
-0.415334
-0.409879
0.440551
-0.483260
-0.920675
-0.856878
-0.256397
0.687886
-0.719171
-0.176533
0.459374
-0.827768
0.988197
0.518784
-0.209562
-0.258698
0.282087
-0.209457
-0.497128
-0.630856
0.235865
-0.659266
-0.392020
0.363791
-0.968993
-0.900042
0.182354
-0.787246
-0.509507
0.242211
0.115965
0.048817
-0.593802
0.800838
0.208917
-0.453204
0.511573
0.022714
-0.975875
-0.681840
-0.951058
0.165121
0.703072
-0.594027
0.807693
-0.644752
0.449424
-0.868444
-0.562217
0.232634
0.628100
0.702008
0.942736
-0.269489
-0.227396
0.782955
0.293416
0.592236
-0.873643
-0.515438
-0.844279
0.249938
-0.228409
-0.848269
0.766456
0.579613
0.705243
-0.583004
0.900817
-0.562440
-0.817593
-0.929469
0.458644
-0.395850
-0.892390
-0.906676
-0.842778
-0.267963
-0.137356
-0.350667
-0.849714
-0.919325
0.148940
-0.953019
-0.163843
-0.637827
-0.883178
-0.371562
-0.898583
-0.158706
-0.286467
-0.849229
0.435290
0.011302
-0.687056
-0.422821
-0.805590
0.463604
0.127313
-0.172749
0.897068
-0.999923
0.868470
-0.179780
-0.134024
-0.818138
-0.603995
-0.656067
-0.973883
-0.664442
-0.273549
-0.661488
-0.928456
-0.336801
0.967435
-0.340666
-0.101960
-0.889066
0.320993
-0.694315
0.276215
0.192088
0.885581
0.851802
-0.448352
0.709410
0.872970
-0.462806
0.933761
0.335054
-0.275630
-0.800292
0.936448
0.912041
0.172919
-0.723619
-0.573916
-0.899646
0.235714
0.001132
0.570039
0.660410
0.822278
0.737440
0.711193
0.137579
0.982972
-0.055746
-0.098243
0.649822
-0.200267
-0.902714
-0.956928
0.652905
-0.308740
-0.280251
-0.800180
0.269811
-0.505488
-0.315857
-0.354218
0.284987
0.236658
0.616071
0.061707
0.737411
0.096947
-0.472142
0.872338
0.199015
0.481122
0.280328
-0.822221
0.229655
-0.738453
0.290123
0.165499
-0.607734
-0.276354
0.640291
-0.935771
-0.930943
-0.031768
0.929824
0.951069
-0.808386
0.049195
0.623743
-0.391305
-0.678513
0.635503
0.121099
0.710130
-0.420338
-0.288441
-0.810410
0.257787
0.487417
-0.197812
-0.759054
-0.257697
-0.361685
-0.289064
0.814146
0.829285
0.802009
0.814145
0.461880
0.951773
-0.512294
-0.167418
0.438917
-0.534875
0.705112
0.621971
-0.119301
-0.616049
-0.229155
0.075314
0.334529
-0.622275
0.070096
0.884312
-0.947860
-0.064246
0.334310
-0.389228
0.037608
0.614008
0.729395
0.841801
-0.017430
0.748926
0.478582
-0.159916
-0.097119
-0.966132
0.002434
-0.743631
-0.314927
0.699495
-0.090516
0.908454
-0.733198
0.261542
0.512658
-0.205221
-0.789798
-0.387771
-0.168450
-0.878033
0.691020
0.871540
-0.967627
-0.886849
-0.795157
-0.060737
-0.865813
-0.600411
-0.752959
-0.803015
0.537001
-0.133884
0.601953
0.388041
-0.304577
0.527937
-0.905788
0.698877
0.617806
-0.027897
0.687449
0.763927
-0.134979
-0.701982
0.306937
-0.729846
0.574209
-0.334903
0.986528
-0.489214
0.991214
-0.912781
-0.658403
-0.214768
-0.377090
-0.212052
-0.810386
0.794242
-0.526677
-0.448193
-0.702228
-0.986422
-0.832578
-0.218509
-0.038138
-0.379594
-0.660735
-0.288718
-0.776347
-0.142307
-0.378588
-0.459533
0.695783
0.538485
-0.170964
-0.409828
0.904857
0.401607
0.989288
0.424199
-0.622115
-0.793156
-0.769962
-0.499292
-0.657854
0.686963
0.914696
-0.939862
0.130753
-0.250405
-0.350798
-0.577243
0.251400
0.227137
0.622875
-0.052663
0.308567
0.359552
0.509214
-0.120956
-0.372320
-0.662449
0.721662
0.222878
-0.964968
0.956553
0.493106
-0.140638
-0.726769
-0.781471
-0.720509
-0.999853
0.185744
0.353464
-0.885927
0.507648
-0.218072
-0.348194
-0.437270
-0.952197
0.366677
0.011622
0.917643
0.382081
-0.635674
0.891220
0.055328
-0.179308
-0.561760
0.829688
0.402214
-0.588469
0.889835
-0.230184
-0.226368
-0.999327
0.606313
-0.246908
-0.123428
0.287041
-0.444658
0.316932
0.800282
0.977754
0.246385
-0.569737
0.348667
0.238144
-0.345874
-0.647158
0.733578
-0.702498
-0.829615
-0.189056
-0.298197
-0.426019
-0.041788
-0.375045
-0.901139
0.999593
-0.599234
0.126257
-0.089436
0.967504
-0.570546
-0.529700
0.928395
0.293719
-0.925003
-0.096444
0.764391
0.331408
-0.448814
-0.906263
-0.165970
-0.647475
-0.266185
0.701219
0.669622
0.558728
0.598159
-0.161888
0.500210
0.254578
-0.100881
-0.169334
0.556473
-0.875131
-0.713095
-0.213116
0.516334
0.611196
0.330581
0.809893
0.093637
0.137882
-0.126501
-0.601764
-0.682916
0.754112
-0.859506
-0.535287
-0.675237
-0.573626
-0.863873
-0.620411
-0.926134
-0.105229
0.869611
0.836730
-0.146581
0.455938
-0.463988
-0.217718
-0.458225
0.785608
-0.668732
-0.185338
-0.258268
0.434411
-0.268301
-0.028522
-0.676969
-0.725901
-0.052375
-0.957019
0.132739
-0.824124
0.275152
-0.179879
0.138978
0.027363
0.573950
-0.538553
0.958240
-0.655097
0.193467
0.692606
-0.838737
-0.129222
-0.347857
0.210559
0.308223
-0.844183
0.767586
-0.703734
0.825117
0.826215
-0.327801
-0.171512
0.390319
-0.904284
-0.382222
-0.275924
0.719688
-0.658186
0.191577
0.400763
-0.554235
-0.524347
-0.643298
0.661555
-0.846779
0.128996
-0.580598
-0.437093
0.776935
-0.009235
0.208474
-0.762101
0.745202
0.705331
0.034366
-0.650399
0.852571
0.885617
-0.788129
0.563050
0.470821
-0.910501
0.044494
-0.133651
-0.619820
0.293748
0.030603
-0.746336
-0.946191
-0.881811
0.550798
0.963184
-0.553175
-0.777830
0.968566
-0.742562
-0.128709
-0.512652
-0.526189
0.531444
-0.992357
-0.846049
-0.747130
-0.281052
-0.478009
0.077697
-0.592019
0.670802
0.962201
0.379477
-0.373915
0.284476
-0.757666
0.974601
-0.181672
-0.687066
0.321700
-0.931745
-0.228505
-0.885914
-0.658949
-0.604249
0.856076
0.901502
-0.168603
0.850622
0.694451
0.680424
-0.311894
-0.333850
0.649046
-0.557954
-0.987552
0.450450
-0.505968
-0.088437
0.924040
0.332128
0.846017
-0.472987
0.325943
0.263619
0.286531
-0.985761
0.427664
0.668830
-0.509308
-0.493692
0.887402
-0.140932
0.583684
-0.215588
0.743315
0.417343
0.379523
0.247815
0.767223
0.684531
-0.997084
0.680429
0.481396
0.561718
0.519962
-0.199763
0.683575
-0.339495
-0.585416
0.008797
0.443332
0.665003
-0.926538
-0.238461
0.507149
-0.704493
0.531401
-0.383895
-0.143488
0.626835
-0.531737
0.745516
-0.245417
-0.834475
-0.844746
0.007834
0.938318
0.231490
-0.400129
0.977125
0.896220
-0.050761
0.664059
0.819756
-0.679765
-0.894927
0.229608
-0.029862
0.985367
0.775865
0.239527
0.343575
-0.405851
-0.147187
-0.906421
-0.724794
0.725810
-0.659281
0.133914
-0.684261
-0.588583
-0.723890
0.999308
-0.451470
-0.466953
-0.716926
-0.899213
-0.597258
0.243405
-0.096703
0.364485
-0.554915
-0.965810
0.039885
-0.532721
-0.988914
0.281914
0.031332
0.788648
0.791826
0.418058
0.813716
-0.574152
-0.181698
0.045998
0.413987
0.620230
0.923709
-0.174322
-0.770770
0.999829
0.790377
0.008466
0.277670
0.721052
-0.022901
-0.165679
-0.385932
-0.925605
-0.853297
-0.466136
-0.903525
0.991333
0.976654
0.034297
0.120483
0.178866
-0.400452
0.076473
0.654976
-0.911834
0.841187
-0.000339
0.926250
0.338136
-0.064412
0.234577
-0.200122
0.251498
0.856755
-0.378107
0.275489
0.167591
0.703882
-0.289341
-0.445814
-0.304224
-0.468398
0.084459
0.866699
-0.214581
-0.878016
0.122873
0.503142
0.289263
0.265790
-0.103883
-0.350474
-0.075785
0.580590
0.590355
-0.638062
0.060341
0.826668
-0.569983
0.222263
-0.473391
0.332639
0.171634
0.149249
0.459317
0.625279
0.463234
-0.728944
-0.115035
-0.095929
0.402743
-0.614203
0.770038
-0.017052
0.853050
-0.011113
0.742371
0.778824
-0.800660
-0.866670
0.989208
-0.482474
0.392296
-0.972525
0.031067
-0.592545
-0.222945
0.455154
-0.463256
0.113936
-0.652959
0.765315
0.081376
-0.817962
-0.451756
0.709325
-0.270647
0.109131
0.872187
0.226298
0.523101
0.890148
0.951317
-0.510250
0.526286
0.030173
-0.690870
-0.936390
0.171641
-0.622198
-0.306125
-0.208170
0.361020
0.378062
0.561661
0.062260
0.733311
0.889251
0.412162
-0.056228
0.256021
-0.474095
0.876908
-0.622788
0.200257
-0.274782
-0.222275
0.447527
-0.030572
0.420475
0.581642
0.120597
0.275925
-0.138552
-0.785486
-0.200797
0.994428
0.461618
-0.546342
0.146954
-0.138991
-0.960565
-0.318850
0.015383
0.327296
-0.297755
-0.117119
-0.325281
-0.163162
0.430681
0.339163
0.188550
0.328047
-0.175714
-0.404682
-0.657624
0.317509
-0.810697
-0.124682
0.081947
0.332293
-0.609117
0.016724
-0.039039
0.337957
-0.193543
0.417359
-0.724619
0.793890
0.967400
0.277689
0.018154
0.922655
-0.451444
-0.349787
0.893404
0.857787
-0.876879
-0.774852
-0.963157
0.016964
-0.869592
0.995333
-0.581992
-0.126954
0.178540
-0.287090
-0.509710
-0.054023
-0.023946
-0.438468
0.578154
-0.104916
0.714097
0.528062
0.364022
-0.114290
0.939977
-0.561927
0.735767
0.033035
0.319208
0.175660
0.798773
0.199220
-0.913691
-0.880498
0.914878
-0.753159
-0.546960
0.064109
-0.536356
0.112660
-0.861531
-0.568966
-0.237269
-0.449717
-0.786415
-0.913111
0.797564
-0.646661
-0.078761
0.641782
-0.940320
0.428494
0.688161
-0.725478
-0.750019
-0.329543
-0.885291
-0.307267
0.492801
-0.501780
0.718456
0.875496
0.982536
-0.032945
-0.621009
0.827389
0.125092
-0.899482
-0.406529
0.953654
-0.392511
0.229574
0.007103
0.839070
0.315784
-0.861787
0.435890
-0.701017
0.993603
-0.219553
0.310117
0.830462
0.119534
0.415174
-0.550944
0.024709
-0.283970
0.334657
0.528422
-0.644786
0.877669
-0.207947
0.630516
-0.757692
-0.140656
0.051464
-0.353152
0.771364
-0.213732
0.280835
0.962734
-0.116035
-0.225906
0.513930
-0.080213
0.787558
-0.716758
0.974883
-0.304265
0.371359
0.404782
-0.020983
-0.655629
0.812615
-0.899454
0.796551
-0.239570
-0.465706
0.610660
0.898197
-0.033057
0.780952
-0.768972
0.108234
-0.944999
0.148484
0.568545
-0.499203
-0.677464
0.360336
0.399091
0.674392
-0.942189
-0.297416
-0.480154
0.932914
-0.896745
-0.317443
0.476427
-0.313249
-0.903080
-0.001841
-0.124179
-0.885780
0.590801
-0.737157
0.725803
-0.137169
-0.311947
0.270971
0.548240
0.219716
-0.665062
0.671609
-0.483989
0.842664
-0.895514
-0.238172
-0.989510
0.653985
0.987335
0.914656
-0.826616
-0.653128
0.489674
-0.857138
-0.295429
0.130300
-0.494797
0.509988
0.416921
-0.497658
-0.028872
0.170700
-0.597807
-0.412930
-0.568484
-0.981264
-0.196332
0.114360
0.964300
-0.757610
-0.723316
-0.611775
0.223827
0.642196
0.031393
-0.813633
0.964662
-0.696722
0.581643
0.246005
-0.564629
-0.724984
0.957204
-0.265466
0.291244
-0.771803
-0.561057
0.575243
0.292786
0.079971
0.068092
-0.621954
-0.009818
-0.636127
-0.850488
0.914125
-0.151547
0.915618
0.002896
0.088993
-0.324531
0.321238
-0.294884
0.510932
0.614220
0.952122
-0.996859
0.473840
0.168481
-0.349814
-0.932074
-0.733539
0.495323
0.674634
-0.463957
0.368113
0.859057
0.037271
0.345862
-0.389338
-0.560663
-0.618091
-0.251186
0.615917
-0.016138
-0.950582
0.505461
0.161731
-0.659921
-0.974752
-0.130120
-0.913932
0.036577
-0.077436
-0.489084
0.198780
0.290319
0.230052
0.125578
-0.097717
-0.316808
0.656818
0.947929
-0.674021
-0.111472
0.563696
-0.073421
0.462244
0.420658
0.957702
0.746657
-0.287633
0.334100
-0.991981
0.276628
-0.382921
-0.861009
-0.072664
-0.618921
0.293590
-0.188307
-0.694908
0.877059
0.967140
-0.993337
-0.490675
0.863802
0.660025
-0.370627
0.889633
-0.031242
0.700802
0.667819
0.770075
-0.219531
-0.357933
-0.346767
0.430510
-0.276236
-0.086981
0.528633
-0.417794
-0.186217
0.024351
-0.376744
-0.946430
-0.148571
-0.388386
0.345007
-0.409349
0.742611
-0.712999
-0.042867
0.485430
-0.438233
0.958665
0.879569
-0.956748
-0.628293
-0.089553
0.077495
-0.886795
-0.318130
-0.987570
-0.971889
0.793457
0.652936
-0.653076
0.661008
0.244902
0.113023
-0.343093
-0.926483
0.901674
-0.506348
-0.900340
-0.012343
0.824606
0.626610
-0.015753
-0.189118
-0.466764
0.451779
0.768503
-0.623679
0.466628
-0.922343
0.895590
0.999499
0.385855
-0.456338
-0.259916
-0.232587
-0.352570
-0.108152
0.127100
0.403555
-0.293196
0.254298
0.904634
-0.593728
0.666748
0.844709
-0.595318
0.391123
0.375038
-0.238786
-0.505039
-0.564393
-0.731187
-0.437141
-0.126083
-0.071523
-0.387194
-0.810149
-0.829138
0.737673
-0.188907
0.428691
0.636337
-0.035182
0.179755
-0.567254
0.810677
-0.664732
0.640007
0.050168
0.023636
0.448574
-0.741282
0.296492
-0.017158
0.198252
-0.617505
-0.666059
-0.029258
-0.099487
-0.296908
0.869443
-0.311979
0.464528
-0.260675
0.448716
0.463929
0.904781
-0.779718
0.130018
-0.874873
-0.809424
0.427716
0.083192
0.275483
-0.501447
-0.429225
-0.696980
-0.714215
0.440969
0.744114
-0.936845
-0.051195
0.448891
-0.975600
0.147823
0.044924
0.395588
0.841791
0.668539
0.603475
0.697284
0.954332
0.331291
-0.340299
-0.055001
-0.344124
-0.629036
-0.628579
0.199253
-0.638428
-0.069128
0.924690
-0.359012
-0.588142
-0.127653
-0.787958
-0.907906
-0.779917
-0.483949
-0.349983
-0.184914
-0.840343
0.902853
-0.610813
-0.521200
0.590093
0.555293
-0.005387
-0.795790
0.678055
0.732899
-0.161790
0.466314
-0.547344
-0.130433
0.419470
0.761421
0.927397
0.360326
-0.925528
0.885524
-0.532938
0.186821
-0.919706
0.375630
0.507941
-0.110112
0.940233
-0.911034
-0.560562
-0.787564
0.709639
0.473074
-0.306673
0.853386
-0.177111
-0.973012
0.563926
0.735353
-0.662725
-0.108512
-0.618969
0.916211
-0.100226
0.122828
-0.579372
-0.400959
0.685393
-0.279136
0.808988
0.957511
0.327326
0.612499
-0.375261
0.801749
-0.944668
0.647811
0.526853
-0.471223
0.781159
-0.916466
0.284980
-0.571716
0.669287
-0.511352
0.252361
0.355097
0.651668
-0.215900
-0.826287
-0.720821
-0.370190
0.322145
-0.884452
0.536201
-0.672747
0.119305
-0.845977
0.807260
-0.871893
0.131864
-0.443529
0.032230
0.565056
-0.325333
0.435566
-0.722717
-0.882416
0.350288
0.056216
-0.397490
-0.729466
0.516752
-0.623034
-0.302415
0.621674
-0.350221
0.597199
0.093176
0.731706
-0.329132
0.491108
-0.716812
-0.288653
0.482422
-0.542671
0.880323
-0.278471
-0.472368
0.246321
0.020633
0.548186
0.719422
-0.871478
-0.231208
-0.318012
0.213249
-0.107920
-0.097804
0.351082
-0.409108
-0.446945
-0.000549
0.547158
0.684329
0.716144
0.424612
-0.474387
0.037165
0.339837
-0.136145
-0.909140
0.966500
-0.568753
0.880096
-0.719445
-0.745306
0.617479
-0.055273
-0.852019
0.874511
-0.636284
0.225350
-0.804549
0.742088
-0.625711
-0.881465
-0.786411
0.928902
-0.269658
-0.987642
-0.953634
0.590480
0.770518
-0.941383
0.494352
-0.977815
0.372554
-0.972184
0.584553
-0.039429
-0.392667
0.284406
0.556843
0.694352
0.013375
-0.483041
0.969106
0.187169
0.237748
0.106708
0.210380
-0.340587
-0.721800
-0.905054
-0.870318
-0.966805
-0.585146
-0.389462
0.278706
-0.813651
0.312223
0.979058
0.154430
-0.819857
0.475573
0.744590
-0.189477
0.349572
-0.777109
-0.332781
-0.674891
-0.027129
-0.949386
0.729380
-0.864895
-0.475988
0.543262
-0.079790
-0.509176
-0.554722
-0.135328
0.553611
-0.443920
-0.196800
0.710229
0.691506
-0.802223
-0.422246
0.991262
-0.355708
0.847536
0.110447
0.114502
-0.475507
-0.024063
0.932965
0.430349
0.603408
0.001138
-0.694719
0.011944
-0.709287
-0.228920
-0.708269
-0.223052
-0.781169
0.547128
0.993950
-0.141324
-0.682248
0.684945
-0.979686
0.334253
-0.767887
-0.333809
-0.731284
-0.488875
-0.555937
-0.711948
-0.087581
-0.713061
-0.977565
-0.902244
-0.003257
0.176531
0.615824
-0.104390
-0.998547
0.828210
-0.444192
-0.285376
-0.277969
0.546281
-0.796133
-0.581002
-0.892992
0.743295
-0.042319
0.712659
-0.670371
-0.256963
0.213413
-0.369231
0.467434
0.976439
-0.657524
0.389608
0.014880
-0.244684
0.120845
0.807427
0.625429
0.023219
-0.026033
0.582683
-0.999070
-0.144306
0.396676
0.937041
0.306019
-0.091346
-0.269372
-0.611470
-0.244268
0.550126
0.825498
-0.369395
-0.862728
-0.742341
0.281057
0.368593
-0.182279
0.730273
0.523783
0.065702
0.960668
0.131472
-0.658798
0.377956
0.397302
-0.039974
0.802805
0.264194
0.444344
0.369593
0.276494
0.906000
0.814382
-0.502004
0.045551
0.289664
-0.023905
-0.877270
0.907160
0.227230
-0.335235
-0.851215
-0.797446
-0.739043
-0.324213
0.767655
-0.892224
-0.590571
-0.352113
-0.470763
0.391401
-0.287087
0.660716
-0.663378
0.681241
0.485129
0.051556
0.253937
-0.826916
0.119782
0.286816
-0.968284
0.763284
0.922459
0.828795
-0.376859
0.034647
-0.708333
-0.396363
-0.926228
0.274587
-0.057421
-0.902854
-0.937378
0.004817
-0.031291
0.122645
0.632673
-0.428688
-0.253547
0.685321
-0.973745
0.816137
0.976435
0.950651
0.359289
-0.066393
0.280156
0.349110
0.008645
0.700237
-0.494656
-0.132490
-0.912773
0.241228
-0.299711
-0.975725
0.757400
0.646916
0.396306
0.119096
-0.428089
-0.321955
-0.639004
-0.570545
0.576892
0.743220
0.563399
-0.283954
0.050693
-0.915626
0.626712
0.933713
-0.553917
0.521944
-0.495672
0.794892
0.081867
-0.924694
-0.066957
0.716275
-0.174209
0.079294
0.036836
-0.598072
-0.957678
0.842627
0.744720
-0.874607
0.142081
0.612015
-0.989348
-0.103235
0.098413
-0.845013
0.902030
0.542989
-0.199495
0.375071
-0.358473
0.667346
-0.955369
0.493235
-0.175968
0.535698
0.709428
-0.508982
0.225403
0.773781
-0.219431
0.299615
0.119529
-0.151644
0.726767
-0.259534
-0.032738
0.835164
-0.637939
0.630376
-0.913415
-0.171683
-0.593632
0.525654
0.399766
0.564993
0.090750
0.519896
0.655176
0.445911
-0.323814
0.496885
-0.700701
0.816365
0.305398
-0.303641
-0.363359
0.984788
0.674524
-0.347145
-0.381843
0.517229
0.908642
0.034877
0.011766
-0.728327
-0.442925
0.340204
0.560844
-0.022142
-0.177298
0.446935
-0.151514
-0.969970
-0.984859
0.662244
-0.021728
-0.987777
0.126941
0.333749
-0.479546
0.456902
0.779904
0.396934
-0.774104
0.557926
-0.316272
0.269909
0.464337
-0.375047
-0.335757
0.281122
0.593215
-0.143436
0.242698
-0.431971
-0.778285
-0.122722
-0.202188
0.756320
-0.272518
-0.293940
-0.553124
0.115024
0.240207
-0.641484
0.051943
0.356220
-0.205335
0.681550
-0.642546
-0.366575
0.773801
0.407672
0.708775
-0.517736
0.717291
0.251824
0.191056
0.695888
0.370988
-0.438369
-0.309890
0.660336
-0.006158
0.082857
0.949213
-0.385406
0.261087
0.867883
-0.537969
-0.266976
0.843032
-0.630603
-0.934142
-0.746370
-0.844092
-0.296581
0.246922
-0.086930
-0.157492
0.807582
0.487297
0.443173
-0.318094
0.886063
0.460153
0.608062
0.914087
0.271637
-0.058639
-0.892071
-0.412246
-0.213292
0.663612
-0.242340
0.302796
0.122926
-0.311386
-0.643818
0.829217
-0.480267
-0.894822
-0.265049
0.084986
0.205305
0.489484
-0.355629
-0.115861
0.848556
-0.201613
0.926705
0.499421
0.994206
-0.031153
-0.691989
-0.662872
-0.393117
-0.103100
0.968901
-0.860835
0.550758
-0.924177
-0.482006
0.772287
-0.598831
0.481002
-0.730901
0.448199
-0.263895
0.687415
-0.781950
-0.012104
-0.048794
0.144038
-0.207786
-0.024572
-0.598350
0.691054
0.211305
-0.377984
-0.918631
0.926398
-0.246536
-0.466743
-0.530815
0.366324
-0.755616
-0.270395
-0.722669
0.283847
0.424788
0.645277
0.488852
-0.067658
-0.298047
-0.314192
-0.677684
0.475218
0.256923
-0.768004
-0.960519
-0.625925
0.417248
0.531758
-0.548702
0.905071
0.077058
0.694221
0.878197
0.816149
0.292125
-0.302445
-0.771652
-0.678182
0.790922
0.141362
0.185073
-0.618842
0.373709
0.398117
-0.365079
-0.763201
0.016181
0.110205
-0.053000
0.822094
-0.576005
-0.391634
-0.924254
-0.789588
0.319137
0.078584
0.275933
-0.446426
-0.825396
0.303650
-0.403021
-0.314814
0.791796
-0.646192
0.784466
-0.364542
0.040239
-0.298150
0.401577
-0.641326
-0.405428
-0.440677
0.765837
-0.310536
0.154722
0.611980
-0.345630
0.822593
0.393448
-0.907215
0.447833
0.644062
0.696787
0.012735
0.347167
-0.966165
0.898118
0.015723
0.015733
0.128743
0.775932
-0.804947
0.724229
-0.442937
-0.064993
0.879785
0.707544
0.525913
-0.441270
0.489259
-0.975491
-0.862830
0.346701
-0.146205
0.957262
0.387354
-0.269521
0.999035
-0.449569
-0.757757
-0.542421
0.447579
0.479113
-0.510468
-0.571700
0.718437
-0.140173
-0.054059
0.327386
-0.608741
0.790703
-0.232667
-0.263549
0.661427
-0.902426
-0.640869
-0.315140
0.886432
0.006993
-0.722595
-0.596668
0.483086
0.266233
-0.554551
-0.506649
-0.436150
-0.005717
-0.086942
0.203206
0.371464
0.226624
-0.458609
-0.350231
-0.824235
-0.808489
-0.355952
0.961942
-0.482763
0.331087
-0.257197
0.981678
-0.724687
-0.839338
-0.799432
0.644092
0.712553
0.759305
0.394292
-0.060733
-0.772678
0.733907
-0.051632
0.189256
-0.989599
-0.597602
-0.495885
-0.696186
0.511141
-0.735275
0.490069
0.985074
0.426595
0.006092
-0.808871
-0.748864
-0.301931
-0.411864
-0.518660
-0.902269
0.006042
0.947453
0.384760
-0.998071
-0.193655
-0.602602
0.640972
0.229054
-0.668618
-0.275641
-0.269125
0.194267
0.307030
-0.073859
0.023336
0.332615
0.831710
0.755965
0.608761
-0.575848
-0.274460
-0.470134
-0.285676
0.410507
-0.864734
-0.224950
0.191485
0.893654
-0.079524
0.830131
-0.237308
0.823487
-0.329963
0.779765
-0.058980
0.533325
-0.982846
0.142065
-0.884641
0.968497
0.599036
-0.980022
0.225289
-0.438545
0.785791
-0.908390
-0.420504
0.022736
0.284593
-0.379938
-0.749959
-0.442919
0.355103
-0.594311
0.090017
-0.129652
-0.249369
-0.762493
-0.542436
0.158806
-0.389124
0.954858
0.197733
-0.904446
0.443210
-0.915684
-0.732299
0.168959
-0.415737
-0.077044
0.929971
0.126662
0.425548
0.565750
-0.873144
0.504712
0.349055
0.643854
0.909971
-0.720926
-0.856669
-0.821176
-0.873263
0.514596
0.366249
-0.856613
-0.872963
0.229620
0.961664
-0.684443
-0.613163
-0.841865
-0.198968
0.691146
-0.964016
-0.073648
-0.414335
0.904316
0.562184
-0.324017
0.422010
0.656164
-0.065923
0.799726
0.429777
-0.804888
-0.785617
0.479951
0.224498
-0.902671
-0.633027
-0.900922
-0.674650
-0.801476
-0.853790
-0.726472
-0.242610
-0.667615
0.500834
-0.388457
-0.468536
-0.888192
0.501365
-0.244234
-0.893168
-0.038113
0.940348
0.961774
0.354000
0.568852
0.592297
0.771331
0.165590
0.067958
0.971926
0.218337
-0.532411
0.814122
-0.921928
-0.033431
-0.270280
0.161024
-0.675332
-0.762536
0.471983
0.236437
0.213074
-0.624857
-0.354003
-0.435289
0.024338
0.100836
0.694296
-0.513771
-0.593408
0.007712
0.630040
0.665098
-0.812909
0.250538
0.967775
0.597429
0.386026
0.756046
0.658186
-0.160655
0.616349
-0.948537
0.190385
0.949684
-0.913265
0.765190
-0.404023
-0.015255
0.583511
-0.217626
0.161658
-0.377566
0.111557
0.948718
-0.785063
0.159090
-0.639684
0.064209
-0.170910
-0.143043
-0.346680
0.782513
0.051968
-0.708116
0.138570
-0.375954
-0.994024
-0.813321
-0.613082
-0.789835
-0.711317
-0.492069
-0.935255
-0.286583
-0.687819
0.715663
0.675281
0.684058
-0.411418
0.976165
0.480180
0.828871
0.640826
-0.856590
-0.278413
-0.745143
-0.795202
0.126934
0.942103
-0.011086
-0.483717
0.462323
-0.889971
-0.558612
0.959006
-0.122120
-0.366997
0.376046
0.331775
0.931809
0.107418
-0.003002
0.547805
0.801134
-0.757863
-0.407238
-0.477055
0.825941
0.712674
0.226145
-0.886334
0.624815
0.835307
-0.681690
-0.003738
0.836010
0.524592
-0.826844
0.390520
0.518118
-0.485582
-0.487708
0.880876
-0.334644
-0.578779
0.057388
0.366833
-0.178223
-0.459558
-0.836881
-0.893911
0.306891
-0.512310
-0.031553
0.663900
0.284671
0.268828
-0.993202
-0.273796
0.049019
-0.205404
0.207836
0.300368
0.271721
0.772548
-0.993115
0.035200
0.044719
0.746614
0.605419
0.914734
0.785947
0.464708
0.742491
-0.023034
0.124125
-0.145721
0.061732
0.739784
-0.525195
0.034862
0.715581
0.941550
-0.995598
-0.014373
-0.928038
-0.948005
-0.401174
-0.015201
-0.420377
0.849141
0.929434
-0.361879
0.008535
-0.466878
-0.584439
-0.780737
0.284930
0.194812
0.771781
-0.860419
0.467926
-0.683394
-0.095457
-0.114958
0.460348
-0.389884
0.174200
0.607393
0.771160
0.609840
-0.168716
-0.538562
-0.353770
-0.678526
0.026398
-0.220824
0.983882
0.964813
0.181069
0.041576
0.097308
-0.998433
0.365656
0.391073
0.529272
-0.396324
-0.851372
-0.760758
0.019886
-0.381130
0.329073
-0.804497
-0.813992
-0.628329
-0.546181
0.004670
-0.160503
-0.527701
-0.371420
0.798782
-0.715051
-0.587839
-0.287725
-0.248552
-0.726575
-0.772235
0.715228
-0.474236
-0.507995
0.220112
-0.626271
-0.928629
-0.161654
-0.453639
-0.165180
-0.847308
0.160512
0.771936
0.150287
0.367849
0.173785
-0.905343
-0.497006
0.755480
-0.030289
-0.152453
-0.605067
0.313586
-0.471580
0.665195
0.334903
-0.804137
0.703866
-0.675002
0.372493
-0.550827
-0.579796
-0.586503
-0.361325
-0.632214
-0.379434
-0.043200
0.786145
0.916900
-0.763650
-0.876427
0.831695
0.772248
0.753477
0.206182
-0.942129
0.321450
0.435015
0.622991
0.633173
0.734515
-0.882159
-0.932768
-0.201150
-0.303479
0.135543
-0.930867
-0.622742
-0.212093
-0.248228
-0.747809
-0.293696
0.264145
-0.460315
-0.337435
0.673333
0.566586
0.338319
0.958874
-0.384594
0.848438
-0.981053
-0.821990
0.472671
0.286642
0.482418
0.378078
0.238113
0.405319
-0.606437
-0.480962
0.452564
0.879360
-0.480471
0.092315
0.649262
0.274680
-0.830178
-0.226982
-0.794507
-0.512548
0.793104
-0.805269
0.744644
0.996756
-0.773540
-0.975603
0.470157
-0.401818
0.411297
0.345407
0.921886
-0.439264
0.570554
0.337539
0.168951
-0.541946
0.739864
0.940723
0.206601
-0.987114
0.310304
0.389035
0.839979
0.921812
-0.215915
-0.130523
0.997018
0.109084
-0.056665
-0.939010
-0.571567
-0.774478
0.109544
0.920404
-0.700745
-0.716171
0.033835
0.650383
-0.158491
-0.795071
0.075440
-0.885130
-0.482018
0.504970
0.466245
-0.235961
-0.970767
0.493757
-0.365973
-0.892100
-0.912608
0.033168
0.749060
-0.780802
-0.976750
0.394266
0.979644
-0.772001
-0.923139
-0.360212
-0.234414
0.380375
0.684772
0.368870
-0.555826
-0.904887
-0.801102
-0.455482
0.945395
0.466691
-0.570846
0.224866
-0.366216
-0.799711
-0.630936
0.463454
0.482170
-0.232108
-0.554518
0.769047
0.601353
0.179396
-0.989117
-0.379128
-0.804728
0.419782
0.312069
-0.335276
-0.553775
-0.740710
0.067601
-0.811509
0.626149
0.192584
-0.520977
-0.265945
-0.729887
-0.648235
-0.990245
0.382927
-0.009562
-0.505051
0.305634
-0.788857
-0.131488
0.088246
-0.340302
0.443793
-0.785724
-0.369739
0.217913
0.036158
0.585898
-0.374366
-0.837154
-0.638890
-0.964634
0.290760
-0.325018
0.621140
-0.263653
0.872711
-0.021658
0.299990
0.618126
0.347908
0.877258
0.563673
0.686319
-0.325952
-0.794547
-0.182955
0.883046
-0.514465
0.733458
-0.730754
0.263397
-0.499656
0.849598
-0.488765
0.938069
-0.065286
0.643597
0.825598
0.559951
-0.122098
0.051893
-0.696868
0.547949
-0.280230
0.654822
-0.607806
-0.113295
-0.606176
-0.236119
-0.943646
-0.669767
0.347865
0.170678
0.378640
-0.679699
0.670200
0.032800
0.838217
0.328775
0.953826
0.342705
0.575109
-0.183747
0.764236
0.623802
0.899432
0.866324
0.066076
0.404374
-0.628682
0.323016
-0.162353
0.542911
-0.601774
-0.121539
-0.417504
0.949330
-0.996081
-0.900606
0.893049
0.904415
0.944879
0.282419
0.361735
0.819126
0.794024
-0.889479
-0.649941
0.395878
-0.745695
-0.405442
0.525814
0.831634
0.564591
0.468217
-0.582711
-0.570147
-0.287295
0.745237
-0.048602
0.254139
-0.640689
-0.401709
-0.399571
0.764267
-0.856767
-0.515514
-0.619170
0.081550
-0.642434
-0.426261
-0.973240
-0.420191
-0.349626
-0.363431
-0.301775
-0.609639
-0.516045
-0.453059
0.021890
-0.297247
0.968127
0.928865
-0.828886
0.626496
-0.631168
-0.023903
0.072405
0.748727
0.804582
0.915668
-0.702300
0.519546
-0.650106
-0.418006
-0.784354
-0.255962
0.209462
0.853709
0.814762
-0.657619
0.391169
-0.499167
-0.034038
-0.820056
-0.030455
-0.270630
0.680661
0.635313
0.837999
0.374435
-0.438860
-0.734034
-0.027408
-0.943898
0.530360
0.199124
0.663788
0.091760
-0.914495
-0.874841
-0.230661
0.694891
-0.100076
0.828067
0.569446
0.250455
-0.577564
-0.252332
-0.606904
-0.276267
-0.347438
0.212719
0.269266
0.292520
0.497477
0.358638
-0.991392
0.097931
0.228653
-0.464574
0.708176
-0.659760
0.099491
-0.928995
0.468911
0.028358
0.151007
-0.121481
-0.361408
-0.860067
0.495612
0.101192
0.068310
0.682640
0.132619
-0.098045
0.777046
0.689236
-0.626878
0.684706
0.274112
-0.115777
-0.919634
-0.309577
-0.841023
0.228115
-0.454908
-0.321391
-0.853129
0.012946
-0.077779
-0.098507
0.469197
-0.560382
-0.949929
0.896162
0.521032
-0.542934
-0.959953
0.727150
-0.330145
-0.068529
-0.674887
-0.758552
0.289875
0.326898
-0.396324
0.087259
-0.491855
0.391416
0.539050
-0.070509
0.786568
0.152200
0.497380
-0.381577
-0.080042
0.038586
-0.381430
-0.957024
0.373833
-0.672070
0.536436
-0.029404
-0.757329
-0.324889
0.825698
-0.976788
0.762202
0.926901
0.687449
-0.435836
0.633306
-0.392967
0.968316
0.388539
-0.210386
-0.342741
-0.101753
-0.634597
-0.257235
0.487594
0.945900
-0.193503
0.368795
-0.126178
-0.612622
-0.969991
-0.216556
0.007016
-0.711248
0.388126
-0.215776
0.892994
0.573622
-0.882341
0.764154
-0.186988
0.775817
0.389884
-0.341793
-0.948316
0.743435
-0.865611
0.905541
0.710353
-0.383066
-0.666226
-0.300842
0.276823
0.928396
-0.387621
0.518103
0.207374
-0.414916
-0.834693
-0.751690
0.471441
-0.009014
0.235731
-0.996298
-0.225216
-0.477423
0.488039
0.626959
-0.825537
0.233261
-0.886228
0.434883
0.959060
-0.408560
-0.247573
-0.586795
0.966499
0.366485
0.939871
-0.218503
-0.703908
-0.451502
-0.406754
-0.031233
0.612368
0.830314
-0.290119
-0.561717
0.052259
0.134600
0.648579
0.250418
0.547826
-0.426245
-0.759211
-0.826445
0.411867
0.209092
-0.390082
-0.568632
0.600500
-0.066346
-0.488745
0.316297
0.590360
0.958321
0.963101
-0.966837
0.160439
-0.790941
0.224428
0.839392
0.749892
-0.508965
-0.558247
-0.629267
-0.392910
0.540491
0.843243
-0.141987
0.743631
-0.445337
0.642823
0.273520
0.274358
-0.577857
0.616311
-0.696944
-0.931110
-0.087782
0.136979
0.168724
-0.719868
0.216252
0.228991
0.842358
0.358575
0.382346
0.908880
-0.697568
0.445570
0.238626
0.565513
-0.312981
-0.553429
-0.179429
-0.583189
-0.125070
-0.877717
0.888364
0.481431
-0.377861
0.229982
0.927979
0.580189
0.705763
-0.947646
0.446446
-0.517112
0.122479
0.087491
-0.001485
-0.729490
-0.388291
-0.066897
-0.868044
-0.697494
0.380976
-0.857553
-0.813207
-0.704940
-0.787814
-0.333408
0.797228
-0.975315
0.441243
-0.216204
0.391319
0.888919
0.730859
0.986042
-0.265768
-0.755265
0.579863
-0.940723
-0.775109
0.726409
0.336270
-0.217305
0.987016
0.373390
0.115222
0.829188
-0.095787
0.019292
0.249962
-0.440063
0.770177
-0.609176
0.800395
0.046384
0.202784
-0.619791
-0.004898
0.224647
-0.842634
-0.493950
0.024849
-0.625515
0.039961
0.453308
-0.070936
-0.486114
-0.511977
0.593189
-0.970606
0.010342
-0.014349
-0.806923
-0.881590
0.694789
0.841804
-0.623539
0.453350
-0.215117
0.601586
0.084370
-0.665440
0.621868
0.315139
-0.183839
-0.812509
-0.848910
-0.500517
-0.364692
0.526048
-0.310767
-0.526610
0.913060
-0.372293
-0.545219
0.023070
-0.793768
0.615067
0.712338
0.586834
-0.727906
0.744030
0.275915
0.429323
-0.082350
0.250633
0.610078
-0.827150
0.643599
0.720072
0.507751
-0.064435
-0.961699
0.306063
-0.960161
-0.645384
0.702522
-0.779281
0.479291
0.645124
0.304561
0.779714
0.380278
0.174849
0.451888
-0.573351
0.404917
-0.596782
-0.818640
-0.293913
0.348893
-0.626145
-0.354534
0.644300
0.613063
0.367550
-0.446013
0.357792
0.964658
-0.810575
-0.518488
0.354118
0.216339
-0.269810
-0.654948
-0.418979
-0.192040
-0.899348
-0.255873
0.918487
0.817182
-0.079135
0.046832
-0.856999
-0.714409
0.076276
0.906698
-0.190963
0.004252
0.196957
-0.677996
-0.491150
0.412270
0.387478
-0.780635
0.640808
-0.723781
0.603154
0.676770
0.516064
-0.995396
0.982166
-0.569994
-0.849675
0.199139
0.888694
-0.015035
-0.450337
-0.623071
0.818683
-0.109932
-0.672766
-0.746221
0.243712
0.556387
-0.246437
0.234986
0.348998
0.297773
-0.533955
0.903297
0.508689
0.607320
-0.866879
-0.401167
0.325309
0.596519
0.702344
0.443087
-0.279707
0.579216
0.395860
0.434252
-0.197674
-0.905227
-0.256517
0.924118
-0.568498
0.060007
-0.432928
0.447264
-0.872014
-0.524921
-0.356187
-0.935222
0.123407
0.869429
-0.874430
0.942947
-0.475887
0.629065
-0.097265
-0.853067
-0.518413
-0.353015
0.889400
-0.775565
-0.417896
0.724841
-0.154865
0.529628
0.141898
-0.619564
-0.002602
-0.474611
0.004419
0.145844
-0.894809
-0.665928
-0.304423
-0.724319
-0.164492
0.293252
-0.105712
-0.412362
0.367843
-0.813851
0.729865
-0.906447
0.905038
0.598346
0.564902
0.331049
0.420612
0.345669
-0.952758
0.150534
-0.695732
-0.802653
-0.157885
0.504438
0.808853
-0.735988
0.703085
-0.910234
0.283064
-0.828646
0.310354
-0.563215
-0.311558
-0.099325
-0.475192
-0.201881
0.818631
-0.955227
-0.126511
-0.884731
-0.309424
0.892966
0.666824
-0.853374
-0.493665
-0.018406
0.776061
0.447624
-0.341854
-0.520597
0.689406
0.441810
0.796852
-0.049485
0.667950
0.563142
0.113546
0.480111
0.619348
-0.097272
-0.708795
0.065949
-0.627497
-0.897600
-0.245501
-0.142680
0.267835
-0.894613
0.166047
0.144703
-0.131567
0.626999
-0.499334
0.061244
0.535529
-0.210461
-0.312806
0.434987
-0.264634
0.765792
0.411878
-0.413612
-0.243542
0.640380
0.607694
-0.344589
0.141032
-0.623369
-0.067742
-0.033449
-0.055439
-0.791656
-0.510534
0.367486
-0.091168
-0.275990
0.125604
0.570530
-0.239578
-0.378873
0.167393
-0.514416
0.883666
-0.725658
-0.457080
-0.248872
-0.475583
0.240203
0.934352
-0.288757
-0.557217
0.316094
-0.427057
-0.095283
-0.435960
0.819135
-0.607098
0.532639
0.027337
-0.746421
0.193918
-0.701616
-0.366191
-0.490199
-0.482273
-0.338754
0.592057
0.526061
0.596169
0.629114
-0.692309
-0.455664
-0.847810
-0.876924
-0.026127
0.349479
0.440184
-0.653666
-0.031196
0.436164
-0.521392
-0.032574
0.578551
-0.006113
0.793898
-0.797050
-0.401649
0.956536
0.346321
0.974840
-0.883941
0.045519
0.989999
0.331066
-0.309746
0.100603
0.625300
0.833640
-0.753853
-0.457662
-0.710075
-0.718079
0.212334
-0.497239
-0.497223
-0.060343
0.693492
-0.744017
-0.564863
0.841705
0.910548
-0.837864
0.394815
0.344818
-0.360625
-0.367893
0.302192
0.370206
0.570115
-0.381607
-0.355626
-0.013917
0.858389
0.295670
-0.755159
-0.971367
-0.442583
0.137189
-0.495868
0.661887
-0.964840
0.835603
-0.230780
-0.744711
-0.455989
0.496524
-0.001431
-0.497440
0.704221
0.572950
-0.102143
0.861362
-0.851258
0.556993
0.367791
-0.796387
0.165406
0.302731
-0.940262
0.876780
-0.160383
0.944291
0.309867
0.645493
-0.838125
-0.135989
0.156872
-0.323159
0.719006
-0.350834
-0.112077
0.173310
-0.747145
0.872012
-0.815990
-0.263346
0.541397
0.039686
0.896828
-0.804645
-0.126850
0.872054
0.922297
-0.990031
-0.880515
0.764345
0.553887
0.145367
-0.909422
0.057109
0.063861
-0.822607
-0.154831
-0.498519
0.963026
-0.943430
0.152836
0.786811
-0.631703
-0.716662
0.179048
0.963118
-0.302531
0.305890
0.697156
-0.349073
-0.653899
-0.508664
-0.861552
0.088905
0.970388
0.104615
-0.046416
0.385930
0.810444
0.027077
0.506889
-0.852017
-0.686379
-0.077269
0.705012
0.775413
-0.948609
-0.399710
-0.385988
0.425126
-0.259498
-0.313733
0.820046
-0.237824
0.282093
0.473172
-0.479432
0.270103
-0.824492
0.774674
-0.143481
0.176411
0.884732
0.158788
0.307803
-0.525276
0.228694
-0.052986
-0.193911
0.160329
0.018585
-0.779849
-0.854040
0.131856
0.029623
0.499822
-0.004546
0.928063
0.281495
0.201871
-0.941991
0.134777
-0.413836
-0.148867
-0.936236
0.317852
-0.906015
-0.925729
-0.424429
-0.133880
0.681842
0.135771
-0.238703
-0.204529
-0.901035
-0.987080
-0.086068
-0.777063
0.452739
0.170900
-0.049053
-0.223137
0.171712
0.044471
0.204853
0.547464
-0.191461
0.125221
-0.803627
0.115082
-0.762278
-0.941987
0.616054
-0.069761
0.090511
-0.682862
0.892804
0.338445
-0.544743
-0.093352
-0.083775
-0.228559
-0.013646
-0.685082
-0.406954
-0.094880
0.833603
0.525906
0.447977
0.113658
-0.316376
0.453271
-0.518769
0.480147
0.738170
-0.050233
0.008104
-0.694051
-0.744777
-0.441528
-0.349612
-0.951074
0.845173
-0.536985
-0.419511
-0.881111
-0.410354
-0.999736
0.590947
-0.990217
-0.477208
0.661978
0.353944
0.119819
0.453342
0.618681
0.880648
-0.276145
0.730929
0.958666
-0.325523
0.699332
-0.329472
0.579278
-0.371352
-0.692303
0.675103
-0.330071
0.628595
-0.088368
0.701420
0.065486
-0.836065
-0.588535
-0.991084
0.608635
-0.482263
-0.952310
0.581851
-0.939129
-0.694363
-0.898012
0.947976
-0.411101
-0.825982
-0.455370
0.449749
-0.986334
0.022120
0.232810
-0.113642
-0.935813
-0.408206
-0.393074
-0.875197
0.351313
0.246956
-0.873632
-0.367707
-0.627622
0.403152
-0.414169
0.567305
0.999154
-0.631021
-0.337021
-0.263526
-0.528992
0.134874
0.210826
-0.966873
-0.282800
0.639451
-0.507925
-0.525865
0.396644
0.940395
0.450363
-0.126223
-0.147261
-0.380035
0.779387
0.819646
-0.015257
0.529161
0.469609
-0.842437
0.341571
0.302229
-0.435926
-0.403005
0.382868
0.957939
0.259206
0.203382
0.691510
0.609088
0.314885
-0.392319
-0.647083
0.053155
0.474024
0.842233
0.952006
-0.154617
-0.568340
0.424708
-0.033802
0.123184
0.879254
0.503693
0.017862
0.036073
0.704834
-0.013609
-0.390702
0.813057
-0.167469
-0.799405
0.294645
-0.301392
-0.399606
-0.430493
0.673296
0.565830
-0.238996
-0.061186
-0.266354
0.105176
-0.366186
0.526273
0.409594
0.829585
0.661433
0.274449
0.357835
-0.458340
-0.571402
0.894701
-0.340634
0.386329
-0.231245
0.614297
-0.653611
-0.906360
-0.371183
0.215382
0.593368
-0.161708
-0.271004
0.825280
-0.813888
-0.028694
-0.345311
-0.626619
-0.726393
-0.090422
0.668585
-0.115292
0.064823
-0.010475
0.719162
-0.943967
0.262436
-0.311915
0.561411
0.917353
0.759523
0.939487
0.644577
0.994768
0.113942
-0.434248
0.399210
0.994639
-0.529799
0.654162
0.751215
-0.121342
0.843791
0.774567
0.890211
-0.218269
-0.611186
0.341452
-0.163182
0.128536
-0.592871
0.012141
-0.459942
0.203658
0.296075
0.930902
0.521872
0.281941
-0.704535
0.929474
0.515565
0.858823
-0.102476
-0.750365
0.782140
-0.339384
0.883470
0.313734
0.283355
0.880944
0.794252
-0.516647
0.619071
0.520242
0.142983
0.724409
0.066382
-0.037704
-0.215620
0.378125
-0.110341
0.373854
0.072995
-0.704409
-0.587343
-0.685732
0.047345
-0.821967
0.816184
-0.040343
-0.950310
0.330122
-0.487113
0.040033
-0.282464
0.686622
0.220060
0.422103
0.205983
-0.707229
0.951043
0.612996
-0.745944
-0.970667
-0.576788
0.050177
0.840838
-0.023202
-0.486188
-0.309440
-0.537699
-0.932536
-0.155482
-0.346611
-0.614025
-0.304784
-0.084933
-0.250185
-0.446879
-0.315444
0.274760
0.428809
0.869986
-0.280740
-0.598645
0.177559
-0.700017
-0.144846
-0.887474
-0.354583
-0.461344
-0.234215
-0.321907
-0.257895
-0.367301
0.464977
0.275218
0.679646
0.005174
-0.224524
0.917321
-0.021118
-0.502349
0.139454
-0.569341
0.915769
-0.233881
-0.859902
0.148370
-0.362107
-0.674805
-0.161874
0.796282
0.517794
-0.008636
0.747609
0.712302
-0.953447
-0.540571
-0.383568
-0.252147
-0.282860
0.043345
0.662840
-0.726905
0.313307
0.537100
-0.616811
-0.716400
0.424278
0.619006
0.178727
-0.507937
0.751657
0.477830
0.540370
0.175649
0.708531
-0.194227
-0.522244
-0.964844
0.482128
0.481444
0.380519
-0.893710
-0.843710
0.195912
0.347973
-0.875454
0.886171
-0.829826
-0.428477
0.981876
-0.645061
0.565848
-0.994536
0.422419
0.922216
-0.640707
-0.972094
-0.580361
-0.408979
-0.728861
-0.059077
0.288040
0.323802
0.613928
0.223586
-0.800070
0.528017
0.060535
-0.875003
0.299762
0.318312
0.277559
-0.723546
-0.068438
0.048756
-0.562476
0.958932
-0.653975
0.576406
0.102661
0.482163
0.817340
-0.597795
0.431072
0.921689
-0.801041
0.582361
-0.154252
0.595295
-0.359287
-0.087748
-0.420162
0.458268
-0.522863
0.809812
0.657981
0.438764
-0.551194
0.881950
-0.055634
-0.824876
-0.846320
-0.943433
0.375920
0.769959
0.203990
0.503263
-0.800053
-0.000029
0.018785
0.430875
0.590219
-0.606835
-0.047939
-0.633983
0.341576
0.891736
0.939018
0.513163
0.447656
-0.882760
0.757650
-0.758909
0.757441
0.851912
0.384785
-0.719128
-0.690478
0.881420
0.044819
0.707771
0.965065
-0.108110
0.699125
0.914855
0.398873
0.273402
0.123981
-0.955241
-0.428828
0.517906
-0.246668
0.544431
0.164187
0.820303
0.465344
0.533851
-0.737241
-0.185890
0.290081
-0.868997
-0.106607
0.938156
0.479600
-0.406344
0.414334
-0.633927
-0.868211
0.232174
0.477555
0.818230
-0.374168
-0.980586
-0.765660
-0.074256
0.326413
0.295098
-0.076954
0.754418
-0.265757
-0.851525
-0.901934
-0.442514
-0.740946
-0.418589
-0.016994
0.374423
0.517177
-0.299775
-0.552603
0.368448
0.380084
-0.432742
0.823332
-0.927223
-0.593920
0.439704
0.843875
-0.632913
-0.617183
0.741345
-0.985418
0.180767
0.399551
-0.788489
0.488624
-0.491807
0.758294
0.752435
0.674508
0.614686
-0.587660
0.539405
0.522920
-0.050841
0.110696
0.890636
0.730694
-0.530409
-0.624084
0.126208
-0.588372
0.905530
0.516102
0.525428
-0.996754
0.923751
0.904291
0.163762
0.716437
-0.026014
-0.309401
-0.137107
0.779577
0.482092
0.186846
-0.885660
0.863818
-0.262872
0.520121
-0.599885
-0.525768
-0.026026
0.438176
-0.171970
0.914929
0.134532
-0.294695
0.748960
0.252115
-0.415298
0.504455
-0.983199
0.429725
0.404193
0.963025
0.299210
-0.074276
0.386577
0.939297
-0.917381
-0.855683
-0.568207
-0.009470
0.148118
0.113349
0.536573
-0.032407
0.041257
-0.057564
-0.317885
0.468910
0.893476
-0.782887
0.890620
-0.690846
0.806552
-0.116938
-0.677421
-0.783824
0.518277
0.572897
-0.057732
-0.882517
-0.942262
0.890673
0.051668
-0.908348
-0.795866
-0.968986
0.837066
-0.796768
-0.074490
0.981102
-0.398433
0.382506
0.525491
0.090377
0.173115
0.760600
0.536019
0.584976
0.813752
-0.060632
0.187585
-0.887895
-0.840635
-0.667829
0.270495
-0.234993
-0.931169
0.839202
0.922671
0.960313
0.307334
-0.483985
0.303440
0.458128
0.394739
-0.032837
0.107700
-0.513394
0.722866
-0.356614
-0.940380
0.156919
-0.022301
-0.138712
-0.538779
-0.433318
-0.158647
0.806973
-0.030764
0.420791
0.688403
0.773312
0.947247
-0.975433
0.935036
0.684704
0.766171
0.173759
0.886065
-0.950725
0.133120
-0.988068
-0.123076
0.237264
0.263520
-0.556096
0.550826
-0.262848
-0.819342
-0.876201
0.970839
0.450242
-0.589337
0.024145
-0.651359
0.251800
0.419418
-0.597982
0.389732
0.705658
-0.578956
0.722618
-0.732622
-0.756516
-0.093662
0.872630
-0.722241
0.053522
0.380582
-0.360348
0.403953
-0.461853
-0.901842
0.498108
0.638133
0.018570
-0.704706
0.150097
-0.317307
0.290799
0.764664
0.076702
-0.431281
0.729848
0.821201
-0.600071
0.339397
-0.248197
-0.939497
-0.965233
-0.769030
-0.481593
-0.511028
-0.991930
-0.052060
0.103434
-0.182158
-0.575459
-0.588411
-0.140024
0.278202
0.204691
0.196996
-0.088598
-0.382471
-0.955746
-0.657503
0.231965
0.307938
-0.533548
-0.336019
-0.681655
-0.831203
-0.838994
0.502773
0.687001
-0.343199
0.276425
0.717830
0.807281
-0.314480
-0.075584
-0.330087
0.515206
0.199269
-0.061191
0.927284
-0.249458
0.647477
-0.293657
-0.299510
0.119544
0.326923
-0.556370
0.438719
0.616352
0.822751
-0.918145
-0.443199
-0.451968
0.266961
-0.206536
0.111061
0.953229
-0.587938
-0.079524
0.403078
-0.508854
-0.325338
0.460885
0.275510
-0.840816
-0.861465
-0.452614
-0.450624
-0.453147
0.819260
-0.726315
-0.052968
-0.437618
-0.869908
0.869085
-0.439445
-0.770027
-0.873137
0.446496
-0.927433
-0.688875
-0.612240
-0.076422
0.737397
0.386018
-0.714155
0.419575
-0.396679
0.364104
-0.131318
0.022980
-0.437516
0.663836
-0.937826
-0.891550
0.995923
0.062549
-0.249547
-0.484788
-0.390925
0.713004
0.111781
0.166118
-0.777998
0.642763
-0.146596
-0.044205
0.786926
0.467765
-0.395585
0.500089
-0.289416
-0.045811
-0.442747
-0.788872
-0.234040
-0.919586
-0.814358
-0.211058
0.523899
-0.186775
0.980851
0.500582
0.444131
0.412137
-0.314100
0.499610
-0.494451
-0.387158
0.962473
-0.980179
0.980623
-0.096379
-0.039235
-0.779942
0.096504
0.485649
0.970302
-0.006039
-0.158894
0.895656
-0.013314
0.202700
-0.256291
0.900051
-0.865669
-0.127247
-0.492813
0.645328
-0.628956
-0.365398
-0.894706
0.072361
-0.545265
0.516918
0.770689
0.240972
0.933713
-0.258127
0.362430
0.923594
0.935502
0.078816
