-0.000000
0.935362
-0.721843
-0.599420
-0.969228
-0.054374
-0.456152
-0.436187
0.547235
-0.750068
0.413736
-0.183012
-0.836429
-0.310658
0.442207
-0.774875
-0.175021
-0.485626
0.011276
0.017407
-0.630826
0.386331
0.901610
0.890321
-0.124097
-0.058037
-0.651400
0.604747
0.589670
-0.359663
0.913541
-0.529921
-0.424301
-0.808302
-0.129341
-0.393529
0.137324
0.414507
0.170283
-0.315441
0.664439
-0.415980
0.501547
0.828010
0.273362
-0.056246
-0.946865
-0.901659
0.458128
0.064411
0.115748
0.827302
-0.549258
0.017358
0.717623
0.326645
0.959321
-0.933776
-0.068608
0.548991
-0.293440
-0.155067
-0.980930
0.282259
0.036631
-0.110271
0.888730
-0.826045
-0.695764
0.059013
-0.141486
0.968675
0.643033
-0.639939
0.796685
-0.083605
0.303815
0.849820
0.014736
-0.238057
-0.085769
-0.869516
-0.410754
0.364973
0.147842
-0.693131
-0.308382
0.107163
-0.626907
0.623010
-0.343846
0.079653
-0.532057
-0.324776
-0.638088
0.504574
0.564953
-0.749358
0.678529
0.869190
0.309655
-0.462956
0.837865
-0.047312
-0.102895
0.634550
0.869083
-0.799080
0.484370
-0.116181
-0.037137
-0.601399
0.014303
0.552109
0.763574
-0.837856
0.858978
-0.544808
0.269307
-0.767929
-0.921798
0.925461
0.311724
-0.453856
-0.399315
0.673636
-0.949282
-0.834361
0.924278
0.729248
-0.965172
0.233932
-0.733709
0.872693
-0.813380
0.163396
0.507243
-0.944297
0.364316
-0.008388
-0.060478
-0.672820
0.390213
0.953825
0.879289
0.153788
-0.884031
0.738267
0.608980
0.385276
0.970338
0.687182
0.310737
0.282062
-0.766674
0.911422
-0.044301
-0.715956
-0.922939
-0.120024
-0.986708
-0.888111
