1.644133
1.226921
0.497594
-0.055081
0.973230
1.574765
0.049858
0.564652
1.261563
-0.965792
-0.200425
0.141738
1.686097
-0.000053
1.675614
0.518637
1.027001
-0.639248
0.710882
1.448807
0.449740
1.622994
0.815865
0.413381
0.480790
0.546408
0.120701
1.068576
0.171627
1.138322
0.976263
0.616920
0.538974
0.119460
1.595511
1.089253
-0.034386
1.694950
1.032823
-0.110280
1.190644
1.136417
0.155683
-0.838693
0.492698
1.013830
1.603852
0.564530
0.010549
1.293706
-0.141368
0.392981
0.152404
0.440932
0.880208
0.065819
-0.206447
0.853564
0.784793
0.766847
0.130941
-0.070340
0.642982
1.634535
0.831481
0.320083
0.797342
1.698954
0.609312
0.348259
1.357773
0.212600
0.446982
0.851516
0.067474
-0.803166
1.303866
0.452838
0.027446
-0.125447
1.697434
0.367548
1.231452
-0.219539
0.052462
0.020422
0.323782
1.391982
-0.204561
1.089686
-0.051411
0.459744
-0.795601
-0.204455
-0.540330
-0.064660
0.758667
0.450275
0.311561
-0.472522
0.222598
0.331656
-0.178419
0.256542
-0.148462
0.356436
0.857991
-0.205250
-0.179858
-0.032694
0.703761
1.613657
-0.109967
-1.034592
1.398022
0.822063
-0.155414
1.036706
0.094776
0.081049
1.044124
1.517299
1.581583
0.630552
2.391106
-0.487670
0.522207
1.429853
0.614498
2.371790
0.666447
1.014333
1.754598
0.480271
1.586381
2.184583
0.703729
2.395427
1.633313
-0.031139
2.078876
1.873379
0.798043
2.872685
1.800029
0.655611
1.063721
-0.456108
0.537484
1.320879
0.098980
0.687455
1.155831
2.229864
1.581777
1.554540
1.093596
2.233525
0.875881
1.332518
1.698080
-1.117091
-0.188979
0.163017
0.467858
2.229375
1.794804
1.066945
0.531107
-0.691393
1.347009
1.297748
-0.161591
1.069867
2.034532
1.157040
-0.732428
-0.752718
0.391844
-1.026083
0.542245
0.822717
1.491372
0.652128
2.101633
1.788881
0.970347
1.059322
1.808544
0.930698
1.547343
0.255269
0.886925
0.651006
-0.361615
0.469420
2.420265
-0.990092
1.591599
1.095294
2.411880
1.648010
0.627654
1.208296
0.618649
-0.380415
1.344635
1.485134
0.384686
1.425976
-1.159287
-0.678951
0.205241
0.403772
-0.303691
0.566709
-0.638121
0.790968
1.213119
0.939627
1.393603
-0.378590
2.042073
1.520145
1.764345
1.851463
1.783860
-0.189868
2.315848
1.186494
0.238597
1.532118
-1.252711
2.165037
1.406343
1.882267
1.337980
2.090769
-1.055935
1.171178
0.645560
0.962256
2.118287
0.814496
0.417860
0.615208
2.348580
-0.538938
0.961537
1.072249
1.587241
0.722570
-0.204995
1.160855
1.381591
0.236611
0.573324
1.816896
0.277640
2.506451
0.816428
0.856698
1.544762
-1.234392
1.434237
0.751686
-0.523873
0.665971
0.671498
-0.559877
1.484390
1.210212
1.042556
0.612042
-0.083761
1.048507
0.796373
-0.944283
2.085592
0.743485
-0.857877
0.405700
-0.287657
0.156622
-1.210427
-0.694654
0.774008
1.464460
0.969384
2.291584
2.336828
-0.914401
1.074233
1.172217
2.432783
1.456299
-0.848382
-0.952313
0.182754
0.223273
1.170042
2.324927
0.018387
1.649453
0.996585
1.816923
1.864018
0.838880
0.942172
0.935896
-0.034361
0.860061
2.026860
0.421591
0.700930
2.204893
0.045808
-0.334989
-0.642813
2.524681
0.742464
-0.848868
1.016712
1.286008
-0.041707
1.710044
1.568512
0.412546
1.332721
1.206921
0.258166
-1.148249
0.136414
0.085519
0.580236
-0.937699
0.771715
1.645651
-0.375862
1.065051
2.181576
2.460021
0.797767
2.377728
0.898185
1.388409
-0.143983
1.178152
1.286570
-0.358794
-0.510399
-0.333898
0.795437
2.110510
2.008498
0.879520
1.742726
0.111378
0.829714
1.836779
1.287793
2.005875
-0.699361
1.664048
1.862732
2.405245
0.747316
2.502819
1.818598
0.567845
1.208110
1.329691
0.099102
0.861577
2.076774
2.108356
0.722666
1.042263
0.782852
1.596964
-0.886965
2.420725
0.784795
-0.008103
1.060994
1.078755
0.954523
2.839788
2.204470
1.414226
1.850544
0.467390
2.612771
1.442132
0.556682
1.328405
2.085402
0.641849
1.772652
2.516897
2.167727
0.725316
-0.287995
0.734694
0.895704
0.568012
-0.621132
2.005403
0.773085
1.397828
1.402514
2.247387
2.399116
0.121011
2.242040
1.840418
-0.825218
0.848681
-0.771322
-0.697355
-0.771793
-0.081806
-0.173394
-0.526363
-0.824843
1.619524
0.872968
0.471558
2.018238
2.087870
1.109232
1.164874
2.073994
1.042559
1.678280
0.200024
2.398120
1.146250
0.365122
1.617816
1.892299
1.255429
2.525539
1.660733
2.482861
0.901269
-0.129791
2.258132
0.855961
0.579591
1.829157
0.047471
0.888940
1.800933
-0.733240
0.593958
-0.082187
0.156474
-1.005366
-1.301664
-0.485566
2.031839
-1.240064
1.482413
1.668605
0.513256
2.024982
2.487338
0.647624
1.529810
1.291035
0.215801
1.132267
-0.954873
2.178433
1.358103
-1.206595
1.923158
1.790969
1.586346
0.983984
1.506517
0.544622
2.384881
-0.478200
-0.772125
-0.278439
-0.567154
0.059741
-0.854353
0.504274
0.210113
0.570048
-0.181436
-0.016785
-0.317420
-0.795277
0.909690
-0.100526
0.884506
0.385677
-0.629856
-0.154644
0.939009
0.751632
-0.989811
0.769661
0.516692
-0.145193
-0.412779
0.656237
0.310084
0.367220
-0.771463
0.268853
-0.579258
0.553297
0.083677
-0.678081
0.888817
0.964534
-0.086667
-0.590490
0.787879
-0.476494
-0.615577
0.779859
0.938720
-0.213066
-0.681717
0.284802
0.374260
-0.489726
0.824632
-0.450571
-0.071277
-0.351491
0.147838
0.680371
0.662929
0.989134
-0.996305
0.975827
-0.464181
-0.278901
-0.571154
0.255624
0.072723
0.515709
0.929204
-0.666705
-0.986825
-0.040394
-0.478416
0.349020
0.926974
0.502869
-0.688817
-0.307449
0.463772
0.422129
-0.101465
-0.822570
-0.909451
0.636421
0.002508
0.777305
-0.835948
0.958037
0.933249
0.045709
0.740377
-0.888321
-0.243127
-0.601565
0.879667
0.767001
0.492246
-0.004218
-0.237276
0.070536
0.879129
0.721002
0.989309
0.865860
0.633906
-0.510528
-0.727945
-0.141023
-0.933364
0.473905
0.225608
-0.667576
0.697229
-0.225691
-0.091876
-0.050467
0.863128
-0.558979
0.572274
0.495255
0.367240
-0.546698
0.502195
0.955302
21.850170
22.313600
22.565386
22.751261
22.268262
22.102721
-0.374440
23.312940
21.614867
-5.830260
21.417779
22.500983
23.324274
23.146620
21.380324
21.593150
21.396282
-1.093617
22.660230
21.996537
-4.435781
21.698903
22.946861
22.578289
37.928881
21.470213
22.721552
22.328275
-0.083667
22.560722
22.798531
-4.103831
22.008210
21.406919
23.002395
21.505164
23.011421
23.197881
22.893371
0.429308
21.583589
21.393374
-5.045946
-5.565736
22.195734
21.388802
21.606147
22.179166
21.951253
21.765211
-0.807250
22.672455
23.225380
-5.582746
21.770813
-0.563964
0.090855
0.402133
-0.200649
-0.623621
0.368075
-1.129063
21.454614
21.425775
0.083628
22.256304
22.727672
22.446188
21.840152
21.862576
22.505151
21.321744
0.335930
22.681015
22.028429
-5.301181
21.322739
22.676974
21.397529
22.095438
21.779000
21.392047
23.289683
-1.126474
23.113964
21.440011
-4.477520
23.058524
-4.144884
21.973011
21.722575
-5.479415
-3.989229
-4.527050
-5.393206
-5.480185
-5.388189
-4.107409
23.257000
-5.371612
21.626123
23.039151
-4.791418
22.546908
23.242402
22.265496
21.935272
21.954804
-5.549032
22.722554
-4.593792
21.693426
21.656941
-4.733897
22.819573
21.896085
22.453680
22.386677
21.903177
-4.743804
22.728490
10.585280
11.633143
10.394091
10.864820
11.177380
11.457421
-0.825822
12.098093
11.760304
-2.236856
11.298981
11.715262
11.991925
11.548155
11.875059
11.418561
10.498109
-0.722467
11.599688
11.320193
-1.675890
12.337721
11.063681
12.028678
18.860269
11.494605
11.281104
11.079456
0.771674
10.979711
11.508627
-2.882092
10.753725
11.977491
11.843100
11.271087
10.416153
11.403002
12.350628
-0.921166
11.612564
10.697337
-2.784101
-2.660465
10.862091
11.505914
11.701145
11.211983
12.108267
12.004042
0.727127
10.836253
11.101374
-2.687055
12.204696
0.007967
-0.814178
-0.639559
-0.367981
-0.120978
-0.793821
-1.144323
11.846599
12.345300
-0.948564
10.723449
10.973939
10.758871
11.845573
11.156442
12.354063
10.570925
-0.497791
12.359915
11.200216
-1.684114
12.036487
11.528222
10.443643
11.417454
11.072575
10.949621
11.368754
-0.176856
11.308395
11.757073
-3.148271
11.643998
-2.003923
11.076491
11.937763
-3.352266
-1.851789
-1.883677
-1.968340
-2.428842
-1.976297
-1.891624
11.350497
-1.609881
10.862464
11.832828
-2.523527
11.872708
11.610965
10.594440
11.765847
12.315506
-1.849904
11.133966
-3.085292
11.395142
10.408650
-2.068984
11.910216
11.708365
10.753770
11.568132
10.497519
-1.752509
11.702662
2.948490
2.173219
2.916971
3.115655
2.850846
3.432503
0.175639
2.715833
1.732619
-0.665595
2.006513
2.329592
3.507027
2.235107
2.419912
2.327257
2.373636
-0.597924
3.441909
3.234752
-0.205591
2.752429
1.966562
1.831886
3.439436
3.007516
2.976653
1.846725
0.423394
2.312991
2.163669
-1.331928
3.000485
2.457856
1.776520
2.671844
2.165266
1.910726
2.158976
-0.653817
1.875636
2.961908
-0.591875
-1.360418
2.667767
3.380394
3.485197
1.609863
2.926487
3.411374
0.692044
2.732393
2.676748
0.483977
3.356331
-0.760355
0.624029
0.041512
0.874392
-0.301975
0.431482
-0.498011
2.237302
2.689441
0.878684
2.451434
2.139505
3.453165
3.177108
1.916300
3.503810
2.250903
0.627280
1.804383
3.346097
-0.266628
3.205856
1.626610
1.760666
1.813492
1.617324
1.986812
2.994237
-0.459158
3.493942
2.827935
-1.362641
3.341936
-1.425875
1.706857
1.700389
-0.808689
-0.473682
-1.270013
-0.586948
0.202667
0.012425
-1.255922
1.998364
0.474848
1.633120
2.889144
-1.354778
3.155658
1.911219
2.252756
2.842698
3.166354
-1.046865
2.835536
-1.297245
2.122553
1.935708
-0.172234
1.814335
1.534290
3.495867
1.807533
2.182650
-1.385126
1.857371
3.592983
3.104258
3.483571
3.595282
3.029814
3.389809
0.123461
1.971565
1.804138
-0.772399
2.127037
2.047419
1.689548
2.907264
2.327360
1.925798
2.391003
-0.139174
1.685723
3.488928
-1.476465
2.843877
2.307111
3.477786
4.195630
1.776388
2.254023
2.487731
-0.750126
2.841451
1.923372
-1.278105
2.123979
1.918177
3.352801
2.121563
2.204934
3.020699
1.979384
-0.605231
1.739477
2.432494
-0.297412
-1.137240
3.191752
2.101427
1.934922
2.153477
2.223041
2.003448
-0.086246
3.159493
1.996665
-1.162040
2.095154
0.839274
-0.013571
-0.413588
0.743816
0.317066
-0.114797
0.204981
3.560415
3.167952
0.320960
1.656841
2.828209
2.963887
3.150182
2.168857
2.332682
1.757372
-0.647250
2.728589
3.493503
-0.921855
2.104194
2.738898
3.153619
3.399771
3.001018
2.175286
1.661772
-0.217306
2.319321
1.862725
0.329762
3.416420
-0.514634
3.546742
2.689602
-1.413853
-1.536486
-0.231821
0.399627
-1.043048
-0.424752
0.281872
1.674676
-1.244021
2.411645
2.744458
-0.255387
2.986296
2.725623
2.437089
2.807597
2.337102
-0.832138
3.073064
0.269388
3.526460
3.584236
-1.004533
1.878952
2.306061
3.082936
2.768013
2.071815
-0.313887
1.987847
-0.198037
1.062157
0.130234
-0.253071
1.094664
-0.808384
0.207393
-0.240504
1.148410
0.005437
-0.353590
1.045287
0.266311
0.243355
-0.521390
-0.321144
-0.651796
0.392004
0.360233
-0.232188
0.580955
0.627159
0.046086
-0.157069
-0.471418
0.795243
-0.448377
0.873791
0.856110
-0.464210
0.679354
-0.343450
0.542898
0.803114
1.164855
0.099453
0.616033
0.062493
-0.952137
-0.864174
-0.113224
-1.073092
-0.576534
-0.522822
-0.400874
0.561017
-0.229990
0.028263
-0.305551
-0.188390
0.607758
-0.527143
-0.237652
0.002340
0.594448
-0.825141
0.488085
0.246455
-0.423788
1.110030
0.151558
0.961590
0.399700
-0.516334
1.170510
0.039504
0.106237
1.196731
0.835957
0.000541
1.080773
0.606275
1.270647
0.858669
-0.820103
-0.932937
0.266526
-0.525333
0.530081
0.095636
0.210961
0.854004
-1.071919
0.425555
0.328426
-0.069219
-0.226766
0.468452
-0.964119
0.056837
0.442688
0.174292
0.296664
0.816382
0.798179
0.724326
-0.168405
0.718648
-0.014479
-0.452075
-0.128861
1.248066
0.387743
-0.388962
0.144081
0.222735
0.040296
-0.240575
0.451763
0.027707
0.700455
0.044774
0.380826
-0.088167
0.327347
-0.464373
1.224347
-0.375231
1.070885
0.531812
0.627098
-0.322531
0.158488
0.231928
0.675184
1.010413
0.279001
0.702815
1.065040
0.576668
-0.062680
-0.368725
0.423244
0.032630
-0.591564
0.015401
-0.318713
-0.486700
1.172241
0.861729
0.490550
-0.266725
0.343172
-0.442730
-0.201401
0.448807
1.354418
-0.438220
-0.541534
-0.284554
0.049716
1.243442
-0.493181
-0.482567
0.814501
-0.241844
0.211798
-0.293406
0.184179
0.529908
-0.676764
-0.689359
0.704525
-0.764662
-0.264281
-0.375507
1.344037
-0.353173
0.430360
0.866190
0.196468
0.596941
0.097865
0.309758
-0.470386
0.861175
0.638267
-0.825825
0.498499
-0.206894
-0.224357
-0.765627
0.468295
0.448385
0.115793
0.452198
0.781472
-0.220227
-0.220724
0.901847
1.045625
1.315692
0.726270
0.955696
-0.374377
-0.427287
0.716434
0.557316
1.130768
-0.349091
-0.382929
1.311196
0.737364
0.028645
0.462680
-0.442025
0.001886
1.181486
0.077540
0.202972
-0.890197
-0.532669
0.740054
0.603458
-0.141640
1.188637
-0.314256
-0.823631
-0.438526
1.285234
-0.086149
0.738227
-0.275695
-0.069714
0.905441
0.630860
1.397132
-0.163648
0.392792
-0.855632
0.861869
-0.040129
0.314522
0.686531
1.238105
0.549102
0.350186
0.976152
-0.004024
-0.142703
1.354220
-0.496537
5.293328
-0.539448
5.718330
4.198778
4.274497
4.156065
-0.049464
4.184468
5.354300
-1.034201
5.037703
4.593899
-1.053792
4.671298
5.720773
4.680217
5.265984
-1.869642
4.667767
5.316646
-0.135162
5.129472
3.784385
-1.299547
4.114702
4.702227
4.463714
5.533226
-0.423621
5.690162
3.771004
-0.584058
-0.230068
5.290879
-0.722282
-1.086746
-1.119005
-0.240195
-1.283259
-1.193720
5.527539
5.349520
-0.182874
5.493060
3.949240
-0.715983
5.102167
4.071531
4.592289
4.258429
0.930346
5.314723
4.155970
-0.352353
4.930745
4.628183
0.166110
4.711888
4.432309
5.567972
4.013465
0.098814
3.819540
5.111046
-0.512150
-0.111359
3.933954
-1.811120
5.616521
4.362310
0.917989
-0.676391
-1.023837
3.930097
5.383595
5.168948
5.551167
5.412897
-1.378878
4.263049
4.894220
0.610872
5.616894
4.910197
4.729245
4.194150
3.796143
4.607181
-0.281065
-1.281278
4.263892
4.163074
-0.775775
4.307688
4.940022
4.010312
-0.532026
0.395289
0.646541
5.537645
-0.142698
3.903164
4.856647
-0.311700
0.808884
-0.508016
-0.779306
3.768658
-0.929591
4.290580
5.048302
-1.539190
5.035886
4.224219
5.728883
4.378846
-0.861065
4.604163
5.383246
0.400989
3.929702
0.647360
0.753927
-1.007095
0.545782
0.200951
0.402154
0.484861
0.857191
0.824011
0.529832
-1.224832
1.627511
1.015594
0.700186
0.940972
1.531486
-0.436628
0.707485
0.729858
1.209657
1.231566
0.255679
0.782257
1.368654
-0.713755
1.780748
2.160542
0.096502
0.525680
0.515175
1.873270
2.024991
0.059438
0.370533
1.650677
-0.112309
2.025038
0.961895
-1.175759
0.366403
-0.894986
-0.751979
0.318472
0.208339
0.894280
1.023634
-0.158712
0.914160
1.769610
-1.062604
1.581579
1.275202
0.698972
1.347648
-0.578281
0.935583
0.833171
0.568867
0.557865
0.283379
-0.298083
0.186011
0.865948
0.668628
1.537766
0.218737
0.613583
1.235385
-0.751685
0.304520
0.628614
0.445543
1.085811
0.320687
-0.367595
0.747870
-0.853332
1.229491
2.049514
-0.026414
0.550795
0.563725
-0.692446
0.798827
0.824036
0.624068
0.673059
1.620987
0.365049
-0.444169
-0.433929
-0.758797
-0.958681
-0.416305
0.469742
0.681892
-0.471524
0.954682
0.458034
0.704731
2.041587
0.305500
0.270702
1.737265
0.539293
1.655241
1.091803
0.964413
-0.353041
0.749480
0.528079
2.095545
1.018589
1.644564
0.299666
0.483837
0.458095
1.321358
1.561420
1.486488
-0.809071
0.860887
0.550403
0.121701
0.021079
0.813907
0.462703
1.318416
0.403461
-0.265493
0.381411
0.203383
0.135853
0.029438
0.864685
1.085291
0.164635
0.498148
1.287375
0.136472
0.688433
0.698847
-0.557765
-0.329748
1.496101
-0.425496
-0.180329
-0.158934
-0.530472
0.154469
-0.066047
0.066628
0.076013
0.346306
1.314601
-0.317791
0.222796
0.175761
-0.295047
-0.066131
0.525929
-1.011764
0.786052
-0.774219
-0.308466
1.201062
0.750193
0.772061
0.246434
0.340351
0.175427
0.187049
0.116100
0.413712
1.081884
-0.328864
0.053288
0.838730
0.751131
0.787333
1.460956
0.418756
-0.233771
1.299586
1.606235
0.420141
0.239821
0.261285
1.432333
0.179244
0.269221
0.824046
0.216598
0.331126
1.594565
0.438053
-0.922768
-0.446572
-0.088251
-0.218142
-0.251178
1.431051
0.297710
-0.329967
-0.163997
1.526015
0.202356
1.261122
0.305741
0.407412
0.265481
0.403120
-0.353736
0.626769
-0.977790
0.240581
0.219950
-0.685787
0.475247
1.289819
0.867152
1.100944
0.370563
1.297361
0.898154
-0.372995
0.909956
-0.038098
-0.916140
-0.898144
0.679874
0.334791
1.039416
1.084549
0.019164
1.524910
0.709781
0.092792
0.753611
-0.202083
0.384269
0.068118
2.249478
2.131359
2.654159
1.347749
2.126467
2.312444
-0.369822
1.385953
0.971594
0.164585
1.241579
1.078603
2.130849
1.492402
2.486573
1.030341
1.109498
0.961956
2.668419
1.134206
-0.639304
2.037287
1.666022
1.972561
3.996460
2.673863
2.578886
2.308327
0.855903
2.032037
1.444073
-1.062877
1.198382
1.264562
2.554154
1.956861
1.507912
2.012585
1.062433
-0.254476
1.414489
2.177518
-1.348532
-0.222864
1.157737
1.259788
1.361442
0.794271
0.902678
1.480964
0.744527
1.890487
2.704985
0.414616
2.385243
0.544055
-0.678526
0.773655
-0.949278
0.898996
-0.425162
-0.966220
2.582951
2.094602
0.759394
1.127515
0.804127
2.365711
1.463049
2.465127
1.988561
2.112853
0.955311
0.976719
1.043161
-0.901936
1.244449
1.900910
1.392372
0.941953
0.791020
1.965654
1.055352
-0.196858
1.758841
2.010539
-0.993556
1.688871
0.379796
1.757512
2.356586
-1.237903
-0.654371
-0.159534
-1.326780
0.392159
-0.074414
0.024171
2.571714
-0.488971
1.726094
2.690409
0.215202
1.908763
1.910826
1.275151
1.111454
2.558929
-0.456541
1.222883
-0.662487
1.537711
2.298589
-0.751900
1.698060
2.232536
2.227613
1.343910
1.034632
-0.512157
1.218124
1.889292
1.062942
0.533051
2.221826
1.802164
1.191402
0.085258
2.293744
0.951466
0.577313
0.424699
0.603605
1.312441
1.525054
0.602758
2.282502
0.822184
-1.021726
1.581868
1.097589
0.594257
1.453034
1.534318
0.431559
2.694150
0.759552
1.714185
1.055448
-0.043412
0.596020
1.079444
0.308046
1.766735
1.798920
1.909710
2.120086
0.569139
2.337226
0.450222
-0.309851
1.976174
2.032639
-0.808825
0.552635
1.762862
1.066555
1.080512
1.034254
0.695613
0.822469
-0.632137
1.039801
2.224623
-0.724816
0.707884
-0.818274
-0.663890
-0.287667
-0.498290
0.796625
-0.396322
0.010049
1.698032
2.090162
-0.216699
1.091461
2.318715
0.904115
0.814855
0.648792
1.557141
1.898950
0.574414
2.272534
0.748455
-0.508328
2.292648
1.731451
0.776789
2.330885
2.286689
2.078622
2.025945
-0.636257
0.761641
0.720711
0.496511
0.396855
0.215994
1.010934
1.473247
0.500177
-0.445741
0.426503
-1.098911
-0.427873
-1.215761
-0.584530
0.514471
0.160001
1.149755
1.347337
0.080372
1.175157
1.609471
2.275033
0.866037
1.340820
-1.294266
1.409181
-0.944696
0.893289
0.879330
0.235068
2.214292
0.571506
1.515761
0.665429
1.041065
-0.771176
2.133223
-0.700807
0.709151
-0.261587
0.174938
-0.914667
0.497402
-0.100661
0.929554
0.004104
-0.521085
-0.496484
-0.713705
-0.745719
-0.140229
0.464501
-0.737392
0.347480
-0.928201
-0.158745
-0.639076
-0.636215
0.712853
-0.796532
-0.270332
-0.993068
-0.298376
0.988617
0.767967
0.112379
0.956257
0.712273
0.119391
-0.926604
0.134592
0.053219
-0.612730
0.756188
0.307398
0.339306
-0.065825
-0.495081
0.908392
-0.344811
0.689495
0.769810
0.650342
0.780886
-0.255294
1.035880
-0.332465
-0.259100
0.455792
-0.880414
0.182598
0.279490
0.155190
-0.304799
0.104562
-0.330573
-0.692757
0.964736
-0.356811
0.645016
-0.115779
0.829294
0.020579
-0.025733
0.170345
-0.078114
0.025794
-0.196518
0.598515
-0.398872
0.868456
0.911019
-0.414056
-0.039478
-0.233022
0.478303
-0.076655
0.753040
-0.805281
0.964162
0.810283
0.447500
-0.359065
0.106939
-0.074090
0.596084
-0.904528
0.642087
-0.752564
0.348241
-0.393876
0.085119
0.133202
-0.446380
-0.140264
-0.574312
-0.189769
0.945153
-0.472449
-0.510186
0.779170
-0.958686
0.949188
0.009988
-0.072606
-0.290438
-0.279661
-0.122912
0.535896
-0.867054
0.331164
-0.501887
0.696573
1.024237
-0.513640
0.975523
-0.219955
0.703619
23.476225
23.329394
24.043283
24.356072
23.420675
22.666688
-1.229416
23.274361
23.893133
-5.958393
23.456663
23.073982
24.509605
23.700431
23.365505
23.080845
23.790809
-0.071366
23.287520
23.489643
-5.946911
23.788542
23.200895
24.174887
40.100328
24.598226
24.483750
23.709341
-1.256725
24.170178
23.687004
-5.885533
23.796131
23.979733
23.758753
22.668186
22.729815
23.246225
23.260130
0.500186
23.779328
24.528446
-5.859257
-5.025727
22.945088
24.175003
22.844095
23.002699
24.648793
23.471672
-0.752854
24.579913
24.260676
-4.491223
23.162119
-0.638339
-0.707312
-1.258995
0.352956
-0.161958
-0.506660
-0.873086
22.738951
22.944244
0.332649
23.206970
24.416064
22.832218
23.642121
23.397806
23.399469
24.188670
0.436480
24.350259
23.588528
-6.010224
23.432441
23.152569
22.988725
23.497827
24.682280
24.132895
22.799680
0.143153
23.251328
23.990819
-5.167600
23.910427
-5.613106
23.643013
23.549120
-4.862390
-5.266236
-4.917573
-4.665364
-5.009818
-4.423632
-5.341419
24.087525
-5.452792
22.834772
24.577805
-5.451543
24.601089
24.342145
22.967976
22.793945
23.846473
-5.426972
22.900276
-5.795664
23.806835
24.682679
-5.521049
24.107673
23.334842
23.687507
23.206369
24.497200
-5.441396
24.048367
-0.691377
0.960680
-0.575436
-0.029995
-0.312037
0.462630
-0.464811
0.698818
-0.089997
0.276195
-0.808364
0.032953
0.890962
0.489574
0.026243
-0.686665
0.185227
-0.559160
0.032509
0.045846
0.587531
0.726523
-0.659993
-0.596434
-0.016308
0.805023
-0.710563
0.050733
-0.152170
0.542762
-0.844135
0.359036
0.168494
-0.475505
-0.335166
-0.888516
-0.041260
-0.486584
-0.388374
-0.686130
-0.703240
0.018543
0.771647
0.965547
-0.953923
0.186377
0.806158
-0.483908
0.435545
0.098109
0.067079
-0.573378
0.615648
-0.075626
0.748953
-0.049244
0.860414
-0.051402
0.784943
0.960749
-0.281373
-0.015943
-0.686730
0.650924
-0.399401
-0.372191
-0.437219
0.485819
0.141282
0.962895
0.830867
0.756577
0.304487
0.164697
0.971870
0.268441
0.226610
0.289982
-0.869293
0.207763
0.039453
-0.490588
0.589559
0.178126
-0.599786
-0.712140
0.816082
0.311008
0.074512
-0.277841
0.401586
-0.456534
0.886035
0.447930
0.060777
0.194949
-0.232323
-0.031592
-0.309707
0.335365
-0.370852
-0.196952
-0.455930
1.014991
-0.014710
-0.351352
-0.226752
-0.560639
0.450316
0.355736
0.360344
-0.053012
0.362933
-0.193638
0.260973
0.668183
0.203133
0.922273
-0.091709
0.256140
0.647429
32.548281
32.381018
31.884257
31.705966
-1.362951
32.537100
32.036241
-8.085743
31.942301
32.541968
33.038964
32.210057
32.449525
32.748310
31.588729
-0.261280
31.626500
31.659311
-6.601349
33.080719
33.016091
31.822841
55.026620
31.877155
31.464318
32.252851
0.341878
32.460673
31.442859
-7.154554
32.600922
32.964794
32.776488
31.581092
32.108768
32.962879
31.771317
0.305817
33.025913
31.704915
-6.875553
-8.009299
-6.339618
-7.363666
31.873117
31.417375
32.266014
31.410846
-1.313814
33.124958
31.850955
-7.234546
32.168055
32.678710
32.972611
-1.424005
-0.705937
-1.369018
-0.051271
-0.331538
31.747365
32.359284
0.324609
31.443034
32.435309
31.248701
32.204062
31.807356
31.309617
32.879846
-0.798180
32.752839
31.688644
-6.312908
32.925484
31.446451
-0.114606
32.987920
31.715060
32.462604
32.409422
-0.187692
32.881361
32.479679
-6.970366
31.559336
31.345325
0.164215
33.052940
-6.218386
-7.532141
-6.356908
-7.898970
-7.320981
-6.148087
-6.360918
31.991636
33.209280
-0.556028
31.720786
-6.617224
31.377693
31.923877
31.701530
32.046449
33.095677
-6.356591
31.214640
32.671040
-0.441280
31.305351
-7.245601
33.197318
32.148525
31.379009
33.099502
32.042514
-7.185195
32.090602
33.028946
32.145293
9.351555
8.084190
7.867894
7.866192
-2.631684
8.150798
9.131028
-1.827038
7.782157
7.700640
8.741512
9.294448
7.836468
9.099689
7.657297
-1.274316
9.214985
7.860435
-1.085881
7.636564
8.054507
9.017766
7.981951
8.719914
8.811996
7.560585
-2.037879
8.347792
8.781199
-1.527819
-1.216969
-2.558141
-2.187139
-1.014132
-1.098104
-1.972276
-2.066598
-1.075572
9.003257
8.159993
-0.149814
8.595226
8.342954
7.801928
9.150176
8.584562
7.838000
7.954682
-0.612797
8.429983
8.925115
0.583279
8.647072
9.412342
9.060161
8.360432
7.479871
8.037135
9.448356
0.423323
7.992090
8.245669
-0.708045
0.798811
-0.610555
7.462889
8.134678
9.273884
-0.964500
0.736635
0.654129
8.364897
7.991750
9.303059
8.557710
-1.011225
9.133526
8.510514
8.796703
0.751420
7.564789
8.230531
7.490352
9.272310
7.760136
8.254808
0.011414
9.205287
7.795093
7.529067
-0.163523
7.599188
7.978198
9.254363
0.379025
-0.835415
-0.311211
-0.376852
8.545698
8.792345
8.402959
-0.478477
0.393304
-0.669763
0.081021
9.411191
0.268544
8.098245
9.013421
7.925021
7.888075
8.197510
8.836462
9.036835
0.103259
9.314331
8.879141
-1.057826
7.608187
9.212100
9.127549
1.856025
2.117505
1.579601
1.684698
1.028615
0.382223
-0.676854
2.418180
2.167853
-0.779626
1.450241
0.977677
1.125191
0.631973
0.772827
0.804568
1.937982
-0.691832
1.300370
0.682960
0.502710
0.537676
1.073285
0.835667
1.944312
1.116473
1.661572
1.957050
1.044937
0.511802
2.402698
-0.421025
0.683215
2.304674
2.214794
1.448360
1.204960
1.745545
0.718559
0.811080
1.647855
0.404194
-0.189476
0.434104
1.698010
1.617966
1.347040
1.363533
1.701935
0.628457
0.565234
1.196249
0.588177
-0.101090
0.405087
0.328963
0.041309
-0.052313
-0.898990
-0.504400
0.029213
0.591889
2.000286
0.747232
0.799399
1.755691
0.906146
1.673550
0.976201
1.514607
1.542653
1.758742
0.824154
1.882453
1.873407
0.327598
2.228214
1.061170
0.755579
0.477877
2.194343
1.542390
0.498379
0.941876
1.651232
0.468130
-0.019697
2.399221
-0.431262
2.305713
0.491207
-0.307353
-0.148057
-0.987216
0.451555
-0.497209
-0.725695
-0.093496
1.812387
0.540372
1.030886
0.707322
-0.400938
1.462298
0.370678
1.568264
0.722435
1.003529
-0.998995
1.719489
-0.557296
0.481181
0.775123
-0.087118
1.641012
1.135518
1.735826
0.554973
1.595861
-0.367230
1.097702
-0.186576
1.481947
1.491834
0.140076
-0.475668
-0.312760
0.523715
-0.010324
0.253765
0.776725
-0.263538
0.479158
0.817343
0.342377
1.484420
0.987022
-0.189375
-0.008908
-0.283517
0.323180
0.785114
-0.166429
0.778788
-0.072464
1.298064
1.166364
1.582057
1.020764
0.879078
1.240406
0.422854
0.629959
1.323216
0.948969
0.251266
0.374145
0.468109
-0.232178
1.060820
0.274867
1.255168
-0.303925
1.475473
0.068503
-0.435125
1.498204
0.259591
0.763533
1.123673
-0.230460
-0.497611
0.297922
0.238786
1.096964
1.040364
-0.320928
-0.786107
-0.135993
-0.594333
-0.543359
-1.009149
0.847306
0.631455
-0.813375
-0.193327
0.090604
0.011447
-0.391858
-0.123105
0.231188
1.103037
0.859732
-0.454412
1.223758
0.345864
1.314051
-0.381969
0.044077
1.482439
1.135817
-0.421228
0.347644
-0.409742
0.299800
-0.158334
0.550326
0.368994
-0.036353
-0.945033
0.674398
0.778437
1.130017
0.151377
-0.416503
-1.033860
0.695792
-1.074405
0.675847
0.746972
0.018828
1.282648
0.193079
0.386204
1.032927
0.546649
0.063188
1.101937
0.071762
-0.066355
1.086950
0.448712
1.485834
0.548010
-0.237761
1.477005
-0.688101
0.491505
0.018795
0.408624
0.192720
0.497122
-1.071849
3.972921
4.143887
2.759345
3.666535
-0.897455
3.049820
4.187688
-1.495358
3.927894
3.399951
0.008869
4.032709
3.070048
4.169156
3.886541
-0.906367
4.022170
2.797823
-0.669037
3.080400
2.892885
-1.547504
3.905818
3.939636
2.773813
3.079548
-0.339647
4.140477
3.332900
-1.293902
-0.177268
-1.016573
0.065345
-1.070208
0.165031
-0.735834
-1.101497
-1.363465
3.394743
3.545668
0.773694
4.002072
3.277442
0.134917
3.219302
2.545854
2.951857
2.936344
0.223930
3.172714
4.352157
0.329146
4.477750
3.437637
0.556917
3.005162
3.790719
3.197992
3.018204
0.626642
3.166752
3.811282
0.446468
-0.604037
0.494210
-1.566733
3.243411
2.807350
0.126695
0.496530
-0.572465
2.668298
4.601870
4.422793
2.867602
-0.082147
-1.080449
2.703115
3.491717
-0.404828
3.978501
2.664165
3.355314
3.899176
3.649243
3.236046
0.894856
-0.856642
3.788492
2.734919
-1.022451
3.346662
3.117732
2.640410
1.006287
0.523599
-0.156479
-0.171046
0.345924
2.943791
4.456195
0.131162
1.041197
0.553977
1.016965
4.366419
-0.511455
3.291664
2.812067
-0.485204
3.733772
4.450298
4.386125
3.919915
0.390307
2.962425
3.028472
-0.499926
3.739198
4.330120
3.429329
1.898524
2.692375
2.179177
2.308347
3.541310
-0.024140
1.806000
3.612280
-1.150101
3.069286
2.203061
1.969116
2.663140
2.872427
2.269651
1.839881
0.736455
3.420094
2.852485
0.330541
1.671316
3.736415
3.595344
4.561982
1.803609
2.342700
1.673703
0.939004
1.778930
3.093356
-0.931655
3.124650
2.973883
2.799483
1.929951
2.511271
2.874243
2.908471
0.563249
1.939297
3.280314
-0.132442
-0.281552
1.861375
1.963127
3.277644
3.409263
2.376324
2.741712
-0.064771
3.008135
2.513292
-1.191995
3.165644
-0.544013
0.899082
0.473591
-0.892011
0.693298
0.934600
-0.352053
3.433080
1.890764
0.380461
3.119587
2.148296
1.933350
2.196916
3.465657
3.729228
2.317095
-0.269131
1.852592
2.187082
-0.078046
2.110883
3.369642
2.394203
2.903679
3.184237
2.820904
3.440439
0.324180
1.779673
2.059930
-0.263080
2.930607
-1.001995
2.344345
3.421347
-0.541294
0.375635
-0.585172
-0.375226
-1.001720
-0.103096
-1.222711
2.501317
0.166973
3.042071
2.815077
-0.716502
2.151264
2.277972
3.119483
3.739836
2.098289
0.321394
2.555107
-0.734811
2.363729
3.284943
-1.309777
2.342136
2.964735
2.819634
2.358629
2.774975
0.263988
3.348860
-0.132694
3.908200
2.909580
2.716978
3.753110
-0.438723
2.609295
4.370330
-0.409411
2.588559
2.704504
-1.610401
3.666368
2.795577
2.588431
3.212691
-0.269485
2.904848
4.086816
-0.082499
3.332424
2.394740
-0.324638
3.176551
2.683793
3.303525
3.251532
-0.175528
2.643666
2.948677
-0.799749
-0.694121
-0.124671
0.164977
0.170101
0.051891
-0.043181
0.041936
-1.389805
3.613113
3.550473
0.702609
3.275976
3.196720
-0.007023
3.556863
4.176655
2.431942
3.132150
0.748480
4.137019
3.348109
-0.178029
4.190883
4.318256
0.579648
2.813600
3.314545
3.257405
2.913346
0.544907
4.109458
3.391798
0.918265
-1.061830
-0.784075
-1.177171
4.219567
3.030179
0.570324
0.180508
0.902069
3.830024
3.334355
3.597886
3.805579
0.602269
-0.718636
4.034625
3.142587
-0.835668
2.704457
2.502912
2.982905
3.045889
4.272895
4.075565
0.265721
0.045066
3.689398
3.960149
0.677769
2.913919
4.130194
4.195885
0.139175
0.576812
0.630129
-0.146388
-0.769083
3.701068
3.192583
0.238359
-0.725278
-0.505330
-0.437060
3.222394
0.347162
4.215733
2.991213
-0.325668
4.297897
3.230238
3.357462
4.263038
0.031602
2.745245
3.854038
-1.013024
2.511896
3.012603
1.006816
1.661913
1.285627
2.109094
2.923686
1.015847
-0.750682
2.132902
1.373897
-0.492080
2.037513
0.988421
2.069078
1.642325
2.759715
1.332492
2.053029
-0.543095
1.383575
2.750423
-0.793518
2.137544
2.944264
2.031664
2.991016
1.666310
2.772131
2.311516
0.958597
1.898276
1.640748
0.542706
2.334397
1.658691
1.126190
2.029062
2.424280
2.813951
1.259369
0.839984
2.287507
1.960294
-1.369664
-1.280643
1.335899
1.938299
1.927049
1.676840
1.621238
2.076416
0.596391
2.653492
1.854836
-0.782709
1.264969
0.221141
0.827799
0.784732
-0.949499
0.363484
-0.029055
-0.560077
1.927715
2.938249
0.186386
2.803447
2.159622
2.318324
2.308577
1.612902
2.769741
1.573465
-0.532565
1.197506
2.961679
-1.172787
1.196859
1.238693
2.783524
1.253135
2.352426
2.929905
1.703681
-0.056549
1.742827
2.026405
0.056074
1.406494
-0.505308
1.705949
1.715656
-0.808966
-0.758228
-0.095764
-1.066684
0.281176
-1.005733
-0.856042
1.073372
0.250983
2.114276
2.186463
-0.200883
1.494295
1.302197
1.459727
2.794154
2.643085
-1.396605
1.426865
-0.250117
2.724433
2.104972
-0.356248
1.293145
2.850990
1.054794
2.632514
1.546218
-0.211506
1.385506
-0.213452
0.722350
1.456623
-0.060351
1.128983
1.339467
0.108937
1.478908
-1.012021
1.107936
0.521861
0.191104
1.516794
0.626419
0.307932
0.623178
1.336820
0.518774
1.600786
0.085728
0.585807
1.441442
0.185823
0.434250
1.370832
0.287568
1.913574
0.388281
0.962336
0.444813
0.334855
0.561197
-0.055396
-0.186314
0.071015
0.959013
0.089341
0.901576
0.485222
0.796737
0.326678
0.080822
0.683352
-0.019477
-0.071834
1.033379
0.111679
-0.194533
0.330589
-0.021234
1.258178
0.516539
0.174326
0.727334
0.890460
0.371456
0.381246
-0.891568
0.669213
-0.998129
-0.243396
0.096951
0.081287
0.120043
0.314825
0.040235
0.261433
1.160685
-0.091006
0.419567
1.194449
0.610036
0.571985
0.715639
0.024014
0.972940
0.315945
0.586766
1.425058
1.548033
1.570420
0.955780
1.427158
-0.122979
0.939635
0.421859
1.332786
1.349580
0.622800
-0.177828
-0.465254
1.031751
0.383831
-0.055695
0.308591
-0.409236
-0.176148
0.459429
-0.400066
-0.177575
0.510227
0.065409
1.239623
1.036874
-0.733546
1.220480
-0.018920
0.938643
-0.031550
1.097358
-0.262464
1.662191
0.805981
1.366731
0.338177
-0.716111
0.408818
1.038680
1.033162
0.932441
0.113114
0.415261
1.009388
2.600460
-0.170823
2.197233
2.071390
1.381812
1.147950
0.559856
1.986724
1.368969
-0.593964
2.311748
2.716909
-0.564138
1.024234
1.402072
2.906840
2.452347
-0.974423
2.642397
2.259783
0.776479
2.148775
2.761896
-1.414245
2.434098
2.324827
1.143554
1.477618
0.358779
2.657596
1.580801
0.482973
1.270930
1.554730
-0.927218
-0.429602
-0.789974
-0.893174
-1.056919
0.207132
2.554170
1.495073
-0.609656
1.918955
1.487467
0.511676
2.436861
2.889661
2.327529
2.219616
0.337722
1.051358
2.494418
0.849205
2.687550
1.827415
-0.183668
1.006371
1.210773
2.414203
2.035307
0.858932
0.984955
1.192566
0.833568
2.064280
2.158990
-0.310174
2.598867
1.575973
-0.251876
0.850002
-0.003192
1.286807
2.625839
-0.397689
2.494039
2.001730
-0.352232
1.171873
1.570818
0.617395
2.606401
2.360159
1.662840
0.981256
-1.182170
-1.005832
0.259086
-1.178532
2.461312
2.069074
0.420503
1.453487
2.351757
1.379953
0.205506
2.445955
1.102937
2.797544
-0.007747
2.612274
1.543361
0.717360
-0.727390
0.950314
-0.860988
1.689483
2.234073
1.808502
1.074832
-0.476211
1.525902
2.079941
2.637628
1.417124
0.440361
2.079478
1.290059
0.761591
-0.531122
-0.441036
0.629554
0.645418
0.366394
0.183271
0.874362
0.862374
0.224922
0.120317
0.161725
0.530332
-0.704462
-0.440025
0.284938
0.115206
0.270484
0.760222
0.739956
0.105098
-0.190090
0.439814
0.733183
0.755000
0.706435
-0.212086
0.350232
0.991475
1.093675
-0.657411
-0.389578
0.257255
-0.445533
0.409115
0.426370
-0.389013
0.158072
-0.264965
-0.408939
-0.038106
-0.157842
-0.222651
0.170119
-0.669916
0.908080
0.394979
0.228509
-0.164908
0.146602
-0.342410
0.663536
-0.466514
-0.431007
-0.515359
-0.682409
-0.187947
-0.666841
0.378309
-0.640939
0.026245
-0.397391
0.828378
0.149869
-0.212179
-0.972758
0.835340
0.546831
-0.185867
0.462343
0.199563
0.326890
0.409595
0.403085
0.424568
0.867794
-0.824051
1.243155
-0.713959
-0.869499
-0.037472
0.718595
-0.967098
0.035862
0.645571
0.394804
0.317664
0.770360
-0.189738
0.649266
-0.545009
-1.036298
-0.318694
-0.339645
1.197469
-0.186686
-0.558535
1.240835
0.294752
0.692028
0.651915
-0.583951
-0.454280
0.747447
-0.532983
1.062674
0.014805
-0.721499
0.318918
0.799889
1.073520
-0.277052
0.463154
1.016875
-0.246702
0.860082
-0.185103
-0.551362
-0.422724
-0.430624
0.088890
-0.062499
2.040682
1.115680
0.053011
1.895404
2.399213
2.704213
1.576480
-0.324736
2.473204
2.605256
-0.025963
1.800200
1.058949
-0.377534
1.409194
1.904633
1.984934
2.278102
-0.428459
2.541405
1.850210
0.543243
1.613061
2.833052
0.575715
1.013572
1.096768
1.549737
2.398507
-0.002904
2.195726
1.126540
-0.054889
1.390833
2.828273
-0.128729
-1.366503
-0.578267
0.385978
0.425281
0.164640
2.696277
1.354059
-0.073769
1.487886
2.741805
-0.695717
2.544860
1.546947
1.834946
1.609459
0.879911
1.346705
1.090492
0.632594
1.773078
2.693359
-0.486569
1.099767
1.042945
2.779488
2.057329
0.074640
2.497294
2.109146
0.621154
1.743296
1.276275
0.455877
0.902936
2.240723
0.551460
-0.275932
-0.077915
2.102670
1.237826
-0.149347
1.964489
2.608583
-0.214128
1.309079
2.436443
-0.753121
2.837560
1.006789
2.407547
1.207688
-0.139137
-0.492370
0.042775
0.302641
2.547523
2.122340
0.167356
2.852784
2.131459
0.941473
-0.734531
1.453950
1.569165
1.060886
-0.007450
2.562805
1.577991
0.866211
0.024334
0.467164
-0.432510
1.799842
2.130262
1.698145
1.227873
-0.364453
1.151438
1.713512
1.534079
2.174147
-0.562437
2.471583
1.218707
6.316317
-0.436005
5.433312
4.980694
6.035729
6.370186
-0.662114
5.432800
5.002046
-0.397034
5.347428
5.334394
-0.841814
5.799520
5.202334
5.154899
6.369838
-1.395724
6.166723
5.931228
-0.576312
4.887195
6.002697
-0.984404
5.438296
4.638115
4.573019
5.318699
-0.754146
4.484230
6.379617
-0.809133
-1.656264
5.974362
-0.198530
-1.751283
-0.955894
-0.259218
-1.614014
-2.010032
6.360018
5.512221
0.058556
4.786562
4.690842
-1.252554
5.729767
5.169199
6.016922
5.626865
0.687120
6.259901
5.542417
-0.437433
4.615799
5.585604
0.279497
5.091882
4.945295
5.123108
4.512658
0.651631
5.883812
6.208641
0.809964
0.167686
6.135989
-1.528912
4.775645
4.788779
0.433943
-0.480897
-0.378202
5.456218
4.698733
5.180976
6.258722
5.681294
-0.882297
4.767539
5.366996
0.771550
6.369719
5.068532
5.531126
4.793377
5.546481
6.127973
-0.863985
-1.499724
4.474545
5.167284
0.082488
4.440617
4.468656
6.370127
-0.186573
0.444135
0.267687
6.303977
-1.198873
5.429618
5.094077
-0.423229
-0.481955
-0.921397
0.094550
5.380263
-1.019828
5.639073
4.756635
-1.397147
4.550994
5.038379
4.437115
5.289676
0.553087
4.864949
5.964253
0.435782
4.706869
3.695606
3.819073
2.850734
-0.064668
3.172888
3.474387
0.263356
3.942054
2.951306
2.980363
3.501141
2.349770
3.219876
2.548192
-0.233697
3.974665
3.276388
-1.222559
3.905075
2.206023
3.557609
2.848456
3.307545
2.654467
2.676194
-1.195627
2.812853
3.410238
-0.844084
-0.279715
-1.224046
-1.087766
-0.410747
-0.499453
0.138854
0.231008
-0.978722
2.348506
2.115942
0.816392
3.403031
2.243705
2.946845
2.106584
2.552591
3.836226
3.291543
-0.558541
3.297453
2.894732
-0.235620
3.743972
3.699745
2.350957
2.836082
2.510393
2.131765
2.175426
-0.203434
3.797046
2.272543
0.469821
0.334965
0.587020
3.211358
2.665592
3.738763
-0.095196
0.776562
0.712103
3.411694
3.882468
2.980379
2.692519
0.806879
3.061977
3.706995
2.965489
-0.568137
2.269534
2.926717
3.231798
2.985073
2.552886
3.116531
0.158998
3.862774
2.794799
2.550799
-0.472502
4.008162
2.938263
2.834532
0.054773
0.826232
-0.446901
0.119891
3.962277
2.642317
2.994279
0.817050
-0.126150
-0.232133
-0.994736
4.080016
0.224046
4.024277
3.872359
3.647568
2.950979
2.838179
2.756889
3.613714
0.666226
3.375005
2.955875
0.890019
2.425096
3.425178
2.992124
2.962121
-0.637303
-0.545494
0.033876
1.229548
0.015422
0.232796
-0.684696
-0.114709
-0.495689
-0.347199
-0.215294
-0.585840
0.972631
0.558009
0.169564
0.041632
-0.793322
-0.437684
1.199933
-0.271420
-0.651949
-0.322481
1.045461
-0.119616
-0.230254
1.193552
-0.395661
0.398738
-0.133588
0.222225
0.063076
0.069748
0.311817
1.134991
-0.401414
0.916497
-0.697154
0.362930
0.944488
0.030573
-0.707116
0.916329
0.124635
0.041455
0.910895
-0.362349
0.347023
-0.244585
1.113572
-0.715166
1.014221
-0.758241
-0.044124
0.865365
0.572938
-0.940469
-0.344423
-0.633541
0.548225
0.156826
-0.251303
0.548196
0.375459
-0.471108
0.697188
-0.271134
0.071099
0.689619
-0.810849
-0.134953
0.211895
0.181668
0.203637
-0.704875
0.635563
0.180143
-0.112987
1.141985
-0.668699
0.154026
1.201213
1.137740
0.091294
-0.084550
0.130109
-0.361139
-0.379626
1.168672
0.512127
-0.887621
0.355149
0.499575
-0.979759
0.137026
-0.485022
-0.277658
0.043395
0.936556
0.857189
0.331820
0.297544
-0.485198
-0.679988
-0.269703
-0.755714
-0.285118
-0.486001
0.885894
0.001077
-0.743461
0.688041
0.218726
-0.682482
0.681135
0.141115
-0.312404
0.325612
0.179318
0.588613
0.891422
0.552689
0.435774
1.170699
0.740846
-0.377261
-0.470077
-0.260728
-0.059464
-0.474314
1.080036
-0.075260
-0.646673
0.682271
0.620707
0.034874
1.099726
0.004667
-0.467346
0.032602
1.290405
-0.376656
0.876176
-1.047243
-0.422566
-0.474324
0.500103
1.280524
-0.432261
-0.464730
0.109989
0.009062
-0.118820
0.647258
-0.227730
-0.230610
-0.379201
-0.998801
0.107191
-0.259258
-0.037370
-0.390553
-0.634237
-0.084237
-0.905368
0.034647
0.100947
-0.017871
-0.500623
-0.117400
0.788991
-0.756050
0.417954
1.146648
0.166333
-0.055229
-0.064688
0.866741
0.185945
0.089897
-0.172097
-0.147231
-0.117092
0.829446
0.516187
1.253233
-0.621154
0.902831
-0.469082
-0.330035
-0.575980
0.582069
-0.136446
-0.580602
0.471749
-0.134935
0.545034
0.148060
0.746197
-0.056254
0.728948
-0.436829
-0.463644
0.787014
0.324368
1.343905
0.097869
-0.966326
-0.371216
-0.228970
-0.689596
0.895236
-0.195121
0.371793
-0.634555
-1.016111
1.253313
-0.085541
0.019782
0.093662
-0.281022
1.141763
0.214781
0.506840
0.699223
0.097830
0.464772
0.469884
-0.006738
-0.324307
0.393704
0.957328
-0.065585
-0.149160
0.014929
0.184992
-0.483751
-0.222652
0.738467
0.081661
1.243767
-0.174739
-0.403837
1.138179
0.285627
0.922381
1.973604
0.445750
0.477014
1.925446
-0.008351
0.056142
1.792700
1.271824
0.834003
1.268712
0.468991
2.022915
0.591964
1.698285
1.740939
-0.646375
0.554563
2.017815
0.861515
1.043559
0.429358
0.908393
1.016882
0.824237
0.591924
0.836459
-0.577071
0.520857
0.816292
1.290156
1.219501
0.477906
2.007456
0.718088
0.398849
1.049913
1.324602
-1.000774
0.562220
-0.265769
-0.231147
1.158806
0.607033
1.685589
1.704467
0.755446
0.365271
1.301990
0.757386
1.625966
1.284750
1.329535
0.435326
0.734801
0.791071
-0.302147
0.229623
0.316604
1.102643
0.421806
1.867773
0.059718
0.995052
1.956054
1.889446
0.551344
0.907864
0.498250
0.529671
1.487834
0.223818
0.354026
0.925438
0.606861
0.535109
0.335095
1.568949
0.080877
0.041755
1.861867
0.102207
-0.866933
1.065666
0.365591
-0.180587
0.980376
-0.466562
-0.013567
0.489499
-0.197759
0.044870
0.487367
-0.842378
0.172068
0.069562
0.099241
0.730751
0.362819
1.825447
0.330515
1.812971
0.200814
1.971690
-0.021643
0.370688
1.599564
0.494108
0.519274
-0.077422
1.926315
1.099922
1.603958
1.438340
1.082607
-0.760668
0.173518
0.733289
0.273310
19.659794
18.932944
18.624406
18.840972
19.554583
18.262972
-0.751837
18.425920
18.891110
-3.486545
19.409399
18.275876
19.133926
19.872584
18.473493
19.576241
19.596679
-0.472182
18.126773
18.569853
-5.007820
18.523445
18.923231
18.736702
31.793048
18.598978
18.490950
18.337530
0.469819
18.575628
19.134168
-4.723738
18.452250
19.096825
18.874329
19.808673
19.000642
18.565674
19.177494
0.100573
19.163909
18.770215
-3.776156
-4.446862
18.857992
18.656684
18.837451
19.330247
19.730556
18.121245
-0.735842
18.119346
19.782517
-3.572186
18.309652
-0.794130
-1.154355
0.203901
0.204395
-0.010916
-0.192025
0.580326
19.257647
19.476630
0.287335
18.514182
18.817759
18.795364
19.103321
18.926132
18.678823
19.351101
0.335489
18.207116
19.763252
-4.569982
18.193853
19.189350
18.663473
19.675833
18.088039
19.030998
18.335170
0.397438
19.263287
19.689659
-5.030113
18.649604
-3.788617
18.285004
19.125602
-4.289683
-4.380629
-3.361500
-4.127869
-3.569367
-3.283443
-3.912099
18.012198
-3.633326
18.732488
18.513027
-4.083681
19.132986
19.610949
19.339481
19.526485
18.049994
-3.725859
19.720604
-4.419159
18.577531
18.948690
-4.512179
18.681159
19.117780
17.896875
18.780414
18.298012
-4.165451
18.932210
18.611072
20.265155
20.075384
20.155266
19.554091
18.838448
-0.366173
19.566866
19.597438
-5.194524
18.557857
19.846222
19.101480
19.579356
19.024754
19.625331
19.925930
0.488513
19.876779
19.659273
-4.246569
19.695122
18.801574
19.612949
33.912632
18.500858
19.102453
19.510611
-0.182375
19.528584
19.247229
-3.439227
19.551019
20.123948
18.673001
19.406121
19.533234
20.009003
19.623794
-0.913950
20.264391
18.577037
-4.013953
-4.469855
19.066629
20.208984
18.644380
19.798113
20.385843
18.678141
-0.431079
19.768228
20.383223
-4.127090
19.362549
-0.179713
0.124288
-1.190713
-0.361667
0.091283
-0.686890
0.080527
19.222097
19.044708
-0.896681
18.852181
19.920906
19.110822
18.957521
18.482421
18.856703
18.896435
0.311742
19.887781
19.371645
-3.798959
19.046430
19.815781
19.608291
18.511166
19.474764
20.320849
19.413921
-1.240213
18.561341
18.709366
-4.851884
19.640768
-4.155494
19.212597
20.026354
-3.304715
-3.777616
-5.220180
-4.512866
-3.377772
-4.952583
-3.720065
18.645861
-5.229162
18.812570
18.906439
-3.931533
19.999048
18.772653
19.158359
20.335323
19.244597
-3.663801
18.933498
-4.553467
19.559369
20.304577
-5.195091
20.314688
20.207537
19.002922
18.868334
18.485800
-4.356953
19.036320
3.802101
3.176370
4.052944
3.584065
0.923103
4.514128
2.966328
-0.662345
3.472314
2.977613
3.124971
4.186733
3.800505
2.934839
4.008212
-0.371828
2.803172
4.343760
-0.802139
3.024639
3.250257
4.481880
5.836103
3.414441
2.895163
3.438155
-0.299992
3.007746
2.744122
-0.582782
3.478373
4.051336
3.243606
4.040539
4.010604
4.555575
4.295608
-0.737914
2.768756
3.654515
0.225643
-0.121312
-0.149650
-0.234846
4.516885
3.845108
3.878783
3.813707
-0.856349
3.885904
3.769896
-1.430402
4.377555
4.617750
4.000764
-0.065075
0.332887
-0.437062
-0.515410
0.086558
3.653938
4.579596
0.356670
2.959074
3.873341
2.846078
3.497282
4.379527
3.509302
3.459846
-0.061151
3.568356
4.521929
-1.160374
3.118612
3.052386
-0.718159
3.075271
4.127324
4.006056
3.573264
0.170775
3.010947
3.284423
0.235705
3.434968
3.519588
0.004715
2.958149
-0.770807
-1.119799
-0.069964
-1.149017
-0.998368
-0.981155
-0.466413
3.390031
2.824904
0.748829
4.071393
-0.591463
4.054879
3.561981
3.288074
4.243251
4.595830
-0.376450
4.328374
2.699735
0.057248
3.743631
-0.716609
3.243936
2.910536
3.361324
3.844295
2.941107
-0.889628
3.458231
4.194055
3.923810
-0.849831
0.379064
0.453205
1.114897
0.886832
0.148137
1.114743
-0.406696
-0.401522
-0.384812
0.715968
0.713572
-0.367943
1.066515
-0.206254
0.090751
0.481231
0.590706
-0.102179
0.541362
-0.230822
-0.055851
0.819493
1.344850
0.134914
-0.284090
1.340207
0.571107
0.093681
0.905348
0.894876
0.426569
-0.082794
0.841594
-0.003801
-0.400663
0.534246
-0.711019
-0.764169
-0.132846
0.244842
0.250251
0.935055
1.083353
-0.391067
0.745389
1.031701
0.597278
0.339109
0.964880
0.045094
0.165661
-0.852452
1.269590
1.077311
0.864531
1.066271
1.077444
0.991223
0.351306
0.830811
-0.236298
-0.301327
-0.348918
-0.138399
-0.090033
0.701582
0.562866
0.267862
-0.368627
-0.238773
-0.639915
-0.501704
0.772710
1.201979
0.695637
0.391164
-0.138436
-0.364535
0.549364
0.497506
0.180480
-0.143924
0.081120
0.805815
1.314011
0.474629
-0.521617
-0.069836
1.104685
1.243646
0.064791
0.078048
0.094802
-0.359895
0.317881
-0.043695
0.658839
0.364211
0.654642
1.344107
0.057789
-0.888063
0.778539
0.249687
0.112571
1.109612
0.034662
0.033574
0.694859
0.039997
1.149609
-0.184937
0.133132
0.005476
-0.672466
0.531244
0.625559
-0.026803
-0.397527
0.436329
8.557627
8.248685
8.995655
9.420567
8.674258
9.305630
-1.013928
7.716113
8.033831
-1.339391
7.720846
9.181474
9.430930
7.689761
8.146535
8.860252
9.446260
-0.089601
8.215465
8.568462
-1.894191
8.058344
7.841840
7.873248
14.724970
8.864214
8.208564
8.105454
-0.895646
9.031746
9.105129
-1.228450
8.708835
9.646524
8.056394
8.598556
9.121578
9.190302
7.638174
-0.946668
8.279831
8.104903
-1.851899
-1.343714
7.918851
8.714846
8.290103
8.108779
9.509814
8.872404
0.079633
8.368596
9.001162
-1.191998
9.075466
-0.720827
-0.880715
-0.761045
0.510162
0.730296
-0.529172
0.906448
9.613373
8.612650
0.404384
7.671702
9.506511
7.693412
8.703621
7.899018
9.469974
8.432186
0.025779
7.772219
7.991762
-1.318450
7.709023
7.753508
9.567659
8.050333
9.121610
8.816419
9.317723
-0.346068
9.288936
8.717727
-1.495894
7.995216
-2.551322
8.917594
7.684093
-2.363583
-1.921116
-1.638102
-0.979622
-1.775714
-1.650488
-2.346331
7.882573
-1.550537
9.145375
8.063297
-2.456529
7.811477
7.829488
9.000300
8.300319
8.526687
-2.027129
7.861908
-1.545879
7.783474
7.994569
-1.572935
8.261693
8.207026
8.072492
9.135431
9.214795
-2.284043
8.384492
0.584952
0.889353
0.370310
0.572395
0.030390
0.337452
0.824407
0.614794
0.722175
-0.934496
0.995125
0.450285
0.344511
0.529999
0.212037
-0.081294
-0.855965
-0.308040
0.164125
0.235779
0.523972
-0.125004
0.654939
0.562394
-0.759717
0.071684
-0.264926
-0.691905
-0.549142
0.856600
-0.913898
-0.375839
0.500413
-0.020477
-0.456081
-0.789380
0.914949
-0.272226
0.994554
-0.071421
-0.946873
0.202080
-0.076300
0.081610
0.091764
0.340389
0.374498
0.132523
0.887513
-0.784697
0.635805
0.259594
-0.867945
0.871241
-0.889619
0.155648
-0.480598
-0.956758
-0.385482
0.319295
0.345806
0.468466
0.428804
-0.094363
-0.023260
-0.313367
-0.170024
0.735073
0.431955
0.027548
-0.253435
0.240200
0.491014
0.830510
-0.964520
0.844892
0.731107
-0.214711
-0.483823
-0.963712
0.852241
-0.272282
-0.691417
-0.101924
-0.103415
0.103049
-0.183288
0.384970
-0.616941
0.956693
-0.623929
0.572001
0.972814
0.475516
-0.812845
-0.768017
0.403636
-0.584140
0.480503
0.023572
-0.239958
0.325313
0.881556
0.447177
-0.672721
-0.901693
0.237395
0.917765
0.436523
0.350481
-0.818510
0.627804
0.945841
0.969270
-0.440867
0.792856
0.863690
-0.647533
-0.801595
-0.094422
-0.434564
0.778334
3.747922
4.838536
4.990851
3.906841
4.919574
5.194268
4.240517
4.842309
0.188324
4.931514
0.866414
4.443339
4.884358
3.938895
5.334808
3.735452
4.272093
4.157091
5.624382
-0.339941
5.232033
-0.046368
5.256604
4.415682
4.479703
3.915798
7.298024
5.706532
4.413836
4.168920
0.335784
4.057436
0.453070
5.420742
3.815735
4.781594
3.822514
5.487714
4.596063
5.218053
4.131932
0.830410
5.381607
-0.228999
4.921557
5.398031
4.998788
5.406450
5.239067
4.736243
4.798506
5.172923
-0.079102
4.649429
-0.229698
0.740392
-0.683998
0.287694
0.893880
0.061312
-0.274420
0.189713
-0.553301
-0.575902
5.333814
0.201938
5.230104
4.859148
4.195048
4.469567
4.992764
4.941428
4.945260
3.896907
0.684234
4.293441
-0.198526
4.997723
5.150314
4.695173
4.886534
5.012906
4.391193
4.557907
4.900588
-0.095394
4.200495
-1.593446
-1.081884
-0.918905
-0.346506
4.326700
3.927587
-0.284341
-1.410293
-0.565247
-1.098808
-1.982010
4.248565
5.536568
5.420267
-1.150070
5.680188
4.004108
-0.724422
4.194952
4.426059
4.352851
4.805059
4.616298
4.139699
4.722588
-0.352316
3.964065
5.563938
-1.188317
5.693004
5.092497
4.244012
3.857405
2.008674
1.500051
1.860432
0.460330
0.727654
0.737786
-0.832748
0.919086
1.074708
0.022621
1.113566
1.983405
2.179987
1.049385
2.030147
0.760582
1.474462
1.000733
1.414171
0.363494
-0.372156
1.188882
0.445215
1.550239
1.413743
0.931596
1.759135
0.502281
0.020356
1.077947
1.997994
0.108311
0.609688
0.939475
1.284213
1.366149
0.966078
0.641487
0.642312
-0.638392
1.532579
0.215234
-0.397330
-0.903012
0.914444
1.213974
1.572174
1.389428
2.076576
1.466733
-0.361345
1.005315
1.777283
-1.152749
1.155943
0.299521
-0.093473
0.268946
-0.292335
-0.178242
-0.341492
0.482049
0.389743
0.616283
-0.917596
1.526929
1.597793
0.304310
0.509303
1.902480
0.268203
1.448739
-0.694465
0.665932
0.568678
-0.698438
0.411090
0.626502
1.022631
0.473419
0.763253
0.998350
1.008085
0.040839
2.068729
2.165561
0.352193
0.960200
0.532185
1.443874
0.285595
0.007672
-0.817629
0.415400
-0.046134
-0.116809
-0.618825
-1.152784
1.644937
0.134716
1.028670
1.397772
0.680888
1.156964
1.385406
0.479450
2.082664
0.294103
-0.855413
1.868941
0.690529
1.763180
1.592073
-0.838672
2.028142
1.012671
1.183881
1.801166
0.744412
-0.047563
0.905594
0.785102
4.890404
4.899254
-1.274928
4.626057
4.449937
6.238785
5.725944
-1.053429
4.583356
5.997497
-0.344676
4.693938
5.112431
-1.262584
4.759665
4.617616
6.026975
5.651649
-1.217054
5.352136
4.980515
-0.555050
5.111706
4.643236
-0.954522
5.731495
5.456189
6.209232
5.691867
-1.608122
5.049614
5.510327
-0.812602
6.191157
4.569949
-0.771084
-0.274945
-0.842339
-0.889840
-1.773710
-1.321070
6.192817
5.048205
-0.154917
4.644015
5.703688
-0.300998
5.070143
5.469578
5.695118
5.589960
-0.844369
6.069640
5.544646
0.823104
5.384911
5.473377
-0.244470
4.552460
4.538082
5.835443
6.061643
0.096118
4.741193
5.552399
-0.168271
5.851801
5.090120
-0.993174
5.985455
4.658641
0.153182
0.843288
0.505011
4.569208
5.703662
0.739874
6.065117
5.592227
-1.047014
6.043904
5.630263
-0.039347
5.485878
5.731890
4.628350
4.778660
-0.387319
-1.350416
-1.286770
-1.210961
4.733017
4.989421
0.314667
6.257247
4.577102
5.389586
-0.403209
5.169398
4.996571
4.783265
-1.137540
5.639380
5.129912
0.454080
-0.002671
0.532789
0.567163
4.840685
5.101064
4.606220
6.026755
-0.424052
5.871494
5.396260
5.551301
4.787435
-0.632189
5.396191
4.992633
0.165209
0.359879
-0.261730
0.779297
0.051825
-1.033186
0.942076
0.553356
-0.602510
-0.352107
-0.014311
-0.103344
0.111671
0.160955
-0.200261
-0.406333
-0.989011
-0.434831
0.081617
0.580830
1.005354
0.342593
-0.467899
-0.024438
-0.586113
0.535696
0.264681
0.339810
-0.291099
0.997981
0.991297
-0.111906
-0.405374
-0.346842
0.300658
0.762473
-0.544128
1.260964
-0.678286
-0.466072
0.179073
-0.109944
-1.004655
0.378566
1.194463
0.881734
0.138278
0.924446
-0.406902
-1.067921
1.195480
0.790758
-0.070717
-0.113576
0.187899
-0.431311
0.972460
0.749713
-0.142326
0.722354
0.212370
1.057518
0.865923
1.245468
0.391280
-0.033794
0.084859
-0.445312
0.193317
0.125536
-0.443728
0.473415
0.889953
-0.659262
0.665566
0.331925
-0.349543
0.577429
1.276110
-0.632071
0.004506
-0.083625
-0.249984
0.382949
0.100947
-0.400238
1.289760
-0.611469
0.325898
0.259636
-0.239293
-0.434625
-0.077404
0.599435
-0.438776
-0.461346
-0.658912
0.310248
1.192798
1.297521
0.776005
-0.669052
0.583474
0.888463
0.903000
-0.239418
-0.186378
0.619232
0.109634
0.670041
-0.421345
1.145906
-0.523034
-0.256507
0.377784
0.456280
-0.134099
-0.633866
-0.085802
1.224337
0.215034
5.025535
4.817000
-1.005168
6.171596
5.181413
5.288124
5.078625
-0.245463
5.213045
5.147455
-1.265369
4.780151
6.240698
-0.468345
4.421932
6.177554
5.171135
6.107489
-0.414247
4.761671
4.760553
-1.388153
5.688833
4.823146
-0.256650
4.700798
5.612019
4.575715
4.941743
-1.471840
6.174956
5.466615
-0.945432
5.761324
5.399101
-0.201592
-0.960780
-1.670300
-0.866482
-0.974185
-0.275805
5.705513
5.467023
0.139177
5.951821
6.076991
-2.083554
4.900574
5.267750
4.525199
4.896333
0.600588
5.781279
4.376424
-0.713586
4.501403
5.419940
0.552069
5.232936
5.642491
4.851811
4.370846
-0.732922
4.967215
5.878813
-0.242432
5.094719
5.667401
-0.623803
5.804674
5.898609
-0.641663
-0.009590
0.000343
6.107010
4.462130
4.281946
4.596024
5.062536
-0.321437
4.373501
6.174398
0.208747
4.793534
6.166509
5.227607
5.539329
4.685063
-1.283681
-1.311112
-0.458622
4.870339
4.566372
-0.704001
5.382039
6.239970
6.225022
-0.666303
-0.708408
6.208682
4.681792
-0.468663
5.421491
4.284413
0.747301
-0.253287
-0.495215
0.713134
4.905178
0.889695
4.886931
5.652401
-0.548043
5.769064
4.917333
6.142972
5.836507
-0.230540
6.141186
5.381197
-0.519808
1.032349
0.715310
0.023429
0.917427
0.871353
-0.336131
0.666041
-0.015167
0.350030
0.032708
-0.710475
0.717266
1.473064
0.018307
1.009757
0.019886
-0.710228
0.160820
1.349134
-0.198673
0.377152
-0.216256
1.712442
1.086279
-0.745137
0.323653
0.303688
0.345858
0.586185
0.146832
0.259826
1.709313
-0.586863
0.984401
0.800911
-0.463376
1.260099
1.727232
-1.054325
-0.102911
0.078714
-0.333460
-0.128059
0.309745
0.590971
0.827761
0.201113
0.094351
0.303530
-0.641919
1.340348
1.777906
-0.009459
1.090152
-0.002022
-0.757195
-0.552050
0.886068
0.900871
0.396063
-0.522092
1.623044
1.059714
0.910465
1.505784
0.409713
0.784090
1.362024
-0.988167
0.482779
1.238216
-0.396943
0.212596
-0.050951
-0.874440
-0.615820
-0.306074
0.433847
0.706381
-0.394422
0.000556
1.500652
-0.810942
-0.140373
0.364675
-0.199068
0.002181
1.021824
0.139380
0.033824
0.202478
-0.079628
0.613962
-0.354475
0.375100
0.988134
-0.785703
0.763739
1.420537
-0.007986
0.437100
0.354601
0.909085
-0.187065
0.009398
0.829913
0.341035
-0.983920
0.223922
0.575502
-0.209401
0.296283
0.580793
1.270284
0.413547
-1.152392
0.692275
0.222548
1.049629
0.377765
0.203632
-0.273697
-0.231531
-0.846399
0.711243
-0.392793
-0.335219
0.077390
0.734915
1.073633
0.185462
-0.963891
0.607052
0.127623
0.458067
0.119884
0.745097
-0.053732
-0.046805
0.009759
0.858007
0.033546
0.872665
-0.323604
-0.278217
-0.852717
0.121406
0.414330
-0.113147
1.097026
0.406284
1.093653
0.543936
-0.398886
0.532229
0.795700
-0.456544
1.404322
-0.025877
-0.447114
0.837658
-0.660280
0.802021
0.274381
-0.464332
-0.463821
-0.181896
-0.732780
0.732895
0.908142
-0.477921
0.138703
0.712363
0.632774
0.712721
0.334580
-0.991971
0.382445
0.359858
0.933898
-0.448142
0.358260
0.902308
-0.242628
1.415980
-0.222560
0.209879
0.187586
0.022584
-0.453183
-0.151267
1.395011
0.303656
0.374540
1.205939
0.692423
-0.733760
-0.933722
0.440355
-0.359050
0.608837
0.932078
-0.304920
0.747921
0.692056
-0.457027
-0.387357
1.377323
-0.389395
-0.962722
0.242728
-0.049514
-0.227229
-0.457478
0.808701
-0.448180
0.251722
-0.218251
0.301946
0.934249
0.612093
1.286429
0.794380
1.207170
0.821551
-0.407030
0.031681
0.213501
-0.777976
0.039414
0.449505
0.918279
1.046748
0.893882
0.699337
0.282513
0.581670
0.254496
0.803934
-0.521830
0.281672
0.402370
33.601771
34.079375
32.208324
33.245056
-0.110283
32.988873
33.626287
-6.894812
33.484290
32.852890
33.795053
32.723276
33.698459
32.318812
33.102002
-0.842841
32.787616
32.379564
-6.969398
32.544705
34.030396
33.484000
57.941401
33.080782
33.592124
33.001849
-0.207237
33.461871
32.175795
-6.969102
33.071590
32.845255
33.707298
33.666991
33.861499
32.298339
32.601536
0.178691
32.603161
32.656150
-7.154404
-6.509640
-6.342855
-7.812598
33.408972
32.858559
33.990841
33.390484
-0.298592
33.527716
32.548386
-8.243708
33.947274
33.210871
32.780804
-1.033208
-0.878589
-0.945823
-0.085001
-1.512534
33.466283
34.159787
-0.644818
32.277840
33.786961
33.448728
33.819607
32.972187
33.563048
32.510947
-0.997341
33.654325
33.590147
-7.490316
32.724793
32.909685
-0.950950
32.765438
34.054484
33.086829
33.363952
0.113402
32.392150
33.872229
-6.862099
32.360392
32.648009
-0.055493
32.553352
-8.263769
-6.936129
-6.747050
-8.113539
-6.983600
-7.680898
-8.207281
32.537988
32.762117
-1.024050
32.479968
-6.488707
32.225357
32.670038
33.336137
32.449118
32.517012
-6.510299
32.497592
33.440341
0.146173
33.761021
-8.074919
33.647657
33.238512
32.708072
33.873378
33.941363
-7.892378
33.288053
32.724093
32.243382
4.235392
4.796569
4.408329
4.407454
4.805311
4.552989
-0.054339
4.808678
4.579567
-0.385012
4.880658
5.181545
4.421008
4.155232
4.195766
5.604047
5.319936
-0.277214
4.152601
4.362631
-1.059137
4.000295
4.727375
4.782131
9.422695
4.791439
5.619537
4.717147
-0.770122
5.075676
4.446174
-1.255359
5.372680
5.665956
5.957493
5.428357
5.107235
4.111646
4.899802
-0.784209
5.337022
4.841559
-1.065724
-0.800089
4.261415
4.603346
4.023970
5.172211
5.081437
4.196898
-0.921002
5.713713
5.814610
-1.079697
4.378010
-1.041531
-0.457207
-0.235630
0.658963
-0.288498
-0.783796
-0.881206
5.259332
4.516427
-0.338411
5.477393
5.888630
5.415763
4.466952
5.667975
5.703078
4.125114
0.283500
4.912254
4.904481
-1.328411
4.862648
4.743823
4.509548
4.888278
4.950407
4.580550
4.747122
0.183405
4.267657
4.300509
-0.024569
5.524062
-0.451229
5.464862
4.834389
-0.685653
-1.230167
-0.851882
-0.815367
-0.555632
-0.331507
-0.377990
5.620540
-0.497830
4.417787
5.989321
-1.284038
4.719947
5.423432
5.993135
5.128846
5.522915
-0.516126
4.829306
-1.460118
4.487038
5.996056
-0.791591
5.665401
4.768286
4.928521
5.436308
4.434624
-0.833667
4.248817
7.114079
0.651175
5.520396
5.987267
-0.385417
5.734490
6.651123
5.866955
6.027429
-1.854287
5.913641
6.188714
-0.276960
7.139082
6.732785
-2.169333
5.661153
6.992464
5.825102
5.608379
-0.926348
6.766307
6.404424
-0.367347
6.402146
6.581870
-0.404741
7.054702
5.549235
5.914296
7.236779
-0.655356
6.590036
6.207385
0.019422
5.617361
5.764976
-1.041249
-0.960193
-1.655645
-1.558483
-1.332508
-0.442982
7.309478
5.682160
0.723772
6.713154
7.172117
-1.297492
7.136325
6.004184
6.305839
6.964396
0.341969
7.329719
-0.329578
-0.883406
5.919611
6.214114
0.667740
6.897229
5.900037
6.849690
7.368911
-0.027595
5.480450
7.394429
-1.005625
6.618144
7.351253
-1.844167
7.287494
5.820350
0.131567
-0.399024
-0.490578
6.474808
6.622991
0.717017
7.391775
6.023181
-1.164432
5.495634
7.050409
0.403929
6.969390
6.532834
5.635780
-0.675112
-1.424138
-0.492674
-2.281588
-0.480311
5.682004
6.396614
-0.919798
5.948050
5.503693
7.166235
7.033424
6.667472
5.809614
7.403293
-1.998542
6.011474
5.544019
0.232088
-0.595717
-0.201320
-0.566756
6.414064
7.395920
6.937064
5.513549
-1.403292
6.898627
7.108985
5.847569
6.250801
0.057367
5.910608
-0.019372
-0.061190
-0.657843
1.478796
1.127925
0.188423
0.712455
1.325701
0.444786
0.715022
-0.525251
0.291125
-0.187450
-0.500470
-0.157556
0.954552
0.619875
0.335630
-0.111835
0.373707
0.940658
-0.548000
1.210834
1.652518
-0.060779
0.510400
1.495418
-1.018588
0.125511
0.103028
0.862283
1.237589
0.133795
1.346879
1.518358
-0.653755
0.606347
1.511473
-0.818280
-0.918310
-0.644716
0.043674
0.677064
-0.292693
-0.247198
0.777836
-0.819810
-0.021555
0.023497
-0.370002
-0.256818
1.062950
1.272390
0.657628
0.970670
0.265807
-0.293194
0.653489
0.811041
0.528774
0.917043
0.236562
-0.054566
1.595697
-0.167157
-0.556387
0.193160
1.265491
-0.521296
1.542362
0.541650
0.788064
1.462931
1.299526
-0.479093
0.938989
0.530365
0.766203
0.418205
0.852150
-0.169361
0.999942
-0.875544
-0.076276
0.638134
0.488062
1.543816
0.936507
-0.187608
-0.255125
-0.825812
-0.863513
-0.560422
-0.027748
1.588930
1.498359
0.796186
0.821919
-0.184550
1.090468
-0.021047
0.911432
0.067244
0.765544
-0.627594
0.509321
0.968840
0.502331
0.112434
-0.391138
0.409921
-0.028418
0.798635
0.900186
0.845078
0.562013
0.749175
1.015502
0.958803
0.631058
-0.322805
-0.386181
0.728299
0.349200
0.164568
1.084861
0.787457
0.151600
-0.612410
0.960670
0.139102
0.920127
1.002564
1.023852
0.534823
0.406868
0.927631
-0.586909
0.422369
0.607844
-0.396083
0.769230
0.304933
0.220937
0.055743
-0.234589
-0.574538
1.108121
0.616041
0.821417
0.828602
0.581823
0.129040
-0.946434
0.732696
0.363176
-0.871958
-0.696016
-0.085268
-0.150418
-0.051069
-0.579936
-0.101600
0.685956
0.365930
-0.581020
1.016510
0.512688
-0.423277
0.437672
-0.715025
0.636829
0.371293
1.239601
0.710836
0.316173
0.390715
0.066029
0.987403
-0.329625
-0.176007
0.364391
0.123475
0.707316
-0.380175
-0.211506
0.104346
-0.125475
0.957059
0.132311
-0.239840
-0.192639
0.142053
-0.440724
0.947847
-0.953671
-0.292840
-0.739664
-0.261194
0.614591
0.898075
0.655129
-0.548699
-0.223167
-0.384174
0.713854
0.218091
1.014850
-0.331697
0.860076
0.277760
-0.875034
-0.863869
0.105139
-0.241990
0.213792
-0.102854
-0.130836
-0.583756
0.460261
0.223817
-0.154163
0.556797
-0.591740
0.233218
0.850111
-0.161205
-0.001762
0.663677
-0.878826
-0.266444
0.523445
1.177990
0.481943
-0.682699
0.373608
-0.897992
-0.557128
0.863890
-0.667935
1.032333
-0.006650
-0.640586
-0.051712
0.991098
0.203588
0.285739
0.654157
0.024948
-0.161210
-0.284573
-0.332421
0.054923
-0.155776
-0.361127
0.259205
-0.353829
0.821124
-0.351188
0.227357
0.214051
-0.071946
-0.203317
0.407570
-0.735704
-0.747475
-0.648431
0.852758
-0.647397
0.612018
0.807273
0.784836
0.098483
-0.297930
-0.572967
0.458913
0.933153
0.054382
0.616314
-0.028175
0.932810
0.268676
0.762852
-0.399102
-0.541581
-0.624822
0.204085
-0.507102
0.706222
0.598220
0.001294
-0.968522
1.121148
0.482383
0.833191
-0.090209
-0.223512
-0.769703
0.714097
0.637195
1.219411
0.798801
-0.685234
-0.629289
-0.441693
1.070886
-0.751053
-0.468297
0.368125
0.307068
-0.899308
0.274858
0.482322
0.769256
-0.272446
-0.352502
0.550110
0.083930
0.878946
0.586871
0.860942
-0.473085
0.538489
-0.018299
-0.445168
0.077569
0.949178
-0.005722
0.213361
-0.572805
0.448279
-0.926215
-0.288353
0.502979
0.100216
0.300099
0.634091
-0.533720
0.236751
-0.652353
0.431058
0.918301
1.163418
0.627612
-0.387498
0.979006
-0.641119
0.056600
0.597762
-0.851625
0.767739
0.321947
1.000812
0.783549
0.718675
-0.736800
0.990263
-0.888875
-0.221428
1.043711
0.369708
-0.334216
-0.372150
0.697786
1.005733
0.058259
-0.369611
-0.075966
0.902053
1.330607
-0.093666
-0.689563
-0.293276
-0.379275
0.150745
1.177915
-0.003507
-0.242906
-0.481138
-0.457396
0.906672
-0.023342
0.822596
0.192262
-0.204004
-0.211073
0.244558
0.559115
0.665568
1.296099
1.139996
1.187390
-0.397168
0.312158
1.003381
-0.272835
-0.613241
1.273987
1.040846
-0.114297
0.100938
0.648291
-0.486723
0.000921
-0.724608
1.180045
0.848411
0.467552
-0.315183
1.056380
0.144499
0.275440
-0.445686
0.020189
1.363483
0.077552
-0.308344
0.470943
-0.234409
0.547011
-0.089888
-0.718877
0.319532
1.158381
-0.446917
0.138267
0.806456
0.612929
-0.350477
0.852566
0.111539
0.473547
-0.722394
1.057983
0.990060
0.614980
0.832565
0.378790
-0.061133
-0.534351
-0.372567
0.018211
-0.353764
0.835344
0.786522
0.460194
-0.736324
-0.439374
0.580563
-0.248461
0.257170
-0.027493
0.470760
-0.741938
0.328041
-0.463666
0.302184
1.016724
-0.554303
0.860591
-0.509627
0.964057
0.557555
1.382515
-0.483597
-0.588373
-0.079325
1.114903
0.727449
-0.150436
0.394354
0.721007
1.188400
-0.146300
0.760829
0.262612
0.091656
0.878366
0.220096
1.336441
-0.017923
-0.422736
1.266325
0.275430
2.702919
1.449569
0.515451
1.150796
1.046072
2.086710
1.988111
-0.554071
1.121340
2.697266
-0.649110
2.811489
2.470882
0.058667
1.411158
2.720610
1.816174
2.056571
-0.001477
1.686789
1.865596
-0.200865
1.347433
2.677500
0.399788
2.783962
1.508253
2.603441
1.628521
-0.609969
1.861033
2.316192
0.342878
2.706942
1.060487
-1.443473
-0.891273
0.207969
-0.958003
-0.528787
0.405574
1.539161
2.728685
-0.344265
2.382974
2.547199
-0.138449
2.271006
2.277086
1.691138
1.394926
0.257557
2.527129
2.732890
0.625020
1.905181
1.814691
0.454373
2.711047
1.670935
2.312699
2.357316
-0.706184
2.084431
2.966491
-0.883829
3.026866
1.806235
-0.939242
1.823423
1.761918
-0.234964
0.460302
0.345065
2.450318
1.646473
2.993437
2.210578
1.368324
-0.693132
2.434010
2.541620
0.698770
2.044317
2.956179
2.214980
1.562761
1.048860
-0.065533
-0.152183
-0.715637
2.569750
1.205694
0.570794
1.651014
1.134207
1.691371
-0.686752
-0.732216
1.822608
2.620261
-0.230068
1.448110
2.216826
0.083795
-0.082677
-0.226772
0.250445
1.141655
0.311582
1.521414
2.469354
0.201527
1.731502
1.875697
1.073900
2.548185
-0.300908
2.652317
2.235576
-0.389336
1.572272
1.602416
0.254882
0.111700
0.973327
0.765523
0.188147
0.765112
1.162540
0.662051
0.486030
0.948517
0.385542
1.122146
0.972757
1.281914
-0.080922
0.652182
1.312706
0.741283
0.000438
1.567444
0.697048
0.053613
0.578609
0.176026
1.007077
-0.137503
-0.984700
0.387251
-0.104851
0.790450
0.159610
1.022888
0.492851
0.170975
1.229442
0.580968
-0.159908
0.120736
1.039623
1.168120
0.593776
-0.082882
0.528436
0.726870
0.482068
1.069562
-0.245158
0.115797
0.483004
-0.163869
0.525470
-1.083886
0.870454
0.674921
-0.200441
0.467626
-0.596350
0.830115
0.938407
-0.618543
-0.220829
1.305736
0.968851
-0.321942
0.125224
-0.174580
0.627568
1.354604
0.090180
1.446998
0.338029
0.012726
0.882106
0.244390
0.762502
0.879176
-0.046097
0.504726
-0.146564
1.015772
1.004172
0.804844
-0.135899
1.266982
-0.513393
0.509011
0.015258
0.911649
-0.059912
0.064482
-0.704632
-0.388856
0.388043
0.022157
0.169692
0.496907
-0.257642
-1.013624
0.582770
-0.302792
-0.911427
1.290399
0.145673
1.307046
0.222411
0.301498
-0.501922
1.034243
-0.110792
0.924290
0.530485
-0.003493
1.444233
1.372864
0.256126
1.342541
1.610733
0.001024
1.212097
-0.684926
0.271954
0.775362
0.240002
0.838678
1.133767
0.697509
-0.566464
0.139395
-0.272126
-0.320609
-0.054922
-0.645215
0.766279
0.945012
0.401258
-0.323786
0.770738
-0.775887
-0.491912
-0.487883
0.454479
1.483177
-0.566418
0.802910
0.364936
-0.265266
-0.516324
-0.622502
0.332002
0.917871
-0.640677
0.709370
-0.651268
-0.337278
-0.318675
0.884880
0.697800
0.000444
0.132165
0.151712
0.855761
-0.150904
-0.769541
1.281562
-0.006239
-0.008906
-0.078600
-0.492204
1.051648
1.024726
0.392755
0.983482
0.837744
-0.034143
-0.975689
0.792604
-0.543070
-0.218890
0.183823
0.609217
-0.160508
0.573934
-0.528315
0.815771
-0.413515
1.115751
0.348825
1.157544
0.773532
0.883135
-0.108794
0.119666
0.646261
1.219168
-0.213711
0.585499
1.281215
0.621240
-0.059008
-0.212910
0.926068
0.494652
1.194817
-0.627475
-0.384412
-0.078152
0.176592
0.169859
-0.624829
-0.519113
0.432225
0.904278
-0.875140
-1.020316
0.291146
1.193994
-0.605093
-0.619360
0.749972
0.215392
-0.142350
-0.582726
0.478154
0.305719
0.617637
0.828702
0.073172
0.526208
0.300753
-0.343631
-0.908881
0.845986
-0.046508
0.198416
0.227566
0.686078
0.369941
1.275296
-0.435744
0.691385
-0.184780
0.819055
0.208180
-0.309984
1.247097
0.295894
0.053938
0.417547
-0.225479
0.327780
0.829692
0.054739
0.843407
0.101458
-0.027997
-0.350679
0.700096
-0.419128
-0.164719
1.367477
0.909960
0.070884
0.621676
-0.001142
-0.590495
1.397683
0.956175
0.020290
-0.311236
1.257535
0.525251
1.311278
0.796813
1.511445
1.206527
0.640416
0.296323
1.383822
-0.677256
0.617712
-0.313751
-0.624598
0.777336
0.791467
0.295649
0.021437
0.793890
0.672091
0.659465
0.756471
-0.151793
0.366394
-0.332282
1.261742
0.836700
0.481229
0.030424
0.201221
0.584125
0.537789
-0.474216
-0.313984
0.853100
1.289224
-0.395038
0.472001
0.520309
1.075777
-0.042111
0.263771
0.991793
0.070976
-0.390719
1.538490
-0.514260
0.043632
0.231967
-0.100238
-0.267408
-0.819539
1.078232
0.894373
0.602772
0.102876
0.181603
0.942533
0.793806
1.161114
0.236504
0.181100
0.459254
-1.026119
0.312469
0.104075
1.277438
1.110691
-0.231410
0.729750
-0.050073
1.085573
1.423985
0.398699
0.867729
1.283119
0.867357
0.595400
-0.077291
-0.057332
-0.559644
0.827846
1.519668
1.441398
-0.191975
-0.268694
0.291837
0.105855
0.902012
0.024113
-0.361672
-0.332771
-0.863265
-0.363237
-9.485550
-0.320425
-0.510205
-0.079966
-0.892248
0.064870
-0.110222
0.898253
0.037247
0.383303
0.154963
-0.815160
-1.069240
-0.226618
0.299955
0.466042
-3.255769
-0.893196
-14.504968
0.724056
-0.126559
-0.438309
0.143282
-0.044032
-0.318582
0.685790
-0.111724
0.975111
-0.213485
0.649224
-0.551117
-0.002317
0.047674
-0.112946
0.295300
0.668869
-0.621321
0.993896
-0.770363
-0.571408
0.777835
0.901221
-0.507675
-0.240531
0.855633
-0.457070
-0.119128
0.296427
0.172183
0.331844
-0.136941
0.201129
0.549552
-0.422939
-0.490773
-0.513809
-0.741545
0.574438
-1.112743
0.410734
-0.022536
-1.198562
-0.508541
0.738581
-4.514483
0.551210
0.630448
-0.980076
-0.883444
-1.286466
-0.137295
-4.732752
-0.946630
-0.149849
0.019894
0.242111
-0.132781
-0.055560
-0.368394
-0.215320
-0.645974
0.119319
-1.603051
0.319713
-1.280843
-0.271510
-0.685127
0.295150
-10.045787
-0.660982
-0.826281
-0.071013
0.218278
-7.312707
-0.877536
-0.937269
-0.467452
-0.362137
-1.201178
0.283736
-0.616764
-0.709198
0.039708
-0.169281
0.689646
-0.243014
-4.315689
-6.947851
-0.248410
-0.200244
-1.931903
-2.532121
-5.921358
-10.298176
-0.610974
0.047124
0.942894
-0.882847
-5.465995
0.587635
-0.847055
-0.773918
-0.652073
0.523082
-0.420602
-0.650930
0.871268
0.233084
0.601059
-0.184193
-5.127702
-0.639051
0.109042
-0.658971
-0.604206
-0.769935
-0.953390
-0.586778
23.298893
-7.804874
0.315062
-0.346824
-0.936034
0.115633
-0.017389
0.084255
-0.611263
-0.797275
0.252520
-0.913461
-12.702446
-1.993018
-0.939725
-0.783269
0.741157
0.582620
-1.178574
-1.068811
0.150775
-0.121307
-0.882813
-0.840458
0.605013
-0.159735
0.009935
-0.325956
0.821898
0.025096
30.954181
0.435992
-0.096823
-0.173688
0.132167
-0.694206
-0.418027
-0.847880
-0.010295
-0.522618
0.618459
0.142645
-0.076285
-0.658741
-0.218132
0.679442
-0.391811
0.873139
-0.065619
-0.676749
-0.976307
0.142312
-0.709184
0.542425
0.156150
-0.600620
0.778219
-0.735271
-0.599144
0.664749
-0.511283
-0.290736
0.280869
-0.423833
-0.999437
-0.606897
-0.191625
-0.930445
0.491864
0.118057
-0.900027
86.043781
-0.052958
-0.925517
0.632619
0.025392
0.993839
-0.442767
0.233568
0.918389
0.105854
0.823143
0.595459
-0.881476
-0.727532
3.458772
-0.355466
-0.136996
-0.100301
-0.069081
-0.241322
-0.177010
5.413944
-0.326411
0.134394
-0.546588
1.159431
-0.576036
0.897905
0.934017
0.417124
0.714321
0.106648
-0.408417
0.442360
0.423719
-0.631103
-0.792434
-0.849062
-0.167624
-0.373266
-0.003638
-0.854040
-1.932685
0.624155
0.468157
-0.192660
0.756409
-0.050927
0.115364
-0.711217
0.391018
-0.325843
-0.487536
0.068183
0.686205
1.539388
0.718475
0.314737
-0.532975
-1.330147
-75.460081
-0.108929
-0.024231
-0.164731
-0.922576
-0.288075
0.540007
-0.005054
0.870558
68.790389
-0.817849
-0.046450
1.734198
-0.829693
-2.482143
0.266847
-0.283904
-0.749718
-0.846073
-0.122240
-0.815906
-0.378668
-1.474469
-1.359116
-0.844640
-1.493890
0.039101
-0.437683
-0.960993
-0.412846
-0.579731
-8.445898
-0.094936
-0.104310
-0.945298
-0.962396
-0.479982
-0.074923
-0.949574
-0.732138
0.460939
-0.618861
-0.772854
-0.354663
0.793104
-0.248508
-0.413466
-0.531750
-0.491202
-10.220543
-0.383491
0.809627
-0.384733
-0.607700
-0.703364
-2.042498
-0.591351
0.681747
-0.994556
0.400509
-1.378396
-0.436648
-0.769580
-0.292893
-0.897051
1.039793
0.631249
-0.552839
0.839288
0.603884
-0.802900
-0.805946
-2.039956
-0.593585
-2.335317
-0.699045
0.508989
-0.327487
-0.436894
-1.515108
0.980220
-0.523679
-0.280239
0.541751
-0.147300
-0.628554
-0.534477
0.405038
0.731967
-0.647265
0.861784
-24.419447
0.549598
-0.038027
-0.232721
0.734642
-0.612544
-0.377313
0.245835
-0.181424
0.381501
0.718755
-0.047336
0.471085
0.593872
-0.057941
-0.538391
-3.869622
0.816584
-33.747990
0.206298
-0.797182
-0.169154
-0.457585
-0.716641
0.440831
-0.673785
-0.883476
0.396954
-2.538546
-0.839006
0.436179
0.842643
-0.391439
0.900131
-0.982308
0.291409
-0.605157
-0.552389
-4.141996
0.024838
-0.779408
0.530450
-0.115322
-0.728549
0.070375
0.734343
1.330788
1.049841
-2.421847
0.148957
-0.570204
0.356428
0.824707
1.096496
0.518039
0.152992
-0.733059
0.503307
0.384998
-2.955798
-0.144643
-0.782993
-6.113925
-0.058526
-23.742534
-0.794128
-0.891598
-15.310265
-0.978620
-0.763623
-0.616835
-0.013255
-0.894516
-4.656099
-2.341429
-0.037487
-2.607218
0.445132
-0.632419
-0.184820
-15.581220
-0.554488
-0.700909
-3.348595
0.179051
-8.152604
-0.263725
-2.096569
-1.847101
-1.243812
-0.829881
-0.861305
0.163529
-0.764128
-0.970163
-5.324908
-10.563979
-6.020977
-0.340773
-20.095019
0.006546
-5.756335
-14.282750
-7.640752
-0.522294
0.220510
-0.936396
-0.665550
-0.720523
-8.051268
-6.042283
-0.875313
-1.007502
-1.967466
-2.726372
-1.013229
-13.174970
0.478611
-0.427556
-0.385559
0.050595
-0.563053
-0.789184
0.908992
-1.145591
-0.569877
-0.467712
-0.769278
-0.155286
-1.054709
0.028946
-0.822653
0.411650
-0.209402
-0.671050
0.457723
-4.685726
-0.105415
-0.981615
2.432980
-0.407828
-0.568886
3.586305
0.118862
4.420147
0.707364
0.737571
0.862722
-1.000550
31.071356
-0.947450
0.806777
-0.327821
0.053882
-0.416193
-0.004427
0.696743
-0.787204
0.363307
-0.940269
0.020630
4.503788
-0.233344
-0.567240
-0.552603
-0.126500
-1.572546
0.589378
-0.447863
-0.788155
5.090155
-0.437978
-0.055000
-0.944222
0.485097
-0.597624
-0.806110
-0.763510
-0.781310
-0.692623
-3.370968
-0.557599
-0.553170
-0.032137
13.904753
-80.537402
0.393231
-51.090335
0.970242
-0.696172
-0.459863
0.050248
-0.520493
0.828919
0.811960
0.293268
14.951011
0.479252
-4.886426
-0.337418
-0.855788
-0.285123
-1.852400
0.376952
-3.857811
-0.725025
0.722003
-1.867720
-0.927502
-0.566891
0.022865
0.133892
-0.555611
0.969343
-5.741525
-92.244906
-95.792788
-4.544306
-1.160726
-49.514495
0.493257
-3.755435
-0.605023
-4.760006
-0.710497
0.634762
0.328826
0.738049
-4.125067
-21.432522
-0.225333
-0.303681
-0.719576
-0.249418
-0.477934
-0.310763
-0.558270
-0.688672
-0.670177
0.063030
-0.623881
0.189683
0.361468
0.569384
-15.334778
-10.585374
-0.121995
-2.869964
-0.355023
0.879023
-0.975137
-0.984160
0.068009
0.351125
-0.215220
-0.468413
-18.147914
-0.392027
41.986585
-0.387399
-0.572689
-0.292931
-4.310003
0.028027
-8.926576
-0.298838
0.697898
-1.522472
-0.603738
-1.398536
-4.657263
-0.672644
-0.663270
-0.398775
0.875182
-12.810780
-13.090760
-1.826173
-1.568993
-6.567835
0.225672
-0.557021
0.575021
-10.521137
0.387491
-0.172527
-0.981631
-0.324050
-0.669784
-2.998061
-8.649926
0.092212
0.231402
0.187717
-3.606540
-0.725949
0.880287
-0.514728
0.729810
-0.681947
-3.100019
0.854630
-0.850873
-0.249623
-0.078233
0.029099
-0.529663
-1.283527
-0.518671
-0.372646
-0.787406
-0.514218
0.502174
-0.434835
0.228626
-0.923691
-1.218851
0.463056
-5.241057
-0.484668
0.571275
0.436488
-1.662266
-0.127784
-2.007834
-0.360868
-0.342859
-0.947387
-1.739266
-0.023805
-0.526290
-0.029526
-0.105463
-0.988191
-0.105126
-0.530922
-0.370813
-0.421374
-1.021544
0.310297
0.188149
-2.276306
-0.725125
-3.277691
0.605175
-0.590328
0.176783
0.300555
-1.075957
-0.202614
-0.757612
-0.026700
0.880537
0.114723
-1.302630
0.181049
0.411117
-0.504214
-0.699500
0.553774
1.297967
-0.581344
0.626424
-0.926262
-0.710942
0.250299
-0.995508
0.077540
-0.658589
0.861625
-0.997879
0.033077
0.606732
-0.988047
-0.544515
0.813087
-0.874300
0.526582
13.247605
-0.455243
0.230528
-0.044638
-0.908507
0.914414
-0.284239
-0.466109
0.236538
-0.387319
-0.669809
-0.877538
-0.759424
0.218712
0.089662
-0.558928
-0.194530
0.623179
-0.661088
0.185734
0.683022
0.196690
0.929262
-2.766800
-0.254070
-4.198539
0.929460
-0.746016
-0.205644
0.559625
-1.147959
0.965042
-0.065673
-0.244464
-0.613074
-0.325767
-0.492413
0.252096
-0.643611
-0.167296
0.735735
-0.658625
-0.979258
-0.349311
-1.499495
-0.804848
-3.812130
-0.629319
-1.084466
-1.521067
-0.676036
0.595365
0.205679
-0.205416
0.219756
0.192652
-0.061712
-0.755762
-0.863254
-0.739975
1.614635
-0.496836
-1.785490
-0.717348
-0.690411
-1.558823
0.055889
-0.985974
0.749892
-0.889127
0.082971
-0.601164
-0.105157
-0.255385
-0.878803
-1.390322
0.711750
-1.471858
-1.416837
-0.125219
-30.471152
-2.233592
0.312389
-0.719024
-1.447680
0.055690
0.866718
0.152167
-0.752856
-1.033880
-0.767444
-1.755797
-0.119812
0.569217
-0.728741
-0.492752
-0.354893
-0.426369
-1.394921
-0.552805
0.489561
-0.200581
-0.405101
-1.117245
0.516233
-0.529072
-12.875756
-7.647856
-0.636885
-2.398130
-0.428818
-0.728568
-0.498671
-1.330808
-0.785867
-0.875329
0.498589
-0.497208
-14.650273
0.434034
-0.918803
-0.337357
0.348924
-2.223236
-0.383706
-0.984418
-0.098330
-0.859338
-0.373690
-0.705749
-0.874550
-0.743484
0.024741
-0.291639
-0.164748
-2.372026
-0.621604
-10.077636
-11.315787
-1.865941
0.540734
-5.576169
-0.476478
-0.914647
-0.743572
-0.987097
0.076269
0.059846
-1.570355
-1.111222
-0.310384
-1.850831
-4.253880
0.173331
-1.151258
-0.592425
0.329850
-0.015831
0.484489
0.112518
-0.553061
-0.009359
-0.662496
0.050382
0.297767
0.231119
0.008019
-0.086384
-0.363697
0.058815
0.187210
-0.978024
-1.340478
0.740198
0.389856
-0.858775
-0.282007
0.405110
-0.726049
0.467149
-0.986801
-0.127087
-0.064125
-0.347484
-0.568569
0.599245
-0.716820
-0.599445
-0.533052
-0.515358
-0.766426
0.289818
-0.981187
-0.842566
0.513850
-0.819745
-0.151165
-0.299098
0.735878
-0.030198
-0.906516
-0.501013
0.340673
-1.787126
0.508724
-0.363803
-0.313930
-0.987266
-0.445986
0.005870
-0.530434
-0.487986
-2.787351
-0.890879
0.816029
-0.500631
0.455687
0.343855
0.378775
-0.671800
-0.300919
-0.417275
-9.422371
-0.354858
-0.717355
0.407287
-0.427110
0.332956
0.639625
0.527029
0.059078
-0.736724
-0.113534
0.363507
-0.272521
-0.662139
0.564586
-0.428604
-0.778648
0.703008
-12.533559
-0.616255
-0.273721
1.138161
0.303294
-0.917749
-0.519624
0.618052
0.229570
-0.476770
0.203400
0.803723
-0.780050
0.133815
-0.812537
0.088554
0.862580
-0.612136
-0.733329
0.806746
-16.304442
-0.351081
0.768439
-0.664239
-0.585273
-0.968018
0.312283
0.006150
0.328993
-0.758183
-0.847731
-0.196670
0.087884
-0.562600
-0.272499
0.426847
0.568594
0.078367
0.463820
-0.519988
-0.022015
0.221924
-0.774657
-1.486755
0.052388
-0.171980
-1.107517
0.549491
0.058357
0.063518
-1.348229
-0.744585
0.294854
-1.420689
-0.889274
-0.380083
0.168538
-0.175164
-0.904430
0.420686
-0.951948
1.279813
0.634078
0.101863
-0.416417
0.066626
-0.878902
0.198426
0.121852
0.014961
-0.435409
42.329563
1.473490
-0.457187
-0.226389
-1.337245
0.337667
-0.652782
0.236240
-0.858609
0.012243
0.551970
-0.746543
2.620882
0.490848
-0.301753
0.278360
-0.747031
-0.091324
-1.088633
0.228227
0.104670
-0.091740
-1.187147
-1.098211
-0.663318
-0.644364
0.240555
-0.963518
0.712716
-0.147754
-0.555508
-1.693526
-1.650681
0.183949
-0.039590
-5.813729
0.431151
0.401010
-0.915328
-2.916109
-1.482284
0.358683
-7.503096
-2.237939
-0.775860
-0.122605
0.041228
-2.322209
0.701127
-1.093933
0.165562
0.017999
-0.525894
0.331605
0.655952
-0.225839
0.322657
-0.313163
0.764966
-14.190396
-0.127058
-0.813629
-0.040918
0.677272
-10.337083
-0.778302
0.399408
-0.114985
-1.168182
-24.703299
-0.556552
0.320917
0.171557
0.162747
-0.565221
-0.065753
-0.026968
-5.313144
-8.851357
-0.483502
0.224906
-0.880318
-3.220839
-7.544686
-11.637353
-0.836301
0.625672
-0.556820
0.565731
-6.414658
-0.765440
-0.481613
0.303115
-0.353373
0.367653
-2.576800
-0.879974
0.989243
-0.903172
0.261444
-1.326241
-1.720826
-2.123276
0.079415
0.772325
0.195757
-0.341549
-0.972030
0.948084
36.854680
-1.731547
0.575886
-0.225396
-4.281253
0.600679
-6.458485
-0.611243
-0.410264
-0.948562
-4.509613
0.194927
-3.614260
0.029050
0.195856
-3.471630
-0.732684
-0.288490
0.864129
0.005817
-1.196818
-0.829163
0.006776
-6.665088
-0.164988
-0.201764
-0.338058
-0.300532
-2.235786
-2.658229
11.837663
0.325941
-7.285139
-1.324823
-2.464179
-4.466279
0.304556
-0.940705
-0.600063
-0.317092
-1.702358
0.893529
0.616274
0.103565
0.550200
-0.755964
-0.186119
-0.487575
0.415321
-0.027654
0.219822
0.547807
-0.779073
-0.030013
0.692592
0.496050
0.689855
0.681489
0.099303
-0.887491
-0.295929
-0.920224
-0.842741
0.274287
-0.739043
0.903617
-0.214019
-0.432021
-0.076066
-0.553216
0.045683
0.092945
-0.223746
-0.091005
-0.563622
0.582689
0.784541
0.527948
0.075187
-0.417845
0.401953
0.478467
0.520645
0.561170
0.081688
-0.593447
0.337996
-0.542680
-0.806695
0.790008
-0.465116
0.602014
0.468275
-0.667011
0.705926
-0.855363
0.804004
-0.966298
-0.604757
-0.185998
-0.101264
-1.359586
4.978072
56.158070
-14.374210
-18.256701
-9.477671
-19.724402
15.189901
-20.556617
9.382917
21.314802
6.932061
-9.209427
-4.849183
-2.294611
6.329686
-19.155024
-5.084391
-10.767575
17.021769
