0.405080
0.517743
0.526281
-0.906310
0.838866
0.175815
-0.333418
0.709420
-0.242057
0.389383
0.015826
-0.122438
-0.859802
0.731110
-0.111724
-0.299348
-0.705700
0.824226
-0.776173
0.391111
0.653200
-0.419545
0.423134
0.105564
-0.415940
0.221648
-0.913000
0.432769
0.749897
0.164756
-0.786276
0.154977
-0.317500
0.740004
0.248667
-0.478635
-0.084180
0.915249
-0.769215
0.673763
0.304632
0.246611
-0.448675
0.444830
-0.022278
0.439600
-0.854518
0.272021
0.263827
-0.630690
-0.336868
-0.082973
-0.050236
-0.913734
-0.977409
0.533824
0.307915
-0.890409
-0.033407
0.057812
0.274347
0.180317
-0.787212
0.956847
-0.079679
0.461455
-0.521788
0.836141
0.376705
-0.291003
0.509903
-0.318663
0.955609
-0.938772
-0.873833
-0.066670
0.500828
-0.728350
-0.794649
-0.235345
-0.359041
-0.131516
0.681682
0.590724
-0.045250
0.704273
0.124548
-0.737335
0.813864
-0.908859
0.320476
0.088211
0.271457
0.533265
0.045058
-0.808222
-0.005280
0.523270
-0.972081
-0.628576
-0.767733
0.537822
0.052761
-0.812124
0.599050
0.178928
0.121206
0.099878
0.450578
0.326557
0.864533
-0.908463
-0.804959
0.546215
0.682261
0.149791
0.250488
-0.193191
0.412455
0.064351
-0.102050
-0.267068
-0.847438
-0.830593
-0.733804
0.197620
-0.638815
0.260916
-0.279110
-0.610896
0.632341
-0.046843
0.926926
-0.314898
0.141033
0.525976
0.864030
-0.737760
-0.374146
0.314608
0.588797
-0.509613
0.406146
0.783838
-0.963398
0.088407
-0.066371
0.287089
0.895216
-0.653916
-0.648560
-0.206834
0.079016
-0.495997
-0.037427
0.345212
0.701623
0.323759
-0.393872
-0.577487
0.712863
-0.761531
