-0.683696
-0.818455
0.626970
0.334650
-0.282090
-0.994179
-0.689699
-0.036338
0.799988
0.223884
-0.977382
-0.184666
0.737992
-0.310498
0.646612
0.042328
0.243004
-0.207866
-0.490929
-0.283429
-0.002540
-0.717781
0.990084
0.978183
0.665408
-0.734772
-0.887871
0.369731
-0.096446
-0.057966
-0.751149
0.219859
0.123580
0.875821
-0.445492
0.841489
0.881642
-0.135191
-0.194849
0.681630
-0.911307
-0.172231
-0.503036
0.826685
0.517271
-0.856424
-0.130987
-0.239725
-0.064290
0.378083
0.476845
0.933170
0.660302
0.466930
0.911353
0.325709
0.732158
-0.976518
-0.304560
-0.364288
-0.034483
-0.055709
0.855571
-0.910904
-0.179888
-0.589921
0.930586
-0.298246
0.274888
-0.264263
-0.616616
0.363582
0.563505
-0.119652
0.190267
0.080776
0.023924
-0.940721
0.841051
0.959634
0.437363
0.317897
0.892804
0.097665
-0.215173
0.804157
-0.576626
-0.483016
0.827639
0.118814
0.152696
-0.206844
-0.936895
0.008267
-0.117748
-0.116783
0.418346
-0.187162
0.584971
-0.306766
0.548575
0.968356
-0.943184
0.112080
-0.151296
0.247083
-0.807144
0.872629
0.306362
-0.966092
0.832263
-0.256275
0.351804
0.725067
0.841390
-0.863369
0.529224
-0.735236
-0.346385
0.356863
0.383579
0.806311
-0.849981
0.446684
-0.185422
0.032271
-0.670099
-0.767076
0.845109
0.914872
-0.073841
0.393684
0.883228
-0.017025
-0.494236
-0.268068
-0.769943
-0.301380
-0.395439
0.536419
-0.267472
-0.563176
-0.719856
-0.915668
-0.838109
-0.878466
-0.779037
0.691114
-0.613702
-0.125421
0.047977
0.769877
-0.319110
0.197996
0.216561
0.495468
-0.769732
0.546461
0.728393
-0.924623
0.461334
-0.345449
