-0.756830
-0.255928
0.055360
-0.225482
0.899928
0.366765
0.630101
0.241018
-0.129734
0.189187
-0.170388
-0.896491
0.197939
0.802487
0.707394
0.755962
0.181678
0.771243
0.676479
-0.234734
0.730334
0.320083
-0.610350
0.913410
0.899152
0.808596
-0.770817
0.981481
0.391804
-0.507419
0.524835
0.634974
0.236653
-0.419805
-0.590508
0.136581
0.946960
-0.960407
-0.622401
-0.182774
0.228780
0.207211
-0.079265
-0.573281
0.009698
-0.371871
-0.817318
-0.808624
-0.600628
0.859161
-0.043358
-0.870294
0.179244
0.346292
-0.956884
0.078396
0.154888
-0.727701
0.059877
-0.453308
-0.235120
-0.415289
-0.818334
-0.998467
0.164906
-0.408842
0.138114
0.111866
-0.369249
0.515713
0.929091
0.859531
-0.277076
-0.150174
-0.713750
0.732622
0.477956
-0.531069
0.923998
0.877328
-0.671908
-0.119361
-0.992966
0.507336
-0.773069
-0.949850
-0.414269
0.381820
-0.677551
0.645608
0.928512
0.087330
-0.769681
-0.889822
0.088863
0.395225
-0.298664
-0.773024
-0.492909
0.332087
0.742689
-0.563817
0.191617
-0.534387
0.286009
0.477867
-0.801765
-0.236035
0.946798
-0.877767
-0.358707
-0.725110
0.002872
-0.351673
0.782226
0.229803
-0.301523
-0.632042
-0.388377
0.020926
-0.986434
-0.459865
-0.891744
-0.756115
-0.349687
0.197118
0.639111
0.351648
0.424094
-0.853798
-0.316265
0.166783
-0.417615
0.875352
0.632396
0.868394
0.353219
0.830630
-0.367641
0.300017
0.952863
0.273651
0.574907
-0.044265
0.921978
0.357133
-0.814462
-0.379545
0.725091
-0.202839
0.641381
0.738656
0.337296
0.749636
0.982542
0.987609
-0.053246
0.621652
0.339257
-0.629152
0.767854
-0.977008
