-0.914391
-0.545404
-0.152674
-0.289947
0.903541
-0.553994
-0.357657
-0.824961
-0.898181
-0.652871
0.041069
-0.359083
0.224482
-0.117869
0.642910
-0.468512
-0.251947
0.442389
-0.871355
-0.268462
0.368254
0.705000
-0.858538
0.790499
-0.217395
-0.176882
-0.488067
-0.422270
-0.584390
0.979354
-0.078781
-0.498781
-0.566050
0.768545
0.211272
-0.662509
-0.785449
0.853616
-0.487469
-0.683630
-0.799255
0.553599
-0.042713
0.425227
-0.564270
-0.399804
0.956714
0.183783
-0.957415
-0.914641
0.915321
0.410839
0.790359
-0.943217
0.201338
-0.427037
-0.120100
0.713271
0.150693
0.295510
0.692625
-0.928088
0.796730
-0.873424
0.840457
0.008002
-0.535933
-0.944992
-0.138382
-0.023403
-0.628622
0.062363
-0.469803
0.328664
-0.512411
-0.034073
0.928861
-0.555696
-0.850290
0.971446
-0.470337
-0.934968
0.382285
-0.679979
-0.878186
-0.416377
-0.107015
0.001714
-0.703106
-0.956322
-0.702775
0.989520
-0.884410
-0.906046
-0.883905
0.956046
0.101957
-0.419838
-0.988946
0.963575
0.556759
-0.617568
0.025937
-0.913044
0.711096
0.513527
0.052883
0.639957
0.957830
0.202593
0.611403
-0.512507
0.267625
-0.006312
-0.192486
0.389439
0.577311
0.700499
-0.608846
0.874205
0.744177
-0.311622
0.863725
0.859766
-0.217667
0.979821
0.815813
0.884290
-0.440017
0.826867
0.847864
-0.883258
-0.790702
-0.126198
-0.796302
0.920394
-0.612672
0.256581
0.560351
-0.654841
-0.540826
0.171753
-0.167348
0.726799
-0.834559
0.640166
0.116238
0.742752
0.340664
0.507392
0.616957
0.084841
-0.804230
0.480682
-0.055393
-0.021897
0.460503
-0.239580
-0.137607
-0.979515
-0.412713
-0.289743
