-0.332134
0.681191
-0.779633
-0.278422
-0.011119
-0.665241
0.155112
0.101033
0.930446
-0.856701
0.442498
-0.938398
0.596037
-0.965454
0.517752
-0.698190
-0.321574
-0.883376
-0.805868
0.758355
0.501562
-0.364502
-0.437141
-0.085618
0.217829
0.959453
0.796008
0.115262
-0.988108
0.593903
-0.275035
-0.320243
0.275094
-0.054667
0.401335
-0.736025
0.280092
-0.443553
0.365008
0.210538
-0.300255
-0.192494
0.272140
-0.704217
-0.157948
-0.210108
-0.402407
0.520478
-0.093484
-0.208275
0.278833
-0.591922
0.427223
0.841692
0.322460
-0.354948
0.801145
0.118468
0.760314
0.813037
-0.287629
-0.514720
-0.507206
0.987465
0.430612
0.894129
-0.748560
-0.289296
-0.549424
0.616448
0.921242
0.150321
-0.576046
0.193382
0.446104
0.266006
0.983274
-0.956303
-0.213517
-0.110210
-0.164578
-0.934684
0.297868
-0.737355
0.907008
-0.379673
-0.092302
0.708153
0.738795
-0.331988
0.521189
-0.548834
0.153291
-0.986016
-0.561369
-0.416096
0.908113
-0.309929
0.294608
-0.641311
-0.693481
0.215850
0.509010
-0.269527
-0.590768
-0.044886
0.996479
-0.607493
-0.001189
-0.217038
0.282296
0.834233
-0.151722
-0.419836
-0.903122
-0.244714
0.200492
0.004576
-0.536561
-0.060713
0.672587
0.984628
0.390452
-0.174121
0.998612
0.829083
0.409783
0.906725
-0.480846
-0.295609
-0.734586
-0.174327
0.920241
0.774424
0.556146
-0.670526
-0.270461
0.552625
-0.278019
0.728350
-0.664413
-0.995723
0.562583
0.183866
-0.415559
0.659461
0.939152
0.784933
-0.335964
-0.597409
-0.275781
-0.663376
-0.612781
-0.885328
0.162503
-0.614169
0.943755
-0.427715
-0.707444
-0.537091
0.276676
-0.442030
