0.284228
-0.293556
-0.553607
0.929044
0.470070
0.549234
0.741327
0.232245
-0.730016
0.047761
-0.859386
0.509509
0.794456
-0.653599
0.683313
-0.821196
-0.695019
-0.891940
0.611128
-0.412166
0.212287
-0.453865
0.843165
-0.312007
0.417808
0.989228
0.431748
0.408310
0.963626
-0.441144
-0.417511
0.247855
0.265300
0.028882
0.176899
-0.264630
-0.421885
-0.081774
0.967616
-0.151900
0.965987
-0.891770
-0.642391
0.760443
-0.545370
-0.959078
0.939247
-0.240389
-0.851019
0.550374
0.347445
0.361268
-0.903490
0.190610
-0.950739
0.514318
0.179838
0.481009
-0.077372
0.143465
-0.960135
0.505117
-0.608680
0.305165
-0.466002
0.568219
-0.959464
0.112114
-0.513555
-0.991848
0.960214
-0.547568
-0.883619
-0.682177
-0.787126
-0.428988
-0.641256
-0.847879
0.330623
-0.492275
0.702495
-0.321932
0.868993
0.799005
0.868678
0.918254
0.313323
0.048517
0.399264
-0.764050
-0.808019
0.439129
0.741067
-0.416699
-0.255706
-0.724935
-0.848480
-0.215170
0.387179
-0.362036
-0.207019
0.347393
0.090396
-0.090637
0.665215
0.303271
0.480374
-0.976040
0.455392
-0.189002
-0.468315
0.157887
0.489066
-0.599322
-0.043108
0.357744
-0.681067
-0.729785
-0.593739
0.718196
-0.493835
-0.401758
0.157325
-0.752768
0.181543
0.901619
-0.477703
0.333063
-0.313551
0.909476
0.971027
0.479430
0.256869
0.061423
-0.611207
-0.077915
-0.635306
0.869167
-0.053956
0.820085
-0.319836
0.477729
-0.022028
-0.830770
0.878407
0.934865
0.526974
-0.802660
-0.794921
0.933235
0.915536
-0.288756
-0.468523
0.072861
-0.041524
0.713020
-0.025520
0.480774
0.046083
0.660928
0.390250
0.017110
