-0.029117
-0.808020
-0.414154
-0.981139
0.961857
0.266736
0.216857
0.178418
-0.237795
0.447125
-0.275121
-0.509403
0.522501
-0.813787
0.145149
-0.008438
0.530775
-0.217325
-0.033614
0.607268
-0.349741
0.639830
-0.711677
-0.945738
0.045803
0.406201
0.738409
-0.463893
-0.314030
0.544091
-0.752625
0.656854
0.736071
-0.166779
0.675714
0.697928
-0.900042
-0.107429
-0.123654
-0.137838
-0.660304
0.601225
0.352760
0.862197
0.787438
-0.502091
-0.146241
0.318212
0.280584
0.820145
-0.074519
0.930842
0.459976
0.213804
0.985104
-0.494222
-0.379995
0.723513
0.041885
0.305976
0.267605
0.289260
-0.037171
0.003676
-0.877518
-0.361456
-0.298396
-0.777561
0.531115
0.577950
0.084602
0.870811
0.179176
-0.562639
0.733009
-0.033386
-0.064730
-0.413232
-0.715174
-0.784147
-0.593087
0.210307
-0.853304
0.866888
-0.575889
-0.868200
-0.627334
0.044116
0.855313
0.414552
-0.649908
0.122917
-0.296188
0.312921
-0.873407
-0.173707
0.951465
-0.171802
0.048733
0.482580
-0.593852
-0.866666
0.353391
0.585324
-0.429304
0.086400
-0.448063
0.505965
0.673168
-0.163237
0.721819
-0.919920
-0.952930
0.868514
0.946969
-0.528819
-0.999686
-0.680365
0.515297
0.855627
0.734187
0.865389
-0.021456
-0.562002
0.178310
0.105138
0.264292
0.129775
0.933335
-0.686975
-0.387645
-0.660517
-0.553641
0.965746
0.924807
0.017055
0.052146
-0.523255
-0.476980
-0.274686
0.313508
-0.755161
-0.194606
0.360578
-0.886647
-0.247637
0.831759
-0.886333
0.071998
0.347056
0.969294
-0.193816
0.212445
-0.052162
0.244183
-0.609245
-0.947024
-0.491525
0.520529
0.986311
-0.178501
-0.867116
