<<<<<<< HEAD
0.303500
-0.360954
0.557001
0.232759
-0.013358
0.926330
-0.151348
0.274293
-0.136526
0.111932
0.824813
-0.687254
-0.762199
-0.521265
0.799753
0.807460
-0.220678
0.146940
-0.655067
0.856754
0.937154
-0.180543
0.059147
-0.108028
0.939217
-0.410302
-0.543500
0.275804
0.504683
-0.978392
0.713998
-0.191817
-0.339346
0.270998
-0.959058
0.647295
0.197328
-0.110406
-0.078412
-0.939197
-0.998475
-0.253599
-0.626452
-0.760674
0.225135
-0.826699
-0.953214
-0.995543
0.320241
-0.608280
0.861211
0.257395
0.211177
-0.079642
-0.850633
0.150395
0.510056
-0.394133
-0.573801
0.014739
-0.372525
-0.859803
0.822921
0.288129
0.411196
0.863863
-0.064576
-0.391476
-0.246543
0.857012
-0.330674
-0.245018
-0.396587
0.042874
-0.005692
0.828549
0.216175
0.041094
0.833006
-0.463584
0.432814
0.694217
0.793811
-0.356009
-0.385425
0.943178
0.794386
-0.875370
-0.450955
-0.779415
0.139369
0.176520
-0.639218
-0.037710
-0.535351
0.771978
-0.173847
0.400073
-0.619499
0.579610
0.257085
0.049828
-0.665409
0.860498
-0.907298
0.328900
0.689047
0.308877
-0.630006
0.522053
0.845293
0.802808
0.216269
0.639103
-0.553200
0.830844
0.582281
-0.758814
0.955474
-0.868674
-0.538229
0.094843
0.307846
-0.177447
-0.942868
0.772495
-0.405469
-0.116715
0.172568
-0.024968
-0.537105
-0.570347
-0.975140
-0.202514
-0.709849
-0.882438
-0.873614
0.979198
0.426439
-0.503620
0.501251
0.271732
-0.700812
-0.282480
-0.089164
-0.254012
-0.451636
-0.506883
-0.012826
-0.496162
-0.375556
0.448945
0.598680
0.932290
-0.728502
0.655813
0.704785
-0.133971
-0.460902
-0.122647
0.841062
0.001993
=======
0.284228
-0.293556
-0.553607
0.929044
0.470070
0.549234
0.741327
0.232245
-0.730016
0.047761
-0.859386
0.509509
0.794456
-0.653599
0.683313
-0.821196
-0.695019
-0.891940
0.611128
-0.412166
0.212287
-0.453865
0.843165
-0.312007
0.417808
0.989228
0.431748
0.408310
0.963626
-0.441144
-0.417511
0.247855
0.265300
0.028882
0.176899
-0.264630
-0.421885
-0.081774
0.967616
-0.151900
0.965987
-0.891770
-0.642391
0.760443
-0.545370
-0.959078
0.939247
-0.240389
-0.851019
0.550374
0.347445
0.361268
-0.903490
0.190610
-0.950739
0.514318
0.179838
0.481009
-0.077372
0.143465
-0.960135
0.505117
-0.608680
0.305165
-0.466002
0.568219
-0.959464
0.112114
-0.513555
-0.991848
0.960214
-0.547568
-0.883619
-0.682177
-0.787126
-0.428988
-0.641256
-0.847879
0.330623
-0.492275
0.702495
-0.321932
0.868993
0.799005
0.868678
0.918254
0.313323
0.048517
0.399264
-0.764050
-0.808019
0.439129
0.741067
-0.416699
-0.255706
-0.724935
-0.848480
-0.215170
0.387179
-0.362036
-0.207019
0.347393
0.090396
-0.090637
0.665215
0.303271
0.480374
-0.976040
0.455392
-0.189002
-0.468315
0.157887
0.489066
-0.599322
-0.043108
0.357744
-0.681067
-0.729785
-0.593739
0.718196
-0.493835
-0.401758
0.157325
-0.752768
0.181543
0.901619
-0.477703
0.333063
-0.313551
0.909476
0.971027
0.479430
0.256869
0.061423
-0.611207
-0.077915
-0.635306
0.869167
-0.053956
0.820085
-0.319836
0.477729
-0.022028
-0.830770
0.878407
0.934865
0.526974
-0.802660
-0.794921
0.933235
0.915536
-0.288756
-0.468523
0.072861
-0.041524
0.713020
-0.025520
0.480774
0.046083
0.660928
0.390250
0.017110
>>>>>>> 2a8f2dbe8158a174eb3f1077d34ba448bc182afc
