0.822895
-0.376614
-0.152357
0.272178
0.348790
-0.906031
-0.323104
0.931636
0.171047
0.040971
-0.555977
-0.504094
-0.075622
0.223358
0.149799
-0.835418
-0.456285
-0.512654
-0.397662
0.401684
-0.665528
0.557905
0.361830
0.137845
0.677344
0.818564
-0.502008
-0.243705
-0.232136
0.896128
-0.953069
0.252019
0.380474
0.494582
-0.365290
0.598720
0.498921
0.472109
0.977346
-0.347939
-0.764960
-0.110185
0.676593
0.960903
-0.500218
0.634345
-0.306079
0.825711
-0.179285
-0.249040
-0.708737
0.699250
-0.311642
0.671035
-0.755199
-0.830547
0.746900
-0.694960
-0.353013
0.594332
0.756420
0.374218
-0.519874
-0.961518
-0.680139
0.724916
-0.511725
0.968267
-0.413567
0.018784
0.552485
0.269456
0.746664
0.103120
0.738099
-0.635698
-0.407500
-0.360270
0.576105
-0.405013
-0.102659
0.938402
-0.371045
-0.504979
-0.338927
0.934549
0.643357
-0.218638
-0.414671
0.887122
-0.896921
0.953009
-0.440691
-0.550058
0.320167
0.611461
-0.830503
-0.306262
0.267076
-0.309491
-0.347159
-0.702506
-0.274269
0.432592
0.369411
-0.003141
0.399789
-0.894003
-0.085574
-0.985922
0.521338
0.950319
-0.966384
-0.811762
0.672336
0.255773
-0.002322
-0.272757
0.773385
0.930691
0.008742
-0.787703
0.487903
-0.108169
-0.279199
-0.737304
-0.961726
-0.057461
-0.185454
0.404032
0.199639
-0.475610
0.926023
-0.820991
0.774152
-0.872472
0.289228
0.575311
-0.298308
-0.360860
0.960338
0.667087
0.281688
0.600233
0.850871
0.019888
-0.501698
-0.468195
-0.112668
-0.211739
0.412420
0.609103
0.931439
-0.883423
0.484274
0.356351
-0.233894
0.982991
-0.925507
-0.929776
0.760851
0.734268
-0.847913
0.310378
0.958107
0.852262
-0.967555
-0.302192
0.857852
-0.147111
0.550673
0.577953
-0.176326
-0.350437
-0.784277
-0.386880
0.413106
-0.250615
-0.118201
-0.147753
0.780362
-0.621288
-0.654652
-0.782835
0.729197
0.409055
0.005403
0.696041
-0.241648
0.396876
0.617484
0.148723
0.633667
-0.705748
-0.399657
-0.024265
-0.400848
-0.306065
0.634119
0.908000
-0.012469
-0.687803
-0.070971
0.086141
0.529448
0.304089
0.853796
-0.191980
0.293391
0.788233
-0.364383
0.911634
-0.317388
-0.272180
0.281671
-0.800944
-0.887157
0.078989
-0.594484
0.726182
0.988297
0.195569
-0.953127
-0.636105
-0.369521
-0.803819
0.673428
0.379866
-0.829270
-0.736508
-0.134182
-0.727343
0.172480
-0.447160
-0.246730
-0.867070
0.493325
-0.403174
0.000703
-0.500610
0.677359
-0.860246
0.266693
-0.295140
0.671381
-0.589579
-0.157309
0.459164
0.783054
0.709993
-0.148204
-0.525862
-0.453978
0.470847
-0.219589
-0.980456
-0.383689
0.871200
0.162916
0.829704
0.469251
0.466906
0.982011
0.010954
0.388204
0.880267
0.961315
-0.424305
-0.082036
-0.252733
0.184622
0.006013
-0.145228
-0.774558
-0.173800
0.863262
0.903989
0.800742
0.026208
0.250332
0.443423
0.498872
-0.383809
-0.588017
-0.815813
-0.599222
0.918303
-0.211196
-0.401319
0.813616
0.656627
0.190698
-0.288668
0.891905
0.594594
-0.463827
-0.331165
0.982364
-0.895043
-0.176733
-0.833247
-0.697873
0.316633
0.092784
0.422784
-0.199216
-0.081772
-0.157570
0.829725
-0.526568
-0.102550
0.379136
0.045081
-0.644304
0.995704
-0.043528
-0.566107
-0.726393
-0.690233
0.564281
0.514253
0.356779
0.034009
-0.668778
0.627577
0.182699
-0.186385
0.433655
0.368072
0.636623
-0.073282
-0.955747
0.608660
0.123900
0.516720
-0.016765
-0.355729
-0.329934
0.186749
0.136393
0.143041
0.585419
0.954083
0.244930
0.124590
-0.739295
0.712570
-0.214437
0.335430
-0.345067
0.051894
0.886671
-0.263158
-0.654616
-0.534520
0.762541
0.041069
-0.470409
-0.088357
0.464514
-0.384882
-0.645174
-0.422566
0.199430
-0.073971
-0.809051
0.510756
0.175010
-0.771529
0.515833
0.791964
0.479317
0.862356
-0.733077
0.715186
-0.053542
0.124409
0.784717
0.072813
-0.427538
-0.185497
-0.489390
0.841411
-0.138658
-0.496981
0.419537
0.021726
0.140306
-0.876061
-0.778668
0.524254
-0.362129
-0.724453
0.660517
-0.470629
-0.744768
-0.597706
-0.306944
-0.658218
0.143469
0.160316
-0.555853
0.796562
0.882068
0.139498
0.634275
-0.068117
0.986210
-0.903093
-0.947567
0.652790
-0.918331
0.629029
-0.524776
0.294116
-0.871405
0.557385
-0.806742
-0.699563
0.227682
0.948208
0.752804
0.293153
0.755524
0.277241
-0.889285
0.524947
0.071494
0.652611
0.125506
0.466448
-0.353904
-0.845569
-0.611878
-0.698417
0.789861
-0.874220
0.834284
-0.027298
-0.063233
0.283491
-0.027621
0.853553
-0.324766
0.309007
-0.262992
-0.824592
0.483985
0.635199
-0.397883
-0.909076
-0.255438
-0.959016
-0.397489
-0.177152
-0.802391
-0.518193
0.791705
-0.530591
-0.745744
0.215400
0.737361
-0.613289
0.238376
0.553881
0.877341
0.978885
-0.519471
0.063374
0.366517
-0.380869
0.694091
-0.297936
0.860264
-0.661537
0.786281
-0.974734
-0.582836
-0.506383
0.614620
0.115462
-0.807171
-0.953465
0.989393
0.023424
0.457163
0.084217
0.685596
-0.981812
0.278398
-0.466592
-0.695490
0.176246
0.711694
0.210259
-0.352904
0.262813
-0.924506
-0.340187
0.446785
0.764092
-0.950320
-0.275272
0.651202
0.202109
0.574664
0.085404
0.611440
0.766888
-0.144166
-0.093676
-0.881763
-0.585374
0.255274
-0.090012
-0.746760
-0.889496
-0.950803
0.663406
0.621100
0.980173
-0.988088
-0.895627
-0.686935
-0.791438
-0.491616
0.538432
-0.396261
-0.948661
-0.690973
0.403550
-0.317120
-0.386214
-0.445335
-0.628519
0.231133
0.984606
0.210330
0.011641
-0.772595
-0.240802
-0.658574
0.625560
-0.241040
0.681558
-0.159383
0.638215
0.812574
-0.075405
-0.867215
0.944684
-0.310079
0.660075
-0.392731
-0.333927
0.315190
-0.471378
-0.849327
0.894600
0.779342
-0.530784
-0.659526
0.319784
-0.242777
0.372407
-0.182987
-0.981018
-0.798020
-0.089347
0.662747
-0.759448
0.255231
0.315512
-0.613392
-0.245201
-0.806592
0.977147
-0.187515
0.238018
-0.104303
0.309241
0.880123
-0.138347
-0.990378
0.551944
-0.033868
-0.437744
0.774483
-0.998341
0.535583
-0.792371
-0.548376
-0.148275
-0.918381
0.399321
-0.797382
-0.438832
-0.381925
0.506435
-0.130540
-0.165782
0.177120
-0.257227
-0.943599
0.403902
0.848456
-0.349850
0.204006
0.410846
0.176837
0.408576
-0.388925
-0.957226
0.943094
0.103318
0.440493
-0.317151
0.268699
-0.954768
0.259040
0.924576
0.678232
0.316649
-0.490895
0.300607
0.568977
-0.106543
-0.225050
-0.488380
0.936708
-0.898535
0.258384
-0.525138
-0.210034
-0.801282
0.200545
-0.239896
0.575103
-0.830243
-0.975459
0.758864
-0.450389
-0.586151
0.499905
0.785589
0.868102
-0.386544
-0.760228
0.541078
0.041607
0.499458
0.389038
0.637505
-0.796140
0.616100
0.833734
-0.380394
0.596711
0.576122
-0.506352
0.286455
-0.110293
-0.654682
0.267098
-0.006088
-0.991292
-0.355624
0.571104
-0.364240
-0.798534
-0.689611
0.394493
-0.634367
0.984090
-0.516362
-0.729568
0.948963
0.118808
0.391906
-0.551120
0.447427
0.041470
-0.749861
-0.516099
0.986895
-0.066350
-0.247246
0.108684
-0.496437
0.712855
0.435267
-0.296126
-0.001536
0.027606
0.363926
-0.625933
-0.868746
0.579856
-0.832215
0.586435
-0.287890
-0.963123
-0.312800
0.848801
-0.603350
-0.038535
-0.634549
0.208401
-0.901661
-0.642921
-0.389164
0.898594
-0.939629
-0.340949
-0.561572
0.811515
0.981647
-0.955522
-0.040663
-0.547712
-0.174344
0.716185
0.021037
-0.712446
-0.796524
-0.264190
-0.544099
0.928036
-0.141639
0.198045
-0.082617
0.464207
0.979858
-0.991188
-0.868697
-0.375420
-0.845430
0.879373
-0.750544
-0.171204
-0.793121
0.882038
-0.199691
0.814065
-0.235330
-0.480797
-0.240335
-0.449703
0.421897
0.967344
0.951195
0.271482
0.696539
-0.624779
0.142932
-0.109227
-0.076492
-0.788793
0.087617
0.654668
-0.422200
0.938899
0.302578
0.606485
0.026710
-0.785537
-0.269868
-0.154281
0.629612
-0.025165
0.319227
-0.926706
0.851394
0.902040
-0.676242
-0.343988
0.181071
0.320225
0.974658
-0.154936
-0.874030
-0.489575
-0.184427
0.062756
-0.002293
0.306346
-0.246695
0.791518
-0.654989
-0.416670
-0.196033
0.120703
0.131533
-0.073974
-0.781036
-0.229239
0.518572
-0.388812
-0.613638
-0.346410
-0.224976
0.918483
-0.766035
0.314697
0.486085
-0.682162
0.238838
0.872982
-0.575850
0.424678
0.086756
-0.004796
0.309369
0.076532
-0.233822
-0.793387
-0.689819
0.823288
0.860708
-0.226323
0.791847
-0.016875
-0.571330
0.180291
0.241481
-0.104107
0.414407
0.310161
0.708394
0.712650
0.295953
0.293686
0.350180
0.921131
0.538992
-0.078695
0.630581
0.166803
-0.925600
0.615148
0.322884
-0.937460
-0.664431
0.015793
0.606107
-0.702312
-0.138973
-0.147665
-0.858759
-0.631164
0.086352
-0.667636
-0.809738
0.324581
0.706752
0.738259
-0.073290
0.990946
-0.038141
0.192406
-0.137458
0.780023
-0.590072
-0.099128
0.057757
0.577922
-0.310266
-0.064855
-0.297207
0.099605
0.607552
0.565905
0.618579
-0.340651
0.747727
-0.055883
0.423600
0.815056
0.805041
-0.485191
0.269548
0.905666
-0.506238
-0.121939
0.748621
-0.362718
-0.806671
0.905651
-0.509708
0.685949
-0.384538
0.828416
-0.397100
0.122551
0.822062
0.487542
-0.426935
0.399603
0.637220
0.197237
-0.164335
-0.266447
0.471386
0.157948
0.514396
-0.400512
-0.313777
-0.283594
0.397017
-0.430088
0.273611
-0.087699
0.826160
0.851713
-0.423869
-0.454498
0.251753
0.050714
0.307873
0.342232
-0.780094
-0.006145
-0.715569
0.601264
-0.835420
-0.158517
-0.775930
0.320389
0.726760
0.755943
-0.757884
-0.163643
-0.815214
-0.578026
0.964767
0.602756
0.285242
0.663912
0.362100
-0.279021
-0.316645
-0.291826
0.121919
0.481195
0.074149
-0.230655
-0.722618
-0.678751
0.217450
-0.979613
-0.651276
0.206675
0.055968
0.562240
-0.201050
0.378725
0.907598
0.975592
-0.456360
0.053184
-0.040463
0.315320
-0.804591
-0.470856
-0.754779
-0.533096
0.888532
-0.849734
0.457782
-0.711222
-0.911819
0.863044
0.809536
0.807125
-0.475593
-0.958671
0.259219
-0.136110
0.089296
0.605989
-0.039076
-0.620704
0.106048
0.007908
0.487616
0.856990
-0.622500
0.409708
-0.013908
0.330060
-0.187329
-0.733909
0.093743
-0.375485
-0.708854
-0.087985
-0.689643
-0.430926
-0.452281
-0.396592
0.350975
0.747330
0.783672
-0.702824
-0.055459
0.396001
-0.794624
-0.538390
-0.072907
-0.165531
-0.327974
0.224521
-0.118801
-0.238482
0.454067
0.142486
0.608370
-0.650521
-0.637916
-0.051589
-0.410221
0.425364
-0.339152
-0.259634
-0.108738
-0.935423
-0.432028
0.508269
-0.001979
-0.510842
-0.634440
0.226372
-0.866196
-0.251803
0.683071
0.930067
-0.626122
-0.140902
0.482661
0.709543
0.030874
-0.721048
0.791047
-0.693653
-0.995200
-0.210465
-0.933074
0.623885
-0.695833
0.660995
-0.279262
-0.719202
0.546121
0.181857
0.397999
-0.510628
-0.024968
0.537169
0.562156
0.645867
0.300469
0.303896
-0.461929
-0.873462
-0.397550
0.357225
0.170596
-0.814667
0.288693
-0.951703
-0.000412
-0.413000
0.052143
0.880865
0.848033
0.611265
0.281491
-0.404988
-0.346984
0.175840
0.675094
-0.995802
0.818747
-0.795470
-0.532928
0.281102
0.925300
0.868338
-0.085764
0.639254
-0.328836
-0.776913
-0.270411
0.131556
0.535276
-0.145084
-0.871414
-0.180199
-0.803028
0.844464
0.027395
0.033994
-0.637008
0.754600
0.834079
-0.936231
-0.190163
-0.668339
-0.583610
0.106522
-0.131408
0.860549
0.623569
-0.073629
0.093602
0.125002
-0.705326
0.934870
0.802997
-0.499152
0.462045
0.859782
-0.498581
0.650489
-0.815935
0.175608
0.353597
0.928627
-0.533791
-0.261186
0.126935
0.832500
0.691742
0.826737
-0.612122
-0.450091
0.672690
-0.693345
0.760406
-0.002939
0.186977
0.959616
0.835704
-0.840571
-0.528050
-0.248286
-0.270512
-0.728510
-0.383309
-0.735305
-0.941321
-0.859729
0.952184
-0.148184
-0.663944
0.115844
-0.599340
0.913116
-0.991011
0.116398
0.498839
-0.279398
0.376800
-0.809721
0.235453
0.522881
-0.949274
0.823807
0.064597
-0.376885
-0.341503
-0.377820
0.491346
-0.137037
0.110020
0.635242
-0.975414
-0.256229
-0.906828
0.664213
-0.517611
0.594207
0.916293
0.702857
-0.718849
-0.564582
-0.572146
-0.841893
-0.347318
-0.440960
0.683204
-0.377339
0.858546
-0.709567
0.124632
-0.313961
0.110946
-0.977426
-0.506211
0.648709
-0.979242
-0.068373
-0.875028
-0.267266
0.426676
0.896717
0.334415
-0.851237
-0.302737
0.347817
-0.656158
0.231835
-0.228459
-0.895112
-0.658582
-0.821329
0.450673
-0.858501
0.679483
-0.220132
0.149911
-0.446475
-0.061937
-0.359234
-0.641477
-0.208646
0.699868
-0.121890
0.981960
0.229321
0.196065
-0.301601
-0.796332
0.025322
-0.688678
0.674814
-0.644791
0.612613
0.805666
0.892059
-0.396113
-0.413977
0.219422
0.517666
0.130255
-0.431140
0.478732
-0.095989
0.209705
-0.947895
-0.590623
0.187727
-0.426035
0.375704
-0.231976
-0.243955
-0.435765
-0.727223
0.333116
-0.457645
0.695389
0.771719
-0.601601
-0.972967
-0.202960
0.532331
-0.549286
-0.054545
-0.534550
-0.296198
-0.609019
0.655832
0.133697
-0.630714
0.916584
-0.611363
-0.171969
-0.783467
-0.393623
-0.391391
0.719809
-0.979049
-0.046621
0.631357
-0.399819
-0.688441
0.478529
0.095082
-0.436665
0.612824
0.728393
-0.905427
0.008909
-0.059279
-0.827845
-0.839859
0.108513
0.963064
0.877744
0.282723
0.762205
-0.492668
-0.191426
0.076250
-0.438248
0.738004
0.393209
0.294735
0.965831
-0.662408
0.235634
-0.339874
0.531153
-0.917088
-0.774285
-0.109490
0.304912
-0.711283
-0.510660
-0.701391
0.520025
0.506051
0.317330
0.038259
-0.259755
-0.207557
-0.105335
-0.547319
-0.387369
0.968143
-0.173837
-0.317227
0.386779
-0.939052
0.827521
0.125594
-0.139274
0.307392
-0.446063
0.950029
-0.197369
0.655226
-0.480351
-0.728360
-0.656124
0.069196
-0.422744
-0.524230
-0.353666
-0.856671
-0.832007
-0.792240
0.304376
0.890719
-0.122130
-0.570106
-0.748189
-0.226291
0.324870
-0.140310
0.730406
0.186478
-0.348281
-0.505954
-0.177351
-0.732897
0.115962
0.563792
-0.511456
-0.713692
0.180258
0.536115
0.276612
-0.212989
-0.458036
0.969228
-0.081295
-0.529977
0.224495
0.133366
-0.124206
-0.206607
0.323227
-0.426429
-0.296086
-0.205479
0.396443
0.720338
0.545764
0.742589
0.806655
0.206466
0.341400
-0.098071
-0.017547
-0.329921
-0.947264
-0.713368
0.747314
0.514384
-0.860133
0.644519
-0.364872
-0.226214
-0.536295
0.314350
-0.543047
-0.014058
0.745073
0.113115
0.015846
-0.046091
0.189039
0.437970
0.587535
0.306187
-0.200943
0.601420
0.238619
-0.851290
-0.322566
-0.575090
-0.793766
-0.981131
-0.103356
0.531854
-0.222842
-0.942223
-0.197690
0.777893
-0.859825
0.194087
0.749060
0.033640
-0.343485
0.425360
0.961905
-0.054177
-0.489627
-0.452961
0.756062
0.895694
0.127714
-0.821212
-0.223615
-0.505712
0.406043
-0.417011
0.121875
0.567351
-0.077650
-0.656665
-0.352834
-0.647045
-0.153646
-0.238616
0.132912
-0.224342
0.849387
-0.192951
0.201420
-0.236984
-0.547907
0.736810
0.058570
0.231440
0.720740
0.583652
0.930938
0.132904
0.297484
-0.140151
-0.994253
0.568646
0.530642
-0.586374
0.673899
0.802912
0.998500
0.391337
-0.348003
0.204742
0.282112
0.991953
0.074346
0.599124
-0.134593
0.014631
0.670311
-0.346026
-0.738139
-0.148390
-0.603718
0.960731
0.834103
-0.898916
0.732736
0.595349
0.063651
0.738463
0.775189
-0.891009
0.948245
-0.657466
0.370355
-0.866155
0.148675
-0.829890
-0.365900
0.130562
0.109340
0.464572
-0.878901
-0.699364
-0.664540
0.806992
-0.565492
0.224088
0.063319
-0.126647
-0.521704
-0.481435
0.813287
0.288626
0.961368
0.471283
-0.468650
0.495118
-0.841892
-0.648668
0.163918
0.463307
0.684805
0.426994
0.541733
-0.876466
0.538383
-0.441323
-0.188541
-0.395989
-0.742099
0.430320
0.007515
0.231724
0.860348
0.188636
-0.128823
0.743474
0.138660
0.467357
-0.280718
-0.520893
0.144862
-0.413488
0.734691
0.586815
-0.589270
0.118318
-0.409660
0.366990
0.268202
-0.614440
-0.275919
0.780040
-0.588641
0.102924
-0.637642
-0.731570
-0.630387
-0.030166
0.356235
-0.397689
-0.274183
-0.024072
0.524790
-0.452846
0.701770
0.427506
0.673731
0.830958
-0.704952
0.454347
-0.206614
0.630077
0.448435
0.227749
-0.286987
0.657169
0.020016
0.055015
0.644652
-0.734651
0.694124
-0.554279
-0.461513
-0.714672
-0.575056
-0.036075
0.342182
0.382628
-0.615393
-0.510737
-0.568488
-0.554839
0.668134
0.262900
0.580268
0.645992
0.391422
0.935241
-0.896182
0.401856
-0.474590
0.993346
-0.481867
-0.393997
0.500511
0.990392
-0.583857
0.998400
-0.840470
0.192742
-0.235803
-0.068643
0.681530
0.978384
-0.290121
-0.403183
0.001182
0.018987
-0.598484
0.933781
-0.783130
-0.437962
-0.138569
-0.005643
-0.154175
-0.517845
-0.138765
0.027333
0.266758
0.329579
0.311676
-0.792797
0.911052
0.915881
0.185057
0.531673
-0.028872
-0.022448
0.684665
-0.305911
-0.424228
-0.894656
-0.978274
-0.949287
-0.013713
-0.501928
0.566632
-0.613228
-0.067190
0.015170
-0.255050
0.655601
0.553137
0.226986
-0.535133
0.068992
-0.097270
0.213370
0.971115
-0.341191
-0.121542
0.589311
-0.097110
0.116674
0.594940
0.679137
0.580052
0.927029
0.060072
0.898273
0.218414
0.549638
-0.212210
0.001583
0.488001
0.695831
-0.777808
0.878825
0.108137
0.046877
0.118074
0.859558
0.755324
-0.150874
0.315598
-0.003302
0.069926
-0.749850
0.488676
0.138714
-0.667969
-0.572320
-0.653559
0.764908
0.584126
0.922233
0.589514
-0.477316
0.349284
-0.924122
-0.885870
-0.021036
0.328672
-0.902606
0.192239
-0.688099
0.392005
-0.312553
0.623350
0.955712
0.893473
-0.209928
-0.083403
0.562546
0.714500
-0.359842
0.324945
0.056651
-0.665557
0.326870
-0.910040
-0.676176
0.286615
-0.582828
-0.782096
-0.458346
0.576593
0.652798
-0.047575
0.804495
0.764525
0.167068
0.379615
0.162089
-0.727388
-0.887743
-0.171427
0.403708
-0.251373
0.196015
0.601437
0.476687
-0.626767
0.726902
0.632579
0.719504
-0.250632
0.482819
0.887886
0.497279
-0.907427
0.952501
-0.379988
0.323716
0.602356
0.340978
0.465572
-0.616806
-0.171309
0.973792
0.582159
-0.011734
-0.769897
-0.971904
-0.817308
-0.236053
-0.191347
-0.860454
-0.240999
-0.981569
0.431462
-0.711504
0.407420
0.047886
-0.394743
0.105433
-0.627908
-0.456816
0.831135
0.744142
-0.108799
0.076768
0.828171
-0.248238
-0.837676
0.500840
-0.684569
-0.741317
-0.270899
-0.830797
0.206537
0.799700
-0.899186
0.716675
-0.754378
-0.954773
-0.173708
-0.153632
-0.389401
-0.403543
0.946414
-0.977803
-0.842530
0.022424
0.486791
-0.068399
0.845427
-0.143142
-0.705566
0.286928
-0.351281
0.864467
0.959353
-0.597945
-0.203681
0.530237
-0.429657
0.615614
0.719404
-0.030360
-0.477885
0.567528
-0.819048
-0.435574
-0.009075
-0.403153
-0.283300
0.522162
-0.340800
-0.467254
-0.623790
0.010620
-0.590994
-0.715097
-0.482638
-0.678370
0.675086
0.193016
-0.952610
-0.149665
-0.070001
-0.360390
-0.071198
0.958343
-0.577970
-0.480819
-0.041568
-0.781524
-0.297804
0.956487
0.310343
-0.894336
0.480490
0.823523
-0.349951
0.927535
-0.515509
-0.699735
0.386316
0.084373
-0.323115
0.622062
-0.618331
0.681222
-0.374930
-0.757977
-0.780013
-0.486775
0.791526
-0.765135
0.266581
-0.253184
-0.813338
0.427217
0.810405
-0.022096
-0.773375
-0.519480
-0.687465
0.203870
0.712246
-0.010764
-0.224229
0.359800
-0.717893
-0.151385
-0.897611
0.419842
-0.099957
-0.800060
0.970818
0.593622
0.102106
-0.448122
-0.226439
-0.145370
-0.570846
-0.625638
-0.259179
-0.972210
0.971681
0.138834
0.959467
0.781417
-0.617934
-0.750169
0.591060
-0.716754
-0.203545
0.964871
-0.818200
-0.964957
-0.552338
0.320090
0.701308
0.170839
-0.850813
-0.069116
-0.018691
-0.865198
-0.958083
0.764948
-0.553778
-0.848051
0.727050
0.774207
0.726542
0.539634
0.947996
-0.375897
0.028177
-0.152700
-0.684544
0.024012
0.770916
0.496947
-0.301601
0.490079
0.053474
0.489389
0.764755
0.851556
-0.588203
-0.293795
0.249729
0.956849
0.554947
0.767200
0.194639
-0.778411
-0.183635
0.514364
-0.559425
0.544504
-0.623252
-0.171238
-0.843853
0.538449
0.400493
-0.705161
0.290247
-0.931668
-0.579986
-0.711006
-0.622016
-0.022970
-0.186208
-0.074787
-0.752658
-0.164866
-0.364073
-0.440933
0.526403
-0.825249
-0.246153
0.688224
0.760305
-0.970581
-0.043644
0.215862
-0.242910
0.367761
-0.752835
-0.224860
-0.838916
-0.408609
0.795834
0.611622
-0.101327
0.372899
0.746244
0.185351
0.852663
0.826522
0.648542
0.476069
0.330303
0.471159
-0.136650
0.788350
-0.085628
0.963092
0.896509
-0.770754
-0.941389
0.600517
-0.302699
0.282800
-0.593969
-0.732706
-0.594162
0.712852
-0.428322
0.122102
0.575120
-0.758353
-0.985176
0.806893
-0.947286
-0.993228
-0.729169
0.487257
0.388511
0.558907
-0.410187
0.220886
0.467528
-0.234498
0.284766
-0.108448
0.209938
0.221213
-0.538826
0.191600
0.836375
-0.486163
-0.964110
0.535014
-0.108365
-0.355537
0.272630
-0.766203
0.401135
0.171061
0.659196
-0.472989
-0.614891
0.617682
0.034757
0.972894
0.665124
-0.506065
0.876172
0.572817
-0.527235
-0.044204
0.067668
-0.688739
-0.982748
0.733169
0.737421
-0.781410
-0.886276
0.742913
-0.118687
0.274089
0.581251
0.929472
0.401711
0.049580
0.384326
-0.090171
-0.484054
-0.614906
0.024603
0.454516
0.980081
-0.097550
0.064994
-0.941331
0.158170
0.211461
-0.482059
-0.970952
0.084109
-0.693136
-0.572964
0.766490
0.896849
-0.044599
-0.636427
0.057594
-0.234974
0.778498
0.645838
-0.867378
-0.541983
-0.300993
-0.298754
-0.958801
0.735988
0.328541
-0.344540
-0.325169
-0.692400
0.181205
-0.514634
-0.299603
0.754704
-0.297377
0.438995
0.999562
-0.590209
-0.498892
-0.840652
-0.777677
0.082878
0.584395
0.530481
-0.395511
-0.529486
-0.752591
0.798896
-0.757408
-0.161677
0.093381
0.047977
0.375829
-0.270281
0.727226
0.277131
-0.517609
0.270561
-0.841193
-0.739022
-0.489929
0.629112
-0.681416
-0.786583
0.326938
-0.431760
-0.069540
0.474632
0.920232
-0.037958
0.750513
0.457350
0.982418
-0.756370
-0.089875
-0.801822
-0.759756
0.861702
-0.120710
0.284332
0.143548
-0.549389
0.102725
-0.779656
-0.298805
-0.600390
-0.513657
0.258340
0.406657
-0.583766
-0.167133
-0.581338
-0.500230
-0.817743
0.352984
-0.448479
0.856945
-0.133659
0.353508
0.303032
-0.284258
0.192913
-0.252462
-0.081283
-0.123688
-0.486283
-0.815847
-0.196424
0.956838
-0.293881
0.199147
0.686512
0.978236
0.279651
0.961584
-0.876766
0.724896
-0.445933
-0.336685
-0.261459
-0.713273
0.818744
-0.411885
0.447200
-0.082170
0.264391
0.234999
0.862509
-0.002346
0.317358
0.201805
-0.406016
0.095377
0.619190
0.841936
-0.322048
0.627956
-0.209940
0.384309
-0.954469
-0.716588
-0.114765
0.063164
0.772582
-0.393241
0.319633
-0.081418
-0.037780
-0.584854
0.258444
0.968569
-0.578480
-0.123011
-0.275148
-0.440397
-0.361942
-0.406444
0.283928
0.621464
0.149839
-0.276013
-0.395044
0.690997
-0.606395
0.209537
0.158108
0.707548
-0.533036
0.281214
0.053426
0.806206
0.377868
-0.585236
0.996196
-0.935199
0.130493
-0.705104
0.784788
-0.152682
0.315108
0.832110
0.493335
-0.763291
0.259931
0.227820
-0.733168
0.072945
0.563774
-0.001867
-0.071891
-0.363164
0.659800
0.762437
-0.688428
-0.932575
0.243093
-0.512119
0.043539
-0.410981
-0.772943
-0.815283
0.634025
-0.780909
-0.288444
-0.157569
0.483396
-0.363487
-0.287189
-0.902360
0.131313
0.106231
0.127403
-0.744830
0.599507
0.023029
0.687760
-0.856880
0.693988
0.492211
-0.219953
0.729390
0.203426
0.229530
-0.939984
-0.156433
-0.216576
0.741625
0.415198
0.497659
0.510713
0.110827
-0.593286
-0.692292
0.999688
0.451809
-0.653960
0.191229
-0.252673
-0.135861
0.666365
0.717251
-0.904354
0.214834
0.026811
0.793472
0.892083
0.492210
-0.416199
-0.821214
0.253426
0.204345
-0.366129
0.750953
-0.573185
0.748405
0.653689
-0.989715
-0.886595
0.378073
0.672030
-0.151112
0.944554
-0.358788
-0.229012
-0.618652
0.606525
-0.179545
0.659413
-0.804016
0.751052
-0.348170
-0.466062
-0.721465
-0.740313
-0.582516
-0.408998
0.066464
-0.336930
-0.867417
-0.602325
-0.238903
0.901574
-0.531279
0.943520
-0.397527
0.460933
-0.153747
0.513003
-0.228652
0.595375
-0.991193
0.815801
0.356800
0.451881
-0.651335
-0.043991
-0.695479
0.482812
0.914660
0.944413
-0.380442
0.169170
0.448995
0.469440
-0.277250
-0.974002
-0.368198
0.177198
-0.355709
0.270582
-0.931595
0.450661
-0.443325
0.666151
0.140542
-0.775645
0.423431
0.692454
0.737214
0.975048
-0.907045
-0.640417
0.221568
0.157713
0.292353
0.163540
-0.660066
-0.858572
-0.354590
-0.744894
0.980166
-0.043976
0.199805
0.912438
0.930833
0.128170
-0.708947
0.179798
-0.573835
0.367941
-0.194307
0.663334
-0.560518
-0.053634
0.742169
0.188261
0.993211
0.129223
-0.314040
-0.730165
-0.812737
-0.011140
0.786784
0.823625
0.060997
-0.211421
0.914806
0.483675
-0.376035
0.568094
-0.132335
-0.719837
0.471482
-0.897910
-0.549988
-0.744959
0.218279
-0.890827
0.588695
0.945189
-0.711842
-0.989615
0.979326
0.652834
0.681862
-0.875183
-0.259310
0.791411
-0.845757
0.722928
-0.086589
0.115801
-0.221010
0.542278
-0.600586
0.350589
0.035467
-0.485880
-0.826317
0.797638
0.483962
0.817591
-0.068188
0.315576
-0.819663
0.842551
0.377830
-0.957505
0.699353
0.145332
0.977826
-0.772488
0.079374
-0.961187
-0.199390
-0.268101
-0.755571
0.640033
-0.403132
0.118694
-0.700929
0.777484
0.118531
0.216535
0.077330
0.152332
-0.412027
-0.622576
0.821879
0.259264
0.048545
-0.925082
-0.865108
-0.973050
-0.233750
0.000716
0.678998
-0.753894
0.807370
0.860304
0.168104
0.316694
0.035714
-0.345663
-0.364194
0.177260
-0.501245
-0.027812
0.303405
-0.554744
-0.460549
-0.266498
0.034026
0.309360
0.381385
0.601829
-0.359918
0.052552
0.394532
0.968129
0.139908
0.215942
0.185099
0.650210
0.116787
-0.876730
0.807106
-0.419804
-0.867090
-0.691998
-0.970132
-0.645891
0.464493
0.711577
0.287609
-0.461067
0.779090
-0.494409
0.241953
0.388899
-0.372480
-0.244139
0.787228
-0.353478
0.620341
-0.252368
0.734897
-0.920139
-0.448888
0.355787
-0.307392
0.253352
0.300105
-0.782900
0.998722
0.789401
-0.620438
-0.613261
0.775144
0.474552
-0.036013
0.854443
-0.875188
-0.264298
0.723613
0.086236
-0.443793
0.224968
-0.938667
0.474944
-0.062519
0.135094
0.432410
0.251026
0.123983
0.809038
-0.499202
-0.667638
0.991174
-0.714128
-0.609976
-0.117249
0.523073
0.196639
-0.486633
-0.408294
-0.267951
0.704742
-0.564190
-0.415537
0.544447
0.087958
0.660135
0.627668
-0.581269
0.925809
0.665782
-0.934438
0.916404
-0.324875
0.650408
0.098974
-0.597150
0.710405
0.177486
0.435175
-0.480824
0.627790
0.440238
0.053981
-0.377874
0.181135
0.060626
-0.044763
-0.582585
-0.651788
-0.949696
0.181762
0.285751
-0.407824
0.112251
-0.094918
0.497281
-0.835460
-0.000607
0.384954
0.150487
0.038822
0.965841
-0.540911
-0.514536
0.514932
0.538221
-0.765372
0.554329
0.465978
0.428862
-0.288502
0.883662
0.274550
0.761393
-0.909464
-0.746412
0.090300
-0.991382
-0.971053
-0.359898
0.312847
-0.051844
-0.787621
0.753182
0.520605
-0.189135
0.486046
0.773734
-0.320721
0.861570
-0.136867
0.889499
0.544054
-0.928881
0.306263
-0.210290
-0.242429
-0.439903
-0.412684
0.386650
0.469428
0.003204
-0.671636
0.120360
-0.974878
0.446956
-0.788967
-0.918035
0.652728
-0.231725
-0.328667
-0.102691
0.441767
0.773578
-0.953820
-0.507025
-0.843099
0.999956
0.924031
0.979255
0.507101
-0.415625
0.515252
-0.579865
-0.625595
-0.520110
0.815249
-0.908155
-0.647837
0.841892
-0.003054
-0.660835
0.094457
-0.730169
-0.037497
0.580226
-0.122061
-0.951150
0.123437
-0.157601
-0.948514
0.441294
-0.536644
0.726257
0.605889
0.576799
0.006282
-0.138821
0.691630
0.870643
-0.795885
0.779431
-0.398869
0.779161
-0.582893
-0.927640
-0.216780
-0.244230
-0.741046
-0.200599
-0.757254
-0.337744
0.454607
0.285153
-0.005798
-0.372050
0.926464
0.038115
0.810217
0.782669
-0.134927
-0.877026
0.524414
-0.578741
0.946173
-0.240750
0.021455
0.067621
-0.407963
-0.977687
0.726370
0.901900
-0.988661
-0.566007
-0.291070
-0.806411
0.493204
-0.127951
0.416254
0.101949
0.188301
0.448715
-0.826966
-0.901171
-0.458031
0.384141
0.348513
-0.280832
-0.003909
-0.487135
-0.264697
0.137462
0.459051
0.986706
0.317891
-0.046841
-0.939996
-0.788837
-0.506104
-0.876524
0.694320
0.914548
0.458513
0.183328
-0.068711
-0.544274
0.594864
0.913680
-0.420527
-0.999105
0.091339
0.341012
-0.870573
0.363933
0.240745
-0.924243
0.316983
-0.599701
0.357582
-0.502190
0.120189
0.697935
0.323743
-0.425833
0.501320
0.420756
-0.456718
0.868501
-0.096439
0.190200
0.309326
-0.472073
0.266138
-0.733661
-0.863039
-0.979505
0.491731
-0.465314
0.880678
0.688707
-0.257924
-0.428425
0.639142
-0.564470
0.192471
-0.318691
-0.108015
-0.419263
-0.012084
0.153290
-0.137494
-0.819777
0.137003
0.032580
-0.814155
0.236807
-0.009466
0.320507
0.998183
-0.622628
0.387500
0.224635
-0.119522
-0.402631
-0.947746
-0.576320
0.169662
0.550184
0.928142
-0.729666
0.739204
0.013614
-0.611183
0.564359
0.767245
-0.218979
-0.373868
0.116954
-0.854654
0.355481
0.265752
0.215729
-0.336448
0.563557
0.758261
0.184547
-0.213302
0.230390
0.722702
-0.308940
-0.650675
0.070014
-0.683674
-0.414115
-0.342469
0.754366
0.854859
0.961743
-0.222338
0.030687
-0.624208
-0.599614
-0.884207
0.765210
-0.354925
-0.335074
0.339183
-0.411835
-0.488670
-0.564956
0.287958
-0.215609
-0.962122
-0.867344
-0.679840
-0.696190
-0.863723
0.619554
-0.244156
0.172669
0.697192
0.243979
0.024268
0.676510
0.458741
0.754601
0.496474
0.592249
0.627264
0.150802
0.794135
-0.026231
-0.882432
0.969011
-0.544785
-0.712460
0.567612
-0.477889
0.912178
-0.669337
-0.769767
0.861101
0.662414
-0.682159
0.739263
0.024687
-0.972441
-0.504655
-0.502047
-0.075838
0.339932
0.147908
0.394166
0.788412
-0.920654
0.966081
-0.320571
0.507522
0.306507
-0.142878
0.392375
-0.546106
0.995935
0.277141
-0.715391
0.785417
-0.229712
-0.144101
-0.015147
0.600998
-0.706886
-0.092668
0.886176
0.270541
-0.958682
-0.538510
-0.574457
0.442135
-0.885837
-0.134470
-0.330634
0.080239
-0.557372
0.637171
-0.308549
0.196485
-0.951898
-0.081926
-0.852343
-0.247182
-0.099885
0.126711
0.557408
-0.510748
0.211604
0.935181
0.377504
0.571931
0.576859
-0.438590
-0.710921
-0.108198
0.248823
-0.443621
0.640338
0.881623
-0.090683
-0.901713
0.904246
0.928076
0.604016
0.257579
-0.146721
-0.706495
-0.269072
-0.688049
0.186506
0.617019
-0.332394
-0.664047
-0.007411
0.184612
0.809828
-0.997415
-0.947137
0.922319
-0.961666
0.064140
0.702900
0.360754
-0.509069
-0.169854
0.247179
0.397786
0.312776
-0.563297
-0.928901
0.026545
-0.507191
0.179795
0.598509
-0.408956
0.311196
-0.173222
-0.524957
0.747974
0.409971
0.732425
-0.629225
-0.524416
-0.245822
0.087836
0.771770
0.312181
0.785225
-0.750648
0.996816
-0.243662
-0.371929
-0.626671
-0.801855
-0.797719
-0.996967
0.680801
-0.597211
0.649704
-0.167546
0.327688
0.219309
-0.753345
-0.573355
0.172260
0.289589
-0.623550
-0.844769
-0.508560
-0.824395
0.871354
-0.249426
-0.213663
-0.611917
-0.538475
0.897210
0.166918
0.615365
-0.780818
-0.066355
-0.714666
0.668839
-0.989403
0.143841
0.268025
-0.350074
0.000678
0.448727
0.621196
0.083327
0.570898
-0.227500
-0.101457
-0.828978
0.113626
-0.241633
-0.787982
0.654303
0.829491
-0.190276
-0.054276
0.941172
-0.610690
-0.241828
-0.853893
0.204251
0.470617
0.335288
-0.240473
0.176060
0.232387
0.906917
-0.068337
-0.302146
-0.867751
-0.699137
-0.115999
-0.796766
-0.990179
-0.258900
0.605049
-0.779894
-0.196467
-0.987665
-0.552626
0.334975
0.216222
0.716724
-0.344243
0.490325
-0.310278
-0.943417
0.053685
-0.287062
0.455417
0.483823
0.303704
0.080823
-0.721324
-0.282170
-0.857546
0.192232
0.817051
0.917408
0.235175
0.125573
0.097352
0.392554
-0.272899
-0.790178
-0.466568
0.368509
-0.096671
-0.052264
-0.969595
0.332034
-0.885084
-0.175895
-0.558355
0.929114
0.032241
0.495746
0.326701
-0.501601
-0.518961
0.757009
-0.856689
0.013949
-0.441415
-0.322847
-0.474466
0.735076
0.859727
-0.556779
0.223459
0.169475
-0.559922
-0.060173
0.641859
0.452543
-0.933906
0.728031
-0.908614
0.415657
-0.267098
-0.650376
-0.841749
0.848240
-0.541351
0.191036
-0.502844
-0.113768
0.672057
0.760986
-0.808909
-0.308559
0.228211
-0.909220
-0.329140
-0.247496
0.213543
0.213130
-0.283262
-0.493595
-0.107275
-0.810143
-0.662211
-0.263942
0.483531
0.788318
0.495985
0.111529
-0.984688
-0.850836
0.702495
-0.783240
-0.906885
0.927719
-0.923857
-0.157419
0.411473
-0.048421
0.626929
0.041579
-0.970819
0.243694
0.924340
-0.316228
0.650895
0.488889
-0.785481
-0.183216
-0.921342
0.784068
-0.064175
-0.743250
0.157490
-0.624599
0.043141
-0.543060
0.024837
-0.681574
0.235887
0.177519
-0.418407
-0.871458
-0.387932
0.821109
-0.606055
0.024732
-0.956052
0.037550
-0.959333
0.002567
0.417385
0.363353
0.017491
0.801139
0.889139
-0.929839
0.704275
-0.157638
0.843304
0.986637
0.899838
-0.961806
-0.590330
-0.859091
-0.660149
0.117765
0.101962
-0.507422
-0.457661
-0.768065
-0.767498
0.415951
-0.504215
-0.256181
-0.065704
-0.225059
0.009756
-0.675373
0.061213
-0.348662
-0.181982
0.516912
-0.033448
-0.357375
0.661223
-0.333982
0.946795
0.049025
0.945809
-0.531310
-0.410943
0.285070
-0.351539
0.729369
-0.226800
-0.058957
0.688369
-0.188395
-0.306295
-0.784081
-0.925767
-0.393435
-0.146656
-0.638115
-0.694127
-0.589538
-0.664517
0.708553
0.333582
0.078640
0.814379
-0.105950
-0.437871
0.323923
0.933806
0.188760
0.506932
-0.857080
-0.904109
-0.311577
0.347711
-0.454879
-0.276376
-0.389398
-0.913351
0.967859
0.708673
0.390370
-0.568932
0.511954
-0.512909
0.803731
0.839954
0.455109
0.933870
0.248859
0.738788
-0.381466
0.010332
0.820139
-0.510262
0.217167
-0.963358
0.081020
0.095813
-0.266771
-0.893668
0.307808
0.934532
-0.797549
0.897769
-0.755515
-0.624805
-0.361915
-0.943621
0.325414
-0.028461
0.345797
-0.476457
0.039865
-0.205479
-0.173009
-0.974310
0.243552
-0.009976
0.397195
-0.660313
0.894402
-0.479738
0.076248
-0.208634
-0.151148
-0.981120
0.247686
-0.358320
0.442552
-0.172369
0.408618
-0.387952
0.878379
0.658165
0.064269
0.631777
0.896539
-0.691951
0.513447
0.749606
0.215194
0.490707
0.889789
-0.101594
0.806607
0.147045
0.463488
0.433779
0.103969
-0.821129
-0.424565
-0.649076
0.553229
0.711982
-0.814557
0.114319
0.305399
0.061750
-0.242737
-0.018989
-0.489928
0.927552
-0.294172
-0.479881
-0.626947
-0.716983
0.793090
-0.169332
-0.502835
0.232287
-0.957055
0.636189
0.973684
-0.687417
-0.825317
-0.452903
0.696305
0.631139
0.750615
0.969125
0.189443
0.499793
0.495868
-0.511777
0.291912
0.987013
-0.963256
-0.645235
0.079672
0.478562
0.732349
-0.949703
-0.070970
0.931470
0.267876
-0.401683
-0.378351
-0.909536
0.718724
-0.440094
-0.857373
0.237545
-0.961059
-0.948517
-0.255426
0.412722
0.863419
0.949590
0.798046
0.017143
0.663478
-0.910336
-0.401639
0.325663
0.568143
-0.367304
0.821418
-0.765597
-0.436377
0.060645
0.235376
0.250006
0.200097
0.479029
-0.243966
-0.195884
-0.635273
-0.499290
-0.982789
-0.870539
-0.125695
-0.981492
-0.287811
0.050353
-0.784182
0.691583
0.281959
-0.065524
-0.176395
-0.878071
-0.546139
0.200989
0.786125
0.046433
-0.431844
0.051707
-0.734900
-0.818260
0.411629
-0.278041
0.104565
-0.695945
0.093459
-0.439040
0.737079
0.697399
-0.701001
-0.268124
-0.333180
-0.923810
0.002895
-0.415771
-0.827447
0.142644
0.417026
0.052870
0.422723
0.262046
-0.966438
0.405576
-0.965966
-0.897363
0.621244
0.683997
-0.244162
-0.830071
-0.053094
-0.369743
0.271017
0.555091
0.535265
-0.725610
0.445009
0.135441
0.452557
-0.594166
-0.900475
0.806586
-0.758099
-0.102506
0.506686
-0.963663
-0.601245
0.860466
0.790226
0.091451
0.241067
-0.211914
0.674589
-0.541719
-0.560870
-0.721917
-0.103201
-0.326452
0.146260
0.598698
0.165724
-0.281008
0.049417
-0.592897
0.864485
-0.468594
-0.239555
0.645408
-0.672410
0.791758
0.521396
-0.393905
0.851398
-0.573406
0.565950
0.454284
-0.000037
0.874911
0.216884
-0.058756
0.754744
-0.904180
-0.775775
0.382431
-0.249943
-0.203575
0.718265
0.216076
0.416072
0.917066
-0.926555
0.565532
0.806605
-0.917590
-0.836824
-0.153501
-0.390855
0.894821
-0.084472
-0.158417
-0.570543
-0.856337
-0.789755
-0.967854
-0.498911
-0.130620
-0.818324
0.396283
0.410156
-0.830266
0.917675
0.438396
0.578776
-0.689082
-0.269296
0.719722
-0.144708
0.584274
-0.531877
0.571123
0.712282
-0.425207
0.646710
-0.137859
0.575408
-0.255798
-0.200724
-0.935563
0.985144
0.175318
0.618829
-0.230441
0.912943
0.666341
-0.755527
0.185197
0.262662
0.990090
0.754054
0.530145
0.343433
-0.383812
0.570724
-0.559478
-0.953519
0.139924
-0.241918
-0.664467
-0.919754
-0.591721
-0.100638
-0.819898
-0.523904
-0.554876
-0.949248
-0.674397
0.714420
0.027476
-0.444197
-0.726916
0.952371
-0.147834
-0.568434
0.368020
-0.232659
-0.077250
-0.215194
0.318780
-0.553214
0.223473
-0.696326
0.974749
-0.346125
-0.888382
-0.708285
0.737625
0.345889
0.405759
0.272717
-0.625756
0.020090
-0.088386
-0.752633
-0.617129
-0.634198
-0.562298
-0.778638
-0.766046
0.844345
-0.140308
-0.863290
-0.433461
-0.320098
-0.876343
-0.486753
0.865904
0.576630
0.897720
-0.428719
-0.156419
0.012572
-0.486691
0.158410
-0.881015
-0.721906
0.693074
0.035816
-0.456649
0.312999
-0.549420
-0.549841
-0.357615
0.863182
0.698182
0.038116
0.125934
-0.128738
0.158320
0.680302
0.139610
-0.941370
-0.026167
-0.015958
0.922198
0.153905
0.236020
0.836034
-0.330093
0.009473
0.626114
-0.804142
-0.410268
-0.399806
-0.314675
0.354209
0.387128
0.721666
-0.418178
0.824252
0.141795
-0.695795
0.840358
-0.941983
0.954517
-0.340442
0.101024
-0.904857
0.741557
0.401607
-0.745383
0.535244
-0.605599
0.450722
0.266907
0.759839
-0.333025
-0.268976
0.589085
0.356081
0.651314
0.005269
-0.656297
0.910016
-0.163832
-0.464140
-0.098833
-0.494154
-0.141810
-0.900887
-0.449579
0.776745
-0.089160
0.031906
-0.845459
0.221032
0.979201
0.481996
0.571012
-0.191298
0.066757
-0.213326
0.598904
0.910694
0.161803
-0.265750
0.076971
-0.822045
-0.621500
0.664860
-0.532772
-0.680386
-0.937604
0.222627
0.608327
0.417151
0.762723
-0.696293
-0.654781
-0.167853
-0.094921
0.470358
0.200833
-0.805242
-0.984653
-0.880944
-0.702233
-0.212697
0.186024
0.721658
-0.851577
-0.117925
-0.742026
-0.476472
0.111065
0.037881
0.519565
-0.173596
-0.455857
0.831400
0.973549
0.926770
-0.779184
0.437805
-0.709323
0.832871
-0.071917
0.514448
0.748800
0.129775
-0.575296
0.898261
-0.229879
-0.216748
0.026296
-0.866274
-0.608234
0.727766
0.931269
-0.818462
-0.331521
-0.902914
-0.972110
0.845794
-0.973653
0.967161
0.695444
-0.804371
-0.624331
-0.914208
0.789564
0.164003
0.602105
0.318863
0.115821
-0.693792
0.102283
-0.778147
-0.934231
0.187127
-0.283612
0.522019
0.888509
-0.996095
0.427756
-0.467697
0.359541
0.001527
0.878955
-0.583711
-0.600737
-0.717342
0.586083
-0.196974
0.113834
0.635961
0.081283
0.961332
0.481905
-0.413367
-0.135242
-0.849978
-0.996594
-0.183866
0.722087
0.853702
-0.719562
0.743521
-0.463261
-0.537656
-0.761302
0.144898
-0.534384
-0.791544
0.603899
-0.813932
-0.996401
-0.791360
-0.551224
0.090388
-0.990094
0.233426
-0.512958
-0.245847
-0.744858
-0.639474
-0.639135
-0.374222
-0.130997
-0.126939
0.173946
0.122922
-0.839865
0.901559
-0.637036
-0.444714
-0.538747
0.841465
0.657288
0.306385
-0.250440
-0.885338
-0.124437
-0.104367
0.311524
-0.594612
0.497241
-0.109060
0.608364
0.697953
0.190163
0.603019
-0.497510
0.151508
-0.690943
0.918269
0.033733
0.487407
-0.576101
0.431320
0.853307
0.769259
0.906470
-0.341806
-0.261846
-0.460172
0.474404
0.007177
0.113594
0.098865
-0.371059
-0.997995
0.998954
-0.431455
0.604933
-0.947986
0.139451
0.513116
-0.215538
-0.526677
-0.861614
-0.398738
-0.161889
0.274760
-0.308051
-0.900064
-0.772957
-0.995789
-0.884001
0.013872
0.153894
0.445622
0.450591
-0.375684
-0.774462
-0.252046
0.774603
-0.103417
0.568204
-0.405020
0.901984
-0.238516
0.325921
0.825657
-0.495866
-0.025083
-0.862912
0.989743
0.210386
0.918341
0.050187
-0.098784
-0.840240
0.951972
0.171975
-0.727518
0.357971
0.473779
-0.627243
-0.999888
-0.353174
0.020609
0.780909
0.307776
0.619755
-0.275612
-0.257259
-0.331942
-0.507587
0.825417
0.961318
0.110762
-0.656448
0.305233
-0.255850
0.896108
-0.822137
-0.083658
-0.509530
0.164086
0.918913
0.049041
-0.665588
0.042780
-0.062451
0.551480
-0.907234
0.026261
0.310028
0.836887
-0.916602
-0.810940
-0.494654
0.456512
-0.963502
-0.537160
0.881970
-0.377712
0.629586
0.867102
-0.777961
0.392265
-0.479829
0.125235
0.182532
-0.020889
-0.761128
-0.717320
0.067705
0.055088
0.165067
-0.158615
-0.536875
-0.254132
0.365687
-0.139564
-0.716095
0.456002
-0.666449
0.734598
-0.848699
0.199815
-0.308750
0.122798
0.713535
0.097384
0.410746
0.884627
-0.043360
0.390438
0.326798
0.792755
0.353672
0.078281
0.467127
-0.044368
0.851178
-0.758507
0.515996
0.277544
-0.647482
-0.197137
0.470052
0.705061
-0.717325
-0.231651
-0.439598
-0.126760
-0.922888
-0.366160
0.964234
-0.377989
-0.739412
0.488871
-0.405444
-0.802395
-0.983268
0.152571
0.880734
-0.424827
0.857079
0.671711
-0.215945
0.522554
0.346714
0.788451
0.003427
0.187260
-0.031974
-0.260493
-0.713349
-0.225336
-0.240978
0.361017
0.521470
0.091799
-0.348568
0.377399
0.819235
-0.055360
-0.460997
-0.887815
0.609675
0.925970
-0.726261
0.665926
0.079601
-0.328728
-0.033240
0.472591
-0.328635
0.761291
0.598044
-0.012935
0.065509
0.720355
-0.522333
0.889971
0.380739
-0.820849
-0.296234
0.207226
-0.109371
-0.212202
-0.666216
-0.995278
0.046592
0.600987
0.118151
0.892631
0.583300
-0.224252
-0.830931
-0.121698
-0.349550
0.732841
0.347417
-0.666062
-0.324514
-0.993535
-0.710404
0.350582
0.564820
0.250817
0.579822
-0.552163
0.848730
-0.397822
0.923289
-0.499101
0.483496
-0.548061
0.843704
0.586027
-0.518188
-0.298042
0.132608
0.151741
0.606305
-0.915607
0.416683
-0.314593
0.795245
-0.924106
0.796688
0.264458
0.910422
0.241126
-0.739098
-0.036284
-0.088986
0.130126
-0.852388
-0.269889
-0.549719
-0.603585
-0.450833
-0.471325
-0.697707
-0.785466
-0.563418
0.193342
0.928936
0.038278
0.767262
-0.020965
-0.504406
0.311628
0.303501
-0.427913
0.036065
0.515883
-0.720200
0.321988
-0.525435
-0.737238
0.747561
0.200961
0.225845
0.280025
0.147654
-0.006744
0.077041
0.184944
0.545163
0.456273
0.518700
0.848654
-0.355922
-0.008425
0.475669
0.336783
-0.234596
-0.375069
-0.635002
0.444040
-0.876151
0.467817
-0.326466
-0.098797
-0.135010
-0.505158
-0.969482
-0.517199
-0.041693
-0.850091
-0.637573
0.454405
-0.688863
0.261880
0.793840
-0.822214
0.469588
0.955328
-0.594497
0.850306
-0.762264
0.580094
-0.191541
0.963750
0.724583
-0.268467
0.633118
0.288352
-0.223874
-0.380942
-0.195280
-0.454415
0.861369
0.027770
0.038230
-0.400495
0.941270
-0.438925
-0.843608
-0.530144
0.539186
-0.125372
0.032124
0.828073
0.917848
0.281764
0.581999
-0.539329
0.404081
0.471063
-0.497571
-0.070052
0.841162
-0.754724
0.530104
-0.742414
-0.798002
-0.687350
-0.599793
0.157014
0.656375
0.968315
-0.786908
0.939727
0.861470
0.440300
-0.863167
-0.277064
-0.987858
0.361054
0.058615
-0.370502
0.166864
-0.954964
0.080191
0.709501
-0.407041
-0.382700
-0.527081
-0.584860
0.659766
-0.632691
-0.703013
-0.985141
-0.186284
0.872827
-0.606313
0.053994
0.507735
0.986029
0.799745
-0.735688
-0.558388
0.439698
-0.407927
-0.371740
-0.551809
-0.081816
-0.261757
0.965533
0.750715
-0.443594
-0.905514
-0.592181
-0.319669
0.654569
-0.099899
-0.498394
0.437692
-0.657996
-0.709511
0.589715
0.303175
-0.946724
0.779229
0.254605
0.757065
-0.408730
0.549623
-0.527987
0.355343
-0.378800
-0.895770
0.448486
0.971597
0.673075
0.032117
0.857630
-0.835991
0.156835
0.446735
-0.853340
-0.129387
-0.108415
-0.470563
0.295980
-0.702634
0.311292
0.149159
0.714807
-0.252058
0.873310
-0.414230
-0.073412
0.181392
-0.894770
-0.194563
0.105561
-0.159934
0.471134
0.125550
-0.226572
-0.707399
-0.280930
0.307131
0.314288
0.526988
0.420347
-0.391030
0.989481
0.162657
0.798412
-0.931121
-0.356805
-0.075260
0.940854
0.809803
0.849093
-0.704135
0.684440
0.811114
0.400019
0.899157
-0.001325
0.100194
0.637897
-0.216913
0.956219
0.036956
0.447681
0.787877
-0.468433
-0.173450
-0.363588
-0.431789
-0.306022
0.478093
-0.045150
-0.066395
0.319543
-0.141573
-0.062141
0.389047
0.945203
0.924462
-0.020100
0.960164
0.260200
0.159415
0.485001
0.971387
-0.691189
-0.310586
0.578618
0.395265
-0.296679
-0.993329
0.226808
-0.824222
-0.465836
0.197673
-0.236313
-0.104520
-0.481935
-0.517307
-0.225952
0.806930
0.754381
0.782589
0.588104
-0.243382
-0.955967
0.504570
-0.286193
0.405526
0.268949
-0.535608
-0.020231
0.982922
-0.420923
0.908970
0.528920
0.314310
-0.573782
-0.050720
0.903415
0.205395
0.381300
0.081359
-0.143051
0.826790
-0.736813
-0.282679
0.223457
0.961404
0.001960
-0.746048
-0.420855
-0.939550
0.180385
0.945997
-0.158738
0.392891
0.453968
-0.462875
0.650397
-0.375529
0.457066
0.248278
-0.369959
0.652716
-0.865208
0.275316
-0.035687
-0.710841
-0.103131
-0.344189
0.891279
-0.927655
0.670073
-0.695070
-0.375671
0.582846
-0.909546
-0.984360
-0.332198
0.657942
-0.450947
0.629156
-0.202142
0.110427
0.424961
0.684557
-0.136432
0.488350
-0.893070
-0.054010
0.270233
0.084895
-0.036022
0.583868
-0.403592
-0.040789
-0.254533
-0.786357
0.482789
-0.768577
0.948505
-0.414981
-0.080408
-0.366012
-0.174617
0.221529
-0.290424
0.994704
0.997150
0.907544
0.888505
-0.319546
0.941746
0.687511
-0.398731
0.639165
0.257584
-0.688943
-0.429057
0.543738
0.180899
-0.077149
-0.867509
0.228600
0.973925
0.541446
-0.374712
0.460578
-0.333462
-0.255645
-0.051116
0.584092
-0.025399
-0.341443
-0.473223
-0.118385
0.848218
0.891502
-0.113289
0.613792
-0.385014
0.807688
-0.213539
0.140102
-0.202541
0.284293
-0.686403
0.416716
0.291560
0.237779
-0.372492
-0.448856
0.939111
-0.380953
-0.339330
0.794796
-0.024940
-0.194794
-0.091607
-0.178762
-0.063970
-0.752843
0.742116
-0.018134
0.976230
-0.800472
0.801073
-0.418352
-0.175367
-0.475498
0.836613
-0.255294
0.627122
0.872687
-0.940341
0.641527
0.412671
-0.262722
0.805532
0.472813
-0.582953
0.078658
-0.631940
-0.937006
0.456625
0.320063
0.417050
-0.032889
-0.948328
-0.328663
0.638321
-0.117836
-0.190491
-0.803292
-0.375919
-0.655627
0.832913
-0.823323
-0.054467
-0.609303
-0.916960
-0.703702
0.895259
-0.707435
0.121759
-0.799724
-0.808304
-0.070303
0.607515
0.540697
0.547082
-0.463491
0.394274
-0.602252
0.761314
0.432029
-0.783110
0.213134
0.903791
-0.963299
-0.370360
0.295794
-0.135936
0.014494
0.029165
0.391130
0.082979
0.415017
-0.008538
0.920992
0.911231
-0.387996
-0.323566
0.162169
0.973781
-0.152659
-0.449340
0.248880
-0.990560
-0.136343
-0.255370
0.149572
0.130982
0.655128
-0.740377
0.115775
-0.094739
-0.211219
-0.476864
0.249161
0.823925
0.837396
-0.816983
-0.604518
-0.817699
0.679831
-0.231397
0.272888
-0.383731
-0.180957
-0.883452
-0.565432
0.934113
-0.622405
0.707743
0.168903
-0.461916
-0.694077
-0.828247
0.815459
0.200553
-0.749673
-0.751298
-0.066835
-0.288252
0.199216
-0.447039
0.711550
0.714352
0.968161
0.931617
-0.935511
0.419342
0.941675
0.881580
0.989872
0.669658
0.459120
-0.646492
-0.542746
0.188398
0.836807
0.181498
0.024711
-0.233771
-0.774105
-0.078335
-0.919282
0.959367
-0.938823
-0.871134
0.527240
0.210705
-0.081990
-0.338743
-0.303921
-0.291016
-0.020049
0.207006
-0.770373
0.275170
-0.609955
-0.762168
0.867913
-0.305512
-0.706900
-0.001961
0.464588
-0.330565
-0.561591
-0.064423
-0.978487
0.982793
-0.707330
0.497169
-0.472253
-0.568187
-0.280176
-0.229695
-0.191391
-0.234222
-0.828784
0.398258
-0.553159
0.021966
-0.304313
-0.590859
0.676476
0.516426
-0.550938
0.997770
0.555503
-0.811729
0.052422
-0.781248
-0.634920
-0.448286
0.526573
0.049166
-0.002247
-0.667013
0.999325
-0.463418
0.667381
0.752565
-0.299877
0.104993
0.005335
-0.989440
-0.297913
0.160177
0.483561
0.738846
-0.648357
-0.792712
0.776701
-0.025761
-0.828967
-0.840017
-0.256195
0.587521
0.477718
-0.215012
-0.318240
0.526711
-0.558673
0.255390
-0.270222
0.669069
-0.520347
-0.106273
0.178768
-0.940953
0.457608
-0.359100
0.556041
0.835857
-0.595744
-0.330435
0.860076
-0.882695
-0.675472
-0.122808
0.661398
0.264494
-0.239094
0.600206
-0.415443
-0.949458
0.526438
0.036994
0.202668
-0.232176
0.643189
0.041263
0.734611
-0.551403
0.670310
-0.513193
-0.338974
-0.076212
0.762822
0.725335
0.043228
-0.641005
0.131878
-0.096379
0.756720
0.168545
-0.632271
-0.024585
-0.020819
0.170330
0.461215
0.083402
-0.208536
-0.239654
0.554614
0.715934
-0.358287
-0.283049
-0.717349
-0.978595
-0.807418
0.532137
0.339353
0.726136
-0.887705
-0.329808
-0.407186
0.626455
0.439393
-0.598186
-0.129123
0.848633
-0.562299
-0.707604
0.369702
-0.769173
0.305310
-0.020410
0.365397
0.024082
-0.434201
-0.908123
-0.617310
-0.208019
-0.473434
0.836629
0.943352
0.176741
0.805096
-0.449038
-0.063038
0.421694
-0.194812
0.132371
0.051475
-0.180388
0.608809
0.200690
-0.352316
-0.361673
-0.368727
0.593204
0.910544
-0.600603
-0.776495
0.234071
-0.386933
0.085855
0.211258
-0.362353
-0.682272
0.305807
-0.040806
-0.455626
0.662507
0.304081
0.680923
-0.243180
-0.335437
0.134894
-0.640826
-0.781138
0.191198
0.248577
-0.300514
-0.103133
-0.115917
0.569496
-0.850182
-0.580913
0.356244
-0.847664
-0.447862
-0.774031
0.769652
0.753890
-0.382627
-0.436677
0.288589
0.569436
0.749619
-0.328039
0.420287
-0.590685
-0.163490
-0.154534
0.795005
0.131231
0.110476
-0.021966
0.057565
0.144836
-0.034933
-0.154579
-0.714308
0.270240
-0.610052
0.623999
-0.058616
-0.627514
0.427510
0.475086
-0.920360
0.303730
0.968962
-0.691233
-0.664246
0.907076
0.045022
-0.354947
-0.562899
0.847982
-0.256730
0.420613
-0.482672
-0.682143
0.776492
-0.102249
0.891093
0.178164
0.536353
-0.734197
0.420837
0.010352
0.023790
0.601055
-0.915185
0.795702
-0.754738
-0.556846
0.637662
0.685618
-0.690962
-0.694612
-0.343130
-0.370172
0.828491
-0.577356
0.270983
0.491177
-0.214607
-0.686796
0.484638
-0.049195
0.369466
-0.374383
-0.100308
-0.125147
0.311588
-0.624434
-0.568302
-0.600459
-0.827784
-0.956891
-0.216055
-0.845887
-0.532801
-0.323940
-0.983512
-0.364785
0.515108
-0.080728
0.336190
0.543944
-0.834744
0.898750
0.562141
-0.714735
-0.502143
-0.141658
-0.526037
-0.795333
-0.537202
-0.393581
-0.321973
-0.165497
0.077487
-0.316184
-0.673513
-0.978151
-0.363022
0.216013
-0.151288
0.596863
0.441842
-0.690264
0.514581
-0.429839
0.094452
-0.281040
-0.658966
0.128726
-0.287044
-0.383747
0.655148
-0.278689
-0.328350
-0.274424
-0.211367
-0.820708
-0.593687
0.131164
0.582113
0.465992
-0.306790
0.954192
0.485909
-0.419433
0.593716
0.726272
0.867950
0.995734
0.759348
-0.404269
0.107189
-0.064263
0.920325
-0.023693
-0.603772
-0.885774
-0.296173
-0.338576
-0.451335
0.005629
0.457460
0.417077
0.886321
0.524691
0.429638
-0.784030
0.801749
0.214372
-0.863037
0.305161
0.063634
0.931749
0.041722
-0.116746
-0.802584
-0.228202
0.042956
0.494644
0.804502
0.061065
0.153202
0.524556
-0.211069
0.090876
-0.086386
-0.322876
-0.281064
0.582492
0.772960
-0.370174
0.266422
-0.863318
0.779781
-0.126282
0.515949
0.353247
-0.305681
-0.373162
-0.184470
-0.501279
0.222912
0.245035
-0.248919
-0.156427
-0.685442
0.442792
-0.537548
0.612402
0.600126
-0.206164
-0.213163
-0.875979
-0.536408
0.032474
-0.940917
-0.753882
0.484715
0.625438
0.918792
0.194750
0.581216
-0.547592
-0.374941
-0.272016
0.619104
-0.142419
-0.662258
-0.554130
-0.117116
0.021174
-0.599608
0.872568
0.577760
0.706460
0.701070
-0.707291
-0.746939
0.584637
0.457822
0.601886
0.374716
0.331207
0.071378
0.433975
0.433514
0.955746
0.231972
0.666421
0.503182
0.519741
0.794392
0.282331
0.276585
-0.441010
-0.210917
-0.841113
0.835688
-0.965698
-0.759572
-0.475373
0.770883
0.305547
0.207805
0.526712
0.049597
-0.608958
-0.464427
0.707841
0.271033
-0.837301
0.307894
0.569739
-0.230425
0.960850
-0.257072
-0.776003
-0.131549
0.516212
0.713493
-0.720665
0.626541
-0.485181
-0.831730
-0.683874
-0.523437
0.679705
-0.491795
0.396865
0.941274
-0.803011
-0.280797
0.292527
-0.712880
-0.232213
-0.189726
-0.519944
-0.141054
0.370714
-0.930135
0.816585
0.579192
0.501852
-0.508279
0.926880
-0.667905
0.947422
-0.612792
0.799163
0.793803
0.792826
0.203915
-0.807257
0.263313
-0.451529
-0.653825
-0.522570
0.673522
-0.121217
-0.317276
0.173372
-0.349125
-0.584855
-0.959730
0.084257
-0.228494
0.125204
-0.813637
0.838634
-0.163847
-0.382284
0.846064
-0.479187
-0.277192
-0.004038
-0.388896
-0.274227
-0.198368
-0.870720
0.676322
-0.974962
-0.526679
-0.784182
-0.148455
-0.309644
-0.541026
0.981201
0.022152
-0.228716
0.477026
-0.764966
-0.651893
-0.702875
-0.014713
0.316992
0.199542
0.993130
-0.102690
0.009000
-0.625124
-0.786748
-0.845023
0.943156
0.060239
-0.057810
0.339401
-0.273669
-0.550040
-0.096363
-0.419343
0.495835
-0.813728
0.171255
-0.224151
-0.184862
0.485049
-0.363453
0.933425
0.046145
0.842610
-0.234980
-0.890792
-0.898357
0.432750
0.944352
0.254825
0.963193
-0.422830
0.908588
0.438635
-0.645875
0.406571
0.590335
-0.975230
0.688393
-0.632155
0.205355
-0.793864
0.473731
-0.978693
-0.675825
0.828196
-0.145472
-0.348276
-0.946197
-0.047894
-0.447677
0.142496
0.715384
-0.498052
-0.959539
0.138970
0.364873
0.438236
-0.545461
-0.640147
-0.996555
0.239603
-0.181709
-0.534128
0.688551
0.722134
-0.048969
-0.975225
0.503854
-0.177100
-0.171831
-0.940067
0.738288
-0.788431
0.825127
0.244074
0.755379
0.985136
0.986012
-0.253120
0.959991
0.798182
-0.185095
-0.613159
-0.832113
0.740317
-0.242165
0.438822
0.697060
0.772639
-0.557681
0.992602
0.208439
-0.331533
0.758611
-0.980864
-0.273158
-0.406453
-0.849535
-0.387334
-0.819909
-0.519966
0.727379
-0.090929
-0.034916
-0.196133
0.255183
0.381676
-0.101634
-0.152052
-0.003230
0.907001
-0.453394
-0.350724
0.293242
-0.895530
0.136569
0.944932
0.087768
0.899447
0.428601
0.480834
-0.880300
-0.432421
0.891039
0.791415
-0.135930
-0.768777
0.909747
0.035270
0.343939
-0.427461
0.720658
0.347252
-0.552878
0.838558
-0.404210
0.664011
-0.539100
-0.793493
0.787299
-0.361975
-0.353644
0.853362
-0.697741
-0.557175
-0.289840
-0.391733
-0.678023
-0.872848
0.154137
-0.286173
-0.686302
-0.160504
-0.633513
0.768686
-0.283005
-0.460851
-0.878290
0.200844
-0.302761
0.205776
-0.746984
-0.529273
-0.358189
-0.839479
-0.850350
0.790640
0.220080
-0.428264
0.520707
-0.543297
0.594330
-0.289082
0.909210
-0.652981
0.889070
-0.377328
-0.260363
-0.916229
0.940260
-0.450340
-0.683167
-0.507637
0.287178
-0.138153
0.575228
0.448073
-0.111343
0.777316
-0.716948
0.010281
0.507413
0.655545
0.359899
-0.082291
0.178296
0.854924
-0.800582
-0.525169
-0.273621
-0.028699
-0.593950
0.071015
-0.084974
0.273142
0.395869
0.954186
-0.093563
0.492533
-0.017999
0.573902
-0.104804
0.535287
0.717627
-0.995304
0.152591
-0.967148
-0.571093
0.052605
-0.311803
0.237489
-0.916091
-0.704356
-0.289895
0.710925
0.705948
-0.373233
-0.253208
0.918007
0.737097
0.198458
-0.734370
0.128980
0.340079
-0.690867
-0.282648
-0.399421
0.845826
0.499835
-0.380656
-0.778480
-0.986893
-0.300166
0.582989
-0.075359
0.822883
-0.814753
-0.118886
0.944313
0.603597
-0.130005
-0.597657
-0.013610
-0.674836
0.562573
0.701541
0.739857
0.548256
0.186677
-0.406269
0.764279
-0.207754
0.544509
0.343294
-0.863621
0.457649
-0.490960
0.885390
0.350232
0.667044
0.468356
0.648073
-0.364780
-0.765259
-0.517799
-0.882605
-0.641664
0.966767
-0.486859
0.362598
-0.068625
0.105191
-0.450921
-0.548735
-0.455637
-0.370995
-0.720230
0.224835
0.144351
0.922822
-0.972996
0.034497
-0.379342
-0.382341
0.316222
-0.901103
-0.128943
0.732002
-0.902864
0.345124
0.327967
0.286629
0.409757
0.462993
-0.205154
0.309031
0.697637
-0.664991
0.311718
0.205088
-0.145884
-0.713311
-0.023837
-0.877097
-0.218769
-0.138530
0.490442
0.261802
0.518908
0.016699
0.323999
-0.535228
0.791064
-0.358150
0.569330
0.674191
0.176937
0.955634
0.327172
-0.877987
-0.203400
-0.871141
0.270949
0.969358
0.828797
0.630224
-0.227140
-0.743765
0.990029
-0.029410
-0.013896
0.054355
-0.298124
0.066670
-0.074961
0.775884
-0.297409
0.744387
0.818205
-0.988352
0.468706
-0.696511
-0.155673
0.980215
0.638269
-0.858369
-0.754801
-0.623453
0.058644
0.724743
-0.464142
0.180412
0.520370
-0.137147
0.145722
0.299034
0.264181
-0.988812
-0.888331
0.586835
0.567254
0.323142
-0.504985
0.582414
-0.136222
-0.258181
-0.764036
-0.671491
-0.157407
-0.749761
-0.517328
0.780094
-0.405933
-0.522178
0.191455
0.446792
0.853034
0.744044
0.589421
-0.776763
-0.991441
0.800826
0.568547
0.211940
-0.216734
0.472861
-0.766549
-0.703172
0.426211
-0.945189
-0.642601
0.123102
0.981101
-0.152309
0.087335
0.428827
0.249992
0.515262
-0.784006
-0.344797
-0.320665
0.928747
0.071013
0.828478
0.240597
0.902112
0.994438
0.805376
-0.225750
-0.364721
0.682912
0.655760
-0.958135
0.878384
0.357465
-0.972368
0.226623
-0.138347
-0.091779
-0.232253
0.625717
0.443657
0.543938
-0.418199
0.007933
0.663200
0.759853
-0.890148
0.143799
0.350409
0.763865
-0.102733
-0.798571
-0.340284
-0.297037
-0.576348
0.604013
0.277401
-0.241843
0.508251
-0.839410
-0.654755
-0.854289
0.049312
-0.449153
0.811357
-0.898199
-0.442710
-0.524494
0.219198
-0.531225
-0.254969
0.194676
0.979155
-0.128854
0.596515
-0.188710
0.951018
-0.153308
0.432754
0.857613
-0.824923
-0.520578
0.943132
-0.759952
-0.065430
0.744286
0.475599
0.437049
-0.828213
-0.357736
-0.935189
0.481670
-0.481581
0.357107
0.865320
-0.503709
0.642146
0.380376
-0.983384
-0.248440
-0.687584
0.439078
0.349478
0.879378
0.846537
0.181332
0.651324
0.060854
0.000063
-0.003452
0.772417
-0.072398
-0.412932
0.229394
-0.261021
-0.372352
-0.763090
-0.908548
-0.479717
0.387368
-0.639430
0.357316
-0.995997
-0.353627
-0.360025
0.043032
0.795875
0.505338
0.813619
0.275049
0.369861
-0.529183
0.461722
0.350754
-0.840802
0.020898
-0.537149
0.466984
0.205977
-0.465566
-0.210273
-0.867390
0.977054
0.893510
-0.930405
0.455026
-0.018802
0.846820
-0.403518
-0.205166
0.678972
0.936790
-0.119867
-0.567590
-0.541618
-0.562387
0.487389
-0.858696
-0.121906
-0.074313
-0.820811
0.990787
-0.216374
0.651659
-0.986736
-0.916387
0.108804
-0.539064
-0.086705
0.189599
-0.887734
-0.425872
0.925146
0.298591
0.163971
0.068471
-0.575439
-0.317219
0.427037
0.894994
0.092243
-0.959445
0.940074
0.743304
-0.620906
0.366062
0.747646
0.547512
0.872116
-0.093554
0.441916
-0.760778
-0.591591
-0.957157
0.435256
-0.644700
-0.808159
-0.384952
-0.440302
-0.059890
0.393146
-0.340267
-0.463788
-0.664374
0.654601
0.815433
-0.266706
-0.735668
-0.883838
-0.654500
0.218954
-0.895153
0.628202
-0.444420
-0.373204
-0.408601
-0.206793
-0.515505
-0.130804
0.079955
-0.197634
0.646904
0.834641
0.072658
0.604992
-0.860370
0.355825
0.392170
0.998569
-0.752149
0.660097
0.894696
0.199028
-0.938587
0.705997
0.443645
0.117491
-0.315678
-0.610157
-0.556439
0.587214
0.039724
-0.986904
0.890039
0.500184
0.091060
0.528653
-0.602617
-0.121342
-0.502770
0.768880
0.431779
-0.565482
0.708339
-0.459200
-0.498004
0.132541
-0.663446
0.003100
-0.635348
-0.121879
-0.257433
-0.200335
-0.448872
-0.246432
0.892058
-0.977625
-0.221671
0.348219
0.315035
0.131638
0.745215
0.185493
0.097253
-0.729257
-0.265287
0.526636
0.185390
-0.223076
0.696003
-0.043424
0.268863
-0.891989
0.566991
0.012701
-0.093791
0.308629
-0.212092
0.047515
0.601478
-0.010194
0.292077
0.052339
0.666510
-0.194563
-0.194279
-0.963400
0.460511
-0.133268
0.040510
-0.659479
-0.812036
-0.324465
0.339811
0.105077
-0.170865
-0.977827
-0.634692
-0.688765
0.541722
-0.677786
0.436857
0.083712
0.161740
0.909421
0.835725
-0.438630
-0.746769
-0.706476
-0.377445
-0.107834
0.423864
0.233111
-0.334770
-0.932790
-0.017201
0.212979
-0.342687
-0.046618
0.045610
0.318918
0.295448
0.791878
-0.427147
-0.669289
0.094711
-0.542121
0.291298
0.299971
-0.130768
0.903861
0.352238
0.427375
-0.189014
-0.105243
0.754023
0.373210
-0.289208
0.716747
-0.414415
0.025045
0.390233
-0.495473
0.819318
-0.384679
-0.718436
0.360774
0.081281
0.412045
0.652522
0.438172
0.997904
0.500393
0.797021
-0.181229
0.837066
-0.206734
0.587401
-0.820110
0.676993
-0.455443
-0.287430
0.507731
0.654174
0.738101
0.779090
0.968308
0.138274
-0.364165
-0.420067
-0.939858
-0.110989
0.006962
0.482547
-0.764647
0.083309
0.762745
-0.970200
-0.161400
-0.123793
-0.116972
-0.865686
0.279922
0.821197
-0.769665
-0.850684
-0.754847
-0.464379
0.151691
0.775422
0.012383
0.165476
-0.272017
0.682633
-0.388566
-0.823145
-0.223549
0.527823
0.058355
-0.080196
0.872127
0.000768
0.359840
-0.722812
0.090174
-0.642319
-0.768050
-0.337594
0.539258
0.544947
-0.145664
0.159056
-0.763975
0.079642
-0.456766
-0.730411
-0.545415
0.871541
-0.457441
-0.965912
0.169067
0.787250
0.805442
0.398927
-0.791215
0.750055
-0.698598
0.104624
-0.367075
-0.676827
-0.403803
0.381829
-0.345055
-0.057581
0.504663
0.194964
0.812398
-0.379377
-0.806495
-0.541899
0.416574
0.698746
-0.123911
0.916344
-0.013199
-0.649776
-0.419851
0.258928
0.160050
0.305516
0.515762
-0.895642
-0.827770
0.504809
0.927302
-0.538701
0.641260
-0.102932
0.159575
-0.876643
-0.672760
0.034196
-0.283219
0.176133
0.031689
0.114760
-0.933688
0.756298
0.379191
-0.711850
-0.490232
0.346717
0.267669
-0.875477
-0.519393
0.341869
-0.259742
0.226063
-0.361364
-0.011842
-0.111623
-0.274963
0.064390
0.659553
0.609452
0.912411
-0.863365
-0.678268
0.754608
0.282795
-0.982685
-0.351735
-0.596372
0.906704
-0.044165
-0.740626
-0.506350
-0.942534
-0.004534
-0.700297
-0.652853
-0.423745
-0.908224
0.902447
0.128061
0.753153
0.265527
-0.898420
-0.211156
-0.848687
-0.193472
-0.374298
-0.839679
0.982454
-0.995925
0.888618
0.534931
0.178390
0.565775
0.087332
-0.042713
0.338433
0.932059
0.239149
0.137579
-0.277863
0.492650
-0.940109
0.986088
0.496137
0.962487
0.392892
-0.380715
0.955548
-0.666238
0.179791
0.164089
-0.539125
0.285307
-0.699135
-0.614676
-0.171115
0.209158
0.649221
0.925985
0.237577
0.278575
-0.878453
0.407027
-0.212781
0.367660
0.638754
-0.664373
-0.853789
-0.927752
-0.971279
-0.135401
0.753115
0.684129
-0.661167
-0.103727
-0.757614
-0.582610
-0.966101
-0.638775
0.474991
0.936622
-0.165628
-0.602076
-0.172559
-0.503117
0.784727
-0.326568
0.269785
-0.404370
-0.210327
-0.592950
0.930831
0.554543
0.651509
0.434312
0.082427
-0.985084
-0.139538
0.354404
0.697896
-0.010329
0.489576
0.694428
-0.715550
0.968061
0.737495
0.082100
-0.558121
-0.794558
-0.709454
-0.910183
0.031928
-0.313273
-0.395494
0.321354
0.005882
-0.099352
0.020201
0.507349
0.939820
0.403875
-0.815726
-0.808223
0.067080
0.932250
0.814279
-0.164616
0.347821
-0.928221
0.281052
-0.255149
0.814130
-0.338673
-0.433516
-0.423641
-0.211586
0.050013
-0.288516
-0.373154
0.073302
0.331198
0.019984
-0.013821
0.484084
0.440620
-0.888232
-0.918145
-0.122500
0.096426
0.288955
0.734369
-0.759242
0.998689
-0.244281
0.125733
0.790805
0.150357
-0.355877
0.036113
-0.683137
-0.428863
-0.088689
-0.415028
0.183626
-0.090087
-0.445068
-0.199301
-0.012649
-0.086668
-0.998525
-0.843354
-0.488444
0.965317
-0.978426
-0.808430
0.838553
-0.402969
-0.510299
-0.648011
-0.483952
0.078129
-0.581021
-0.001674
-0.942730
0.291294
-0.173804
0.269876
-0.165033
-0.278664
0.756433
-0.083891
0.360615
-0.668873
-0.845424
-0.380203
-0.872610
0.809061
0.583921
-0.199473
0.663250
0.931736
0.953464
-0.744996
0.319463
-0.985707
-0.184541
-0.423799
0.294438
-0.784880
0.188248
0.366248
-0.993490
0.286232
0.862075
0.639117
-0.635199
0.223458
-0.596552
-0.491837
-0.889063
-0.689963
-0.765327
-0.536629
-0.164689
0.793423
-0.498886
-0.357014
0.489467
-0.232956
-0.347383
-0.345573
-0.973019
0.713001
-0.656773
0.496801
-0.188487
-0.982435
0.953147
0.839531
-0.616481
0.132883
-0.022020
0.256351
-0.002911
0.000910
0.151760
-0.458615
0.501876
0.886912
0.763671
0.700746
0.481109
-0.240879
-0.463770
-0.462068
-0.941285
-0.824433
0.224311
0.574789
0.670414
-0.631601
0.066805
0.757551
0.562273
-0.342735
0.235936
-0.825465
-0.132462
0.465382
-0.066237
-0.077789
-0.999940
0.963210
-0.039887
-0.661512
0.475668
0.149770
0.453232
-0.490425
0.507337
-0.107884
0.945429
0.980958
-0.271286
-0.624222
-0.753193
0.712227
-0.254890
0.172342
-0.135538
0.109143
-0.222325
-0.880071
0.160902
0.487682
-0.965214
-0.686338
0.278698
0.428737
-0.100330
0.750843
0.456984
0.575424
-0.959473
-0.658150
-0.397268
0.926102
-0.572205
-0.734905
0.754963
-0.208330
0.787066
-0.660177
0.731563
-0.443113
0.878800
-0.945621
-0.450305
0.454991
-0.023029
0.077075
-0.261398
0.910147
-0.495156
0.414227
-0.273900
0.114357
0.097236
-0.210105
-0.669887
0.936324
-0.432029
0.531945
-0.862962
0.961190
-0.856304
0.158787
-0.488971
0.888751
-0.766993
0.212930
-0.877940
-0.535891
-0.210362
0.989770
0.726100
0.541526
0.217585
0.764136
0.839042
0.393614
0.164611
-0.096446
-0.356844
0.177018
-0.958640
-0.204200
-0.475889
0.693085
0.292460
-0.045812
-0.059175
-0.399087
-0.946570
-0.534071
-0.742009
0.924404
-0.869172
0.569403
-0.972105
0.951976
0.683462
-0.636346
-0.442170
0.310490
0.489368
0.424215
-0.943457
0.900667
-0.862086
-0.988809
-0.772917
-0.264143
0.832694
-0.484608
-0.300210
0.680587
-0.704312
0.576895
0.077338
0.494179
-0.466285
-0.480720
0.488297
-0.784791
0.506805
-0.782125
0.469481
-0.214594
-0.238684
0.025590
0.145414
-0.141284
0.743942
0.254634
-0.869761
0.726974
0.973718
0.887737
0.430067
-0.760137
-0.052360
-0.400076
0.128216
-0.284399
0.393337
0.488031
0.201840
0.051888
0.436715
0.410062
0.964675
0.249510
0.750196
0.798208
-0.634284
0.977496
0.328681
0.009376
0.097678
0.090876
0.826591
0.512727
-0.115884
0.011808
0.423567
0.840259
0.416932
0.447844
-0.579647
-0.658901
-0.710964
-0.113409
0.551018
0.003532
-0.979530
0.601105
0.291804
-0.125611
0.550675
0.284542
0.760550
-0.994973
0.818630
0.781794
0.212491
0.262983
-0.211468
-0.306962
0.871523
0.874814
-0.788603
-0.812718
0.314154
0.706176
0.162225
0.881410
-0.750255
0.577493
0.286596
0.820514
0.381842
0.097821
-0.889564
-0.516567
-0.227312
-0.518246
0.572580
0.924822
-0.942482
0.175451
0.367174
-0.215648
0.713619
0.970412
-0.875168
-0.247956
-0.961776
-0.034887
0.098898
0.025880
-0.708341
0.688894
0.099278
-0.072601
-0.885624
-0.374255
0.009060
-0.613656
-0.565198
-0.802666
-0.442355
-0.278617
-0.965599
0.795874
-0.075724
0.307367
-0.313370
0.526782
-0.709945
0.298743
-0.507702
-0.895017
0.081191
-0.405233
0.305682
-0.255493
-0.946419
0.667961
-0.617184
0.024336
0.061463
-0.448260
-0.840873
0.476744
-0.738424
0.251416
-0.674088
-0.126480
-0.470253
0.089142
0.643894
-0.964931
0.128312
-0.273900
0.778121
-0.970091
0.059151
-0.953871
-0.493167
0.310650
0.334595
0.654759
-0.724869
0.860272
0.365165
0.971827
0.341925
0.859346
0.740638
0.999673
-0.263611
0.969266
-0.647863
-0.579879
0.159537
-0.734853
0.540733
0.974254
0.106046
-0.979230
0.684176
-0.228446
-0.832741
-0.507498
0.959270
0.168147
-0.290701
0.888202
-0.200090
0.617827
0.234683
-0.909899
0.240419
0.101549
-0.170562
0.857864
0.456637
-0.352315
0.461510
0.078948
0.803392
0.301679
-0.691240
0.967480
0.644936
-0.059440
-0.394322
-0.824147
-0.492350
-0.639443
0.129778
0.486846
-0.415121
-0.975867
-0.502698
-0.941713
0.676107
0.391632
0.158802
0.728622
0.112683
-0.738888
0.609535
0.460184
-0.860446
0.719952
-0.858457
0.434828
-0.308155
-0.599868
0.565475
0.410147
-0.508732
0.809379
-0.379046
0.031591
0.360657
-0.355646
-0.399029
-0.546710
-0.281772
-0.392794
-0.846784
0.881526
0.633856
-0.134782
-0.885908
-0.157925
0.530010
-0.116691
-0.013878
0.749876
-0.405720
-0.528699
0.269636
0.407285
0.232713
-0.826303
0.871901
0.994391
0.525657
0.399332
-0.524073
0.344274
-0.761217
0.477537
-0.612319
0.636667
0.286739
-0.156397
0.909658
0.283356
-0.917792
-0.185386
0.433918
-0.503634
-0.623851
0.256919
0.121010
-0.843257
0.470224
0.562736
0.876847
0.629809
-0.406755
0.051813
0.651889
-0.513463
0.628332
0.929371
0.569456
0.733820
-0.280461
-0.731498
0.400651
0.371454
0.137761
0.908204
-0.572649
0.473442
-0.368790
-0.314740
-0.660929
-0.096952
-0.952592
-0.292266
0.710934
0.426569
0.136663
0.535156
-0.723889
0.779984
0.526705
0.898205
0.128789
0.638399
-0.831798
0.102821
-0.915096
0.429874
-0.870631
-0.165750
0.046638
-0.832626
0.602646
0.899515
-0.665871
0.833280
0.570059
-0.123800
0.751851
0.784804
0.301424
-0.178376
-0.625547
-0.846567
-0.096832
-0.140832
-0.149958
0.039451
-0.133500
0.796864
-0.766302
-0.990107
0.256871
-0.834837
0.217051
0.716791
0.090334
0.265042
0.722034
-0.450778
0.890269
0.286233
0.701247
0.545360
0.316353
-0.100789
-0.110092
0.439865
-0.641109
0.098804
0.823497
-0.691946
-0.394412
-0.044841
0.712848
-0.229519
0.352157
-0.302278
-0.842136
0.645109
0.118767
-0.596342
0.329569
-0.395499
0.435587
-0.810262
0.401691
-0.209772
0.957052
0.092313
0.388433
0.894949
0.682354
0.024561
-0.196178
-0.469733
0.310279
-0.191447
-0.234495
0.316301
-0.854197
0.227255
0.501496
-0.389324
-0.184780
-0.138869
0.366138
-0.830408
0.817504
-0.324892
-0.962714
-0.235245
-0.571950
-0.788361
0.207315
-0.581416
0.904649
-0.339161
-0.864318
0.988421
0.752212
0.014202
-0.332382
-0.906209
-0.665497
0.914487
-0.645272
-0.122686
0.326223
0.181818
0.226326
-0.230105
0.456926
-0.412913
-0.579696
0.327825
0.989375
-0.252416
0.126428
-0.059934
-0.749644
-0.307297
0.847062
0.729373
-0.249209
0.956538
0.775927
-0.427621
0.035025
0.110237
0.344954
-0.131241
-0.174104
-0.218932
0.946142
-0.951510
-0.451620
-0.807595
-0.493459
-0.593650
-0.005536
0.203430
0.727436
-0.362167
-0.262194
0.231221
0.951549
-0.214073
0.128258
-0.736313
-0.774363
0.081973
0.812874
0.357535
-0.630589
-0.862311
-0.788018
0.390240
-0.594164
-0.976013
0.280202
0.239057
0.360199
0.541490
0.392183
0.007887
-0.229074
0.569949
0.205984
-0.727721
0.478209
0.410948
0.107644
0.641992
0.638981
0.123820
-0.947192
-0.370021
-0.655827
-0.443938
0.600750
0.181656
-0.319161
-0.875215
-0.340028
0.593788
0.186247
-0.377064
-0.858274
0.019256
0.292346
-0.405237
-0.754129
-0.736251
-0.801639
-0.365229
0.175614
0.120767
-0.232747
0.112532
0.543155
-0.925201
0.830550
0.479705
0.277347
-0.697734
-0.356310
-0.741472
0.458504
0.718063
-0.516208
0.936425
-0.597985
-0.543885
0.878820
0.765219
-0.120284
-0.861464
0.387732
0.402708
-0.769553
0.362315
0.077627
-0.849796
0.453204
0.108152
-0.380280
-0.941559
0.092643
-0.368288
-0.274070
-0.254001
-0.960660
-0.357637
0.279214
-0.060263
-0.506338
0.571641
-0.238221
0.796742
0.947530
-0.628534
-0.059085
-0.366079
0.213507
-0.108846
0.921086
-0.049061
0.951983
-0.212867
-0.639176
0.195037
0.925487
0.745044
0.595827
0.941923
-0.848915
-0.004155
0.029226
0.291874
-0.352684
-0.179939
-0.131854
-0.612117
-0.225956
0.180944
0.463526
0.469110
-0.469112
-0.727633
0.199842
0.525098
0.435542
0.605979
-0.473479
0.530043
-0.291240
0.947540
-0.770716
-0.327657
0.985032
-0.400158
-0.659223
-0.299110
-0.014365
0.090039
0.276529
-0.756727
0.083699
-0.775815
0.775627
0.805920
0.399564
0.309882
-0.541601
-0.394054
0.279020
0.416872
-0.394585
0.649371
-0.933627
0.638617
0.060484
-0.283939
-0.357088
0.606488
0.532412
-0.784351
-0.846578
0.330398
-0.196061
-0.556301
-0.746130
0.049086
-0.912353
0.240267
0.566988
0.321233
0.521063
0.165342
-0.359466
-0.156007
-0.587404
-0.880004
-0.484254
0.624426
-0.263808
0.638038
0.153296
0.050679
0.006169
-0.596254
-0.153145
-0.047851
0.271597
0.930482
-0.622003
-0.983896
-0.823701
0.990533
0.182719
0.130535
0.111519
-0.706909
0.903564
-0.590964
-0.093733
-0.910289
0.621929
-0.491989
-0.943028
-0.413895
0.326250
0.013652
0.168415
0.354213
0.506353
-0.742418
0.164816
0.905240
-0.464686
0.109252
-0.515313
0.833090
-0.538340
-0.302372
0.249787
-0.288139
-0.485589
0.376715
-0.335336
0.814838
0.302291
-0.564957
0.964947
-0.147743
0.045723
0.054871
0.210746
-0.429351
-0.764999
-0.345140
0.796264
0.389424
0.186401
-0.480425
0.546770
0.144579
0.231225
0.232812
0.734152
0.515892
0.791010
0.654170
0.940197
-0.973733
-0.742590
-0.096401
-0.998459
-0.377609
0.093999
-0.615608
0.356744
-0.557980
-0.054491
-0.583002
-0.241800
-0.725373
0.202754
-0.556201
-0.737933
0.947998
0.560636
-0.136609
-0.412730
0.206167
-0.168728
0.752781
0.477689
0.209762
-0.807737
0.403021
-0.775846
0.617625
0.541869
-0.961100
-0.618723
0.541213
0.692409
0.164504
-0.514464
0.686681
-0.135507
0.685916
0.299290
-0.863758
-0.141052
-0.970498
-0.387764
-0.590721
-0.169270
-0.055256
-0.338638
-0.286682
-0.919015
0.093137
-0.346462
0.827777
0.619964
-0.411155
0.717720
0.133422
0.223369
-0.681491
-0.737871
-0.439383
0.238506
-0.481098
-0.795507
-0.485323
0.318033
-0.674116
-0.314085
0.452438
0.964571
0.913685
0.756275
0.275313
0.084722
-0.563030
0.752399
-0.049565
-0.622282
-0.083447
-0.740621
-0.234023
0.629104
0.347382
-0.572212
0.863998
-0.530428
-0.391924
-0.820941
-0.117556
0.754413
0.441247
0.205508
-0.921408
0.220813
-0.827889
-0.965865
0.373069
0.418189
0.373041
-0.056810
0.401580
0.540672
0.746967
0.351068
-0.429576
0.749927
0.700661
-0.956864
0.193364
0.234487
-0.989410
-0.891042
-0.456318
0.687264
-0.610013
0.961978
0.687791
0.815049
-0.670466
0.137648
0.697195
0.356066
0.999745
-0.362867
-0.967896
0.077088
0.440983
0.717575
-0.754070
0.634543
-0.178862
0.555956
-0.985165
0.170026
-0.469846
0.915721
-0.449592
-0.064801
-0.277450
-0.077340
-0.333577
-0.538405
-0.070970
-0.079885
0.454546
0.875029
-0.022153
0.458296
-0.767320
-0.211924
-0.686382
0.563549
0.698610
0.758602
-0.170823
-0.686894
-0.008434
0.562795
0.354020
-0.234208
-0.190525
0.792568
0.548744
-0.796012
-0.006698
-0.809596
0.208748
-0.298127
-0.379116
0.024099
0.247281
-0.085074
-0.285575
0.573151
-0.152804
0.367095
0.054377
-0.502099
0.270056
0.624870
0.663773
0.371578
0.946053
-0.351567
0.055316
0.311397
-0.887074
0.840489
-0.410281
0.280467
0.271610
0.224679
-0.329502
-0.504113
-0.028301
0.980522
-0.124839
-0.953231
0.709228
-0.270563
-0.523862
-0.710250
-0.354558
-0.709521
0.556638
-0.273956
-0.157608
-0.342606
-0.807942
0.612215
-0.807107
0.458098
0.253289
0.434109
-0.502601
-0.105154
0.201878
0.617416
0.901658
0.661407
0.974620
0.709311
-0.860447
-0.679458
-0.797087
0.932941
-0.673825
-0.370815
-0.577090
0.345200
0.118458
-0.666456
0.514540
-0.148804
-0.887920
-0.888636
-0.473598
-0.570664
-0.836272
-0.220027
-0.857520
-0.868293
0.330446
0.621877
-0.522324
-0.682750
-0.809096
-0.889328
-0.159234
-0.550466
0.904029
-0.888682
-0.255674
0.048457
-0.011164
-0.150354
-0.661667
0.553724
-0.217546
-0.029890
-0.825837
-0.623162
-0.359695
-0.957813
0.075605
-0.344868
0.861551
-0.825734
-0.727843
-0.656853
-0.255167
0.887439
0.638766
0.226942
0.998459
0.176218
-0.615542
0.403225
-0.954864
-0.762703
0.469422
-0.833217
-0.285126
-0.286483
-0.224446
0.016411
-0.947861
0.447763
-0.370848
0.954687
0.915438
0.193122
-0.113603
0.401937
0.923956
0.133805
-0.664681
-0.215545
-0.614637
0.224222
-0.401190
0.560860
0.561547
0.343870
-0.929213
0.771147
0.888654
-0.937704
-0.267141
0.476556
0.157475
0.483730
0.064244
-0.618525
-0.214575
-0.743788
-0.244829
0.665430
0.525441
0.529025
0.466456
-0.998682
0.102034
0.620096
0.559737
0.599478
-0.682831
-0.756735
0.970202
-0.484488
-0.997018
0.401756
0.186013
-0.562317
-0.382818
0.440729
-0.828616
-0.586065
-0.909533
-0.960469
0.674741
0.507142
0.630141
0.700968
-0.281906
-0.119500
0.192529
-0.384819
0.803936
0.319977
0.096349
-0.345971
0.312759
-0.115996
0.813817
-0.550052
-0.285082
0.019452
-0.538677
0.408608
0.812555
-0.854161
-0.011406
0.547957
-0.544069
0.647208
-0.449861
0.265402
-0.995232
-0.838775
-0.685433
0.490317
0.526944
0.288131
-0.935060
0.967030
-0.363433
-0.637816
-0.961091
0.070377
0.041277
-0.650904
-0.405701
0.147411
0.210569
0.339876
-0.068655
0.668218
-0.766312
-0.886351
-0.840256
-0.773741
0.758423
0.538498
-0.757547
0.346241
-0.286623
0.743087
-0.563135
0.447930
-0.471436
-0.103304
-0.406897
-0.309637
0.572967
-0.296968
0.801605
-0.724962
-0.309800
0.596153
-0.184197
-0.662299
0.120608
0.337287
0.781622
0.136821
-0.343835
-0.410380
0.192630
-0.788440
-0.939714
-0.297512
0.675688
0.355493
0.961878
0.317912
0.840538
0.515943
-0.534065
0.401366
0.881137
0.388949
-0.556581
0.749970
0.988184
0.202113
0.640049
0.151474
-0.759556
-0.732139
0.608894
0.988154
-0.300230
0.476777
0.410319
-0.916290
-0.189721
0.959587
-0.237547
-0.103275
-0.031489
-0.762553
-0.721568
0.314938
0.761599
0.195897
-0.492996
-0.382456
0.738183
0.104858
0.978485
0.759094
-0.620605
-0.628274
0.882466
-0.940641
-0.746949
0.942133
-0.904855
-0.800497
0.883850
-0.932299
0.625741
0.720544
0.439590
-0.697664
-0.708301
-0.171377
-0.769549
-0.641131
-0.336116
0.594384
-0.033419
-0.041987
-0.193516
0.793971
-0.879302
-0.052107
0.814192
0.573677
0.857099
-0.303196
0.556542
-0.901918
0.352348
-0.426573
-0.292044
-0.918704
-0.615625
-0.826382
-0.814066
-0.548452
0.427322
-0.006073
-0.601472
-0.041935
0.729786
-0.934466
0.597115
-0.919075
-0.414287
-0.852664
-0.595877
-0.698585
0.604540
-0.880215
-0.279621
-0.474671
-0.606451
-0.526358
0.026785
0.180932
0.240218
-0.604190
0.344990
0.532906
-0.418210
0.822353
-0.256175
0.328059
0.670231
0.727379
0.297872
0.634328
0.864064
0.642587
-0.799757
-0.177063
0.259708
-0.421292
-0.054322
-0.466988
0.389516
-0.213326
0.163814
-0.671470
-0.384473
0.458619
-0.851986
-0.745472
-0.648125
0.490309
0.845760
-0.347992
0.887753
0.674381
0.875305
-0.391380
0.073623
-0.975676
-0.907385
0.640572
-0.084902
-0.678022
0.005238
-0.684322
0.053707
-0.090922
-0.262490
0.243611
0.137337
-0.847671
0.024431
-0.030505
-0.282061
0.447879
-0.145701
-0.570528
-0.286683
0.677090
-0.552160
0.810715
-0.515456
-0.071231
0.738853
-0.351159
-0.675913
-0.693326
0.209163
-0.561410
0.055286
0.394285
0.981057
-0.169291
0.932996
-0.668913
0.330108
0.546598
0.850277
-0.572392
0.020410
-0.544115
0.012063
-0.758334
0.146296
-0.500260
0.959324
-0.138360
0.568903
-0.187710
-0.232178
-0.994745
-0.211509
0.842092
0.026786
0.882783
0.437538
0.974811
-0.201678
0.065312
0.508765
-0.818872
0.131782
-0.641079
-0.493225
-0.286011
0.223957
0.601411
0.327614
-0.229705
-0.161891
-0.383562
-0.168553
0.984526
-0.582540
0.254018
-0.289808
-0.459569
0.561531
-0.425866
-0.565439
-0.756018
-0.322652
-0.815922
0.181363
0.122804
-0.546394
0.831801
-0.488580
0.127909
0.911123
-0.952196
-0.297687
0.914042
0.446634
0.579021
0.801562
0.230456
0.350495
-0.688338
-0.900660
0.193524
-0.488950
0.120004
-0.285958
-0.263439
-0.115088
-0.782082
0.992516
0.082003
0.143188
-0.182217
0.732450
0.836791
0.895307
0.453016
0.211397
0.685068
0.541169
0.839969
-0.407539
-0.448659
-0.343158
-0.945752
-0.063792
0.826638
-0.077558
-0.714821
0.781539
0.927263
-0.040919
0.925932
0.430880
-0.940541
-0.421136
-0.929009
0.701826
-0.616636
-0.432529
-0.866200
-0.874024
0.698405
0.281299
-0.434765
-0.814227
-0.180451
0.420355
0.797116
0.338069
-0.188226
-0.027791
0.468678
0.636677
0.270992
0.022485
0.614791
0.459147
-0.832641
0.054054
-0.394574
0.532171
0.176265
-0.155536
0.194170
-0.545810
-0.340914
-0.902771
-0.975938
-0.480514
0.140162
0.908838
-0.886122
-0.761998
-0.660063
-0.209292
-0.720205
0.882047
-0.781433
0.189499
-0.824419
0.903201
-0.836201
-0.431140
0.449482
0.529977
0.593505
0.633695
-0.838789
-0.784389
0.724399
0.457468
-0.687173
0.154144
0.036692
0.792450
0.081050
-0.277287
0.359169
-0.602905
-0.665065
-0.448105
-0.066989
0.684376
-0.501804
0.049361
0.879772
-0.435861
0.781895
-0.324256
0.585770
0.556962
0.237078
-0.613095
0.760608
-0.919309
0.055398
0.048405
-0.481893
-0.454643
-0.488395
0.049483
0.435704
-0.596642
0.312976
0.823502
-0.527345
0.299885
-0.021225
-0.684640
0.185849
0.821993
0.528962
0.657099
0.903155
-0.069358
0.161417
-0.221698
-0.001283
0.532058
-0.968678
0.004097
0.465122
0.963540
-0.342078
-0.576859
-0.342341
-0.952294
0.780545
-0.801445
-0.655115
0.100124
-0.070832
0.972428
0.680478
0.411008
-0.678590
0.472964
-0.083455
0.934617
-0.204162
0.397658
0.142398
0.957502
-0.437028
-0.581372
-0.310971
-0.826391
-0.975490
-0.042511
0.347355
0.916678
0.855276
-0.161652
-0.399591
-0.757064
0.433951
0.334721
-0.540377
-0.252481
0.254980
0.012953
0.842094
0.271218
-0.556318
-0.562120
-0.649357
0.004560
-0.604781
-0.194679
-0.382081
-0.575036
-0.351401
-0.648730
0.066731
0.224066
-0.877862
-0.312223
0.622943
0.841757
0.821527
-0.605323
0.571513
0.196056
0.898655
0.666017
0.407606
0.578011
0.547449
0.640478
-0.910758
0.708558
-0.061348
-0.393252
-0.897063
0.769588
0.905773
-0.095658
0.169927
0.915341
-0.160272
0.550499
0.498088
-0.207079
0.422628
-0.727822
-0.314547
-0.335694
0.093850
0.968809
0.291314
-0.547217
0.018839
-0.105502
-0.206701
-0.329577
0.911906
-0.213321
-0.041467
-0.365063
-0.040624
0.903166
-0.034406
-0.295901
0.436824
0.437253
0.117238
-0.792266
-0.915857
-0.743719
0.590330
0.881043
0.690570
0.090362
-0.374488
0.982758
0.954742
-0.432352
0.463601
0.891892
-0.941236
0.035933
-0.272466
-0.746493
-0.974424
0.999805
-0.884153
0.485338
-0.852092
-0.651895
0.309941
0.727603
0.700750
0.004779
0.891311
-0.593104
0.290141
-0.852778
-0.310258
-0.837935
0.468458
0.264490
0.837095
-0.324506
-0.543858
0.371662
0.453196
-0.929051
0.843721
0.575704
0.019590
-0.891443
-0.084287
-0.727068
-0.942031
-0.591601
-0.725558
-0.396770
0.786444
0.124965
0.735095
0.913754
-0.807517
0.007490
0.190953
0.616768
0.909176
0.056434
-0.613801
0.269942
0.937035
-0.264354
-0.900614
-0.388642
0.262834
-0.631585
-0.422238
0.686463
-0.991979
0.355107
0.358679
0.396043
0.317988
-0.745411
-0.894297
0.071275
0.485982
0.278539
0.948382
-0.035353
-0.007659
-0.582207
0.972598
0.668732
0.531616
0.562428
-0.662484
0.340811
0.360762
-0.739804
0.524061
-0.387240
-0.555082
0.075634
-0.716940
0.107269
0.842076
-0.966481
-0.111051
0.380747
-0.357136
0.704720
0.570124
0.491240
0.977907
-0.627079
0.117188
0.994055
0.696659
0.820223
-0.178771
-0.251544
0.912514
-0.693248
0.662947
-0.244356
-0.026648
-0.048810
-0.700770
-0.876170
-0.651832
-0.058708
0.655867
0.159523
-0.810945
0.867656
-0.510415
0.846272
0.850026
-0.672816
-0.965654
0.168788
0.861995
0.283124
-0.525367
-0.965940
0.527657
-0.043010
-0.024697
0.557123
0.244566
0.541920
0.485994
0.244258
-0.576458
-0.522071
-0.784768
-0.587160
0.999572
-0.232134
-0.327592
0.726964
0.228245
0.746262
0.861337
-0.336190
0.107130
0.999228
-0.081398
0.896178
-0.917343
-0.214444
0.277521
0.019881
-0.174099
-0.976873
0.877609
-0.870104
-0.878588
0.143884
-0.414739
0.783390
0.301786
-0.394518
-0.985089
-0.393847
-0.045590
0.298982
0.656525
-0.607070
0.964056
0.352092
0.469093
-0.343191
0.306232
-0.251614
-0.200964
-0.808449
-0.204514
0.581429
0.392222
-0.152860
0.498566
-0.944178
-0.902588
-0.183750
0.034029
-0.700764
-0.676729
0.595885
0.854300
-0.502639
0.216567
0.014766
-0.192297
-0.546284
-0.851112
0.351159
-0.235644
-0.217359
-0.200457
-0.760369
-0.471183
0.756709
-0.839242
-0.319159
-0.334999
-0.912234
-0.808254
0.797692
-0.321399
-0.884712
-0.056920
-0.930345
-0.731140
0.540241
-0.832435
0.265165
0.584642
-0.719846
0.262518
0.574591
-0.832098
0.386059
0.295438
0.498556
0.903322
0.869051
-0.416926
-0.201764
-0.629130
-0.907418
-0.054855
-0.091045
-0.992217
-0.690539
0.212696
-0.740728
0.636550
-0.838663
0.680353
-0.519407
-0.703410
-0.781832
0.528474
-0.938822
-0.459224
-0.776080
0.803590
-0.958742
0.433477
-0.571462
0.998486
0.866111
0.681557
-0.113702
-0.548499
-0.058734
-0.094779
-0.635880
0.096721
-0.898271
0.804549
0.212162
0.128627
-0.215893
-0.257248
-0.004832
-0.181771
-0.892340
0.251530
0.439810
-0.604347
-0.970291
0.613122
0.814464
0.135852
0.185072
-0.305088
0.501163
-0.761676
-0.687158
0.285641
0.487078
0.817652
-0.265394
0.597000
-0.087007
-0.359381
0.684244
0.908676
-0.451555
-0.483342
0.099051
0.279249
-0.059015
0.285577
-0.367307
-0.678337
-0.271930
0.478103
-0.760845
-0.104171
-0.869565
-0.440772
0.388343
0.973479
-0.772036
-0.874689
-0.805011
0.968882
0.367569
-0.043657
0.012247
0.261476
-0.115956
0.218335
0.852767
-0.654896
0.372061
-0.570808
0.881092
0.693462
-0.312203
0.086804
-0.397714
0.630658
-0.577581
0.059778
-0.870626
0.103876
-0.977168
0.100413
0.331669
-0.561268
0.654951
-0.496144
-0.485779
0.696387
0.664673
0.108385
0.562978
-0.307328
0.476403
-0.090325
0.821120
-0.710100
0.601439
0.974301
-0.673992
0.351974
-0.362215
-0.883593
0.822089
0.116517
0.862761
0.868034
-0.386013
0.671900
-0.287278
0.124540
-0.641743
-0.867602
