-0.332925
0.208710
-0.108045
-0.691544
-0.052633
-0.770749
-0.941908
-0.070091
-0.783140
0.004846
-0.448439
0.556117
0.375695
-0.680585
0.579109
-0.086674
-0.330345
0.477453
-0.916647
-0.111712
-0.270984
0.084010
0.739280
0.280596
-0.962471
0.863923
0.407082
0.946784
0.910544
-0.109298
-0.958422
-0.422381
-0.900587
-0.066468
-0.113925
0.046780
0.162784
-0.055832
0.976688
0.379643
0.949014
-0.471751
-0.064239
0.324709
-0.152335
-0.485130
-0.761965
0.517319
0.992323
-0.678613
-0.594392
-0.278660
0.405397
-0.855113
-0.998065
0.442926
-0.991190
0.409018
0.389710
0.919354
-0.700280
0.431288
-0.503026
-0.600867
-0.635180
0.383049
0.445912
0.527604
-0.672783
0.422601
-0.092753
-0.723769
0.950850
0.843008
0.600939
-0.201486
-0.642122
0.838974
-0.684166
-0.649798
-0.839639
-0.278559
0.071541
0.565758
-0.133671
0.073476
0.008684
-0.124861
-0.517506
-0.601606
-0.205506
-0.217786
0.829682
0.291467
0.181347
-0.805497
-0.325484
-0.372741
0.722107
0.001733
-0.950140
-0.370646
0.277963
-0.999291
-0.527638
-0.121097
-0.200776
-0.169759
-0.282123
0.115058
0.180442
-0.121762
0.836499
-0.748017
-0.556004
-0.297172
0.325460
0.452680
0.577968
0.807954
0.851074
-0.627539
-0.409832
0.680756
0.663928
0.771515
0.875259
-0.661555
-0.601226
0.597366
0.340177
-0.551366
-0.773280
-0.381859
-0.550657
-0.300918
0.497043
0.248567
0.529323
-0.785080
-0.636375
-0.290235
0.093158
-0.799876
-0.038252
0.537154
-0.097048
-0.712792
-0.010167
-0.519080
-0.904838
-0.159093
-0.146619
-0.314670
-0.478337
-0.482690
-0.543156
-0.603078
-0.144246
-0.144381
0.994288
-0.804068
