-0.557800
0.890492
0.137192
-0.563743
-0.268684
0.429551
-0.045635
-0.358258
-0.368079
-0.365891
0.122933
0.619438
0.504569
-0.982501
0.518339
-0.024573
-0.483499
-0.646646
-0.172201
-0.447661
-0.057445
0.206782
-0.711969
0.082353
0.705598
0.637374
-0.116725
0.424781
-0.174080
0.879966
0.984893
0.268120
0.770458
0.122085
0.704377
-0.498226
-0.448364
-0.341258
0.143516
0.183557
0.292851
-0.733552
-0.197005
-0.202581
-0.716053
-0.678666
0.772846
-0.199552
-0.325312
-0.399355
0.352787
0.617242
0.807426
0.640818
-0.300404
0.513025
0.278192
0.582870
-0.062194
-0.895889
0.462836
-0.077301
0.372231
0.233294
-0.955216
0.076608
0.735068
-0.403580
0.735350
-0.121416
0.779977
0.028201
0.145032
-0.417028
0.825621
0.428979
-0.095695
0.598467
-0.770573
0.578993
-0.800888
0.582215
0.196235
-0.993462
0.223033
0.895831
0.519563
-0.498776
0.478701
-0.542631
-0.394665
-0.058463
0.380067
0.977566
-0.825169
0.424851
0.054175
0.909899
-0.978729
-0.210475
-0.211517
0.801247
0.817726
0.933515
-0.615781
0.643347
0.362494
0.288524
0.241814
0.591922
-0.132483
0.440925
0.174137
-0.936247
0.447463
-0.602831
0.959583
-0.032974
-0.101607
0.438285
0.424395
0.503728
-0.620178
-0.195538
0.481295
-0.445347
-0.770687
-0.464531
-0.535448
-0.749416
0.324994
0.253034
-0.948169
0.142721
0.186549
-0.563950
-0.213933
-0.450957
0.724574
-0.972119
-0.859035
-0.407909
0.468806
0.315102
-0.344156
-0.083730
0.712271
-0.384573
0.883295
-0.389336
-0.946288
0.307690
-0.885608
-0.566466
-0.887848
0.595687
-0.011813
-0.658535
-0.868844
0.452739
-0.407951
0.456150
